-2.864879369735717773e-02
3.191820159554481506e-02
6.585917621850967407e-02
-7.076805830001831055e-02
1.025656051933765411e-02
9.797701612114906311e-03
-4.372837021946907043e-02
-7.070515304803848267e-03
1.949873566627502441e-02
6.038082018494606018e-02
-4.602162912487983704e-02
2.111941203474998474e-02
-1.468312088400125504e-02
4.596399888396263123e-02
-1.775528863072395325e-02
4.971212893724441528e-02
5.826437100768089294e-02
-2.105196565389633179e-02
-2.947159809991717339e-03
8.108392357826232910e-04
-5.876808986067771912e-02
1.179226115345954895e-02
-2.075596340000629425e-02
1.532030641101300716e-03
-4.821321740746498108e-02
-1.534697832539677620e-03
1.490845810621976852e-02
2.558071725070476532e-02
-2.092102169990539551e-02
7.005170732736587524e-02
-2.387806959450244904e-02
5.884267389774322510e-02
3.766831383109092712e-02
-3.121704794466495514e-02
4.780010506510734558e-02
-2.992572262883186340e-02
3.343759104609489441e-02
-7.498909719288349152e-03
2.341133542358875275e-02
4.962718114256858826e-03
5.790919065475463867e-03
1.205542124807834625e-02
-2.162784524261951447e-02
-3.192185238003730774e-02
-2.385627105832099915e-02
-2.149361558258533478e-02
-3.297739475965499878e-02
3.464528918266296387e-02
4.406182095408439636e-02
-9.136338718235492706e-03
4.699917975813150406e-03
4.169981554150581360e-02
4.818959906697273254e-02
-4.762033000588417053e-02
4.906011745333671570e-02
2.086569182574748993e-02
6.543691456317901611e-02
-1.206931378692388535e-02
-1.806817017495632172e-03
-2.159830369055271149e-02
3.075765818357467651e-02
-4.422906413674354553e-02
1.324936561286449432e-02
-6.035042181611061096e-02
-3.030567057430744171e-02
3.633220493793487549e-02
-3.225041180849075317e-02
2.477546781301498413e-02
-4.360801726579666138e-02
-1.300931721925735474e-02
5.982878617942333221e-03
-1.485762465745210648e-02
1.359030697494745255e-02
-1.942646875977516174e-02
5.005042254924774170e-02
5.047538131475448608e-02
5.828422307968139648e-02
1.005128771066665649e-02
-4.163754731416702271e-02
-6.552909966558218002e-03
-1.154369954019784927e-02
-7.534154690802097321e-03
5.185482650995254517e-02
-2.673652209341526031e-02
7.449552416801452637e-02
5.693894345313310623e-03
1.658346503973007202e-02
-1.476926822215318680e-02
-1.735614985227584839e-02
7.017824798822402954e-02
3.770343214273452759e-02
2.977051027119159698e-02
5.221225693821907043e-02
-3.500486537814140320e-02
2.995819784700870514e-02
4.179955646395683289e-02
-4.924064502120018005e-02
1.181083451956510544e-02
3.971722722053527832e-02
1.233217958360910416e-02
-8.848346187733113766e-04
-2.183070220053195953e-02
5.861661210656166077e-02
-2.144682221114635468e-02
4.830046370625495911e-02
2.376556582748889923e-02
6.814747303724288940e-02
2.874919213354587555e-02
4.887605085968971252e-02
-4.422280937433242798e-02
5.033932998776435852e-02
4.603473469614982605e-02
1.154490374028682709e-02
1.893705315887928009e-02
7.204582542181015015e-02
7.917126640677452087e-03
2.969448082149028778e-02
8.132782764732837677e-03
5.094491317868232727e-02
1.666665449738502502e-02
-1.629998348653316498e-02
-2.518803812563419342e-02
3.995380178093910217e-02
3.237502276897430420e-02
-7.136773783713579178e-03
-3.617937117815017700e-02
4.003982618451118469e-02
-3.243242949247360229e-02
-5.121894180774688721e-03
-2.653295174241065979e-02
-3.628027811646461487e-02
-9.229190647602081299e-03
1.603207923471927643e-02
-7.532618474215269089e-03
3.079949505627155304e-02
-3.529428318142890930e-02
4.921134561300277710e-02
-4.155109822750091553e-02
2.646983601152896881e-02
-2.992688678205013275e-02
-5.249109119176864624e-02
7.115036249160766602e-02
7.356076687574386597e-02
-4.771286249160766602e-02
4.125836864113807678e-02
1.407250855118036270e-02
-2.329170703887939453e-03
4.826872795820236206e-02
-1.500372192822396755e-03
2.302102185785770416e-02
-3.067934699356555939e-02
2.059327997267246246e-02
3.258499503135681152e-02
3.955290839076042175e-02
-9.544521570205688477e-03
7.814483344554901123e-02
-3.576957061886787415e-02
1.735687442123889923e-02
-3.287811763584613800e-03
-3.202651441097259521e-02
3.513159602880477905e-02
1.132063660770654678e-02
-2.060133963823318481e-02
1.153116114437580109e-02
-1.205965527333319187e-03
-4.061006382107734680e-02
-1.419294998049736023e-02
1.128554437309503555e-02
-1.381811033934354782e-02
5.989013239741325378e-02
-5.409339442849159241e-03
3.347177058458328247e-02
-1.769159920513629913e-02
5.845819041132926941e-02
3.858977183699607849e-02
-4.876633640378713608e-03
4.227454960346221924e-02
6.803531665354967117e-03
3.746532648801803589e-02
3.056155517697334290e-02
3.755228966474533081e-02
-1.684495992958545685e-02
-2.822335995733737946e-02
8.015822619199752808e-03
1.028425409458577633e-03
-1.311542838811874390e-02
1.485669985413551331e-02
-5.198721215128898621e-02
-1.780600287020206451e-02
-1.909727416932582855e-02
6.912736594676971436e-02
3.155918419361114502e-02
6.162371113896369934e-02
1.094576902687549591e-02
5.127148702740669250e-02
1.802271232008934021e-02
2.528644911944866180e-02
-2.340838313102722168e-02
3.938769549131393433e-02
4.781331121921539307e-02
-1.852614991366863251e-02
-2.425685897469520569e-02
4.018167778849601746e-02
-9.429074823856353760e-03
-3.328033164143562317e-02
2.766892500221729279e-02
1.087563391774892807e-02
4.735512658953666687e-02
1.931543461978435516e-02
2.298965305089950562e-02
1.144850067794322968e-02
7.295559346675872803e-02
2.767752856016159058e-02
-4.245847463607788086e-02
9.063744801096618176e-04
3.006506711244583130e-02
2.427127212285995483e-02
6.934436410665512085e-02
-2.932273410260677338e-02
-1.125712320208549500e-02
3.050466254353523254e-02
-1.938299275934696198e-02
4.545393958687782288e-02
4.288309440016746521e-02
7.317189872264862061e-02
-1.620367541909217834e-02
6.045618653297424316e-02
2.435913868248462677e-02
1.054335199296474457e-02
4.448276385664939880e-02
-2.974640764296054840e-02
5.694048479199409485e-02
3.367041796445846558e-02
-1.225937157869338989e-02
1.248597633093595505e-02
3.684416040778160095e-02
3.617689013481140137e-02
3.179015219211578369e-02
6.394144147634506226e-02
-1.784741692245006561e-02
-2.007078006863594055e-02
1.240667048841714859e-02
-5.255330726504325867e-02
2.559984102845191956e-02
-2.579825744032859802e-02
-2.260150015354156494e-02
2.696202136576175690e-02
-1.118236128240823746e-02
4.131781309843063354e-02
-1.542361639440059662e-02
3.580866754055023193e-02
2.960026497021317482e-03
6.688554584980010986e-02
-4.244698584079742432e-02
4.296855628490447998e-02
-3.582476824522018433e-02
2.735131792724132538e-02
9.042778983712196350e-03
6.190713122487068176e-02
2.854074165225028992e-02
4.590643569827079773e-02
4.119480773806571960e-02
4.866358637809753418e-02
5.313180852681398392e-03
3.104401938617229462e-02
1.234535872936248779e-02
2.468423545360565186e-02
5.949064623564481735e-03
-5.189393088221549988e-02
2.977471984922885895e-02
5.138268321752548218e-02
7.073492556810379028e-02
-1.721424981951713562e-02
1.101886294782161713e-02
7.677458226680755615e-02
-4.560976848006248474e-02
-1.204748824238777161e-02
1.569067686796188354e-02
3.545552864670753479e-02
-2.963040396571159363e-02
-8.357095648534595966e-04
2.184966020286083221e-02
-7.104300428181886673e-03
2.114200405776500702e-02
-2.539620362222194672e-02
-8.766198530793190002e-03
2.478296309709548950e-02
3.686646744608879089e-02
-1.056016050279140472e-02
1.661543175578117371e-02
3.286409424617886543e-03
-1.036177296191453934e-02
-1.067354716360569000e-02
-2.974056452512741089e-02
-8.345776237547397614e-03
3.269032016396522522e-02
2.194258617237210274e-03
-1.104547875002026558e-03
1.256585586816072464e-02
2.768504247069358826e-02
6.762622389942407608e-03
-1.922177895903587341e-02
-4.436937719583511353e-02
-3.326570242643356323e-02
3.554646298289299011e-02
1.100622396916151047e-02
-1.367161143571138382e-02
-3.418347565457224846e-03
1.686725579202175140e-02
1.979574933648109436e-02
-3.945245407521724701e-03
5.918794125318527222e-02
6.038943678140640259e-02
4.432469978928565979e-02
4.215462878346443176e-02
2.342669852077960968e-02
3.904120251536369324e-02
2.175361849367618561e-02
-3.580950573086738586e-02
-8.500913158059120178e-03
5.850671604275703430e-02
-3.602673113346099854e-02
2.780926600098609924e-02
6.891585886478424072e-02
6.841393560171127319e-02
6.061490625143051147e-02
7.160329073667526245e-02
-4.462040215730667114e-02
3.748014196753501892e-02
1.161656808108091354e-02
2.610858902335166931e-02
6.785472482442855835e-02
6.829921621829271317e-04
2.460769191384315491e-02
1.505972724407911301e-02
6.914114113897085190e-03
4.955877363681793213e-02
6.964229047298431396e-02
-2.061227336525917053e-02
-3.972167894244194031e-02
3.935225680470466614e-02
6.388767808675765991e-02
-1.269508060067892075e-02
4.128316789865493774e-02
2.387597970664501190e-02
3.897020965814590454e-02
5.335161834955215454e-02
7.656528800725936890e-02
-5.563996732234954834e-03
-1.066268887370824814e-02
1.632653176784515381e-03
4.374075308442115784e-02
3.937141224741935730e-02
4.867215454578399658e-02
-4.434286151081323624e-03
-4.993220791220664978e-02
-5.890666507184505463e-03
-9.042642079293727875e-03
-2.703078277409076691e-02
3.835779614746570587e-03
3.186216950416564941e-02
-2.753391675651073456e-02
9.804795263335108757e-04
4.177070036530494690e-02
-6.954943761229515076e-03
-7.102798204869031906e-03
1.568244397640228271e-02
5.999101325869560242e-02
-3.501927480101585388e-02
1.477932324633002281e-03
-2.927305921912193298e-02
-8.093811571598052979e-03
2.012444660067558289e-03
2.080561034381389618e-02
-2.272829879075288773e-03
-3.127671778202056885e-03
-1.922187767922878265e-02
3.253729268908500671e-02
-3.105372935533523560e-02
4.395422583911567926e-04
-1.459139771759510040e-02
1.393798156641423702e-03
-1.812613569200038910e-02
3.781525418162345886e-02
4.761708527803421021e-02
1.864565070718526840e-03
1.783937960863113403e-02
1.245613954961299896e-02
9.963251650333404541e-03
3.452821448445320129e-02
-1.463365741074085236e-02
1.058379746973514557e-02
-3.039560653269290924e-02
2.332693710923194885e-02
5.705195665359497070e-02
7.133430987596511841e-02
7.642539683729410172e-03
3.754716366529464722e-03
5.202433094382286072e-02
5.027423612773418427e-04
