-3.474945574998855591e-02
1.321666222065687180e-02
-3.166778087615966797e-01
-2.330507636070251465e-01
-5.969144776463508606e-02
-1.733267307281494141e-01
-2.500229179859161377e-01
-3.000465333461761475e-01
3.334384560585021973e-01
-9.846632927656173706e-02
-2.542151510715484619e-01
-2.127833478152751923e-02
-9.171284735202789307e-02
1.701301187276840210e-01
3.270043432712554932e-01
-3.398592770099639893e-01
-2.172558605670928955e-01
-3.832238316535949707e-01
-1.661602109670639038e-01
-1.884011626243591309e-01
2.483932673931121826e-01
3.891397267580032349e-02
3.122981488704681396e-01
-3.454226553440093994e-01
2.460028082132339478e-01
-8.470698446035385132e-02
-3.338849842548370361e-01
6.420002877712249756e-02
-9.546085447072982788e-02
3.220165371894836426e-01
3.963199257850646973e-01
-2.370027601718902588e-01
2.086955308914184570e-01
2.444668710231781006e-01
-1.543407440185546875e-01
-1.334831714630126953e-01
4.350388348102569580e-01
2.314903736114501953e-01
-3.380350470542907715e-01
-3.361821770668029785e-01
1.956011205911636353e-01
-1.916721612215042114e-01
-2.742536365985870361e-01
-2.161093354225158691e-01
-9.899661876261234283e-03
-1.150681450963020325e-01
3.663218617439270020e-01
3.434383869171142578e-01
2.538233101367950439e-01
-2.169829308986663818e-01
-2.540977895259857178e-01
-3.660314977169036865e-01
-1.790375411510467529e-01
-8.054178208112716675e-03
6.036035344004631042e-02
-4.292881861329078674e-02
-2.927919030189514160e-01
-2.208632975816726685e-02
-1.540973335504531860e-01
1.338338106870651245e-01
5.439062416553497314e-02
-3.329276442527770996e-01
-3.090769648551940918e-01
-7.128690928220748901e-02
-7.753153890371322632e-02
-3.291254937648773193e-01
3.316462635993957520e-01
-2.112790942192077637e-01
6.703820079565048218e-02
-1.075708940625190735e-01
4.864203184843063354e-02
2.682403922080993652e-01
-3.037043511867523193e-01
-3.470842838287353516e-01
-1.435891389846801758e-01
-1.680217534303665161e-01
-3.889438137412071228e-02
-2.031629672273993492e-03
3.467767834663391113e-01
3.967570960521697998e-01
1.603842973709106445e-01
-2.580425329506397247e-02
4.717937111854553223e-02
-3.081209361553192139e-01
2.452323138713836670e-01
3.616400063037872314e-01
-2.008608579635620117e-01
-2.095637321472167969e-01
2.941924929618835449e-01
3.528061807155609131e-01
-2.612698674201965332e-01
4.448596388101577759e-02
-3.063841462135314941e-01
1.105643156915903091e-02
-2.277906537055969238e-01
-2.766084372997283936e-01
2.029259130358695984e-02
-5.016576498746871948e-02
2.331104315817356110e-02
3.643806874752044678e-01
1.828227192163467407e-01
-2.321467846632003784e-01
3.547272384166717529e-01
-3.766099214553833008e-01
-1.208614856004714966e-01
-4.035735428333282471e-01
-2.370544970035552979e-01
-1.142314821481704712e-01
2.364600151777267456e-01
2.977691590785980225e-02
-6.598857045173645020e-02
-1.378297060728073120e-01
-1.346433758735656738e-01
3.281753063201904297e-01
-1.435726433992385864e-01
-3.218570351600646973e-01
-5.915606021881103516e-02
-3.046012818813323975e-01
-3.417063951492309570e-01
3.215447366237640381e-01
-3.443401753902435303e-01
-2.219025790691375732e-01
-3.423195183277130127e-01
-1.980748027563095093e-01
1.509846188127994537e-02
-7.372470572590827942e-03
-1.089717075228691101e-01
1.444416679441928864e-02
-3.964258730411529541e-01
-1.850897967815399170e-01
-2.571832239627838135e-01
-1.196940168738365173e-01
-3.864202797412872314e-01
-2.048691958189010620e-01
-1.468318551778793335e-01
2.083261124789714813e-02
-1.984189450740814209e-01
-3.871615231037139893e-01
-3.789151608943939209e-01
2.890570759773254395e-01
3.417347967624664307e-01
-3.151194751262664795e-01
4.781823977828025818e-02
-1.164325792342424393e-02
-1.809602826833724976e-01
5.619682371616363525e-03
2.374927103519439697e-01
-2.103259116411209106e-01
-1.643662713468074799e-02
-1.106950640678405762e-01
9.856949001550674438e-02
5.970002338290214539e-02
2.922769784927368164e-01
-2.552983462810516357e-01
2.042596638202667236e-01
-3.019902706146240234e-01
1.289436668157577515e-01
-9.920473676174879074e-04
2.016095221042633057e-01
2.282604426145553589e-01
2.779695093631744385e-01
1.804090291261672974e-01
-1.619186848402023315e-01
3.445730805397033691e-01
3.982186913490295410e-01
2.569096982479095459e-01
1.695862561464309692e-01
-6.869658082723617554e-02
-3.046104609966278076e-01
-1.838368773460388184e-01
9.972938150167465210e-02
2.706888876855373383e-02
2.818415164947509766e-01
2.491207867860794067e-01
4.305926859378814697e-01
-2.442099601030349731e-01
2.385891526937484741e-01
-9.457330405712127686e-02
-3.431483805179595947e-01
-9.811884723603725433e-03
4.193649291992187500e-01
4.297515749931335449e-01
1.759211570024490356e-01
1.887196004390716553e-01
-2.037709802389144897e-01
3.747167289257049561e-01
1.931300461292266846e-01
2.138547413051128387e-02
-2.786657400429248810e-02
3.974605798721313477e-01
9.127926081418991089e-02
3.730033934116363525e-01
-1.442715525627136230e-02
-1.705307364463806152e-01
2.695939242839813232e-01
1.243698876351118088e-02
4.787808656692504883e-02
-5.031220614910125732e-02
1.824072301387786865e-01
3.849974274635314941e-01
6.675297766923904419e-02
4.791298136115074158e-02
-1.088084429502487183e-01
-2.732660472393035889e-01
2.393448501825332642e-01
1.361921280622482300e-01
6.983257085084915161e-02
-1.720308363437652588e-01
4.221183955669403076e-01
1.440063416957855225e-01
-4.253426194190979004e-02
2.148293107748031616e-01
-3.512496352195739746e-01
-5.431137233972549438e-02
3.724866807460784912e-01
-2.068757563829421997e-01
4.082187414169311523e-01
3.649170100688934326e-01
1.251990050077438354e-01
-1.974741667509078979e-01
-2.262934744358062744e-01
-2.859726846218109131e-01
4.314432740211486816e-01
-3.208473920822143555e-01
1.031009107828140259e-01
-1.027599126100540161e-01
4.124941229820251465e-01
-1.393569856882095337e-01
-2.867519855499267578e-01
-2.284987568855285645e-01
2.725865505635738373e-02
1.407893002033233643e-01
3.367511630058288574e-01
-1.591422855854034424e-01
-5.880059301853179932e-02
2.475956380367279053e-01
1.886073201894760132e-01
9.402515739202499390e-02
-3.267551660537719727e-01
-2.414651215076446533e-01
-2.060885131359100342e-01
-8.301132172346115112e-02
3.630762994289398193e-01
-1.351544447243213654e-02
-3.373287618160247803e-01
-1.379010826349258423e-02
6.490071862936019897e-02
4.121060483157634735e-03
2.232553958892822266e-01
-5.366149544715881348e-02
3.699128925800323486e-01
2.719821594655513763e-02
3.514079153537750244e-01
2.107386589050292969e-01
-2.044368237257003784e-01
2.194539010524749756e-01
2.538907825946807861e-01
-2.464112490415573120e-01
2.223416045308113098e-02
-3.201506435871124268e-01
2.113113999366760254e-01
1.210900489240884781e-02
2.676011323928833008e-01
-3.140577971935272217e-01
-2.072116173803806305e-02
4.340440034866333008e-01
-5.524362623691558838e-02
3.273441493511199951e-01
-1.024802327156066895e-01
2.648802287876605988e-02
-2.539995312690734863e-01
-2.718806564807891846e-01
-1.377376765012741089e-01
-9.801460802555084229e-02
1.779197007417678833e-01
6.053245067596435547e-02
1.340631246566772461e-01
-3.242837265133857727e-02
2.449508905410766602e-01
8.141817897558212280e-02
1.796088963747024536e-01
-6.061329692602157593e-02
4.719519615173339844e-02
1.917778104543685913e-01
2.216955423355102539e-01
2.701856493949890137e-01
-5.284893140196800232e-02
-3.925223052501678467e-01
-3.764900267124176025e-01
3.843369185924530029e-01
-1.698242872953414917e-01
-1.254134625196456909e-01
-1.599619388580322266e-01
5.776599794626235962e-02
-3.511630892753601074e-01
1.800708174705505371e-01
-2.278167456388473511e-01
1.504256725311279297e-01
3.041879236698150635e-01
3.224821686744689941e-01
1.138489395380020142e-01
-3.400033414363861084e-01
-1.969627141952514648e-01
-1.457846611738204956e-01
4.098145067691802979e-01
-3.888604938983917236e-01
5.874075368046760559e-02
1.743233799934387207e-01
-2.385743260383605957e-01
1.360773593187332153e-01
1.188609451055526733e-01
2.506540715694427490e-01
-3.951317071914672852e-01
-2.178765535354614258e-01
7.938946038484573364e-02
-1.087234839797019958e-01
-8.814869821071624756e-02
-3.331854641437530518e-01
-2.596448957920074463e-01
3.571692109107971191e-01
-5.049045383930206299e-02
-2.218601703643798828e-01
2.641508169472217560e-02
2.572665549814701080e-02
-1.181677952408790588e-01
3.478132933378219604e-02
4.104803800582885742e-01
-1.510433256626129150e-01
-1.414338499307632446e-01
1.385037302970886230e-01
3.972676098346710205e-01
-3.317605853080749512e-01
-2.869393676519393921e-02
-5.241566896438598633e-02
7.428371161222457886e-02
2.197779566049575806e-01
-2.085690498352050781e-01
1.381492912769317627e-01
1.652976423501968384e-01
-7.639292627573013306e-02
1.733498722314834595e-01
-2.633220851421356201e-01
1.241536810994148254e-01
-2.465934157371520996e-01
-1.492317914962768555e-01
1.768717169761657715e-01
6.956917047500610352e-02
-1.990248262882232666e-01
3.620257377624511719e-01
1.741665452718734741e-01
-3.543736338615417480e-01
7.223339285701513290e-03
1.891400068998336792e-01
-3.360377550125122070e-01
-1.852669566869735718e-01
-3.262521326541900635e-02
-1.803732067346572876e-01
1.260095834732055664e-01
3.583033680915832520e-01
-2.765428423881530762e-01
-1.960810571908950806e-01
3.402414917945861816e-01
2.547587752342224121e-01
-2.472942173480987549e-01
2.427297458052635193e-02
-1.886944025754928589e-01
2.458204627037048340e-01
1.953891217708587646e-01
-7.526957988739013672e-02
-3.294237256050109863e-01
-1.027200818061828613e-01
-2.488371580839157104e-01
1.723592728376388550e-02
-3.572601079940795898e-01
-8.449721336364746094e-02
-2.088823914527893066e-01
1.605314910411834717e-01
-7.656811922788619995e-02
-1.809929497539997101e-02
-3.626276552677154541e-01
-1.815755292773246765e-02
2.330899089574813843e-01
3.395596742630004883e-01
1.335031241178512573e-01
-6.373403966426849365e-02
1.254856139421463013e-01
-1.409339606761932373e-01
3.375737071037292480e-01
3.774944245815277100e-01
2.241323888301849365e-01
1.107114106416702271e-01
4.043978750705718994e-01
-8.759922534227371216e-02
3.974108397960662842e-01
3.903232216835021973e-01
3.264713585376739502e-01
1.972349137067794800e-01
-2.376938015222549438e-01
-2.938107252120971680e-01
2.075402587652206421e-01
