3.270582854747772217e-01 4.058707877993583679e-02 3.882448673248291016e-01 -1.072418466210365295e-01 -3.744004666805267334e-01 2.375571876764297485e-01
2.538544833660125732e-01 -2.168832719326019287e-01 1.491238623857498169e-01 3.213605582714080811e-01 1.140049174427986145e-01 1.126656308770179749e-01
2.095125317573547363e-01 -3.055504262447357178e-01 -6.358764320611953735e-02 -3.417082726955413818e-01 -3.620592057704925537e-01 -2.817170917987823486e-01
-1.353197246789932251e-01 -2.749653346836566925e-02 2.900434136390686035e-01 -3.835495114326477051e-01 7.662386051379144192e-04 -2.038521915674209595e-01
-7.899836450815200806e-02 4.041325449943542480e-01 -2.632817625999450684e-01 3.248432278633117676e-01 3.019336760044097900e-01 -2.885948419570922852e-01
1.369814872741699219e-01 -2.012987732887268066e-01 2.515770867466926575e-02 -2.876478433609008789e-01 4.108098745346069336e-01 -5.600977316498756409e-02
-8.488360792398452759e-02 -8.197519183158874512e-02 -6.653850525617599487e-02 1.382750570774078369e-01 -1.766584366559982300e-01 2.434054464101791382e-01
1.979929804801940918e-01 3.226800262928009033e-01 3.515242040157318115e-01 -3.721192777156829834e-01 -2.024092525243759155e-01 -1.360395103693008423e-01
2.896739244461059570e-01 -2.724881470203399658e-01 3.074016869068145752e-01 8.552543818950653076e-02 -2.941847443580627441e-01 3.652665764093399048e-02
1.451364606618881226e-01 -1.010937392711639404e-01 7.292807102203369141e-02 1.931817531585693359e-01 -5.881154909729957581e-02 7.443771511316299438e-02
1.616222113370895386e-01 -2.006762623786926270e-01 3.022903501987457275e-01 1.567471027374267578e-01 3.473535180091857910e-01 1.885098665952682495e-01
-2.648785114288330078e-01 2.858791649341583252e-01 1.309195458889007568e-01 -1.447054743766784668e-02 3.937122821807861328e-01 4.563467949628829956e-02
-2.633699774742126465e-01 -5.298046022653579712e-02 3.424157500267028809e-01 4.167758226394653320e-01 4.015526175498962402e-01 -2.769697904586791992e-01
-1.293023824691772461e-01 2.200907617807388306e-01 3.081129118800163269e-02 -3.405317664146423340e-01 -2.285817116498947144e-01 -3.471809625625610352e-01
-3.761529326438903809e-01 3.019929230213165283e-01 1.019760370254516602e-01 -2.324760705232620239e-01 -1.010690256953239441e-02 -3.167277574539184570e-02
-4.649390280246734619e-02 9.170003980398178101e-02 3.383197784423828125e-01 -1.589123159646987915e-01 2.098923623561859131e-01 -3.779859244823455811e-01
2.527944743633270264e-01 1.279535293579101562e-01 -3.688033819198608398e-01 -1.323034316301345825e-01 -7.810164242982864380e-02 -3.835427463054656982e-01
-1.800317019224166870e-01 -1.476764827966690063e-01 2.690505061764270067e-04 -2.980133891105651855e-01 3.602992296218872070e-01 -2.239353507757186890e-01
1.025542616844177246e-02 3.459859192371368408e-01 3.092129528522491455e-01 4.182493984699249268e-01 4.032538831233978271e-01 -1.876709312200546265e-01
-2.604052126407623291e-01 2.774437665939331055e-01 1.120744124054908752e-01 3.075248375535011292e-02 -2.945524752140045166e-01 -3.191050291061401367e-01
-2.533238753676414490e-02 -5.536011233925819397e-02 -1.323111653327941895e-01 3.506072759628295898e-01 -3.450717544183135033e-03 -2.435692697763442993e-01
-1.364853829145431519e-01 -1.066284701228141785e-01 2.311318069696426392e-01 2.638257741928100586e-01 -2.025336474180221558e-01 -1.855023354291915894e-01
3.215300738811492920e-01 7.773496210575103760e-02 -2.945314347743988037e-01 1.472502946853637695e-01 2.466988116502761841e-01 4.127041995525360107e-01
-3.809578120708465576e-01 2.946776747703552246e-01 3.531612455844879150e-01 -1.745805889368057251e-01 -4.124510884284973145e-01 -3.118000328540802002e-01
3.413142263889312744e-01 -2.444322854280471802e-01 8.834121376276016235e-02 3.446244001388549805e-01 -1.507957875728607178e-01 -2.888146340847015381e-01
2.913702130317687988e-01 3.243298232555389404e-01 2.492910474538803101e-01 -5.299108102917671204e-02 4.145759716629981995e-02 3.382734358310699463e-01
3.860050737857818604e-01 3.157252967357635498e-01 -2.954344153404235840e-01 1.061631068587303162e-01 3.800227940082550049e-01 -2.059127986431121826e-01
1.498030722141265869e-01 7.517220079898834229e-02 3.423531651496887207e-01 2.751429192721843719e-02 1.830437928438186646e-01 3.748828470706939697e-01
-3.610783219337463379e-01 3.965045809745788574e-01 -1.514185667037963867e-01 -2.892869412899017334e-01 2.383943200111389160e-01 -2.404201328754425049e-01
-2.255332097411155701e-02 3.413700759410858154e-01 3.504536151885986328e-01 -1.268887519836425781e-01 2.480376809835433960e-01 -1.567390114068984985e-01
2.778627872467041016e-01 -4.039600864052772522e-02 2.619578838348388672e-01 2.486100494861602783e-01 -3.964799344539642334e-01 -1.343932449817657471e-01
3.587540686130523682e-01 2.282363623380661011e-01 3.412862420082092285e-01 1.037600333802402020e-03 -4.698895663022994995e-02 -2.659023404121398926e-01
-1.985808908939361572e-01 1.065620705485343933e-01 1.612570509314537048e-02 4.113054275512695312e-02 -3.113679587841033936e-01 3.968741595745086670e-01
-1.526321172714233398e-01 -3.539339601993560791e-01 -2.930555939674377441e-01 1.140293926000595093e-01 6.341421604156494141e-02 -3.345988392829895020e-01
-6.956445425748825073e-02 -3.101058602333068848e-01 -2.994847483932971954e-02 -4.119183123111724854e-02 -3.420385122299194336e-01 3.895837813615798950e-02
-4.129339456558227539e-01 -7.501542568206787109e-02 3.982041776180267334e-01 1.783431172370910645e-01 -6.780484318733215332e-02 3.556140065193176270e-01
-1.347257494926452637e-01 1.288846284151077271e-01 2.055471850326284766e-04 -2.912822663784027100e-01 2.273909896612167358e-01 2.318418323993682861e-01
2.105966210365295410e-01 -2.474523186683654785e-01 -6.592423468828201294e-02 -1.213600859045982361e-01 2.339525371789932251e-01 -3.648608624935150146e-01
3.113828599452972412e-01 -5.061181262135505676e-03 7.907796651124954224e-02 2.969450950622558594e-01 1.263337880373001099e-01 3.829795420169830322e-01
2.403836250305175781e-01 2.360320389270782471e-01 -1.547083705663681030e-01 3.672263324260711670e-01 3.481162786483764648e-01 7.374095171689987183e-02
3.883980512619018555e-01 5.030633136630058289e-02 -2.483393996953964233e-01 3.143567442893981934e-01 4.454391542822122574e-03 -3.553479909896850586e-01
-1.139064058661460876e-01 3.063272535800933838e-01 3.219869434833526611e-01 -2.679389119148254395e-01 -2.938696444034576416e-01 -1.213367953896522522e-01
-9.370728582143783569e-02 6.203145161271095276e-02 -2.506881654262542725e-01 -2.993407547473907471e-01 -5.347927659749984741e-02 -2.856808602809906006e-01
4.027767181396484375e-01 -4.213044792413711548e-02 8.549080789089202881e-02 2.259706705808639526e-01 2.182249911129474640e-02 -3.753072768449783325e-02
-2.788047492504119873e-01 3.627255856990814209e-01 -1.492331176996231079e-01 1.423866450786590576e-01 -2.798931300640106201e-01 -2.242743819952011108e-01
4.115625321865081787e-01 -1.085906401276588440e-01 2.179281413555145264e-01 3.014486134052276611e-01 2.456616759300231934e-01 -1.686012595891952515e-01
2.042993903160095215e-03 4.500955715775489807e-02 2.570309937000274658e-01 -2.142946720123291016e-01 -2.434928268194198608e-01 1.151337567716836929e-02
-2.423667907714843750e-01 -2.866925485432147980e-02 1.882567703723907471e-01 -1.334829181432723999e-01 1.650610119104385376e-01 -5.349748209118843079e-02
2.993210256099700928e-01 2.070849984884262085e-01 -1.364935636520385742e-01 4.776457324624061584e-02 2.144614011049270630e-01 -1.306011080741882324e-01
7.796177268028259277e-02 5.881040915846824646e-02 -1.143019199371337891e-01 1.582851260900497437e-01 2.070812880992889404e-01 -1.271942704916000366e-01
-2.729716300964355469e-01 -1.215595081448554993e-01 6.479810923337936401e-02 2.158868163824081421e-01 7.297180593013763428e-02 6.842648237943649292e-02
2.722504436969757080e-01 -2.669075131416320801e-01 1.498921513557434082e-01 3.446516394615173340e-01 1.885031908750534058e-01 2.433979511260986328e-01
2.957759201526641846e-01 4.526978731155395508e-02 -3.326458930969238281e-01 -3.985674381256103516e-01 2.185831815004348755e-01 3.805039227008819580e-01
-4.704724997282028198e-02 -3.266541063785552979e-01 -3.198356926441192627e-01 1.411844044923782349e-01 3.343116343021392822e-01 3.029237091541290283e-01
3.252964317798614502e-01 -5.540097132325172424e-02 3.729156255722045898e-01 -2.310639619827270508e-01 -2.022301256656646729e-01 -3.102653324604034424e-01
3.527545034885406494e-01 -3.292493522167205811e-01 -9.874193370342254639e-02 1.782326102256774902e-01 2.978706657886505127e-01 2.363408207893371582e-01
2.200846225023269653e-01 1.213238313794136047e-01 -7.761047035455703735e-02 -4.016400277614593506e-01 2.601135969161987305e-01 -8.247356861829757690e-02
-6.009465456008911133e-02 -1.025582030415534973e-01 5.007448047399520874e-02 3.886808156967163086e-01 -3.675062954425811768e-01 1.642638891935348511e-01
-2.384724617004394531e-01 -1.878780573606491089e-01 -6.983492523431777954e-02 4.523245152086019516e-03 3.816397786140441895e-01 -4.079143702983856201e-01
3.996748924255371094e-01 -2.348177880048751831e-01 -1.431931853294372559e-01 7.007039338350296021e-02 1.715332716703414917e-01 3.194346129894256592e-01
-6.934984773397445679e-02 -2.314058691263198853e-01 -1.939703077077865601e-01 -2.482935041189193726e-01 4.038475453853607178e-01 -1.855084151029586792e-01
-2.820163965225219727e-01 4.084211587905883789e-01 -7.925736904144287109e-02 -2.540538311004638672e-01 -2.605719268321990967e-01 -2.487013190984725952e-01
-1.908432543277740479e-01 2.566955797374248505e-02 -1.966485083103179932e-01 -1.327965855598449707e-01 -1.015313044190406799e-01 2.294761985540390015e-01
3.738227486610412598e-02 2.543562352657318115e-01 -1.106330230832099915e-01 3.765083104372024536e-02 3.723220527172088623e-01 3.210078477859497070e-01
1.337607502937316895e-01 -4.008319377899169922e-01 -3.227900266647338867e-01 3.281438350677490234e-01 3.965457901358604431e-02 -1.413095891475677490e-01
-3.295309841632843018e-01 3.100185990333557129e-01 3.935167193412780762e-01 4.138146638870239258e-01 -2.601233124732971191e-01 -3.150262236595153809e-01
3.250106573104858398e-01 -1.128035411238670349e-01 9.794169664382934570e-02 2.557577788829803467e-01 3.851300179958343506e-01 3.139100670814514160e-01
3.849541842937469482e-01 -2.266263365745544434e-01 -2.479754686355590820e-01 3.711938560009002686e-01 7.828272879123687744e-02 -3.523517400026321411e-02
-2.961771488189697266e-01 2.795528173446655273e-01 5.844068527221679688e-02 -1.456362195312976837e-02 1.358352452516555786e-01 3.881002664566040039e-01
6.532442569732666016e-02 1.595451533794403076e-01 2.002052962779998779e-01 -2.333366870880126953e-01 2.378441542387008667e-01 3.712887167930603027e-01
-3.662226796150207520e-01 3.214009404182434082e-01 -3.191477656364440918e-01 -6.325637549161911011e-02 -2.730166614055633545e-01 -3.690685927867889404e-01
-2.654401659965515137e-01 -2.461265921592712402e-01 -1.569959223270416260e-01 1.366056054830551147e-01 9.042942523956298828e-02 -4.553706198930740356e-02
-1.996023356914520264e-01 1.668336242437362671e-01 3.909989297389984131e-01 -1.806642413139343262e-01 8.528777211904525757e-02 -3.475712537765502930e-01
-2.287557274103164673e-01 1.033042892813682556e-01 7.966721802949905396e-02 3.020061850547790527e-01 1.507530808448791504e-01 -8.158716559410095215e-02
-1.041287928819656372e-01 3.734382688999176025e-01 -1.390911489725112915e-01 -2.613707780838012695e-01 -4.008592292666435242e-02 4.012536108493804932e-01
7.892899215221405029e-02 4.049082100391387939e-01 -2.677302062511444092e-01 3.711760044097900391e-01 8.325336128473281860e-02 -2.868993580341339111e-01
6.305142492055892944e-02 -1.935009509325027466e-01 -3.699374198913574219e-01 1.058449745178222656e-01 -3.915601670742034912e-01 -4.898542910814285278e-02
-3.007243871688842773e-01 5.641610547900199890e-02 -2.383152991533279419e-01 8.648494631052017212e-02 -2.764154076576232910e-01 -3.722395300865173340e-01
1.486142724752426147e-01 3.633537292480468750e-01 -2.563284337520599365e-01 2.998689711093902588e-01 1.977182924747467041e-01 -7.466565817594528198e-02
1.816522479057312012e-01 -3.073450326919555664e-01 3.022892959415912628e-02 -2.889460623264312744e-01 1.591823995113372803e-01 -1.627207384444773197e-03
-5.159704759716987610e-02 1.093005388975143433e-01 -1.418140083551406860e-01 -3.118810653686523438e-01 2.192144989967346191e-01 2.957988381385803223e-01
-1.077172085642814636e-01 4.059733152389526367e-01 4.120774865150451660e-01 3.629217445850372314e-01 -2.037188559770584106e-01 2.546404004096984863e-01
-2.674761414527893066e-01 3.526875972747802734e-01 5.681916326284408569e-02 -3.741771280765533447e-01 6.935132294893264771e-02 2.304964959621429443e-01
3.073544502258300781e-01 2.640516757965087891e-01 3.085310161113739014e-01 -8.206839859485626221e-02 -1.986991465091705322e-01 2.822687625885009766e-01
-4.103003144264221191e-01 2.802177071571350098e-01 -2.680369913578033447e-01 -3.201867640018463135e-02 9.841657429933547974e-02 -3.349140584468841553e-01
-3.153391778469085693e-01 -2.262943834066390991e-01 -3.761950731277465820e-01 1.555138230323791504e-01 -4.777735844254493713e-02 7.406330853700637817e-02
-1.932356357574462891e-01 2.236476242542266846e-01 2.486745864152908325e-01 -2.739262580871582031e-01 -3.522163629531860352e-01 -3.838806748390197754e-01
3.059984147548675537e-01 1.161627769470214844e-01 3.170855715870857239e-02 1.870826780796051025e-01 2.152065336704254150e-01 1.829624772071838379e-01
3.315487205982208252e-01 3.192349672317504883e-01 -2.690899968147277832e-01 2.448708713054656982e-01 1.288306247442960739e-02 -8.622772991657257080e-03
-1.156923696398735046e-01 -3.349359035491943359e-01 2.549069821834564209e-01 4.080249071121215820e-01 3.296327590942382812e-01 1.608821451663970947e-01
-3.605405986309051514e-01 7.709553837776184082e-02 -3.010554909706115723e-01 -1.526916921138763428e-01 1.993368268013000488e-01 2.090428471565246582e-01
2.758958339691162109e-01 2.102930247783660889e-01 4.883005097508430481e-02 3.854937851428985596e-01 -4.059706330299377441e-01 -1.918784379959106445e-01
4.120417684316635132e-02 5.235862731933593750e-02 3.840804472565650940e-02 4.059439301490783691e-01 3.715686202049255371e-01 1.395087242126464844e-01
-4.040004909038543701e-01 2.697814106941223145e-01 -1.733543872833251953e-01 2.636674642562866211e-01 1.733918115496635437e-02 -4.380005225539207458e-02
2.256404161453247070e-01 -2.990837693214416504e-01 3.420797884464263916e-01 -2.259338051080703735e-01 1.850226670503616333e-01 3.044924139976501465e-01
3.759918212890625000e-01 -9.842606261372566223e-03 -2.356448620557785034e-01 -1.461694240570068359e-01 -3.202883005142211914e-01 -1.948158442974090576e-01
-5.356424674391746521e-02 1.347363442182540894e-01 1.125854626297950745e-01 1.457877308130264282e-01 -3.044807910919189453e-01 6.267398595809936523e-02
3.227843940258026123e-01 2.613801881670951843e-02 2.783013582229614258e-01 3.624380826950073242e-01 1.634100824594497681e-01 -3.054220378398895264e-01
1.456208080053329468e-01 2.480424940586090088e-01 5.989146232604980469e-02 1.365403234958648682e-01 -1.612846106290817261e-01 2.671816349029541016e-01
-1.957812458276748657e-01 -3.989422917366027832e-01 3.966099023818969727e-01 -1.044092886149883270e-02 -2.887269854545593262e-01 3.909852504730224609e-01
-3.686872422695159912e-01 -2.806595563888549805e-01 4.115353226661682129e-01 4.645838215947151184e-02 -2.005198001861572266e-01 -4.572954773902893066e-02
3.584128618240356445e-01 2.388785481452941895e-01 3.357598781585693359e-01 6.176982074975967407e-02 4.086607992649078369e-01 -1.134966835379600525e-01
3.372096456587314606e-03 -1.816670149564743042e-01 1.317586153745651245e-01 -2.839938998222351074e-01 2.448266893625259399e-01 3.290389478206634521e-01
3.216913342475891113e-02 1.139238849282264709e-01 2.495084255933761597e-01 9.769573807716369629e-02 2.923805713653564453e-01 -6.470678746700286865e-02
-2.999150753021240234e-01 1.526222825050354004e-01 -2.887268662452697754e-01 3.235935568809509277e-01 1.160608753561973572e-01 4.596090689301490784e-02
1.330811381340026855e-01 2.486075013875961304e-01 -1.529673784971237183e-01 -3.089761435985565186e-01 -1.841606646776199341e-01 -4.018479287624359131e-01
6.858713924884796143e-02 3.005158388987183571e-03 -2.693118900060653687e-02 4.147175252437591553e-01 -3.513426184654235840e-01 -4.355688765645027161e-02
2.320306152105331421e-01 1.246290430426597595e-01 -3.944165408611297607e-01 -4.348047450184822083e-02 1.571881771087646484e-01 2.596277296543121338e-01
-2.138207852840423584e-01 -2.662836313247680664e-01 -3.688095211982727051e-01 -1.811318546533584595e-01 2.278061062097549438e-01 7.948602735996246338e-02
7.238598074764013290e-03 1.349699497222900391e-01 7.180438190698623657e-02 2.174530774354934692e-01 7.773797214031219482e-02 -2.263701409101486206e-01
-1.470868587493896484e-01 1.190859079360961914e-01 2.772979140281677246e-01 -3.628444075584411621e-01 -3.209693729877471924e-01 3.739359080791473389e-01
2.217816561460494995e-02 -5.921905115246772766e-02 3.675203621387481689e-01 4.327157884836196899e-02 2.143394500017166138e-01 -2.430719882249832153e-01
1.287019699811935425e-01 -2.856324911117553711e-01 1.898178905248641968e-01 -3.235453665256500244e-01 -1.557517796754837036e-01 1.983924657106399536e-01
-3.713465034961700439e-01 2.348652034997940063e-01 -1.369938701391220093e-01 -1.217020377516746521e-01 3.830394446849822998e-01 -2.248418182134628296e-01
3.488464057445526123e-01 3.662344515323638916e-01 9.238032996654510498e-02 4.198745265603065491e-02 1.532970219850540161e-01 -3.478815555572509766e-01
-3.712318241596221924e-01 -3.237031996250152588e-01 2.752094864845275879e-01 -1.275786384940147400e-02 1.275062412023544312e-01 -2.282751500606536865e-01
5.433340743184089661e-02 5.140837281942367554e-02 3.493805229663848877e-01 1.636603325605392456e-01 1.187414079904556274e-01 -4.040805697441101074e-01
-3.226830363273620605e-01 1.587241590023040771e-01 -1.792328059673309326e-01 -1.359597146511077881e-01 2.913081943988800049e-01 2.774474918842315674e-01
2.138826549053192139e-01 2.500224709510803223e-01 2.356638759374618530e-01 -3.940888643264770508e-01 -2.670711278915405273e-01 -1.009003147482872009e-01
-2.932161279022693634e-02 -2.961640059947967529e-01 7.846922427415847778e-02 3.262262940406799316e-01 -4.880280420184135437e-02 2.029509395360946655e-01
-2.364180982112884521e-01 -2.423319220542907715e-01 -1.201909407973289490e-01 8.648407459259033203e-02 -3.063815832138061523e-01 7.869416475296020508e-02
-1.801321059465408325e-01 3.528298437595367432e-02 -8.641781657934188843e-02 -2.657782435417175293e-01 -2.832333445549011230e-01 6.490399688482284546e-02
-1.259236335754394531e-01 3.946529328823089600e-01 -3.271665275096893311e-01 -2.423813045024871826e-01 7.340084761381149292e-02 4.016184210777282715e-01
1.558057665824890137e-01 -1.549586355686187744e-01 2.686354517936706543e-01 1.684506833553314209e-01 2.772493064403533936e-01 -2.328151017427444458e-01
-2.097084224224090576e-01 2.757058143615722656e-01 2.216364741325378418e-01 1.712177693843841553e-01 2.749876677989959717e-01 2.286957055330276489e-01
2.407060563564300537e-01 -1.964199095964431763e-01 2.747218124568462372e-02 2.208609282970428467e-01 -3.566773831844329834e-01 -3.990953862667083740e-01
-4.785631224513053894e-02 -3.468874692916870117e-01 -1.178080141544342041e-01 -2.656499445438385010e-01 -1.157390028238296509e-01 3.687965273857116699e-01
-3.441474735736846924e-01 3.558037802577018738e-02 -3.373138904571533203e-01 2.177565395832061768e-01 7.319795340299606323e-02 3.807416856288909912e-01
1.223690733313560486e-01 2.523355185985565186e-02 -3.030361235141754150e-01 -3.029485642910003662e-01 -5.487689375877380371e-02 -4.892159253358840942e-02
-2.607338316738605499e-02 -2.605583667755126953e-01 5.772292986512184143e-02 -2.442258447408676147e-01 3.135239183902740479e-01 3.131590783596038818e-01
1.549389362335205078e-01 -2.273886352777481079e-01 3.150434792041778564e-01 -2.300607711076736450e-01 7.948433607816696167e-02 1.045757830142974854e-01
8.254805207252502441e-02 1.035264208912849426e-01 -2.931069731712341309e-01 -1.460183560848236084e-01 -4.082703292369842529e-01 -2.069507390260696411e-01
1.450976431369781494e-01 -3.879460394382476807e-01 1.974501907825469971e-01 -2.184648215770721436e-01 -3.016031086444854736e-01 -1.459755469113588333e-02
-1.412291526794433594e-01 3.239587843418121338e-01 1.443002223968505859e-01 -2.625733613967895508e-01 -4.869391769170761108e-02 -8.925168216228485107e-02
-1.324211359024047852e-01 -1.999345868825912476e-01 1.576763689517974854e-01 -3.651570677757263184e-01 -4.443718865513801575e-02 1.527228206396102905e-01
-3.691855072975158691e-01 -1.947920620441436768e-01 -2.032508254051208496e-01 -1.750034540891647339e-01 -3.804322779178619385e-01 3.774805366992950439e-01
-9.551483392715454102e-02 9.081861376762390137e-02 7.944394648075103760e-02 -2.279278934001922607e-01 1.407193243503570557e-01 -2.774196267127990723e-01
3.144963458180427551e-02 -1.682137101888656616e-01 -3.013671636581420898e-01 9.600184857845306396e-02 5.303452536463737488e-02 1.735353618860244751e-01
3.842353224754333496e-01 9.956597536802291870e-02 3.383772075176239014e-01 2.278739809989929199e-01 -6.929039210081100464e-02 1.694968342781066895e-02
2.469066232442855835e-01 2.756124436855316162e-01 -1.631828844547271729e-01 -2.262203246355056763e-01 3.825874030590057373e-01 9.222337603569030762e-02
-3.545246720314025879e-01 8.545419573783874512e-02 1.984235197305679321e-01 1.613233089447021484e-01 -6.333870440721511841e-02 1.543027609586715698e-01
-3.266151249408721924e-01 -1.648578606545925140e-02 3.420759737491607666e-02 6.661270558834075928e-02 1.637903451919555664e-01 1.877243667840957642e-01
2.320340871810913086e-01 3.598727285861968994e-01 -1.480357944965362549e-01 1.338096708059310913e-01 -2.202454507350921631e-01 4.218272268772125244e-01
1.884644292294979095e-02 3.883624672889709473e-01 -3.155367076396942139e-01 -9.242939949035644531e-02 3.345457613468170166e-01 1.427096724510192871e-01
3.907771706581115723e-01 -4.041577577590942383e-01 -2.624379694461822510e-01 -5.666419863700866699e-02 3.648019433021545410e-01 1.388721019029617310e-01
-1.436393857002258301e-01 -2.392182797193527222e-01 4.023405611515045166e-01 -3.062317371368408203e-01 6.198051944375038147e-02 -8.197710663080215454e-02
3.771367073059082031e-01 2.095636278390884399e-01 3.187922835350036621e-01 2.619953155517578125e-01 -3.540668785572052002e-01 -2.824487090110778809e-01
9.485954791307449341e-02 6.313018035143613815e-03 1.774728149175643921e-01 -8.979660272598266602e-02 1.287229210138320923e-01 -4.003946483135223389e-01
-4.035484045743942261e-03 -6.710452586412429810e-02 7.167435437440872192e-02 3.618215918540954590e-01 -3.478113710880279541e-01 -7.567606121301651001e-02
2.966787815093994141e-01 -1.447322964668273926e-01 1.943739950656890869e-01 2.252370268106460571e-01 -1.128086373209953308e-01 -5.205973982810974121e-03
1.109384298324584961e-01 1.613796800374984741e-01 -2.197690904140472412e-01 -1.790861338376998901e-01 1.710501015186309814e-01 -5.503764841705560684e-03
-1.673929691314697266e-01 3.936947584152221680e-01 -2.212789356708526611e-01 3.049340844154357910e-01 2.113657742738723755e-01 9.369156509637832642e-02
3.814230561256408691e-01 1.826549321413040161e-01 -3.002856299281120300e-02 3.770975172519683838e-01 -8.156865090131759644e-02 7.441820949316024780e-02
5.066880583763122559e-02 -1.678633503615856171e-02 2.413561791181564331e-01 -2.033481933176517487e-02 1.071861162781715393e-01 -9.597016125917434692e-02
5.876161530613899231e-02 3.665571510791778564e-01 8.747199922800064087e-02 -1.926202178001403809e-01 3.230364322662353516e-01 4.195102155208587646e-01
2.195921540260314941e-02 4.023737013339996338e-01 -1.153938770294189453e-01 -5.567442253232002258e-02 8.612689375877380371e-02 9.946478903293609619e-02
1.925253868103027344e-01 -1.246770694851875305e-01 -3.926048576831817627e-01 -4.052586555480957031e-01 9.973337501287460327e-02 -3.590285181999206543e-01
2.779377400875091553e-01 1.245019063353538513e-01 -6.743384897708892822e-02 2.835969030857086182e-01 -2.808490097522735596e-01 -2.077368199825286865e-01
2.217388302087783813e-01 -3.590528964996337891e-01 8.701807260513305664e-02 -8.602656424045562744e-02 -3.321653902530670166e-01 -3.877582550048828125e-01
-3.299326300621032715e-01 2.842390835285186768e-01 2.240212708711624146e-01 2.318091690540313721e-01 3.961609005928039551e-01 -2.189848199486732483e-02
3.493979871273040771e-01 1.879293769598007202e-01 3.097515404224395752e-01 -3.499941825866699219e-01 -3.461979329586029053e-01 3.038494288921356201e-01
2.692692279815673828e-01 2.824358046054840088e-01 -3.903599977493286133e-01 -2.068749219179153442e-01 9.009435772895812988e-02 1.040442194789648056e-02
-3.565367758274078369e-01 3.081297576427459717e-01 3.108439743518829346e-01 -1.090124025940895081e-01 -1.690879315137863159e-01 -1.356951594352722168e-01
1.141787692904472351e-01 2.364469319581985474e-01 -2.544121742248535156e-01 2.291324138641357422e-01 1.755868494510650635e-01 1.197453886270523071e-01
7.556378096342086792e-02 1.988692134618759155e-01 -3.598169982433319092e-01 -3.180495277047157288e-02 -3.400054872035980225e-01 3.175572752952575684e-01
2.185749709606170654e-01 -2.190361022949218750e-01 3.321396112442016602e-01 -1.234322413802146912e-01 2.176012247800827026e-01 -1.144009679555892944e-01
3.829587623476982117e-02 1.270280629396438599e-01 -3.952220380306243896e-01 4.006115198135375977e-01 3.389015197753906250e-01 7.098291814327239990e-02
-3.432674109935760498e-01 2.750921845436096191e-01 2.167189419269561768e-01 1.084884852170944214e-01 -2.909417031332850456e-03 1.284559722989797592e-02
-1.458784639835357666e-01 -7.783414423465728760e-02 -9.399057924747467041e-02 -1.989143341779708862e-01 2.210934013128280640e-01 -3.328545019030570984e-02
-3.552311062812805176e-01 2.630699574947357178e-01 -1.686078161001205444e-01 -2.864090204238891602e-01 4.627938568592071533e-02 1.301168203353881836e-01
2.864325344562530518e-01 -6.197556853294372559e-02 -3.893425464630126953e-01 -3.655794560909271240e-01 -8.523725718259811401e-02 2.323418110609054565e-01
1.863944530487060547e-02 3.161586821079254150e-01 -2.348594516515731812e-01 4.018906652927398682e-01 -2.999893128871917725e-01 -3.042633235454559326e-01
3.897873461246490479e-01 -2.435092329978942871e-01 1.233308538794517517e-01 4.009778499603271484e-01 3.773907124996185303e-01 -3.400948941707611084e-01
2.645249366760253906e-01 -3.579794466495513916e-01 -9.933610260486602783e-02 2.892029583454132080e-01 6.135277077555656433e-02 3.465026617050170898e-01
2.857612371444702148e-01 -6.264746934175491333e-02 -2.755292654037475586e-01 1.910622715950012207e-01 2.322643995285034180e-01 4.148120880126953125e-01
6.227429583668708801e-02 1.225415766239166260e-01 3.462906181812286377e-01 -3.277861177921295166e-01 2.104108780622482300e-01 3.059529364109039307e-01
3.967089951038360596e-01 -2.035588324069976807e-01 -1.201772168278694153e-01 2.993330061435699463e-01 3.363722264766693115e-01 -3.788343369960784912e-01
3.162784278392791748e-01 -1.031439229846000671e-01 -3.622148931026458740e-01 2.766233682632446289e-01 -1.793988421559333801e-02 3.141158521175384521e-01
9.640010446310043335e-02 2.418109029531478882e-01 2.028250992298126221e-01 2.027657628059387207e-01 -2.601961791515350342e-01 -3.154450654983520508e-01
-6.002835556864738464e-02 1.184999793767929077e-01 -1.656743288040161133e-01 -2.196545153856277466e-01 2.821901813149452209e-02 -4.286245629191398621e-02
3.226910531520843506e-01 2.420892715454101562e-01 5.333765875548124313e-03 -5.944570992141962051e-03 2.481570988893508911e-01 3.746857047080993652e-01
1.011222451925277710e-01 4.259939864277839661e-02 -1.366438120603561401e-01 3.256503343582153320e-01 7.456672936677932739e-02 -1.756560616195201874e-02
2.505020499229431152e-01 -1.755638718605041504e-01 -2.770621478557586670e-01 -3.034881055355072021e-01 -4.923742264509201050e-02 -4.413023963570594788e-02
-3.080710470676422119e-01 2.959206998348236084e-01 -8.658236265182495117e-02 -2.266590148210525513e-01 -1.033405959606170654e-02 1.817479133605957031e-01
2.672839164733886719e-01 8.410415798425674438e-02 -1.574285179376602173e-01 2.027101516723632812e-01 2.252537161111831665e-01 -2.172973155975341797e-01
2.760277986526489258e-01 -3.974209725856781006e-01 3.229948878288269043e-01 -3.622435927391052246e-01 3.085783496499061584e-02 -2.511022686958312988e-01
-3.997482657432556152e-01 -3.770509362220764160e-02 2.911818623542785645e-01 -1.262127328664064407e-02 -3.264340758323669434e-01 3.038001060485839844e-01
3.849626779556274414e-01 -3.146630823612213135e-01 -1.700301170349121094e-01 -1.058586463332176208e-01 -7.626705616712570190e-02 1.222234815359115601e-01
-2.847358286380767822e-01 2.335459589958190918e-01 3.125594854354858398e-01 -5.657720938324928284e-02 -2.184684872627258301e-01 2.086206227540969849e-01
-7.154291123151779175e-02 3.067464232444763184e-01 9.043605998158454895e-03 1.439696992747485638e-03 -1.639151126146316528e-01 2.637982070446014404e-01
8.411589264869689941e-02 -4.082946851849555969e-02 -1.035997569561004639e-01 3.642061948776245117e-01 2.646152488887310028e-02 1.632050573825836182e-01
-3.855132758617401123e-01 1.750793457031250000e-01 3.200766444206237793e-01 -9.145780652761459351e-02 3.570916652679443359e-01 -9.357646852731704712e-02
1.298169940710067749e-01 4.575123265385627747e-02 1.317235082387924194e-01 -1.923922002315521240e-01 -1.965962648391723633e-01 -1.212628260254859924e-01
-2.477670013904571533e-01 -3.286253213882446289e-01 -2.345590144395828247e-01 -4.702840000391006470e-02 -3.769074380397796631e-01 -3.181709945201873779e-01
6.021935120224952698e-02 -3.720529079437255859e-01 2.619953155517578125e-01 -2.183239459991455078e-01 -1.168487966060638428e-02 4.034166038036346436e-01
-1.985564976930618286e-01 2.978666312992572784e-02 -7.315536588430404663e-02 -3.869439959526062012e-01 2.213966101408004761e-01 -1.993462592363357544e-01
2.259818017482757568e-01 1.746000647544860840e-01 -2.717887759208679199e-01 -4.289684817194938660e-03 -2.084464281797409058e-01 -6.540049612522125244e-02
-2.959528863430023193e-01 2.733545601367950439e-01 7.447127997875213623e-02 6.054555252194404602e-02 1.739864796400070190e-01 2.977833449840545654e-01
-1.415452267974615097e-02 4.227872937917709351e-02 -2.438015490770339966e-01 3.096088171005249023e-01 -3.666583299636840820e-01 1.765580498613417149e-03
2.216931730508804321e-01 -3.882334232330322266e-01 -1.413216143846511841e-01 2.025264548137784004e-03 -3.422079607844352722e-02 4.004625678062438965e-01
3.823740035295486450e-02 2.416134178638458252e-01 8.760993182659149170e-02 3.457498848438262939e-01 3.696352243423461914e-01 1.841485053300857544e-01
-1.315951049327850342e-01 -7.394681870937347412e-02 -1.028596330434083939e-02 3.908459842205047607e-01 3.631488084793090820e-01 -1.429051458835601807e-01
1.628076285123825073e-01 -2.595157921314239502e-01 -3.359482809901237488e-02 -2.043783217668533325e-01 3.456676304340362549e-01 1.435745805501937866e-01
3.310853242874145508e-01 -3.971379697322845459e-01 3.405452519655227661e-02 -1.583745032548904419e-01 2.893701791763305664e-01 -1.257163435220718384e-01
3.291805386543273926e-01 -1.747883111238479614e-01 -1.348400413990020752e-01 1.696087419986724854e-01 2.722210288047790527e-01 -4.068178534507751465e-01
3.705890774726867676e-01 -3.098055720329284668e-01 -4.031850099563598633e-01 1.010477393865585327e-01 6.225229054689407349e-02 -3.856739401817321777e-01
-3.171181082725524902e-01 -2.297355048358440399e-02 -3.061031103134155273e-01 -1.529236435890197754e-01 2.391769886016845703e-01 4.066978096961975098e-01
3.368487954139709473e-01 1.729709506034851074e-01 3.671319186687469482e-01 2.334120273590087891e-01 3.158503174781799316e-01 2.300248742103576660e-01
-8.390805125236511230e-02 -2.402839660644531250e-01 5.530354008078575134e-02 2.853905595839023590e-02 1.019898056983947754e-01 4.097077548503875732e-01
-1.463127788156270981e-02 2.924419939517974854e-01 1.234683915972709656e-01 -3.785018920898437500e-01 -2.002986222505569458e-01 3.863542340695858002e-03
-1.466893404722213745e-01 3.888832926750183105e-01 -6.253819447010755539e-03 -3.765671551227569580e-01 1.552787423133850098e-01 2.769414782524108887e-01
-1.190136671066284180e-01 -2.286225110292434692e-01 -9.505667537450790405e-02 -1.050212755799293518e-01 1.038540825247764587e-01 3.695926964282989502e-01
2.288915915414690971e-03 2.021082192659378052e-01 2.447933405637741089e-01 9.627774357795715332e-02 -2.099758982658386230e-01 -3.996807038784027100e-01
2.642592191696166992e-01 1.489283144474029541e-01 3.079094290733337402e-01 6.535848975181579590e-02 4.095173180103302002e-01 3.919313848018646240e-01
1.065520122647285461e-01 1.257765591144561768e-01 1.775185316801071167e-01 2.325665205717086792e-01 -2.515689842402935028e-02 1.256424337625503540e-01
3.110312223434448242e-01 -2.711320519447326660e-01 2.654185295104980469e-01 -6.789727509021759033e-02 -2.831748127937316895e-01 -1.540905833244323730e-01
2.503773272037506104e-01 -2.396448403596878052e-01 -3.655658960342407227e-01 8.452233672142028809e-02 -2.055667638778686523e-01 2.061746120452880859e-01
-1.232407987117767334e-01 -9.081485122442245483e-02 -3.273085355758666992e-01 -1.766954660415649414e-01 -2.392411977052688599e-01 -3.180553317070007324e-01
-3.929505497217178345e-02 3.408603668212890625e-01 3.994320631027221680e-01 -3.058721125125885010e-01 -8.608302474021911621e-02 -3.420197665691375732e-01
-8.470360189676284790e-02 -2.085983306169509888e-01 -6.596677470952272415e-03 -2.911038696765899658e-01 -1.307712644338607788e-01 -4.905960988253355026e-03
-1.585349589586257935e-01 -2.180492728948593140e-01 2.468221262097358704e-02 1.033540908247232437e-02 2.541622817516326904e-01 -2.433784604072570801e-01
2.929776310920715332e-01 -3.119918704032897949e-01 -7.351791486144065857e-03 1.660695821046829224e-01 -3.664186000823974609e-01 -9.660375863313674927e-02
-3.778866492211818695e-03 -1.994480937719345093e-01 3.522583469748497009e-02 2.697585821151733398e-01 -8.250119537115097046e-02 4.057555794715881348e-01
-2.717267274856567383e-01 1.190775111317634583e-01 2.116694152355194092e-01 1.301496103405952454e-02 -3.503952622413635254e-01 8.483273535966873169e-02
-1.412962228059768677e-01 -3.150409758090972900e-01 1.594619601964950562e-01 1.155813112854957581e-01 -2.098112404346466064e-01 -1.129441559314727783e-01
-1.584700942039489746e-01 -1.026549115777015686e-01 3.353078365325927734e-01 1.705882698297500610e-01 1.156531795859336853e-01 -1.371321976184844971e-01
3.081959784030914307e-01 2.490425705909729004e-01 3.045422136783599854e-01 -5.731406807899475098e-02 -3.898762539029121399e-02 4.044273868203163147e-02
-1.451878249645233154e-01 6.057851761579513550e-02 1.942765563726425171e-01 -2.995474934577941895e-01 -9.392657130956649780e-02 1.474309861660003662e-01
5.157292261719703674e-02 -1.470729112625122070e-01 -2.286922745406627655e-02 1.138249114155769348e-01 -2.056840658187866211e-01 -2.630654871463775635e-01
9.039248526096343994e-02 1.643648147583007812e-01 -3.748922646045684814e-01 4.399356245994567871e-02 7.538194209337234497e-02 7.211744785308837891e-02
-1.071630269289016724e-01 2.647570073604583740e-01 -1.680872887372970581e-01 -9.037585556507110596e-02 -1.461350545287132263e-02 -3.096353411674499512e-01
-3.716443777084350586e-01 -3.597757518291473389e-01 5.602464824914932251e-02 1.665311008691787720e-01 1.697422266006469727e-01 -3.281966149806976318e-01
3.137153014540672302e-02 1.034167781472206116e-01 -1.684968769550323486e-01 4.190274178981781006e-01 2.043346315622329712e-01 -1.972239315509796143e-01
-3.667785823345184326e-01 -1.055265963077545166e-02 3.291215896606445312e-01 -3.139424622058868408e-01 -3.502350151538848877e-01 -3.195477724075317383e-01
2.517468631267547607e-01 -3.116012923419475555e-02 1.902460902929306030e-01 -2.000942975282669067e-01 1.183625683188438416e-01 3.929645717144012451e-01
2.249283343553543091e-01 2.128930538892745972e-01 -1.084852293133735657e-01 9.402727335691452026e-02 2.243492454290390015e-01 3.792277574539184570e-01
2.731666527688503265e-02 4.091534614562988281e-01 1.061830446124076843e-01 8.921766281127929688e-02 -2.403806596994400024e-01 2.446153610944747925e-01
-1.366315782070159912e-01 -2.668681740760803223e-01 -3.307578563690185547e-01 9.059841744601726532e-03 -2.570065557956695557e-01 2.523078620433807373e-01
-2.180594503879547119e-01 3.137987852096557617e-01 2.867753505706787109e-01 -1.953297257423400879e-01 3.191176950931549072e-01 -6.390302628278732300e-02
2.897458672523498535e-01 -1.592792198061943054e-02 2.629112601280212402e-01 1.343015134334564209e-01 -6.440066266804933548e-03 1.817355118691921234e-02
2.169470489025115967e-01 2.647909820079803467e-01 -1.515122652053833008e-01 -4.598240554332733154e-02 -1.017340719699859619e-01 4.127842187881469727e-01
3.624125123023986816e-01 2.241214960813522339e-01 3.760229349136352539e-01 2.436880022287368774e-01 -2.775096148252487183e-02 -2.467228025197982788e-01
7.928165793418884277e-02 1.877529472112655640e-01 9.015538543462753296e-02 2.364602833986282349e-01 2.637697756290435791e-01 1.792791485786437988e-01
-9.501516819000244141e-02 -2.127515822649002075e-01 -1.259683370590209961e-01 3.209757506847381592e-01 4.046614170074462891e-01 -1.165693774819374084e-01
-4.172351658344268799e-01 -1.617663949728012085e-01 4.786225408315658569e-02 3.063406646251678467e-01 7.095874100923538208e-02 -1.172294840216636658e-01
3.918804228305816650e-01 3.314718902111053467e-01 3.995323479175567627e-01 1.183560118079185486e-01 -8.859162777662277222e-02 -1.459475457668304443e-01
3.791053965687751770e-02 3.241854906082153320e-01 -2.939063906669616699e-01 -5.943958461284637451e-02 1.835127621889114380e-01 -1.866734474897384644e-01
2.059470564126968384e-01 -1.186698898673057556e-01 1.871371269226074219e-01 -2.817572057247161865e-01 2.501695603132247925e-02 2.685837745666503906e-01
2.861645817756652832e-01 -6.875023245811462402e-02 -1.701529026031494141e-01 -1.786034107208251953e-01 -1.214368939399719238e-01 3.224352896213531494e-01
4.989706724882125854e-02 -1.802718043327331543e-01 -2.585464715957641602e-01 3.802857995033264160e-01 2.010248303413391113e-01 -3.183905780315399170e-01
8.926872164011001587e-03 1.277402937412261963e-01 -6.999923288822174072e-02 -2.505900859832763672e-01 3.193348944187164307e-01 -2.565929889678955078e-01
3.796494305133819580e-01 2.819869816303253174e-01 3.712943792343139648e-01 2.003467679023742676e-01 -3.457155525684356689e-01 1.335612386465072632e-01
-9.719928354024887085e-02 3.033333420753479004e-01 -1.871035844087600708e-01 -1.422615459887310863e-04 3.896627575159072876e-02 4.056134223937988281e-01
1.445935368537902832e-01 -9.357400983572006226e-02 -2.818280756473541260e-01 -3.372963666915893555e-01 1.791117936372756958e-01 3.021998107433319092e-01
1.010439917445182800e-01 -2.539701759815216064e-01 -3.794302046298980713e-01 1.766927354037761688e-02 4.772589728236198425e-02 -1.429834216833114624e-01
-3.831023573875427246e-01 2.837868779897689819e-02 3.852576613426208496e-01 -2.010842412710189819e-01 -2.542317807674407959e-01 4.196429550647735596e-01
3.929352760314941406e-01 -1.102402061223983765e-01 -1.765355914831161499e-01 -7.425349950790405273e-02 1.956373900175094604e-01 3.011762797832489014e-01
-1.813868619501590729e-02 -2.980794310569763184e-01 3.188498318195343018e-01 -2.957031130790710449e-01 -2.187181562185287476e-01 -5.337946489453315735e-02
-5.129826604388654232e-04 -2.103270888328552246e-01 2.452765703201293945e-01 -3.457258343696594238e-01 -3.621058166027069092e-01 3.433776497840881348e-01
-1.185457110404968262e-01 1.308836936950683594e-01 -5.587886646389961243e-02 -3.172950148582458496e-01 3.383234143257141113e-01 1.694026589393615723e-01
1.885994672775268555e-01 -3.314648568630218506e-01 -2.975426018238067627e-01 -1.311842352151870728e-01 -1.895871199667453766e-02 2.082366794347763062e-01
-3.363433778285980225e-01 1.061636209487915039e-01 -2.791212797164916992e-01 2.453930377960205078e-01 4.159130156040191650e-02 3.796584308147430420e-01
-2.435726076364517212e-01 -2.962709665298461914e-01 1.523579210042953491e-01 -2.471841126680374146e-01 3.573913574218750000e-01 3.584356009960174561e-01
1.451491564512252808e-01 1.035617813467979431e-01 2.514452338218688965e-01 3.319443762302398682e-01 1.471428126096725464e-01 -2.442245930433273315e-01
-1.904047280550003052e-01 3.663271665573120117e-01 2.417465448379516602e-01 2.924608290195465088e-01 -1.364104151725769043e-01 -3.822468817234039307e-01
3.959942758083343506e-01 -3.977254927158355713e-01 -3.179046213626861572e-01 -3.709098398685455322e-01 3.556000888347625732e-01 2.823051810264587402e-01
3.786390125751495361e-01 -1.564005464315414429e-01 -2.729308046400547028e-02 4.828687384724617004e-02 -3.792419433593750000e-01 -2.798143029212951660e-01
-3.026917576789855957e-01 -2.425998896360397339e-01 2.759903073310852051e-01 -2.210336029529571533e-01 1.813246458768844604e-01 4.011150598526000977e-01
-4.064293801784515381e-01 2.213017195463180542e-01 -3.981787562370300293e-01 3.739137351512908936e-01 3.784073591232299805e-01 -3.056073784828186035e-01
1.173029392957687378e-01 1.315594762563705444e-01 2.753852866590023041e-03 -2.012326847761869431e-03 -2.498390078544616699e-01 3.104541301727294922e-01
2.295639216899871826e-01 2.746263444423675537e-01 4.229787737131118774e-02 4.087428748607635498e-02 -7.591827213764190674e-02 -1.131550148129463196e-01
3.823613226413726807e-01 2.179272919893264771e-01 9.341143071651458740e-02 2.559015154838562012e-01 -3.549752011895179749e-02 2.163446694612503052e-01
1.022708192467689514e-01 -7.932674139738082886e-03 3.235799074172973633e-01 -2.097783237695693970e-01 -7.474800944328308105e-02 9.944328106939792633e-03
3.802326917648315430e-01 -3.587099537253379822e-02 -3.372869789600372314e-01 -3.996710777282714844e-01 -2.805339097976684570e-01 -1.378998309373855591e-01
1.377848535776138306e-02 -3.375101387500762939e-01 -2.457598149776458740e-01 7.015681266784667969e-02 1.754454374313354492e-01 3.427097797393798828e-01
9.985752403736114502e-02 3.148667812347412109e-01 7.610860466957092285e-02 1.145951077342033386e-01 -1.293736845254898071e-01 -1.545985490083694458e-01
-1.268318295478820801e-01 -1.289285272359848022e-01 -1.333204954862594604e-01 7.585008442401885986e-02 -3.625794351100921631e-01 2.970467209815979004e-01
1.188546121120452881e-01 -1.653080284595489502e-01 -2.569112181663513184e-01 -3.094591200351715088e-01 -1.742410212755203247e-01 -3.076707720756530762e-01
-3.026973009109497070e-01 -8.113650977611541748e-02 3.151458799839019775e-01 -2.345904707908630371e-01 2.836129665374755859e-01 2.620766758918762207e-01
-1.659136861562728882e-01 -7.251190394163131714e-02 2.786213755607604980e-01 -2.367105334997177124e-01 3.454530537128448486e-01 -3.926927149295806885e-01
7.047490775585174561e-02 -1.294321715831756592e-01 1.781958527863025665e-02 3.836017549037933350e-01 3.850778639316558838e-01 -1.716758906841278076e-01
1.291351318359375000e-01 -4.040966928005218506e-02 -6.030359305441379547e-03 4.066681563854217529e-01 -3.286039829254150391e-01 -1.219796836376190186e-01
-1.640799045562744141e-01 -3.695999979972839355e-01 -3.183135092258453369e-01 1.894117891788482666e-01 -2.846027314662933350e-01 7.112915813922882080e-02
-1.567752957344055176e-01 2.926076948642730713e-01 -1.156479194760322571e-01 1.944105029106140137e-01 3.693312406539916992e-01 3.102522790431976318e-01
-1.201221495866775513e-01 2.264155745506286621e-01 1.177474334836006165e-01 -3.883817046880722046e-02 1.244856715202331543e-01 2.979694604873657227e-01
3.101059794425964355e-01 3.102163374423980713e-01 3.876383304595947266e-01 2.422608882188796997e-01 8.182325214147567749e-02 -9.366606920957565308e-02
-1.212764009833335876e-01 -1.432954426854848862e-02 -3.332971632480621338e-01 -1.223523914813995361e-01 3.762885332107543945e-01 1.060981005430221558e-01
3.313259184360504150e-01 3.909941017627716064e-01 8.156207948923110962e-02 1.868584752082824707e-01 3.520426452159881592e-01 -3.140331208705902100e-01
1.012338101863861084e-01 -9.380670636892318726e-02 4.110427200794219971e-01 -1.018946170806884766e-01 -1.441305577754974365e-01 -3.360862433910369873e-01
-1.139017492532730103e-01 3.495093882083892822e-01 -1.311751902103424072e-01 -3.866278529167175293e-01 4.035007208585739136e-02 4.123305380344390869e-01
-5.314297974109649658e-02 1.494084745645523071e-01 -2.550112605094909668e-01 -3.749606907367706299e-01 -3.546343445777893066e-01 1.888706684112548828e-01
-2.759319841861724854e-01 1.384656131267547607e-01 -5.188615247607231140e-02 -1.304415762424468994e-01 2.398472875356674194e-01 -2.345599830150604248e-01
-2.133007943630218506e-01 -3.679457008838653564e-01 -2.641590237617492676e-01 9.818852692842483521e-02 -1.824169456958770752e-01 1.746290363371372223e-02
-3.615470603108406067e-02 -3.111232817173004150e-01 3.578424453735351562e-01 3.723282217979431152e-01 -2.607716806232929230e-02 9.923021309077739716e-03
-3.854994475841522217e-01 3.809236884117126465e-01 -3.634817600250244141e-01 3.558771312236785889e-01 3.215433359146118164e-01 -8.799285441637039185e-02
-5.895635858178138733e-02 1.644168347120285034e-01 -4.009845256805419922e-01 -2.067467430606484413e-03 2.186507135629653931e-01 -3.153872862458229065e-02
-8.441513031721115112e-02 6.708721816539764404e-02 -2.568222284317016602e-01 7.580473273992538452e-02 2.294745892286300659e-01 3.902782201766967773e-01
-1.933039724826812744e-01 1.702283471822738647e-01 3.242991566658020020e-01 3.049828112125396729e-01 -1.229498013854026794e-01 -2.664420902729034424e-01
-1.660827547311782837e-01 2.108087092638015747e-01 1.894133687019348145e-01 4.483390599489212036e-02 1.486003678292036057e-02 -4.096188396215438843e-02
2.735512256622314453e-01 -3.499034643173217773e-01 3.909464180469512939e-01 8.351999334990978241e-03 3.512783348560333252e-01 3.318204730749130249e-02
-1.134190857410430908e-01 -2.435156330466270447e-02 -3.809340894222259521e-01 4.059765636920928955e-01 1.377563923597335815e-01 -5.454510450363159180e-02
-2.112776935100555420e-01 2.222897559404373169e-01 6.574729084968566895e-02 2.132978588342666626e-01 -1.257545799016952515e-01 1.178076937794685364e-01
1.221229135990142822e-01 -2.197990268468856812e-01 -2.745217680931091309e-01 2.255243211984634399e-01 -1.386461257934570312e-01 1.622598469257354736e-01
-3.446274101734161377e-01 -1.973149925470352173e-02 -1.809981167316436768e-01 -1.338749974966049194e-01 -3.905437886714935303e-01 -5.613946542143821716e-02
-3.393553793430328369e-01 -1.892432570457458496e-01 -3.094865977764129639e-01 2.646416723728179932e-01 2.117519825696945190e-01 2.778338193893432617e-01
-3.644797801971435547e-01 3.240368664264678955e-01 1.510488241910934448e-01 8.969810605049133301e-02 -7.801438332535326481e-04 -4.076191037893295288e-02
-1.878619045019149780e-01 -9.888727217912673950e-02 4.003736376762390137e-01 3.391236960887908936e-01 -1.846807897090911865e-01 2.222926467657089233e-01
-1.803891360759735107e-01 -3.128341138362884521e-01 -1.635841131210327148e-01 3.057620227336883545e-01 1.965321302413940430e-01 2.055472284555435181e-01
-2.339962273836135864e-01 3.475334346294403076e-01 1.230345368385314941e-01 -3.875991106033325195e-01 -3.226495981216430664e-01 3.250639140605926514e-01
2.763826251029968262e-01 -3.388343453407287598e-01 1.176757514476776123e-01 2.124349400401115417e-02 -6.194216012954711914e-02 1.845930069684982300e-01
-9.605261683464050293e-02 2.172949314117431641e-01 -1.155047118663787842e-01 -1.269476674497127533e-02 -1.606009304523468018e-01 9.375029802322387695e-02
1.145343631505966187e-01 6.784718483686447144e-03 -2.546995282173156738e-01 3.140909969806671143e-01 1.862501651048660278e-01 -3.472041711211204529e-02
-5.997432023286819458e-02 2.499095350503921509e-01 7.136281579732894897e-02 -1.813426166772842407e-01 6.469508260488510132e-02 -3.513619899749755859e-01
-3.189864754676818848e-01 -1.932342499494552612e-01 -2.654095590114593506e-01 3.835456073284149170e-01 7.017913460731506348e-02 -2.354875802993774414e-01
-4.321504756808280945e-02 -2.158018350601196289e-01 3.474807143211364746e-01 1.215071305632591248e-01 -2.437317967414855957e-01 -3.076894581317901611e-01
1.696282811462879181e-02 1.198159307241439819e-01 3.406048417091369629e-01 -1.713872142136096954e-02 -1.632597297430038452e-01 8.038757741451263428e-02
-2.635416947305202484e-02 3.636396825313568115e-01 4.899172112345695496e-02 -2.851188182830810547e-01 -3.513362407684326172e-01 -2.656664848327636719e-01
1.423155069351196289e-01 -4.865417629480361938e-02 1.688277125358581543e-01 2.628263831138610840e-01 -7.300046086311340332e-02 -3.612918853759765625e-01
-1.821873784065246582e-01 7.552017271518707275e-02 -3.634214401245117188e-01 -8.240503817796707153e-02 3.209346234798431396e-01 1.104749590158462524e-01
1.528784036636352539e-01 -3.327607735991477966e-02 -2.320355027914047241e-01 -3.614692687988281250e-01 -2.275368720293045044e-01 -3.338127732276916504e-01
-3.621564507484436035e-01 2.164071649312973022e-01 -1.411223667673766613e-03 -2.828582525253295898e-01 2.176876068115234375e-01 3.292572796344757080e-01
3.245818316936492920e-01 2.956356406211853027e-01 3.971180319786071777e-01 -2.040413022041320801e-01 -3.524511754512786865e-01 2.399111241102218628e-01
-1.713729500770568848e-01 3.941546976566314697e-01 -6.305100023746490479e-02 1.759294047951698303e-02 3.892647027969360352e-01 1.008299365639686584e-01
-5.844243243336677551e-02 -1.789169386029243469e-02 -3.201282918453216553e-01 1.195247620344161987e-01 3.745686113834381104e-01 7.688380032777786255e-02
-2.866199910640716553e-01 3.488436713814735413e-02 2.957422435283660889e-01 -1.602058857679367065e-01 2.731106877326965332e-01 1.957311630249023438e-01
4.392156004905700684e-02 -3.277019858360290527e-01 4.692215472459793091e-02 4.047587811946868896e-01 9.543398022651672363e-02 9.182421863079071045e-02
-1.461151689291000366e-01 -2.414483428001403809e-01 -2.632973492145538330e-01 3.563518822193145752e-01 -2.103388756513595581e-01 -3.429576754570007324e-01
-3.339590728282928467e-01 6.600756943225860596e-02 2.670800089836120605e-01 3.609705567359924316e-01 1.129420697689056396e-01 -2.353622317314147949e-01
1.828445307910442352e-02 1.192932948470115662e-01 -3.395151579752564430e-03 -1.243137940764427185e-01 3.829529881477355957e-02 -1.286552697420120239e-01
-2.915201485157012939e-01 3.189873695373535156e-01 2.411250621080398560e-01 -1.315687596797943115e-01 1.296345144510269165e-01 4.148104190826416016e-01
2.313224077224731445e-01 3.857672959566116333e-02 1.923959702253341675e-02 2.746290266513824463e-01 3.749702870845794678e-01 6.414411962032318115e-02
3.109212815761566162e-01 3.092137575149536133e-01 3.928061723709106445e-01 -1.959100514650344849e-01 2.821762263774871826e-01 5.054363980889320374e-02
1.121438667178153992e-02 -1.162617430090904236e-01 3.266372904181480408e-02 -8.649616688489913940e-02 2.730036899447441101e-02 -2.560667693614959717e-01
2.511550784111022949e-01 2.999700009822845459e-01 1.872405558824539185e-01 -1.353345811367034912e-01 -3.717249333858489990e-01 2.762041985988616943e-01
-2.563883960247039795e-01 2.317539453506469727e-01 -1.717416942119598389e-01 -1.171683967113494873e-01 -1.022671461105346680e-01 1.602509319782257080e-01
-3.630191087722778320e-01 3.590163290500640869e-01 2.998251914978027344e-01 3.395030274987220764e-02 2.277132496237754822e-02 -4.065625667572021484e-01
-3.821471631526947021e-01 -2.472540438175201416e-01 1.225733757019042969e-01 -2.781679332256317139e-01 -2.837617993354797363e-01 1.580881327390670776e-01
-5.656978487968444824e-02 2.645079195499420166e-01 -1.155759096145629883e-01 6.036776676774024963e-02 4.062493741512298584e-01 -1.497085541486740112e-01
2.219934910535812378e-01 3.046103417873382568e-01 -1.526600718498229980e-01 -3.985420987010002136e-02 -6.075246259570121765e-02 4.124023616313934326e-01
2.105634212493896484e-01 1.220756545662879944e-01 -2.235030978918075562e-01 2.780722081661224365e-01 9.658856689929962158e-02 4.178722500801086426e-01
2.460268735885620117e-01 -1.877480447292327881e-01 -9.075153619050979614e-02 -1.348109990358352661e-01 -2.124399095773696899e-01 -1.568398922681808472e-01
3.168915510177612305e-01 -2.355153709650039673e-01 2.459200471639633179e-01 -1.729878336191177368e-01 -3.436492383480072021e-01 3.622498512268066406e-01
6.157961115241050720e-02 3.430313467979431152e-01 -1.964297592639923096e-01 -1.356393843889236450e-01 3.290332257747650146e-01 -3.548363745212554932e-01
-3.584523499011993408e-01 -3.177901804447174072e-01 3.126267194747924805e-01 -1.825024932622909546e-01 1.827954351902008057e-01 4.861281812191009521e-02
1.371300220489501953e-01 -3.814512193202972412e-01 1.366872340440750122e-01 1.456333249807357788e-01 -3.183111250400543213e-01 5.974854528903961182e-02
3.266296088695526123e-01 3.631057143211364746e-01 5.728072300553321838e-02 3.448173999786376953e-01 -8.740465342998504639e-02 -3.103736042976379395e-01
1.507003903388977051e-01 2.436568439006805420e-01 1.732707321643829346e-01 1.822882890701293945e-01 -1.287704855203628540e-01 -3.249330222606658936e-01
-2.825100719928741455e-01 -3.582232594490051270e-01 2.895152755081653595e-02 -6.788693368434906006e-03 2.739744782447814941e-01 -3.084293305873870850e-01
3.754360377788543701e-01 -2.049108594655990601e-01 1.537560522556304932e-01 2.277083843946456909e-01 -3.887616097927093506e-01 2.029618322849273682e-01
3.291072845458984375e-01 -3.456459939479827881e-01 2.645176649093627930e-01 -1.675287932157516479e-01 7.923528552055358887e-02 -2.011319100856781006e-01
2.754099965095520020e-01 3.946721851825714111e-01 3.693968057632446289e-01 1.927242577075958252e-01 -2.695659995079040527e-01 -2.922402918338775635e-01
-2.246818095445632935e-01 3.867038190364837646e-01 -4.066809415817260742e-01 -3.238361477851867676e-01 -9.104761481285095215e-02 -1.007977221161127090e-02
-1.611357629299163818e-01 8.195359259843826294e-02 -2.359175682067871094e-01 1.277966424822807312e-02 -3.036190569400787354e-01 -2.963660955429077148e-01
-1.410972923040390015e-01 3.152357935905456543e-01 3.209571242332458496e-01 -2.101781517267227173e-01 -6.117513775825500488e-02 2.448832839727401733e-01
8.243971318006515503e-02 4.093444943428039551e-01 5.159516260027885437e-02 -1.373946084640920162e-03 1.345496922731399536e-01 1.722154319286346436e-01
9.877068549394607544e-02 1.193435266613960266e-01 3.049315810203552246e-01 3.203733265399932861e-02 -2.441830039024353027e-01 -2.284197062253952026e-01
2.733422815799713135e-01 1.330821961164474487e-01 2.019347250461578369e-01 1.105120778083801270e-01 1.514553576707839966e-01 -3.323909938335418701e-01
-1.789124123752117157e-02 6.212139036506414413e-03 2.028611898422241211e-01 3.340045213699340820e-01 -1.543075889348983765e-01 1.121508032083511353e-01
3.964172303676605225e-01 1.249605342745780945e-01 -2.947501242160797119e-01 -5.911353975534439087e-02 -4.331773892045021057e-02 -7.257051020860671997e-02
1.501127481460571289e-01 -9.504365921020507812e-02 3.884932398796081543e-01 -3.735705912113189697e-01 5.374027416110038757e-02 1.621206253767013550e-01
-2.097443640232086182e-01 -3.866174817085266113e-02 8.823120594024658203e-02 2.371152639389038086e-01 -2.451335042715072632e-01 3.692578971385955811e-01
3.745663762092590332e-01 2.434282451868057251e-01 -2.415914237499237061e-01 -1.040031239390373230e-01 1.630750745534896851e-01 -9.531658142805099487e-02
3.440973535180091858e-02 1.788339167833328247e-01 2.201248705387115479e-02 -1.650069057941436768e-01 -3.480460047721862793e-01 -3.976753652095794678e-01
-1.767703443765640259e-01 -9.928156435489654541e-02 -3.726328611373901367e-01 -3.908425569534301758e-01 4.023954868316650391e-01 -2.380741983652114868e-01
2.301167994737625122e-01 1.667898297309875488e-01 -3.390168249607086182e-01 2.941676974296569824e-01 -2.752105332911014557e-02 2.256353050470352173e-01
3.414087742567062378e-02 1.511142402887344360e-01 1.417860239744186401e-01 3.340324014425277710e-02 -3.483279347419738770e-01 -3.397421911358833313e-02
-1.037612631916999817e-01 3.316918909549713135e-01 -3.947696983814239502e-01 -2.325601130723953247e-02 3.176389634609222412e-01 1.422730535268783569e-01
2.230989634990692139e-01 2.780780196189880371e-01 -2.833551168441772461e-01 2.571212649345397949e-01 1.202742680907249451e-01 -3.588253855705261230e-01
-3.287636935710906982e-01 -3.374154567718505859e-01 -3.005386888980865479e-01 -1.533649861812591553e-01 -4.959728568792343140e-02 3.089338541030883789e-01
2.368239611387252808e-01 -3.581728339195251465e-01 1.453483253717422485e-01 -3.123378753662109375e-01 -1.285260468721389771e-01 -3.596081584692001343e-02
-2.787351608276367188e-01 3.909135609865188599e-02 2.916193306446075439e-01 2.645452916622161865e-01 2.099420875310897827e-01 -3.833312392234802246e-01
-2.404134124517440796e-01 3.521953523159027100e-01 -3.153220117092132568e-01 2.973257601261138916e-01 1.900489181280136108e-01 -7.522172480821609497e-02
1.180766895413398743e-02 6.006547808647155762e-02 -8.330851048231124878e-02 -2.243534289300441742e-02 -3.603802323341369629e-01 -8.757036179304122925e-02
-2.273252159357070923e-01 -3.194738924503326416e-01 -3.583262264728546143e-01 -4.281304404139518738e-02 2.489923983812332153e-01 5.066920444369316101e-02
2.859517373144626617e-02 -8.956790715456008911e-02 2.318321466445922852e-01 1.338740289211273193e-01 -1.484331786632537842e-01 9.994839318096637726e-03
3.251871168613433838e-01 -2.199574373662471771e-02 1.152393445372581482e-01 2.100040167570114136e-01 2.113176733255386353e-01 2.262721210718154907e-01
-1.161881070584058762e-02 1.056646928191184998e-02 -4.091530740261077881e-01 -3.802652657032012939e-01 3.846857845783233643e-01 -2.796361967921257019e-02
-5.458284541964530945e-02 1.524505019187927246e-01 -2.854180634021759033e-01 2.668733000755310059e-01 3.724769353866577148e-01 -2.364363148808479309e-02
2.749036252498626709e-01 2.805803716182708740e-01 -9.560339152812957764e-02 2.927988767623901367e-02 2.218645215034484863e-01 -3.886922299861907959e-01
-1.214555501937866211e-01 1.669309884309768677e-01 1.650641560554504395e-01 -3.496327400207519531e-01 -7.859099656343460083e-02 2.578783035278320312e-01
-3.008702695369720459e-01 2.085587531328201294e-01 -3.208596110343933105e-01 1.042248010635375977e-01 -5.917403474450111389e-02 1.313370317220687866e-01
-3.807013481855392456e-02 6.649029999971389771e-02 -2.224589698016643524e-02 2.807484567165374756e-01 -1.658896356821060181e-01 2.457705885171890259e-01
-2.314552217721939087e-01 3.018703460693359375e-01 -7.266506552696228027e-02 -2.098127305507659912e-01 1.257196813821792603e-01 -3.198485970497131348e-01
-2.888742983341217041e-01 3.726615309715270996e-01 -1.839470267295837402e-01 1.693298853933811188e-02 -1.272246688604354858e-01 -7.012197282165288925e-03
-2.677393257617950439e-01 2.837671637535095215e-01 1.469257622957229614e-01 -2.250639796257019043e-01 -3.612937033176422119e-01 -2.459643483161926270e-01
7.086284458637237549e-02 1.483482494950294495e-02 3.765931725502014160e-01 1.547148972749710083e-01 2.530721724033355713e-01 3.609063029289245605e-01
3.725267350673675537e-01 1.297131180763244629e-01 -2.111080288887023926e-01 1.850887946784496307e-02 2.743865549564361572e-01 -3.793556094169616699e-01
-2.345223575830459595e-01 1.022210195660591125e-01 -1.839503645896911621e-01 4.205092415213584900e-02 2.475781142711639404e-01 -3.485723137855529785e-01
2.503996789455413818e-01 -1.296222358942031860e-01 -3.747838437557220459e-01 -3.779167830944061279e-01 -2.828282713890075684e-01 -4.369790479540824890e-02
7.874365150928497314e-02 -2.609716653823852539e-01 -6.752194603905081749e-04 -2.624900639057159424e-01 -3.218407556414604187e-02 -2.653810083866119385e-01
2.356829307973384857e-02 2.078777104616165161e-01 4.143223911523818970e-02 8.360081911087036133e-02 1.876142621040344238e-01 3.366860151290893555e-01
-4.462326690554618835e-02 3.208818137645721436e-01 -4.045109748840332031e-01 3.510338813066482544e-02 3.623331189155578613e-01 8.692936599254608154e-02
9.585107117891311646e-02 1.752206534147262573e-01 2.551657259464263916e-01 -1.572014205157756805e-02 2.311372756958007812e-01 -2.288810163736343384e-01
-3.143655369058251381e-03 1.017102971673011780e-01 6.959120929241180420e-02 3.782602250576019287e-01 6.277471035718917847e-02 6.801086664199829102e-02
-3.689234256744384766e-01 1.735697984695434570e-01 -2.079287916421890259e-01 -2.594188414514064789e-02 3.918372690677642822e-01 -9.378953278064727783e-02
-2.495282441377639771e-01 -1.454446837306022644e-02 -2.529841661453247070e-01 -3.013378679752349854e-01 3.365587890148162842e-01 -1.994789242744445801e-01
-5.305262282490730286e-02 2.465584427118301392e-01 -2.049296945333480835e-01 -3.214381933212280273e-01 2.905982732772827148e-01 -1.923101246356964111e-01
-3.480628430843353271e-01 3.492943644523620605e-01 8.854803442955017090e-02 -3.053766489028930664e-01 -2.785701863467693329e-02 -1.533651053905487061e-01
-3.800200819969177246e-01 -3.455191850662231445e-01 2.030276805162429810e-01 -3.679685890674591064e-01 5.255844444036483765e-03 3.127329349517822266e-01
-1.012096833437681198e-02 -2.840670645236968994e-01 3.927380144596099854e-01 1.539139002561569214e-01 -4.127821698784828186e-02 -5.069859698414802551e-02