1.345964893698692322e-02 2.383706346154212952e-02 1.922266557812690735e-02 2.754106000065803528e-02 -3.826010972261428833e-02 -2.981518022716045380e-02 -2.519092522561550140e-02 1.586669310927391052e-02 -2.324629575014114380e-03 -5.566269159317016602e-03 -1.576235890388488770e-02 -4.296680167317390442e-02 -4.083699733018875122e-02 -1.998190395534038544e-02 2.135139331221580505e-02 -2.060459367930889130e-02 5.841922014951705933e-03 -2.176256291568279266e-02 -2.882968634366989136e-03 8.636139333248138428e-03 -3.889110684394836426e-02 2.443445101380348206e-02 -4.229098558425903320e-03 -1.696089655160903931e-02 7.292814552783966064e-03 4.861876741051673889e-02 -3.248130157589912415e-02 3.454555198550224304e-02 6.187062710523605347e-03 8.141040802001953125e-03 -2.744595520198345184e-02 -2.271100878715515137e-02 -3.747140616178512573e-02 4.370164126157760620e-03 2.240099012851715088e-03 -4.881549626588821411e-02 2.905119210481643677e-03 -2.452749013900756836e-02 2.876052632927894592e-02 -4.162557795643806458e-02 2.596429362893104553e-02 2.686112746596336365e-02 4.459301009774208069e-02 -1.024367287755012512e-02 -1.264192163944244385e-03 2.742968499660491943e-03 1.639715954661369324e-02 3.067309781908988953e-02 -4.954477027058601379e-02 1.695152744650840759e-02 -2.898491732776165009e-02 -2.935528196394443512e-02 1.047746464610099792e-02 -4.456474259495735168e-02 -3.958303481340408325e-03 -2.079498022794723511e-03 1.145355030894279480e-02 4.712232574820518494e-02 8.026052266359329224e-03 -1.988712511956691742e-02 -1.395957544445991516e-02 1.581653580069541931e-02 4.398861899971961975e-02 9.592585265636444092e-04 -1.973556354641914368e-02 -7.122896611690521240e-03 2.629173174500465393e-02 3.086133673787117004e-02 -2.891790121793746948e-03 -2.174652926623821259e-02 -1.208980754017829895e-02 -1.301769167184829712e-02 4.233393445611000061e-02 1.960584893822669983e-02 4.989073798060417175e-02 3.140442445874214172e-02 1.292324438691139221e-02 -4.302207380533218384e-02 1.765668764710426331e-02 2.784146741032600403e-02 -4.344233870506286621e-02 -3.727466613054275513e-02 1.569833979010581970e-02 -4.890463501214981079e-02 2.617411687970161438e-02 -1.271674036979675293e-02 1.572474464774131775e-02 1.424669101834297180e-02 -1.368127390742301941e-02 -9.180832654237747192e-03 3.473920002579689026e-02 2.704540267586708069e-02 3.293332085013389587e-02 -3.003448247909545898e-02 9.762305766344070435e-03 -6.605826318264007568e-03 4.316437616944313049e-02 -4.871208220720291138e-02 7.722817361354827881e-03 -2.664427272975444794e-02 -3.630572557449340820e-02 -2.964794076979160309e-02 9.064298123121261597e-03 -1.706408709287643433e-02 -5.123130977153778076e-04 1.808736845850944519e-02 -1.067376881837844849e-02 -3.059562481939792633e-02 3.359158709645271301e-02 1.268884912133216858e-02 1.568034663796424866e-02 2.998610958456993103e-02 -2.071206085383892059e-02 1.231689006090164185e-03 2.737947180867195129e-02 1.810114458203315735e-02 2.386187389492988586e-02 -3.446780517697334290e-02 -4.332603886723518372e-02 -2.103189937770366669e-02 -3.120649419724941254e-02 1.555504277348518372e-02 -3.363298624753952026e-02 2.504852786660194397e-02 4.076717421412467957e-02 1.942258700728416443e-02 2.671242877840995789e-02 4.165633395314216614e-02 -1.859583705663681030e-02 2.223524823784828186e-02 1.972856000065803528e-02 3.110835328698158264e-02 -4.713884741067886353e-02 -2.493073418736457825e-02 3.038704395294189453e-03 -1.978054083883762360e-02 4.351959004998207092e-02 -3.514803200960159302e-02 -4.145752638578414917e-03 2.255166694521903992e-02 4.804505035281181335e-02 1.461365446448326111e-02 -4.175575450062751770e-02 -2.234436944127082825e-02 -1.796957105398178101e-02 4.230019822716712952e-02 -2.877363003790378571e-02 2.016886696219444275e-02 2.606754377484321594e-02 3.989115729928016663e-02 -3.401713445782661438e-02 4.185874015092849731e-03 2.794260159134864807e-02 -4.172313958406448364e-03 -9.750563651323318481e-03 2.515250816941261292e-02 -3.151633217930793762e-02 4.042143002152442932e-02 -2.335439994931221008e-02 5.070794373750686646e-03 -1.571714878082275391e-03 -3.591486811637878418e-02 3.369148448109626770e-02 6.280951201915740967e-04 -3.391208499670028687e-02 -5.530577152967453003e-03 -2.576396428048610687e-02 1.028313115239143372e-02 -3.652806207537651062e-02 -1.900966279208660126e-02 -3.188794851303100586e-02 -3.897982090711593628e-02 -4.026849940419197083e-02 -3.846196457743644714e-02 2.014494314789772034e-02 -4.084324091672897339e-02 1.665512099862098694e-02 -4.769717529416084290e-02 3.730437532067298889e-02 4.222426190972328186e-02 -2.880297414958477020e-02 -2.447996102273464203e-02 2.147481217980384827e-02 -1.435927301645278931e-02 -3.863083198666572571e-02 3.117391094565391541e-02 -3.348936513066291809e-02 -2.201960794627666473e-02 3.072236105799674988e-02 -8.241433650255203247e-03 1.712483540177345276e-02 3.263738378882408142e-02 -8.735366165637969971e-03 4.512635245919227600e-02 4.700125381350517273e-02 2.394830808043479919e-02 -3.051033057272434235e-02 -3.996949642896652222e-03 -3.163524717092514038e-02 1.369388028979301453e-02 -4.020385816693305969e-02 7.557053118944168091e-03 -1.651500537991523743e-02 -6.235253065824508667e-03 4.549578204751014709e-02 2.669326961040496826e-03 -2.420282363891601562e-02 4.007058963179588318e-02 1.027733832597732544e-02 -1.359210163354873657e-02 -2.177892997860908508e-02 -2.367771975696086884e-02 3.521848097443580627e-02 1.999474689364433289e-02 4.342551901936531067e-02 -4.700279980897903442e-02 2.477359399199485779e-02 3.266580402851104736e-03 -1.160036772489547729e-02 4.093632474541664124e-02 3.080478683114051819e-02 3.930658474564552307e-02 -7.365573197603225708e-03 -4.137259721755981445e-02 -4.357856139540672302e-02 -1.876763813197612762e-02 -3.026881814002990723e-02 -2.617140486836433411e-02 -1.608693599700927734e-02 4.523182287812232971e-02 6.461661309003829956e-03 -4.594492539763450623e-02 -8.310943841934204102e-03 -2.687826752662658691e-02 -1.699021458625793457e-02 -2.764256112277507782e-02 1.769198104739189148e-02 -1.541038602590560913e-02 3.033367171883583069e-02 -1.703292131423950195e-03 -3.936859220266342163e-02 2.724712714552879333e-02 9.525902569293975830e-03 -3.202503919601440430e-02 -1.209611445665359497e-02 -9.111899882555007935e-03 3.595883026719093323e-02 2.132781222462654114e-02 1.292857155203819275e-02 3.432676568627357483e-02 1.771152019500732422e-03 -4.517307505011558533e-02 3.473126515746116638e-02 -1.469072699546813965e-02 -2.984269894659519196e-02 -1.147752255201339722e-02 6.562270224094390869e-03 2.470323070883750916e-02 3.011529520153999329e-02 4.080203548073768616e-02 -3.314863145351409912e-02 5.313735455274581909e-03 5.725972354412078857e-03 -3.710978478193283081e-02 -4.021161794662475586e-02 -1.417435333132743835e-02 4.080758616328239441e-02 3.375007584691047668e-02 -4.707368090748786926e-02 -4.677385091781616211e-03 -2.335116267204284668e-02 2.353552356362342834e-02 2.061779424548149109e-02 -2.546784281730651855e-02 -4.616802930831909180e-02 7.502645254135131836e-03 -1.640027761459350586e-02 -3.886221721768379211e-02 3.411838784813880920e-02 -7.996123284101486206e-03 -3.440593555569648743e-02 3.562542423605918884e-02 4.418517276644706726e-02 2.950222417712211609e-02 -2.507519721984863281e-02 1.916733756661415100e-02 -3.649980947375297546e-02 4.025321453809738159e-03 3.103527054190635681e-02 4.815622046589851379e-02 -4.091251641511917114e-03 -5.905210971832275391e-03 3.398672863841056824e-02 1.591403409838676453e-02 -1.455244421958923340e-02 3.623314201831817627e-03 -3.152892738580703735e-02 -4.820862039923667908e-02 3.248405084013938904e-02 -1.565442606806755066e-02 4.903337731957435608e-02 -2.821156382560729980e-02 -3.113187663257122040e-02 4.791662469506263733e-02 4.050886258482933044e-02 -1.879793405532836914e-02 -2.728573977947235107e-03 2.611393854022026062e-02 -3.687754273414611816e-02 -4.243887215852737427e-02 -3.447030857205390930e-02 4.880777373909950256e-02 -2.301659621298313141e-02 -1.846625655889511108e-02 -3.576653078198432922e-02 -1.502842456102371216e-02 -1.336814835667610168e-02 -3.789256140589714050e-02 3.952256217598915100e-02 2.247566357254981995e-02 -3.311610966920852661e-02 4.675721749663352966e-02 2.160809934139251709e-03 4.603874310851097107e-02 7.237344980239868164e-03 -2.220198512077331543e-04 2.118137851357460022e-02 3.610356524586677551e-02 1.715726777911186218e-02 -3.495164215564727783e-03 -4.385834932327270508e-02 -1.302163675427436829e-02 4.856981337070465088e-03 -2.279438450932502747e-02 -1.009615510702133179e-02 -1.308970898389816284e-02 3.865806385874748230e-02 4.457742348313331604e-02 -4.147752374410629272e-02 4.103060439229011536e-02 7.298164069652557373e-03 -1.821906119585037231e-02 -1.403912901878356934e-04 2.318602427840232849e-02 -4.307010769844055176e-02 -4.336048290133476257e-02 -3.463638573884963989e-02 -3.796475008130073547e-02 -3.214761614799499512e-02 2.931566163897514343e-02 2.272486686706542969e-03 2.521390840411186218e-02 4.618090763688087463e-02 -4.009429737925529480e-02 2.454558387398719788e-02 3.723425045609474182e-02 -3.744088858366012573e-02 2.922024205327033997e-02 4.345543682575225830e-03 2.352080121636390686e-02 -2.904148213565349579e-02 1.404384151101112366e-02 2.778295800089836121e-02 2.141412720084190369e-02 -8.376836776733398438e-04 1.164704561233520508e-03 8.448041975498199463e-03 2.402749285101890564e-02 -3.844845294952392578e-02 -3.692717105150222778e-02 -3.446597978472709656e-02 -7.406245917081832886e-03 -4.277706146240234375e-02 -1.045942306518554688e-03 -3.203446418046951294e-02 -1.840003207325935364e-02 2.466228976845741272e-02 -3.550973534584045410e-02 -3.528197482228279114e-02 -4.811752960085868835e-02 -5.160689353942871094e-03 1.408234611153602600e-02 -7.843721657991409302e-03 -4.091716930270195007e-02 1.695289090275764465e-02 -1.622993499040603638e-02 -3.469868376851081848e-02 1.191662997007369995e-02 5.143694579601287842e-03 -2.440952137112617493e-02 1.067738607525825500e-02 -1.566651463508605957e-02 3.434507921338081360e-02 1.992784440517425537e-03 4.638751968741416931e-02 -2.881169319152832031e-02 -2.269349806010723114e-02 4.888889566063880920e-02 -3.864315897226333618e-02 -3.745384141802787781e-02
-3.587327897548675537e-02 2.795410528779029846e-02 2.415060251951217651e-02 1.173294149339199066e-02 8.258565329015254974e-03 1.985722035169601440e-02 2.300086803734302521e-02 -2.245559543371200562e-02 3.143662959337234497e-02 5.442881211638450623e-02 4.386045038700103760e-02 3.887947276234626770e-02 5.554115772247314453e-02 5.137035250663757324e-02 3.462508320808410645e-03 -3.303800942376255989e-03 2.121728472411632538e-02 1.935975067317485809e-02 -1.775119081139564514e-02 -1.697866432368755341e-02 1.422516535967588425e-02 3.776768594980239868e-02 5.105264950543642044e-03 4.078073427081108093e-02 3.417647257447242737e-02 -1.863325946033000946e-02 9.393618442118167877e-03 -2.716548740863800049e-02 -4.710036143660545349e-02 3.366914018988609314e-02 3.590072691440582275e-02 4.654493927955627441e-02 -4.157076776027679443e-02 -6.336441729217767715e-03 -2.382100746035575867e-02 -2.884118817746639252e-02 2.862803265452384949e-02 -4.787680692970752716e-03 4.512667655944824219e-02 5.085656791925430298e-02 -4.050543531775474548e-02 5.199890583753585815e-02 -4.674533009529113770e-02 -1.579783111810684204e-02 2.242865972220897675e-02 -2.962254919111728668e-02 -2.918924391269683838e-02 5.599246360361576080e-04 -4.558349493891000748e-03 5.591242387890815735e-02 4.505399987101554871e-02 4.928704723715782166e-02 -5.998122971504926682e-03 2.626777254045009613e-02 -1.323624420911073685e-02 1.032412517815828323e-02 -3.957147523760795593e-02 -2.475270768627524376e-03 1.389669068157672882e-02 3.300482407212257385e-02 -3.446519002318382263e-02 -1.689455658197402954e-02 -4.311681911349296570e-02 -1.874658465385437012e-02 4.584561660885810852e-02 8.905467577278614044e-03 -3.762867301702499390e-02 1.281274668872356415e-02 -3.772741556167602539e-02 -3.992184251546859741e-02 5.356498062610626221e-02 -3.803586587309837341e-02 5.595142021775245667e-02 3.472877293825149536e-02 -4.937031492590904236e-02 -1.188323739916086197e-02 8.889490738511085510e-03 -7.009336724877357483e-03 -3.468648530542850494e-03 1.106969662941992283e-03 -5.344698578119277954e-02 1.828963495790958405e-02 -1.543657016009092331e-02 -2.795147150754928589e-02 -4.592161998152732849e-02 3.562591224908828735e-02 -8.855329826474189758e-03 -7.309758104383945465e-03 1.067234482616186142e-02 3.401500731706619263e-02 1.156596280634403229e-02 9.057845920324325562e-03 -3.079952858388423920e-02 3.939151763916015625e-02 3.483475744724273682e-02 7.004372775554656982e-03 4.797439649701118469e-02 4.403449594974517822e-02 3.989193588495254517e-02 -2.424868755042552948e-02 -2.396305277943611145e-02 1.183316484093666077e-02 3.150938451290130615e-02 1.142144761979579926e-02 3.675249218940734863e-02 -9.824842214584350586e-03 -3.785276412963867188e-02 8.544568903744220734e-03 -1.381917018443346024e-02 1.601567119359970093e-02 -3.430333919823169708e-03 -1.004328578710556030e-02 2.434013597667217255e-02 -3.463913127779960632e-02 -9.136293083429336548e-03 1.773455366492271423e-02 -3.774523735046386719e-02 1.178878825157880783e-02 5.182430148124694824e-02 3.755095973610877991e-02 3.603084385395050049e-02 2.692135609686374664e-02 -2.395441755652427673e-02 4.500740021467208862e-02 1.226876745931804180e-03 4.418726637959480286e-02 -4.910406656563282013e-03 3.368903324007987976e-02 -1.307533006183803082e-03 2.081838436424732208e-02 -1.811211556196212769e-02 4.724366590380668640e-02 -1.342072058469057083e-02 4.696317762136459351e-02 -3.152954578399658203e-02 -5.712968856096267700e-02 4.146164655685424805e-02 1.649678125977516174e-02 -7.552227471023797989e-03 -8.252413826994597912e-04 3.542399033904075623e-02 4.066916927695274353e-02 -1.775851659476757050e-02 9.322742931544780731e-03 -3.315404802560806274e-02 1.636791788041591644e-02 -3.886758163571357727e-02 -3.006567433476448059e-02 2.267735823988914490e-02 4.965280741453170776e-02 -2.351404353976249695e-02 2.077318541705608368e-02 2.166304038837552071e-03 -1.183941401541233063e-02 -5.629936931654810905e-04 -2.713556867092847824e-03 7.458872627466917038e-03 2.950191125273704529e-02 -9.478257969021797180e-03 5.392071977257728577e-02 3.251871466636657715e-02 3.942232951521873474e-02 -4.189525172114372253e-02 5.044640600681304932e-02 -4.687076061964035034e-02 9.582838043570518494e-03 -2.656443789601325989e-02 -3.020985517650842667e-03 1.632246002554893494e-02 -1.590284146368503571e-02 -2.826709859073162079e-02 -2.442687191069126129e-02 -3.602854907512664795e-02 -2.316939353477209806e-04 -1.345304958522319794e-02 -2.838445268571376801e-02 4.762486740946769714e-02 3.594737872481346130e-02 -1.938392594456672668e-02 4.095797240734100342e-02 -3.546383976936340332e-02 1.451672799885272980e-02 1.642522029578685760e-02 -2.489548735320568085e-02 2.366747707128524780e-02 -1.145427022129297256e-02 -1.662359200417995453e-02 1.756336912512779236e-02 3.724417090415954590e-02 4.348858445882797241e-02 -2.962694689631462097e-02 1.604768633842468262e-02 4.516977071762084961e-02 -2.367147617042064667e-02 3.939686343073844910e-02 2.757855691015720367e-02 4.061161354184150696e-02 -2.639677748084068298e-02 -3.480998799204826355e-02 -2.363937441259622574e-03 2.774329669773578644e-02 4.206911846995353699e-02 3.859029710292816162e-02 -5.387954041361808777e-02 1.740681007504463196e-02 2.477574348449707031e-02 -5.054349079728126526e-02 -3.035493893548846245e-03 -1.428206451237201691e-02 2.408546581864356995e-02 -5.334747210144996643e-02 2.137747220695018768e-02 2.335605584084987640e-02 8.062218315899372101e-03 4.684666544198989868e-02 8.372291922569274902e-03 -3.266011551022529602e-02 -4.814237728714942932e-02 -2.783913910388946533e-02 3.679971769452095032e-02 -9.841302409768104553e-03 -4.007511585950851440e-02 -3.453912213444709778e-02 4.730856791138648987e-02 -1.141098886728286743e-02 -1.672051846981048584e-02 2.492185495793819427e-02 1.973034581169486046e-03 4.366432316601276398e-03 5.235772579908370972e-03 2.379045076668262482e-02 3.193360939621925354e-02 5.379671603441238403e-02 -4.129133746027946472e-02 3.536553308367729187e-02 -8.944658911786973476e-04 2.619573846459388733e-02 -1.064294856041669846e-02 -1.156861800700426102e-02 3.865955863147974014e-03 1.891185529530048370e-02 2.594121731817722321e-02 -2.172199822962284088e-02 1.024090778082609177e-02 -2.216481417417526245e-02 3.586187958717346191e-02 -2.988554164767265320e-02 -2.362382132560014725e-03 -1.356648281216621399e-02 -4.037047550082206726e-02 1.284878049045801163e-02 4.124389961361885071e-02 -3.865299746394157410e-02 2.012321911752223969e-02 -2.982458658516407013e-02 1.994419284164905548e-02 2.118468098342418671e-02 -6.371888797730207443e-03 2.620366169139742851e-03 -3.709901496767997742e-02 7.022550795227289200e-03 4.462388157844543457e-02 3.851198405027389526e-02 4.810949042439460754e-02 5.694560334086418152e-02 1.310774963349103928e-02 -1.435744576156139374e-03 -2.190338820219039917e-02 3.239491954445838928e-03 4.227569326758384705e-02 2.440392272546887398e-03 3.939742222428321838e-03 5.411874875426292419e-02 -1.575332321226596832e-02 2.971944399178028107e-02 2.749696746468544006e-02 -3.765605390071868896e-02 8.534000371582806110e-04 -2.084368281066417694e-02 -4.562237113714218140e-02 1.786620728671550751e-02 1.767541095614433289e-02 -3.377106040716171265e-02 3.692791983485221863e-02 2.298181876540184021e-02 -3.733465075492858887e-02 -4.032625257968902588e-02 2.869612537324428558e-02 2.983678318560123444e-02 -2.241268381476402283e-02 -4.668640438467264175e-03 4.108256846666336060e-02 -3.449021279811859131e-02 5.813357420265674591e-03 -3.219992294907569885e-02 -3.369622677564620972e-02 -2.813552692532539368e-02 4.356217384338378906e-02 -3.837933298200368881e-03 -2.904254756867885590e-02 2.510100230574607849e-02 1.565042883157730103e-02 -2.530334703624248505e-02 1.483669970184564590e-02 4.275526478886604309e-02 -6.240352056920528412e-03 -3.726069629192352295e-02 -2.343576960265636444e-02 -2.589458599686622620e-02 -5.495137348771095276e-02 -3.105008602142333984e-02 1.234958600252866745e-02 -3.532996401190757751e-02 2.602567896246910095e-02 2.820842899382114410e-02 1.136533357203006744e-02 2.661877498030662537e-02 5.009103938937187195e-02 1.596076972782611847e-02 -4.313557595014572144e-02 3.290941566228866577e-02 3.596103750169277191e-03 4.396705701947212219e-02 3.921851981431245804e-03 4.485502466559410095e-02 -4.249731451272964478e-02 -2.377019729465246201e-03 4.447386041283607483e-02 1.206033676862716675e-02 4.842686466872692108e-03 -5.867049563676118851e-03 -2.891678176820278168e-02 3.140987083315849304e-02 3.043419867753982544e-02 2.535902336239814758e-02 -3.266193345189094543e-02 -5.356693640351295471e-02 1.365440431982278824e-02 2.551664970815181732e-02 2.352185733616352081e-02 -1.594766974449157715e-02 -2.036713622510433197e-02 -1.853388920426368713e-02 -1.833435334265232086e-02 -3.766148164868354797e-02 -3.896493837237358093e-02 5.001478269696235657e-02 3.921125829219818115e-02 -4.499475285410881042e-02 3.826188296079635620e-02 5.525560677051544189e-02 2.539967745542526245e-02 -2.604791149497032166e-02 6.420843768864870071e-03 -3.756483644247055054e-02 3.666193783283233643e-02 2.637819759547710419e-02 -3.346846438944339752e-03 6.901970133185386658e-03 -2.388444915413856506e-02 1.775574311614036560e-02 -4.318543523550033569e-02 3.802848234772682190e-02 -4.732543975114822388e-02 -1.161642838269472122e-02 -4.060300067067146301e-02 6.045477930456399918e-03 -4.363446310162544250e-02 2.311528287827968597e-02 -5.079552903771400452e-02 2.827566117048263550e-02 -4.982607439160346985e-03 -3.023294173181056976e-02 -2.589088119566440582e-02 -3.456570208072662354e-02 -3.879313170909881592e-02 1.332375407218933105e-02 1.674631983041763306e-02 1.407224219292402267e-02 -4.454305395483970642e-02 4.420706629753112793e-02 4.381498321890830994e-02 2.709720656275749207e-02 2.056695707142353058e-02 8.749107830226421356e-03 -4.036774858832359314e-02 -2.918784692883491516e-02 2.832852676510810852e-02 -4.757535830140113831e-02 -2.102358825504779816e-02 -2.919866889715194702e-02 9.389502927660942078e-03 3.108255937695503235e-02 -2.363052219152450562e-02 3.188868239521980286e-02 7.290577050298452377e-03 -4.932771995663642883e-02 2.326538041234016418e-02 -4.689520224928855896e-02 -1.406940910965204239e-02
-1.233082637190818787e-02 4.831515997648239136e-02 1.666317321360111237e-02 -4.162355139851570129e-02 -9.072211571037769318e-03 3.696950525045394897e-02 4.908150434494018555e-02 -4.418951459228992462e-03 2.393013797700405121e-02 2.974337711930274963e-02 2.155716298148036003e-03 -3.820135816931724548e-02 6.655590143054723740e-03 -4.485342651605606079e-02 -3.871088474988937378e-02 -4.930800572037696838e-02 7.621118333190679550e-03 3.161186352372169495e-02 2.505450323224067688e-02 3.781105577945709229e-02 -4.892776533961296082e-02 2.857648208737373352e-02 -2.239029109477996826e-02 -4.000740498304367065e-02 9.080164600163698196e-04 5.069610849022865295e-02 2.624327503144741058e-02 3.196430578827857971e-02 3.944280743598937988e-02 -2.875992655754089355e-02 4.050655663013458252e-02 -1.991086266934871674e-02 -2.433924376964569092e-02 2.004897780716419220e-02 -5.087770894169807434e-02 -7.563724648207426071e-03 5.552154965698719025e-03 -4.489064589142799377e-02 1.677379198372364044e-02 3.054556064307689667e-02 1.866083405911922455e-02 2.085822075605392456e-02 -2.113141305744647980e-02 -5.549770221114158630e-02 1.470755413174629211e-02 -4.697095602750778198e-02 -4.932100325822830200e-02 6.841249763965606689e-03 2.504099160432815552e-02 -2.914592251181602478e-02 3.921616822481155396e-02 -1.230004057288169861e-02 -2.959879301488399506e-02 7.533856667578220367e-03 1.953583396971225739e-02 -6.423910614103078842e-03 2.406413987046107650e-04 4.690441861748695374e-02 -2.758331596851348877e-02 8.780058473348617554e-03 -3.298889473080635071e-02 -3.848714753985404968e-02 4.194716364145278931e-02 6.476187147200107574e-03 2.944198064506053925e-02 -2.775522414594888687e-03 -1.744699105620384216e-02 1.133989449590444565e-02 4.774112254381179810e-02 5.007184296846389771e-02 3.857028856873512268e-02 -7.476419210433959961e-03 4.364300519227981567e-03 -4.862082377076148987e-02 3.224585577845573425e-02 -3.824970126152038574e-02 -1.786046288907527924e-02 2.780099399387836456e-02 4.419888369739055634e-03 -3.841489553451538086e-02 8.313659578561782837e-03 -2.487673237919807434e-02 -2.129144780337810516e-02 3.173899278044700623e-02 3.675264120101928711e-02 -1.780668646097183228e-02 -2.666560001671314240e-02 -4.517861083149909973e-02 3.209519758820533752e-02 -3.390269819647073746e-03 4.634775221347808838e-02 -5.376446619629859924e-02 -3.129922598600387573e-02 -2.401886880397796631e-02 3.937463462352752686e-02 6.940410472452640533e-03 1.284119486808776855e-02 3.481572121381759644e-02 -1.959320856258273125e-03 2.306232415139675140e-02 -1.654489338397979736e-02 -5.117635242640972137e-03 5.038627982139587402e-02 -1.655676960945129395e-02 -1.503427606076002121e-02 -2.584877796471118927e-02 -4.051351174712181091e-02 -1.256787683814764023e-02 1.989204064011573792e-02 -3.216261416673660278e-02 -1.231911708600819111e-03 -2.445834130048751831e-02 1.960505545139312744e-02 1.866253651678562164e-02 1.892141625285148621e-02 -4.381749406456947327e-02 4.370577633380889893e-02 1.751123555004596710e-02 1.806275802664458752e-03 -2.239156700670719147e-02 2.663796953856945038e-02 -3.741217404603958130e-02 -7.171181961894035339e-03 1.802092976868152618e-02 -6.706858053803443909e-03 -3.157426044344902039e-02 -3.987498953938484192e-02 -3.341069072484970093e-02 7.490448188036680222e-03 -4.453807696700096130e-02 3.836096450686454773e-02 -4.251997452229261398e-03 -4.688756540417671204e-02 -2.483689226210117340e-02 -3.147465735673904419e-02 -2.363279089331626892e-02 4.949000198394060135e-03 -4.355503618717193604e-02 3.032911941409111023e-02 4.716593772172927856e-02 1.727550290524959564e-02 5.019258242100477219e-03 -1.584369572810828686e-03 -4.253722727298736572e-02 -2.576370351016521454e-02 -2.746913954615592957e-02 -4.879472032189369202e-02 -4.702274501323699951e-02 -1.836501993238925934e-02 3.251716494560241699e-02 -4.247980192303657532e-03 4.511996731162071228e-02 -3.130991756916046143e-02 4.323652386665344238e-02 1.070801448076963425e-02 3.683816641569137573e-02 5.273728631436824799e-03 -3.942440077662467957e-02 -4.488055780529975891e-02 2.155065536499023438e-02 5.086828023195266724e-02 -4.708056524395942688e-02 -3.255635499954223633e-02 -1.806120947003364563e-02 3.348673507571220398e-02 -1.578848250210285187e-02 -4.530617967247962952e-02 1.517136208713054657e-02 1.366226468235254288e-02 3.708118165377527475e-04 -2.630439028143882751e-02 4.721644893288612366e-02 -4.635041952133178711e-02 2.807970345020294189e-02 -2.299745939671993256e-02 -3.168786317110061646e-02 -3.545766323804855347e-02 -5.791399627923965454e-03 -5.352528020739555359e-02 -5.091886967420578003e-02 5.318615213036537170e-02 -1.871530525386333466e-02 1.101166359148919582e-03 1.123242545872926712e-02 -4.550990089774131775e-02 7.043981924653053284e-03 -1.254720147699117661e-02 2.949186414480209351e-02 4.323556646704673767e-02 5.275265779346227646e-03 -3.587007150053977966e-02 -4.782754555344581604e-02 1.662985607981681824e-02 1.159252133220434189e-02 2.463378943502902985e-02 2.274153754115104675e-02 3.125681728124618530e-02 -5.855665076524019241e-03 -4.574555158615112305e-02 3.993046656250953674e-02 7.135335355997085571e-03 -1.646616682410240173e-02 3.081542998552322388e-02 1.346535515040159225e-03 -1.092699076980352402e-02 -4.041683301329612732e-02 -6.616226863116025925e-03 -4.214449226856231689e-02 5.212629213929176331e-02 4.307384788990020752e-02 3.031852655112743378e-02 1.630688831210136414e-02 3.203058242797851562e-02 8.386077359318733215e-03 5.532279238104820251e-02 -2.638654969632625580e-02 3.345716372132301331e-02 -6.241574883460998535e-04 8.932911790907382965e-03 -5.421128869056701660e-02 -2.128062956035137177e-02 -3.678772132843732834e-03 -2.502547390758991241e-02 -2.895844727754592896e-02 -2.607388235628604889e-02 -1.176803559064865112e-02 -3.056949563324451447e-02 -2.537875063717365265e-02 -1.805644854903221130e-02 -2.863997034728527069e-02 1.301213819533586502e-02 2.160335704684257507e-02 -3.611496463418006897e-02 -2.365612983703613281e-02 4.692298546433448792e-02 2.699222788214683533e-02 1.399366091936826706e-02 -4.621894285082817078e-02 -6.169036030769348145e-02 2.325816638767719269e-02 2.665478503331542015e-03 -2.485932968556880951e-02 -3.021808341145515442e-03 -4.796597734093666077e-02 -2.149548195302486420e-02 1.087904814630746841e-02 3.038946539163589478e-03 2.563774213194847107e-02 4.355420544743537903e-02 4.333536140620708466e-03 2.834014780819416046e-02 -6.259671878069639206e-03 2.372545935213565826e-02 4.118832293897867203e-03 -1.513663586229085922e-02 -3.893624525517225266e-04 5.549554713070392609e-03 -3.494163602590560913e-02 1.188107952475547791e-02 1.916687376797199249e-02 3.197899088263511658e-02 1.871735602617263794e-02 3.676996007561683655e-02 -4.745994880795478821e-02 4.573633149266242981e-02 4.844317585229873657e-02 -9.905757382512092590e-03 -9.110297076404094696e-03 -9.315975941717624664e-03 -2.920084074139595032e-02 -2.355311438441276550e-02 3.556179627776145935e-02 -3.974904492497444153e-02 -3.156417980790138245e-02 2.011962793767452240e-02 7.074349559843540192e-03 2.154187671840190887e-02 -1.278625987470149994e-02 1.232155878096818924e-02 1.586708612740039825e-02 -3.345639258623123169e-02 -3.822027519345283508e-02 1.822929270565509796e-02 -4.449690878391265869e-02 -1.837881840765476227e-02 -1.665266789495944977e-02 1.198120042681694031e-02 -4.770282655954360962e-02 -2.867727540433406830e-03 4.354896489530801773e-03 -3.741382434964179993e-02 1.933106593787670135e-02 9.500981308519840240e-03 3.619863465428352356e-02 9.657522663474082947e-03 -1.058574393391609192e-02 6.673062220215797424e-03 -1.439896598458290100e-02 -2.218907698988914490e-02 1.465732231736183167e-02 5.555850919336080551e-03 -2.348445355892181396e-02 -1.032657828181982040e-02 -5.102410796098411083e-04 3.539417684078216553e-02 -1.026157941669225693e-02 4.673374351114034653e-03 7.704422809183597565e-03 -4.896662756800651550e-02 -4.814433306455612183e-02 2.922895736992359161e-02 4.526958987116813660e-02 5.401354283094406128e-03 -1.486625242978334427e-02 8.143271319568157196e-03 -3.014392219483852386e-02 2.269214205443859100e-02 2.989794313907623291e-02 -3.779401630163192749e-02 -5.392428487539291382e-02 3.996770456433296204e-02 -1.943082734942436218e-02 -3.713949024677276611e-02 3.439053148031234741e-02 -9.989929385483264923e-03 -6.882486399263143539e-03 2.263050712645053864e-02 -4.228969290852546692e-02 -2.027588151395320892e-02 -1.648329198360443115e-02 -4.341996833682060242e-02 1.927055045962333679e-02 4.269249737262725830e-02 -3.127413615584373474e-02 3.941010311245918274e-02 -3.266655281186103821e-02 -4.092875123023986816e-02 -5.564549937844276428e-02 1.400792598724365234e-02 -2.127193100750446320e-02 4.312536492943763733e-02 3.442072123289108276e-02 3.155895695090293884e-02 -2.013271674513816833e-02 -1.521789468824863434e-02 1.140693295747041702e-02 3.922641277313232422e-02 -4.314336553215980530e-02 -2.344629913568496704e-02 8.844733238220214844e-03 -1.827333495020866394e-02 3.658928349614143372e-02 3.411006182432174683e-02 -3.523353114724159241e-02 2.243690378963947296e-02 -2.362583018839359283e-02 -5.607670545578002930e-02 6.673491559922695160e-03 -2.701774984598159790e-02 3.881035000085830688e-02 6.000387948006391525e-03 1.621564291417598724e-02 2.562967129051685333e-02 2.430409658700227737e-03 -7.245817687362432480e-03 -2.893272042274475098e-02 4.321137443184852600e-02 -3.434786573052406311e-03 4.513967037200927734e-02 -4.352123290300369263e-02 -4.579579457640647888e-02 6.983238854445517063e-04 -2.513541281223297119e-02 8.219518698751926422e-03 -4.526515305042266846e-02 3.207761049270629883e-02 4.053378850221633911e-02 -4.795343056321144104e-02 1.001663692295551300e-02 -1.586847379803657532e-02 -2.302988804876804352e-02 3.919798880815505981e-02 7.029903586953878403e-03 -5.363320559263229370e-02 -2.747954986989498138e-02 -2.336033992469310760e-02 -3.767768619582056999e-03 -2.259963750839233398e-02 3.203638829290866852e-03 -3.138800337910652161e-02 5.090138316154479980e-02 -2.159468643367290497e-02 -2.021109871566295624e-02 4.639981687068939209e-02 -2.076239511370658875e-02 -5.990177742205560207e-04 -1.674461737275123596e-02 -4.177664406597614288e-03 4.569390788674354553e-02 3.447388112545013428e-02
1.674250885844230652e-02 7.273797411471605301e-03 3.159678354859352112e-02 -3.918476775288581848e-02 -4.476049169898033142e-02 -1.622501574456691742e-02 -9.042708203196525574e-03 -2.008423022925853729e-02 1.685438863933086395e-02 2.824995666742324829e-02 3.681102395057678223e-02 -1.156993024051189423e-02 1.298677269369363785e-02 3.068968094885349274e-02 -4.729892686009407043e-02 4.470702260732650757e-02 1.006515417248010635e-02 -2.635382115840911865e-02 -7.491026073694229126e-03 -2.775836177170276642e-02 -2.069225348532199860e-02 2.914544939994812012e-02 3.635012730956077576e-02 1.433534827083349228e-02 -3.412561491131782532e-02 4.245873540639877319e-02 1.370577421039342880e-02 4.330220445990562439e-02 -4.420853033661842346e-02 -1.887763664126396179e-02 4.107224196195602417e-02 -1.362966280430555344e-02 -1.003128942102193832e-02 1.298079080879688263e-02 -2.526236325502395630e-02 -3.948871418833732605e-02 4.273077473044395447e-02 -6.460711359977722168e-03 -9.472693316638469696e-03 4.993312433362007141e-02 -1.198850106447935104e-02 2.772689424455165863e-02 4.896550998091697693e-02 8.130094967782497406e-03 2.506663836538791656e-02 -1.771863363683223724e-02 2.870856260415166616e-04 5.581763759255409241e-02 -1.072798762470483780e-02 -3.057594411075115204e-02 2.932050451636314392e-02 1.388155110180377960e-02 4.397479817271232605e-02 8.411189541220664978e-03 -5.098670348525047302e-02 3.627844853326678276e-03 -4.202025756239891052e-02 -1.178606227040290833e-02 -2.763440716080367565e-04 4.818164557218551636e-02 2.944080159068107605e-02 3.433151543140411377e-02 -3.526549041271209717e-02 4.145387932658195496e-02 -1.625423319637775421e-02 -1.642945036292076111e-02 -8.998008444905281067e-03 -1.569117652252316475e-03 -3.260584920644760132e-02 -7.058253046125173569e-03 2.977279573678970337e-02 2.730603702366352081e-02 -1.950424723327159882e-02 7.397627923637628555e-03 -3.733920305967330933e-02 2.849650010466575623e-02 2.429806441068649292e-02 3.964596241712570190e-02 -3.992216289043426514e-02 3.069218993186950684e-02 1.400846522301435471e-02 -3.682192042469978333e-02 1.135073322802782059e-02 -5.156764015555381775e-02 -1.929066842421889305e-03 -1.387642789632081985e-02 4.416729509830474854e-02 -1.297294348478317261e-02 -1.616853848099708557e-02 4.567910358309745789e-02 4.716026782989501953e-02 2.394315786659717560e-02 4.970109462738037109e-02 2.794662676751613617e-02 -4.677558690309524536e-02 1.160477939993143082e-02 -5.026632547378540039e-02 -3.554482012987136841e-02 1.047128159552812576e-02 -5.241624265909194946e-02 5.742831900715827942e-02 -2.417556708678603172e-03 -1.674362923949956894e-03 5.474749580025672913e-02 -2.944329008460044861e-02 -1.172883715480566025e-02 -1.255978830158710480e-02 -1.405260874889791012e-03 4.222659394145011902e-02 -4.081003367900848389e-02 2.796540968120098114e-02 1.106632221490144730e-02 2.485737763345241547e-02 2.981335856020450592e-02 -4.668112471699714661e-02 4.893924295902252197e-02 -1.826398447155952454e-02 1.737233810126781464e-02 -2.710808254778385162e-02 -4.390431568026542664e-02 4.976300150156021118e-02 -4.514640569686889648e-02 -2.269646502099931240e-04 -7.805404020473361015e-04 4.149534925818443298e-02 3.349496796727180481e-02 2.938501909375190735e-02 1.570099778473377228e-02 2.887951210141181946e-02 -3.740974143147468567e-02 -5.662152078002691269e-03 -3.631289303302764893e-02 3.607993572950363159e-02 3.316106647253036499e-02 -2.005693688988685608e-02 -3.737561777234077454e-02 -3.204978629946708679e-02 -2.477914094924926758e-02 4.576603323221206665e-02 -3.998303413391113281e-02 -3.711054474115371704e-02 4.997874423861503601e-02 1.219891477376222610e-02 -4.504197090864181519e-02 -3.056104993447661400e-03 -9.404397569596767426e-03 2.372819930315017700e-02 -2.422152832150459290e-02 3.438726067543029785e-02 5.779543146491050720e-02 1.470309309661388397e-02 -3.573253750801086426e-02 -3.444865578785538673e-03 -4.788344353437423706e-02 -4.158537834882736206e-02 4.016744717955589294e-02 -2.235469035804271698e-02 4.187957197427749634e-02 1.786576770246028900e-02 3.134782984852790833e-02 -3.782766684889793396e-02 3.758542239665985107e-02 -4.509889706969261169e-02 2.719102613627910614e-02 -7.463061716407537460e-03 -3.998772054910659790e-02 4.329506307840347290e-02 5.005629360675811768e-02 2.252678014338016510e-02 -1.521399151533842087e-02 -3.360661864280700684e-02 -3.215719014406204224e-02 4.035327956080436707e-02 1.170941814780235291e-02 3.800227865576744080e-02 -1.938248984515666962e-02 4.817461594939231873e-02 -2.206827327609062195e-02 -5.064414069056510925e-02 -2.142935246229171753e-02 1.706647872924804688e-02 1.195954345166683197e-02 -4.460967704653739929e-02 -5.407183617353439331e-02 1.999781839549541473e-02 4.466339573264122009e-02 1.258132793009281158e-02 2.369612455368041992e-02 2.015520818531513214e-02 -5.287969484925270081e-02 -1.052132807672023773e-02 -3.041801508516073227e-03 1.568380184471607208e-02 -1.180506194941699505e-03 -5.089187622070312500e-02 -1.618834398686885834e-02 4.796546325087547302e-02 5.895324517041444778e-03 -2.211434021592140198e-02 -4.000220075249671936e-02 1.391438022255897522e-02 1.803718693554401398e-02 -2.456110529601573944e-02 3.821857646107673645e-02 5.167829222045838833e-04 -3.873699530959129333e-02 -4.767305776476860046e-02 1.666241697967052460e-02 -2.752636745572090149e-02 -4.114274680614471436e-02 -4.041421785950660706e-02 -3.267706185579299927e-02 3.688116557896137238e-04 -3.904101997613906860e-02 -3.233036026358604431e-02 -2.930434187874197960e-03 -4.560986068099737167e-03 3.382952883839607239e-02 3.033778816461563110e-02 6.287521217018365860e-03 -2.827593125402927399e-02 4.549439623951911926e-02 1.583439670503139496e-02 -5.042887106537818909e-02 -4.646127577871084213e-03 -4.044615849852561951e-02 3.645598515868186951e-02 -2.964295446872711182e-02 -1.720906794071197510e-02 1.388504315400496125e-04 2.476925961673259735e-02 4.857011884450912476e-02 -2.190766856074333191e-02 -9.651718661189079285e-03 3.438270837068557739e-02 1.227845065295696259e-02 1.613902486860752106e-02 2.123382128775119781e-02 -8.220795425586402416e-04 3.460926935076713562e-02 -4.212526232004165649e-02 1.783346571028232574e-02 9.716049768030643463e-03 5.451343581080436707e-02 4.688062891364097595e-02 -2.933556772768497467e-02 9.334944188594818115e-03 4.175344109535217285e-02 8.203442208468914032e-03 -2.743621356785297394e-02 -1.101133599877357483e-02 -4.520878940820693970e-02 3.944532200694084167e-02 1.077538728713989258e-02 2.734707109630107880e-02 -2.694195508956909180e-02 -3.247105050832033157e-03 1.039350312203168869e-02 4.869376774877309799e-03 2.611960284411907196e-02 -1.106328144669532776e-02 -1.830562204122543335e-02 -1.083180774003267288e-02 -1.998340710997581482e-02 -3.291898965835571289e-02 1.463036314817145467e-04 2.759749256074428558e-02 6.155863404273986816e-03 -3.581117093563079834e-02 -6.103576719760894775e-02 -2.793647162616252899e-02 2.517061308026313782e-02 9.236995130777359009e-03 2.545479685068130493e-02 -8.985310792922973633e-03 2.076530363410711288e-03 -4.451368376612663269e-02 -4.523873794823884964e-03 -2.965703979134559631e-02 -1.535560563206672668e-02 -6.121787708252668381e-03 -4.591450095176696777e-02 1.770192757248878479e-02 -2.637917920947074890e-02 -8.101487532258033752e-03 -2.285765483975410461e-02 -3.302951902151107788e-02 1.906542293727397919e-02 4.285500943660736084e-02 -5.046552047133445740e-02 -3.174198418855667114e-02 3.270699083805084229e-02 -4.017113149166107178e-02 9.525935165584087372e-03 6.884991656988859177e-03 -1.893767528235912323e-02 7.541790138930082321e-03 -3.749473020434379578e-02 2.076506614685058594e-02 3.604017943143844604e-02 -4.162358120083808899e-03 -6.308770272880792618e-03 2.844889275729656219e-02 -1.611184887588024139e-02 1.279586181044578552e-02 -6.050326395779848099e-03 2.610553987324237823e-02 -1.080579962581396103e-02 -3.593160072341561317e-03 -4.951993469148874283e-03 -4.323996230959892273e-02 4.549736157059669495e-02 3.965633362531661987e-02 4.606270231306552887e-03 2.540173381567001343e-02 9.277942590415477753e-03 -4.456353932619094849e-02 -2.548642922192811966e-03 2.601610496640205383e-02 2.965863607823848724e-02 6.470428779721260071e-03 3.653139621019363403e-02 8.997901342809200287e-03 4.710225760936737061e-02 4.276923090219497681e-02 -8.173790760338306427e-03 1.473288796842098236e-02 4.954982548952102661e-02 -1.188205182552337646e-02 3.257075324654579163e-02 -4.250113666057586670e-02 -5.076987296342849731e-02 4.852082580327987671e-02 -2.163200452923774719e-02 -3.384694457054138184e-02 -3.013577125966548920e-02 2.414547093212604523e-02 1.000173669308423996e-02 3.331130370497703552e-02 2.958676032721996307e-02 4.479230381548404694e-03 -4.997289553284645081e-02 3.482099249958992004e-02 5.735085159540176392e-02 1.192820724099874496e-02 -4.198361560702323914e-02 -1.328959036618471146e-02 1.874808594584465027e-02 2.088604681193828583e-02 4.705055430531501770e-02 -5.951891653239727020e-03 1.426024362444877625e-02 3.820763900876045227e-02 2.711739507503807545e-04 4.437154904007911682e-02 -4.993325844407081604e-02 4.228273034095764160e-02 3.186479955911636353e-02 -5.472329445183277130e-03 2.868240932002663612e-03 -9.887514635920524597e-03 2.362910658121109009e-02 -2.824263274669647217e-02 -1.147394906729459763e-02 2.488746680319309235e-02 -3.660669177770614624e-02 2.038364484906196594e-02 -3.308657184243202209e-02 -3.239794820547103882e-02 4.017589986324310303e-02 -9.240190498530864716e-03 1.083201915025711060e-02 -4.802980646491050720e-02 1.765762269496917725e-02 3.488660231232643127e-02 -4.027384519577026367e-02 -4.580670595169067383e-02 4.021298512816429138e-02 4.259264096617698669e-02 3.755726665258407593e-02 -2.346494607627391815e-02 1.382235810160636902e-02 -7.331331260502338409e-03 1.505465130321681499e-03 1.835166476666927338e-02 4.657789692282676697e-02 4.385308548808097839e-02 -5.144904181361198425e-02 2.602034620940685272e-02 -2.552902884781360626e-02 1.772682741284370422e-02 -1.151635125279426575e-02 3.091204725205898285e-02 2.345124818384647369e-02 3.896776214241981506e-02 -1.853751204907894135e-02 3.247217042371630669e-03 -4.444896429777145386e-02 -1.419365685433149338e-02 5.063327774405479431e-02
-3.196570789441466331e-03 3.553774580359458923e-02 5.275147035717964172e-03 4.010156169533729553e-02 -3.463243320584297180e-02 -1.638854504562914371e-03 1.099380105733871460e-02 -1.392671093344688416e-02 8.983706124126911163e-03 4.833028838038444519e-02 -5.059780180454254150e-02 -1.268187537789344788e-03 2.477841079235076904e-02 -2.692109346389770508e-02 -4.174078628420829773e-02 -3.472526557743549347e-03 -3.247499465942382812e-03 -2.626414224505424500e-02 -4.460474476218223572e-02 1.783654210157692432e-03 -1.900850422680377960e-02 1.391981611959636211e-03 -3.009160980582237244e-02 -2.252424694597721100e-02 1.884937472641468048e-02 5.094155669212341309e-02 4.219358041882514954e-02 4.547609016299247742e-02 4.660520702600479126e-02 3.710598498582839966e-02 -7.022507488727569580e-03 2.680192887783050537e-02 3.549782186746597290e-02 -3.501878352835774422e-03 -4.978526849299669266e-03 -2.213981747627258301e-02 -2.059413865208625793e-02 9.230129071511328220e-04 -2.377248182892799377e-02 -3.348653763532638550e-02 -1.523922104388475418e-02 2.432888001203536987e-02 7.615184877067804337e-03 5.259215459227561951e-02 -4.701919853687286377e-03 1.474007032811641693e-02 5.480691418051719666e-02 1.117856428027153015e-02 -1.834954135119915009e-02 4.436910152435302734e-02 5.249935388565063477e-02 1.487678010016679764e-02 -5.062993243336677551e-02 -9.362753480672836304e-03 4.141490161418914795e-02 -1.194917410612106323e-02 2.565714903175830841e-02 1.405562157742679119e-03 1.608681865036487579e-02 2.298783324658870697e-02 2.469646558165550232e-02 4.647028446197509766e-02 4.450385272502899170e-02 -4.215514287352561951e-02 1.659458689391613007e-02 -5.888742394745349884e-03 -2.494976390153169632e-03 2.696591988205909729e-02 4.651047661900520325e-02 1.954950578510761261e-02 1.404768321663141251e-02 -3.047622367739677429e-02 1.688386080786585808e-03 3.809602931141853333e-02 -2.506852848455309868e-03 4.661497846245765686e-02 -2.598851546645164490e-02 3.172052651643753052e-02 3.174332669004797935e-03 5.221813544631004333e-02 5.040973890572786331e-03 -3.318715468049049377e-02 2.793962135910987854e-02 3.252518922090530396e-02 3.203823789954185486e-02 3.549842163920402527e-02 1.084374822676181793e-02 -5.300756171345710754e-02 -5.986083298921585083e-03 1.297503896057605743e-02 1.781040430068969727e-02 6.543177645653486252e-03 -5.795225501060485840e-02 7.470571901649236679e-03 -2.961502596735954285e-02 -4.400802031159400940e-02 1.250601839274168015e-02 2.034468762576580048e-02 3.672486916184425354e-02 -2.954563871026039124e-02 1.685833558440208435e-02 -4.817311093211174011e-02 -1.116214785724878311e-02 3.582420200109481812e-02 3.968302533030509949e-02 -2.775831520557403564e-02 4.069046303629875183e-02 1.933665201067924500e-02 4.610348120331764221e-02 -1.253242604434490204e-02 3.801327943801879883e-02 4.761147126555442810e-02 -1.203144551254808903e-03 -4.429528489708900452e-02 -3.736121580004692078e-02 5.122469365596771240e-02 3.672951087355613708e-02 1.432901900261640549e-02 -2.036914974451065063e-02 5.072573572397232056e-02 3.188950568437576294e-02 5.974215921014547348e-03 -1.176970472442917526e-04 -2.813305519521236420e-02 1.787923648953437805e-02 2.022074721753597260e-02 3.418816998600959778e-02 -7.655704859644174576e-03 -1.521053723990917206e-02 -2.315267734229564667e-02 -6.964881904423236847e-03 3.501145541667938232e-02 4.173550009727478027e-02 -8.761923760175704956e-03 -2.805994637310504913e-02 -2.696077525615692139e-02 2.219617739319801331e-02 3.053656034171581268e-02 -3.398836031556129456e-02 -4.822211712598800659e-02 -2.650336548686027527e-02 -1.205667480826377869e-02 3.123608417809009552e-02 -4.339711740612983704e-03 -2.196688577532768250e-02 -1.006034668534994125e-02 1.163711026310920715e-02 -9.842344559729099274e-03 3.458154620602726936e-03 2.554827136918902397e-03 8.647153154015541077e-03 -5.130692198872566223e-02 -3.433444723486900330e-02 1.053948886692523956e-02 8.572780061513185501e-04 2.430617110803723335e-03 2.762948721647262573e-02 2.953547984361648560e-02 -2.535103261470794678e-02 -3.661098703742027283e-02 1.763453707098960876e-02 3.996241372078657150e-03 -2.850693836808204651e-02 3.348711878061294556e-02 -1.454755198210477829e-02 -1.774954050779342651e-02 3.641690686345100403e-02 1.352501381188631058e-02 3.845418244600296021e-02 2.668198570609092712e-02 -8.400911465287208557e-03 1.638655923306941986e-02 3.251956310123205185e-03 -1.668076217174530029e-02 -5.102710053324699402e-02 1.321164052933454514e-02 3.783405199646949768e-02 2.784192375838756561e-02 1.297717681154608727e-04 -4.162500053644180298e-02 -4.553092271089553833e-02 1.322505157440900803e-02 -1.874316483736038208e-03 -2.500602230429649353e-02 4.318473488092422485e-02 1.025088224560022354e-02 -1.407126057893037796e-02 6.006332580000162125e-03 5.672318488359451294e-02 -3.510089963674545288e-02 3.409022465348243713e-02 2.720807120203971863e-02 3.575113415718078613e-02 -3.338056430220603943e-02 5.213679000735282898e-02 -2.073465846478939056e-02 3.204894065856933594e-02 1.697735488414764404e-02 3.266562521457672119e-02 -2.546790754422545433e-03 -2.123620733618736267e-02 4.642568528652191162e-02 1.136190816760063171e-02 3.962125629186630249e-03 -6.360273342579603195e-03 3.710598871111869812e-02 -2.331678569316864014e-02 -1.536121126264333725e-02 -1.256254222244024277e-02 5.933306366205215454e-02 -1.556799374520778656e-02 5.060942843556404114e-02 2.982886508107185364e-02 -4.330907389521598816e-02 4.615401849150657654e-02 -3.853188827633857727e-02 4.866600502282381058e-03 6.738341413438320160e-03 1.331772096455097198e-02 1.911737199407070875e-04 -4.016950726509094238e-02 -4.694082308560609818e-03 3.433675318956375122e-02 3.814511746168136597e-02 4.061208665370941162e-02 -4.765752702951431274e-02 4.528792202472686768e-02 5.366765335202217102e-02 1.658733747899532318e-02 1.488928403705358505e-02 -2.267546951770782471e-02 -3.850529342889785767e-02 -2.834763377904891968e-02 -2.421078272163867950e-02 2.890388108789920807e-02 -1.939999201567843556e-04 -3.621495887637138367e-02 -4.182605072855949402e-02 -1.336543075740337372e-02 -1.135739404708147049e-02 -1.535003166645765305e-02 8.211344480514526367e-03 2.653981931507587433e-02 1.603405177593231201e-02 2.877103863283991814e-03 3.324864804744720459e-02 -2.200378291308879852e-02 2.630859613418579102e-02 4.385637491941452026e-02 2.367068640887737274e-02 4.748187027871608734e-03 3.127131238579750061e-02 -7.023861631751060486e-03 6.688985507935285568e-03 -1.237452845089137554e-03 -4.206231236457824707e-02 1.572898030281066895e-02 6.006644293665885925e-02 -3.715908899903297424e-02 1.282628066837787628e-02 -2.023228444159030914e-02 -1.590228267014026642e-02 -2.294548600912094116e-02 -3.703812137246131897e-02 2.667266689240932465e-02 3.015726245939731598e-02 9.290189482271671295e-04 -1.245832163840532303e-02 -4.754875600337982178e-02 5.085979402065277100e-02 2.285834401845932007e-02 -2.934270352125167847e-02 2.369606122374534607e-02 2.666570805013179779e-02 -2.727182582020759583e-02 4.806618392467498779e-02 4.085650295019149780e-02 2.639235928654670715e-02 8.175663242582231760e-05 -2.383286692202091217e-02 2.597840316593647003e-02 -2.956567797809839249e-03 3.947820886969566345e-02 2.584829460829496384e-03 -2.872949279844760895e-02 -2.190920710563659668e-02 -3.581778705120086670e-02 2.822596952319145203e-02 -3.594354167580604553e-02 -4.421030730009078979e-02 -4.191523790359497070e-02 -4.608450829982757568e-02 -1.358759310096502304e-02 2.533057518303394318e-02 -1.554090250283479691e-02 -4.368261247873306274e-02 2.051599696278572083e-02 -1.771807856857776642e-02 5.070574209094047546e-02 -1.031354768201708794e-03 1.321296021342277527e-02 3.453488647937774658e-02 2.118143998086452484e-02 4.091349989175796509e-02 -6.001823116093873978e-03 -4.388718307018280029e-02 2.226467616856098175e-02 -3.215218335390090942e-02 -6.161184050142765045e-03 -3.702639415860176086e-02 1.229415927082300186e-02 -4.757073521614074707e-02 1.590605452656745911e-02 -2.490272745490074158e-02 -2.128051966428756714e-02 1.948341168463230133e-02 3.091740049421787262e-02 -2.149503305554389954e-02 4.591456308844499290e-05 2.277419343590736389e-02 -3.679544106125831604e-02 3.955616801977157593e-02 -4.838051274418830872e-02 4.288890957832336426e-02 8.772821165621280670e-03 4.359653219580650330e-02 3.744423389434814453e-03 3.826076537370681763e-02 1.787507906556129456e-02 1.823754422366619110e-02 5.867480649612843990e-04 -1.204358972609043121e-02 3.352590138092637062e-03 1.911400258541107178e-02 -1.952828839421272278e-02 -2.140198275446891785e-02 6.071629747748374939e-02 8.593879640102386475e-03 -4.796183481812477112e-02 4.166416451334953308e-02 -3.895598277449607849e-02 -1.106440462172031403e-02 3.651821753010153770e-03 4.034279286861419678e-02 -3.447441011667251587e-02 1.141291949898004532e-02 5.319877993315458298e-03 -2.862442098557949066e-02 1.692174561321735382e-02 2.988736517727375031e-02 -2.760305069386959076e-02 -4.279670119285583496e-02 3.474691510200500488e-02 3.364401310682296753e-02 -2.465602383017539978e-02 -2.297300286591053009e-02 -1.718152500689029694e-02 4.890470206737518311e-02 3.724329173564910889e-02 -9.594242088496685028e-03 3.557616611942648888e-03 8.517646230757236481e-03 2.696298621594905853e-02 5.089692398905754089e-02 5.136543768458068371e-04 -3.658962622284889221e-02 -2.109800092875957489e-02 -2.931429259479045868e-02 -3.114880621433258057e-02 5.260119587182998657e-02 -4.119577631354331970e-02 -2.826754003763198853e-03 -2.920029684901237488e-02 3.864249214529991150e-02 -3.505735099315643311e-02 -3.317181393504142761e-02 2.342269569635391235e-02 -2.677608281373977661e-02 7.934203371405601501e-03 4.605288431048393250e-02 2.720969356596469879e-02 1.258273329585790634e-02 -2.902902849018573761e-02 -4.199879616498947144e-02 -3.355554491281509399e-02 -1.895615831017494202e-02 -1.893898658454418182e-02 -4.514770582318305969e-02 1.066546142101287842e-02 1.597770489752292633e-02 6.907232571393251419e-03 2.093842625617980957e-02 -5.369433201849460602e-03 6.606834940612316132e-03 3.238597884774208069e-02 -1.080000959336757660e-02 -4.053022712469100952e-02 2.991815842688083649e-02 5.221916362643241882e-02 2.024741284549236298e-02
-3.227392956614494324e-02 -1.845571771264076233e-02 2.523957192897796631e-02 4.633223637938499451e-02 2.620921842753887177e-02 -4.560696333646774292e-02 -1.977116242051124573e-02 3.602305427193641663e-02 -2.992259338498115540e-02 4.475393518805503845e-02 4.779857024550437927e-02 -4.848307743668556213e-02 -1.477957796305418015e-02 -2.072421275079250336e-02 2.747421851381659508e-03 -7.509514689445495605e-03 2.923360094428062439e-02 4.046294838190078735e-02 2.079675905406475067e-02 3.044210560619831085e-02 3.834205865859985352e-02 1.755087432684376836e-04 -3.808626160025596619e-02 5.003497004508972168e-02 -2.079605683684349060e-02 1.192752458155155182e-02 3.032616712152957916e-02 4.498681426048278809e-02 -4.086221754550933838e-02 1.639472879469394684e-02 2.388159744441509247e-03 -2.285497449338436127e-02 -1.277037337422370911e-02 1.207826062454842031e-04 -3.587812930345535278e-02 -6.845650728791952133e-03 1.166598591953516006e-02 2.458475530147552490e-02 -3.104911930859088898e-02 -3.831736976280808449e-03 4.373021796345710754e-02 4.176179412752389908e-03 1.807146705687046051e-02 5.139294266700744629e-02 5.100587848573923111e-03 -7.460950873792171478e-03 -3.604014590382575989e-02 2.116578444838523865e-02 1.481461618095636368e-02 -2.213276457041501999e-03 3.980249539017677307e-02 3.932811319828033447e-02 -1.903112418949604034e-02 1.522237621247768402e-02 4.588237032294273376e-02 -4.826465621590614319e-02 3.328846395015716553e-02 -2.198707126080989838e-02 -2.677621669135987759e-04 -2.438036259263753891e-03 -3.437835350632667542e-02 3.212588280439376831e-02 -4.496089741587638855e-02 -1.013125572353601456e-02 -2.797206304967403412e-02 5.603973986580967903e-04 -3.258863091468811035e-02 1.798525266349315643e-02 -1.861772872507572174e-02 2.980960719287395477e-02 -2.208154089748859406e-02 -2.869253419339656830e-02 4.846953973174095154e-02 -1.392433606088161469e-02 2.861473150551319122e-02 -1.666191965341567993e-02 -1.910492405295372009e-02 -3.504963219165802002e-02 4.581239074468612671e-02 4.721182398498058319e-03 -3.048012405633926392e-02 -4.010778665542602539e-02 -1.883627288043498993e-02 -1.450888253748416901e-02 -3.376706317067146301e-02 -3.281069174408912659e-02 -1.112234219908714294e-02 -3.494532778859138489e-02 4.765787720680236816e-02 2.928917482495307922e-02 -1.185194496065378189e-02 -1.461978186853230000e-03 -1.437601912766695023e-02 2.735668048262596130e-02 1.204967964440584183e-03 -1.689104922115802765e-02 -1.432710979133844376e-02 3.877214714884757996e-02 3.882916644215583801e-02 3.375722840428352356e-02 1.851221174001693726e-02 2.916289679706096649e-02 -1.022329833358526230e-02 5.190358683466911316e-02 -8.627593517303466797e-03 -1.438046153634786606e-02 4.798933863639831543e-02 -6.003313697874546051e-03 4.107322078198194504e-03 -3.166651353240013123e-03 2.378654107451438904e-02 1.759407110512256622e-02 4.406371712684631348e-02 -1.063512358814477921e-02 -1.080983411520719528e-02 2.926575578749179840e-02 3.234714642167091370e-02 4.217596352100372314e-02 -1.750336214900016785e-02 -2.346953563392162323e-02 -1.826679147779941559e-02 -9.723825380206108093e-03 -3.680424066260457039e-03 4.752062261104583740e-02 1.838370412588119507e-02 6.384559441357851028e-03 -2.531366981565952301e-02 -2.955199684947729111e-03 -3.642703592777252197e-02 -3.150251880288124084e-02 3.498920798301696777e-02 2.005523256957530975e-02 -3.216440603137016296e-02 2.238084934651851654e-02 3.666526824235916138e-02 3.578504174947738647e-02 -4.546024277806282043e-02 -2.357293665409088135e-02 -3.853018581867218018e-02 1.015506312251091003e-02 -2.135949954390525818e-02 -5.550561472773551941e-02 -1.984753087162971497e-02 3.797196084633469582e-03 1.772515662014484406e-02 2.771406620740890503e-02 3.618149831891059875e-02 -2.143652550876140594e-02 -3.369337692856788635e-02 3.312848135828971863e-02 -8.113826625049114227e-03 -6.361959967762231827e-03 4.633695259690284729e-02 -1.263876166194677353e-02 -4.876814410090446472e-02 4.047199338674545288e-02 -2.244833298027515411e-02 3.964306041598320007e-02 2.825147099792957306e-02 -4.419854283332824707e-02 1.485683768987655640e-02 -7.297993171960115433e-03 -7.002781610935926437e-03 2.518893033266067505e-02 -2.041350305080413818e-02 -9.202037937939167023e-03 3.708796575665473938e-02 1.017685793340206146e-02 1.294782664626836777e-02 6.497908383607864380e-03 -1.657821238040924072e-02 -3.836431726813316345e-02 5.418949946761131287e-02 -1.414440572261810303e-02 1.336626894772052765e-02 -2.542765066027641296e-02 4.298955202102661133e-02 -4.380346462130546570e-02 7.320827338844537735e-03 -2.332139993086457253e-03 1.636867411434650421e-02 1.524865394458174706e-03 -2.359584905207157135e-02 2.906056493520736694e-02 -4.459493234753608704e-02 2.860296890139579773e-02 -4.101494327187538147e-02 -3.958816081285476685e-02 -1.353420317173004150e-02 3.171169757843017578e-02 1.535223424434661865e-02 2.553905546665191650e-02 -1.797110214829444885e-02 -2.053256332874298096e-02 -4.278090968728065491e-02 -2.960314787924289703e-02 -7.005466148257255554e-03 -3.087051399052143097e-02 -1.197622157633304596e-02 5.661999806761741638e-03 1.892991364002227783e-02 3.345197066664695740e-03 1.429784577339887619e-02 3.920316323637962341e-02 2.967154979705810547e-02 -5.289290472865104675e-02 -4.723939299583435059e-02 -1.691267825663089752e-02 -2.532606385648250580e-02 4.767341911792755127e-02 -1.121015753597021103e-02 2.192811667919158936e-02 1.848759502172470093e-02 -5.234073381870985031e-03 -1.206176588311791420e-03 1.255695987492799759e-02 -4.574524704366922379e-03 -1.041451655328273773e-02 2.857453748583793640e-02 1.555378176271915436e-02 -3.428334370255470276e-02 -2.523693442344665527e-02 -2.906334213912487030e-02 2.594784088432788849e-02 2.958423458039760590e-02 5.521722137928009033e-02 6.995194125920534134e-03 1.285690814256668091e-02 -2.027403190732002258e-02 3.896148502826690674e-02 1.247099321335554123e-02 3.687001764774322510e-02 5.312567809596657753e-04 3.627636283636093140e-02 -3.000607155263423920e-02 1.070125307887792587e-02 -1.360605354420840740e-03 -3.373165056109428406e-02 -2.001669816672801971e-02 -3.850489854812622070e-02 -2.227219194173812866e-02 5.595674365758895874e-02 4.731048643589019775e-02 1.272414159029722214e-02 4.301379993557929993e-02 -4.078471683897078037e-04 -5.286908242851495743e-03 1.346506550908088684e-02 2.607316011562943459e-03 -3.823068365454673767e-02 -3.872294723987579346e-02 -2.408594451844692230e-02 -3.404973819851875305e-02 -1.435813587158918381e-02 -4.322982951998710632e-02 1.309686806052923203e-02 3.787283599376678467e-02 -2.553088404238224030e-02 1.377115212380886078e-02 -1.631020568311214447e-02 -2.715198136866092682e-02 7.692401763051748276e-03 -2.505141869187355042e-02 -3.733003512024879456e-02 5.265955254435539246e-02 2.931385487318038940e-02 -2.005630731582641602e-02 4.357199743390083313e-02 4.450041800737380981e-02 -2.605205960571765900e-02 -1.306804828345775604e-02 -2.602648921310901642e-02 2.451596781611442566e-02 2.610699646174907684e-02 -1.628717989660799503e-03 5.761615000665187836e-03 2.873880043625831604e-02 -2.597041241824626923e-02 -1.239593327045440674e-02 -1.667324267327785492e-02 4.927790723741054535e-03 3.985909745097160339e-02 1.889564283192157745e-02 3.198089450597763062e-02 6.107702385634183884e-03 1.104264520108699799e-02 1.978753693401813507e-02 -3.795372694730758667e-02 4.010280221700668335e-02 3.525160998106002808e-02 -1.997515559196472168e-02 -4.905945807695388794e-02 2.939955331385135651e-02 3.071788325905799866e-02 1.799075119197368622e-02 4.236883297562599182e-02 -1.329667866230010986e-02 2.015207707881927490e-02 -3.046062588691711426e-02 -3.716487810015678406e-02 -3.337091207504272461e-02 -8.744615130126476288e-03 -4.439961165189743042e-02 -5.103453248739242554e-02 3.879665955901145935e-02 -1.151318568736314774e-02 -4.047262668609619141e-02 3.407154604792594910e-02 -2.671436965465545654e-02 1.684438996016979218e-02 -2.748618647456169128e-02 -1.734398677945137024e-02 -1.133431959897279739e-02 3.833767399191856384e-02 2.975040115416049957e-03 5.498294904828071594e-02 -1.776659861207008362e-02 3.866706788539886475e-02 4.077726230025291443e-02 2.405900135636329651e-02 3.695476055145263672e-02 -2.835000632330775261e-03 1.556404400616884232e-02 2.394140325486660004e-02 -2.047053165733814240e-02 -3.854425251483917236e-02 -3.331549838185310364e-02 1.319900527596473694e-02 3.820056840777397156e-02 -1.323407702147960663e-02 -4.754856973886489868e-02 -9.314275230281054974e-04 -4.408139735460281372e-02 -2.826979756355285645e-02 6.705653853714466095e-03 -2.436047606170177460e-02 -5.292181856930255890e-03 -1.582078263163566589e-02 -3.623718395829200745e-02 -1.459314115345478058e-02 -1.749399118125438690e-02 1.986386068165302277e-02 -4.533396661281585693e-02 2.773693576455116272e-02 -2.384822815656661987e-02 -1.185032655484974384e-03 -3.680404275655746460e-02 1.920030638575553894e-02 -4.482562839984893799e-02 2.354655601084232330e-02 -1.209221500903367996e-02 3.707860782742500305e-02 8.138262666761875153e-03 9.496926330029964447e-03 -3.801354393362998962e-02 -3.609761968255043030e-02 -3.769801929593086243e-02 2.754157222807407379e-02 2.363967336714267731e-02 -1.242332067340612411e-02 -3.787366673350334167e-03 1.762975379824638367e-02 -4.493838176131248474e-02 7.012118119746446609e-03 3.998346999287605286e-02 -3.843529522418975830e-02 4.031266272068023682e-02 6.373941898345947266e-03 -3.089143522083759308e-02 3.230305016040802002e-02 3.726715222001075745e-02 -5.420289933681488037e-03 1.906622946262359619e-02 -5.496840924024581909e-02 -3.132963180541992188e-02 2.033278346061706543e-02 -4.242873191833496094e-02 -2.249712124466896057e-02 3.768977522850036621e-02 5.938349291682243347e-03 -2.298363142472226173e-05 1.838767342269420624e-02 1.963554881513118744e-02 1.529834605753421783e-02 -5.156589671969413757e-03 -1.871743239462375641e-02 1.963994279503822327e-02 -3.211139142513275146e-02 -3.357264026999473572e-02 -3.577341139316558838e-02 3.098929114639759064e-02 -2.940529957413673401e-02 -4.096402600407600403e-02 4.082729294896125793e-02 -1.180730108171701431e-02 -1.427653338760137558e-02 -2.621997520327568054e-02 -3.832146758213639259e-03 2.920367009937763214e-02 -3.382270038127899170e-02
-1.844217255711555481e-02 -1.027980446815490723e-02 1.183252781629562378e-02 3.581837192177772522e-02 -2.637883462011814117e-02 2.877801656723022461e-03 -4.937141016125679016e-02 -1.723795384168624878e-02 -1.245940849184989929e-02 3.637448325753211975e-02 2.032849565148353577e-02 2.023093029856681824e-02 4.727125540375709534e-02 2.769272774457931519e-03 -2.813593111932277679e-02 1.325942203402519226e-02 3.644802793860435486e-02 1.259275898337364197e-02 8.497141301631927490e-03 4.418833181262016296e-02 -2.694356441497802734e-02 3.717262670397758484e-02 3.879740461707115173e-02 7.924810051918029785e-04 -3.722425550222396851e-02 3.935224935412406921e-02 6.226509809494018555e-03 6.094940006732940674e-03 8.872110396623611450e-03 1.555058732628822327e-02 3.297703340649604797e-02 -1.971997693181037903e-02 2.404782548546791077e-02 1.214147731661796570e-02 -1.405928283929824829e-02 8.835516870021820068e-03 -2.287558279931545258e-02 -2.149074152112007141e-02 -1.973084174096584320e-02 -2.095283381640911102e-02 3.623013570904731750e-02 -1.664571464061737061e-04 5.147628486156463623e-03 4.587219282984733582e-02 -1.382893323898315430e-02 4.967245832085609436e-02 -8.913259953260421753e-03 -4.810270667076110840e-02 5.254309624433517456e-03 -1.590930297970771790e-02 -4.833031445741653442e-02 4.165144637227058411e-02 -1.011385396122932434e-02 8.379131555557250977e-03 2.750435099005699158e-02 -4.802840948104858398e-02 2.659752592444419861e-02 1.517823711037635803e-02 -3.369282558560371399e-02 3.911587968468666077e-02 3.200015798211097717e-02 -4.587229713797569275e-02 2.205119654536247253e-02 3.093913570046424866e-02 -1.725020259618759155e-02 -4.509817436337471008e-02 -4.202615469694137573e-03 -2.576782181859016418e-02 -7.234118878841400146e-03 3.421735391020774841e-02 7.755745202302932739e-03 4.284662380814552307e-02 -8.484862744808197021e-03 -2.375412546098232269e-02 2.122758701443672180e-02 -1.261707022786140442e-02 1.090433448553085327e-02 -9.029697626829147339e-03 -3.735045343637466431e-02 -2.353677712380886078e-02 -1.292554289102554321e-02 2.637661993503570557e-03 -2.347681485116481781e-02 -1.365296170115470886e-02 -3.676621243357658386e-02 -3.320468962192535400e-02 1.247115433216094971e-03 -2.900047414004802704e-02 2.491733804345130920e-02 8.485794067382812500e-03 9.406678378582000732e-03 1.159210130572319031e-02 2.439633384346961975e-02 2.035864070057868958e-02 -1.127542927861213684e-02 -1.529943943023681641e-02 4.972614720463752747e-02 -3.959305956959724426e-02 -7.429622113704681396e-03 -2.480600588023662567e-02 -7.491338998079299927e-03 3.511368855834007263e-02 1.660003140568733215e-02 -3.883466124534606934e-02 -2.966897003352642059e-02 -3.484169766306877136e-02 -3.442434221506118774e-02 -2.494768612086772919e-02 3.483928367495536804e-02 -4.270764812827110291e-02 3.243455663323402405e-02 -2.757459878921508789e-03 -4.889499396085739136e-03 2.022821456193923950e-03 -2.980899251997470856e-02 1.706111803650856018e-02 1.778031513094902039e-02 -3.079828619956970215e-02 -3.407598286867141724e-02 3.497440367937088013e-03 -4.203666001558303833e-03 -2.386947907507419586e-02 -4.088784009218215942e-02 4.294552281498908997e-02 -4.114306718111038208e-02 -3.329659998416900635e-02 -4.171255230903625488e-02 -2.502372302114963531e-02 3.403089940547943115e-03 7.210560142993927002e-04 -5.421835929155349731e-03 1.732898876070976257e-02 -3.574896603822708130e-03 1.896173879504203796e-02 6.660744547843933105e-04 -4.582384228706359863e-02 4.424573853611946106e-02 3.981166705489158630e-02 3.401160240173339844e-03 1.512670889496803284e-02 -2.683614008128643036e-02 2.209634706377983093e-02 1.023542135953903198e-03 1.668964698910713196e-02 -4.634580761194229126e-02 -4.203210398554801941e-02 4.994502291083335876e-02 -4.374831542372703552e-02 4.447666183114051819e-02 -3.696820139884948730e-02 -4.560853168368339539e-02 -8.672881871461868286e-03 -4.277262836694717407e-02 3.762617334723472595e-02 -4.945103451609611511e-02 -1.114438846707344055e-02 -4.846346005797386169e-02 -4.743493720889091492e-02 -1.542933285236358643e-03 -3.518027812242507935e-02 -3.606061264872550964e-02 -3.130477666854858398e-02 1.307535544037818909e-02 3.709298744797706604e-02 -2.570543996989727020e-02 -4.435850307345390320e-02 -1.972723565995693207e-02 -2.437188103795051575e-02 1.801298931241035461e-02 -3.799607232213020325e-02 -1.864752173423767090e-02 4.529097303748130798e-02 -4.894052073359489441e-02 4.758473113179206848e-02 2.416692674160003662e-03 -1.733307912945747375e-02 4.986843839287757874e-02 3.825894370675086975e-02 1.709044352173805237e-02 3.479476645588874817e-02 -1.570072025060653687e-02 3.371718898415565491e-02 2.146658673882484436e-02 3.390260413289070129e-02 -3.208357095718383789e-02 -5.368001759052276611e-03 4.587635025382041931e-02 1.863745972514152527e-02 -2.676240168511867523e-02 -2.251349389553070068e-03 2.824686095118522644e-02 -2.125851623713970184e-02 6.586544215679168701e-03 -3.005033731460571289e-02 -4.464986547827720642e-02 3.981523215770721436e-03 -1.746664568781852722e-02 4.746839404106140137e-04 -2.286546304821968079e-02 3.565125539898872375e-02 -5.509831011295318604e-03 -3.051738813519477844e-02 3.061069920659065247e-02 -1.335288211703300476e-02 1.508389040827751160e-02 2.671987935900688171e-02 2.524567767977714539e-02 -3.336148336529731750e-02 -2.966397441923618317e-02 -1.184500008821487427e-02 -4.141173884272575378e-02 -3.818969056010246277e-02 8.270096033811569214e-03 -4.895786568522453308e-02 -2.955384925007820129e-02 7.217872887849807739e-03 -3.538767248392105103e-02 -2.856898307800292969e-02 2.990591898560523987e-02 -4.265706613659858704e-02 4.477825388312339783e-02 -4.346866533160209656e-02 -1.125197485089302063e-02 -4.799815639853477478e-02 -3.148507326841354370e-02 -4.974984005093574524e-02 -2.731407247483730316e-02 -8.107721805572509766e-04 1.391638442873954773e-02 2.216215804219245911e-02 1.268741860985755920e-02 4.985982552170753479e-02 1.524077728390693665e-02 -2.541266754269599915e-02 4.825750365853309631e-02 -2.045720815658569336e-03 -6.361417472362518311e-04 -2.091330289840698242e-02 -3.280125930905342102e-02 -4.043853282928466797e-02 2.506774291396141052e-02 -2.538691833615303040e-02 8.033215999603271484e-03 2.140928432345390320e-02 1.530906930565834045e-02 -1.298393681645393372e-02 2.651838585734367371e-02 -2.516847290098667145e-02 -3.713662549853324890e-02 -3.303675353527069092e-02 3.252201899886131287e-02 7.571540772914886475e-03 -3.886144608259201050e-02 2.197928726673126221e-03 6.005786359310150146e-03 -2.985802851617336273e-02 4.641436040401458740e-03 3.237191960215568542e-02 3.221628442406654358e-02 -1.477514952421188354e-02 -1.063039898872375488e-02 3.028491511940956116e-02 2.796843275427818298e-02 -1.615411043167114258e-02 -9.609237313270568848e-04 -1.752519607543945312e-02 -2.903856709599494934e-02 1.438463106751441956e-02 1.452036201953887939e-03 3.768951073288917542e-02 -2.749829366803169250e-02 -4.249006509780883789e-03 -4.194550216197967529e-03 1.178923249244689941e-02 5.719702690839767456e-03 -3.462781384587287903e-02 -9.984832257032394409e-03 -1.150643825531005859e-02 3.231557831168174744e-02 -3.335963934659957886e-03 1.444539800286293030e-02 3.095433488488197327e-02 3.617770969867706299e-03 4.239748790860176086e-02 -4.713921621441841125e-02 -3.267135471105575562e-02 -5.791567265987396240e-03 1.070750877261161804e-02 -3.334354236721992493e-02 -9.432971477508544922e-03 -3.922986984252929688e-02 -4.508392140269279480e-02 -4.691759496927261353e-02 -2.587142027914524078e-02 2.804947271943092346e-02 -3.253982216119766235e-02 -2.174500189721584320e-02 2.467413619160652161e-02 -2.702884189784526825e-02 -4.919642955064773560e-02 -3.118022158741950989e-02 2.055991068482398987e-02 4.009921103715896606e-03 4.023258015513420105e-02 -1.753602549433708191e-02 3.511218354105949402e-02 5.614869296550750732e-04 -3.255734592676162720e-02 -4.594109579920768738e-02 -8.773714303970336914e-03 4.879287257790565491e-02 1.934114471077919006e-02 1.403998956084251404e-02 -1.963954605162143707e-02 2.146813645958900452e-02 -4.813938215374946594e-02 1.544972136616706848e-02 2.764992043375968933e-02 1.657553017139434814e-03 4.457338526844978333e-02 -4.132641479372978210e-02 -4.964430257678031921e-02 -8.777022361755371094e-03 -4.366595298051834106e-02 -2.090531028807163239e-02 4.453442618250846863e-02 -2.259911969304084778e-02 -1.689581945538520813e-02 -1.103885099291801453e-02 -1.035254448652267456e-02 2.480882778763771057e-02 2.184921130537986755e-02 9.530164301395416260e-03 1.512575522065162659e-02 -4.689696058630943298e-02 4.983296617865562439e-02 3.356414660811424255e-02 -2.959711663424968719e-02 -1.445220783352851868e-02 2.374622598290443420e-02 2.785435691475868225e-02 -4.843696579337120056e-02 9.830176830291748047e-03 2.678899094462394714e-02 -2.462758496403694153e-02 6.035316735506057739e-03 -2.530166506767272949e-02 2.250265330076217651e-03 1.470227912068367004e-02 -2.201074920594692230e-02 3.850290551781654358e-02 -2.485565654933452606e-02 -1.114755868911743164e-03 9.949952363967895508e-03 -7.109921425580978394e-03 2.891952171921730042e-02 -3.215105086565017700e-02 -4.703068733215332031e-02 1.020431518554687500e-03 2.143450453877449036e-02 1.868188381195068359e-03 -3.994532674551010132e-02 1.078199222683906555e-02 -5.099970847368240356e-03 1.410203799605369568e-02 2.116223052144050598e-02 -1.418349891901016235e-02 1.265165582299232483e-02 -4.754954576492309570e-02 4.668332636356353760e-03 1.988220587372779846e-02 -4.511117935180664062e-03 2.977383509278297424e-02 7.354475557804107666e-03 -2.628635801374912262e-02 -3.613088279962539673e-02 4.003908112645149231e-02 -2.727111615240573883e-02 -1.731459423899650574e-02 2.995252981781959534e-02 4.852571710944175720e-02 3.184450045228004456e-02 2.179380133748054504e-02 1.421159878373146057e-02 3.420124575495719910e-02 -2.893706038594245911e-02 3.479909524321556091e-02 -3.559108823537826538e-02 -3.780258819460868835e-02 -3.412335366010665894e-02 2.830778434872627258e-02 -2.226280607283115387e-02 4.144898429512977600e-02 -1.686804369091987610e-02 2.494243159890174866e-02 -1.077719032764434814e-03 -3.434443473815917969e-02 -4.375844821333885193e-02 -1.987466216087341309e-02 -3.896602988243103027e-02
8.168254978954792023e-03 1.571755483746528625e-02 -1.582672074437141418e-02 -2.679950371384620667e-02 -4.833799786865711212e-03 -3.791782632470130920e-02 -4.219734109938144684e-03 -3.240722045302391052e-02 4.635595902800559998e-02 3.849552711471915245e-03 -2.838956937193870544e-02 -4.730490967631340027e-02 -1.123467180877923965e-02 -4.076691344380378723e-02 -2.303258888423442841e-02 3.662024065852165222e-02 -3.643252654001116753e-03 1.736549101769924164e-02 4.761490598320960999e-02 -5.540198180824518204e-03 2.846895251423120499e-03 2.285677008330821991e-02 3.898645564913749695e-02 -2.807172387838363647e-02 -2.699982607737183571e-03 1.149872317910194397e-02 1.212555263191461563e-02 -2.668817527592182159e-02 3.366738930344581604e-02 -2.438041195273399353e-02 -4.695183411240577698e-02 4.382857307791709900e-02 -1.647394150495529175e-03 2.405550517141819000e-02 4.140074178576469421e-02 -4.751634597778320312e-02 -1.612293720245361328e-02 2.549635479226708412e-03 -3.444034606218338013e-02 2.444994822144508362e-02 5.967247765511274338e-03 3.886045888066291809e-02 -2.496595866978168488e-02 -4.193677753210067749e-02 -3.439855948090553284e-02 -1.165412645787000656e-02 -4.439852759242057800e-02 2.842189744114875793e-02 -3.104778751730918884e-02 -9.530710987746715546e-03 3.637078404426574707e-02 -1.864908449351787567e-02 -4.668512567877769470e-02 1.302982866764068604e-02 -3.613431006669998169e-02 3.639526665210723877e-02 -1.434664893895387650e-02 -1.230303850024938583e-02 3.950612992048263550e-02 2.885809354484081268e-02 -2.120947837829589844e-02 4.994389042258262634e-02 -4.101336002349853516e-03 1.683967653661966324e-03 1.053492072969675064e-02 -2.472508139908313751e-02 3.509224951267242432e-02 1.623279415071010590e-02 1.281490176916122437e-02 -3.401282429695129395e-02 -3.771002963185310364e-02 -1.284619234502315521e-02 -1.791648380458354950e-02 1.640250789932906628e-03 -1.705489307641983032e-02 -2.961919642984867096e-02 -2.269644290208816528e-03 -1.159544009715318680e-02 4.336144030094146729e-02 3.140730038285255432e-02 1.413568481802940369e-02 -3.034269809722900391e-02 1.416436210274696350e-02 -1.921460963785648346e-02 2.640294283628463745e-02 4.816269874572753906e-02 1.589781721122562885e-03 -2.061404986307024956e-03 -5.153294652700424194e-03 -4.452269151806831360e-02 -1.104180701076984406e-02 -1.579463295638561249e-02 3.983057290315628052e-02 -2.618674002587795258e-02 9.540312923491001129e-03 -2.189024724066257477e-02 -1.975425891578197479e-02 -2.173469588160514832e-02 -1.771634630858898163e-02 -1.415919512510299683e-03 2.855359762907028198e-02 2.105191163718700409e-02 3.146474808454513550e-02 -3.669807687401771545e-02 -3.397793695330619812e-02 3.756423667073249817e-02 -3.388657793402671814e-02 4.442439228296279907e-02 1.521705742925405502e-02 6.920801941305398941e-03 -2.556805126368999481e-02 -2.497177943587303162e-02 4.659974947571754456e-02 1.785875647328794003e-03 -1.919664815068244934e-02 -1.357319951057434082e-02 1.968411728739738464e-02 1.946017518639564514e-02 3.771748393774032593e-02 1.060235965996980667e-02 2.363231405615806580e-02 1.044468954205513000e-02 -4.466527327895164490e-02 -1.126103848218917847e-02 -4.501721262931823730e-02 4.208978265523910522e-02 4.084982350468635559e-02 9.774831123650074005e-03 2.245665714144706726e-02 8.002038113772869110e-03 2.339074388146400452e-02 2.851156285032629967e-03 -7.458996027708053589e-03 -1.967029273509979248e-02 -3.083688579499721527e-02 -3.796111419796943665e-02 1.569834351539611816e-02 1.181618962436914444e-02 -4.178955033421516418e-02 -3.568413201719522476e-03 -4.155297949910163879e-02 -8.680980652570724487e-03 -6.054721772670745850e-03 -2.952018007636070251e-02 -3.720207372680306435e-03 4.313721880316734314e-02 2.176628261804580688e-02 3.379952907562255859e-02 -9.097397327423095703e-03 -4.863626882433891296e-02 -3.085113689303398132e-02 -3.985892515629529953e-03 -2.818216197192668915e-02 -3.787024691700935364e-02 -2.716121263802051544e-02 -1.239400263875722885e-02 -2.287526242434978485e-02 1.714432239532470703e-02 2.094434015452861786e-02 4.947099834680557251e-02 1.210153102874755859e-03 1.948785036802291870e-02 4.995884001255035400e-02 4.222599789500236511e-02 -4.104777425527572632e-02 -2.822368033230304718e-02 3.209667652845382690e-02 1.995404250919818878e-03 2.108028903603553772e-02 -1.913240551948547363e-02 2.022552117705345154e-02 -1.215002615936100483e-03 -3.511321498081088066e-03 -1.827201247215270996e-02 -3.319760411977767944e-02 3.411391004920005798e-02 -1.834524213336408138e-03 2.288056910037994385e-02 -4.654567316174507141e-02 1.939229294657707214e-02 3.440995141863822937e-02 -1.031773630529642105e-02 -2.156197465956211090e-02 -2.954332344233989716e-02 4.207072034478187561e-02 1.478579267859458923e-02 -3.332890942692756653e-02 -4.899895191192626953e-02 -4.369573295116424561e-02 -4.513185471296310425e-02 -3.556137904524803162e-02 -3.675707802176475525e-02 -3.836017474532127380e-02 -2.347020618617534637e-02 -4.314291104674339294e-02 3.207356110215187073e-02 -3.908564522862434387e-02 1.099636591970920563e-02 5.282169207930564880e-03 -4.210807010531425476e-02 -8.956322446465492249e-03 1.499644573777914047e-02 -2.870786190032958984e-02 1.601071096956729889e-02 2.914689667522907257e-02 6.708041299134492874e-03 -1.596972160041332245e-02 5.831412505358457565e-03 6.605610251426696777e-03 -8.657630532979965210e-03 -1.423372700810432434e-02 -3.764041885733604431e-02 3.410484874621033669e-03 4.627855494618415833e-02 1.653374172747135162e-02 4.176468029618263245e-02 -1.051755622029304504e-02 1.268250122666358948e-02 2.238286659121513367e-02 2.396781370043754578e-02 -3.038000129163265228e-02 2.222960069775581360e-02 1.925255544483661652e-02 1.322149205952882767e-02 -9.247772395610809326e-03 -1.079305820167064667e-02 1.025473792105913162e-02 8.625876158475875854e-03 -4.641928523778915405e-02 -6.511139683425426483e-03 -1.810414344072341919e-02 -2.713913843035697937e-02 -1.003451412543654442e-03 -3.815610706806182861e-02 2.073054946959018707e-02 -1.811234839260578156e-02 1.975950039923191071e-02 2.664900198578834534e-02 -3.270333260297775269e-02 -3.143608570098876953e-03 -4.029148817062377930e-02 6.994169671088457108e-04 -4.583895578980445862e-02 -5.625617632176727057e-05 5.901638418436050415e-03 3.716741222888231277e-03 7.457055617123842239e-03 -2.113442867994308472e-03 2.671590819954872131e-02 -2.730596065521240234e-02 -3.909357637166976929e-02 8.507164195179939270e-03 3.001903556287288666e-02 -1.015167683362960815e-03 3.261227160692214966e-02 -3.422700613737106323e-02 -3.133335709571838379e-02 3.288566693663597107e-02 2.673398330807685852e-02 1.723466441035270691e-02 -4.902366921305656433e-02 3.968521952629089355e-02 4.116423428058624268e-03 2.728821523487567902e-02 3.423586115241050720e-02 1.572805376781616360e-05 -2.988345921039581299e-02 -4.438371211290359497e-02 -1.916151493787765503e-02 2.944368869066238403e-03 1.635146141052246094e-02 4.149682074785232544e-02 5.495734047144651413e-03 3.811079636216163635e-02 -4.034447949379682541e-03 1.455851551145315170e-02 -4.792605713009834290e-02 -3.533483296632766724e-02 -4.524781927466392517e-02 -1.264655264094471931e-03 2.406463027000427246e-02 -3.262345492839813232e-02 -3.564118593931198120e-02 -1.446326641598716378e-04 -5.256610456854104996e-03 3.898141905665397644e-02 -2.954072132706642151e-02 4.930349439382553101e-02 3.593032062053680420e-02 2.692781388759613037e-03 -8.205614984035491943e-03 -1.505670603364706039e-02 3.210164606571197510e-03 -1.391720306128263474e-02 4.916364699602127075e-02 -2.516908384859561920e-02 -2.261688187718391418e-02 -3.452461212873458862e-02 4.249868169426918030e-02 -2.259079553186893463e-02 -4.737569019198417664e-03 -4.214417561888694763e-02 -4.724681377410888672e-02 -9.046413004398345947e-03 -2.247299812734127045e-02 -3.435211256146430969e-03 3.472393655101768672e-05 -5.031899735331535339e-02 -4.414474591612815857e-02 -2.689804136753082275e-02 3.377164527773857117e-02 3.334101289510726929e-02 -4.318328201770782471e-02 4.680460318922996521e-02 2.631242573261260986e-02 8.819688111543655396e-03 4.938565194606781006e-02 -1.245988812297582626e-02 2.115798927843570709e-02 -4.246937111020088196e-02 -3.083440661430358887e-02 -9.068271145224571228e-03 6.649282760918140411e-03 3.210999816656112671e-02 3.990920726209878922e-03 1.496634446084499359e-02 1.781684346497058868e-02 -1.281452458351850510e-02 -4.116054996848106384e-02 8.569941855967044830e-03 -3.631230443716049194e-02 -1.969588920474052429e-03 -3.141439706087112427e-02 1.818295195698738098e-02 -1.902723871171474457e-02 4.298137128353118896e-02 4.579603299498558044e-02 2.309550903737545013e-02 8.931230753660202026e-03 -3.818123787641525269e-02 7.226388901472091675e-03 4.926851764321327209e-02 -1.163080986589193344e-02 3.999474644660949707e-02 2.679232135415077209e-02 2.075288072228431702e-02 -5.858287215232849121e-03 -1.584939658641815186e-02 -4.170975834131240845e-02 -4.522573202848434448e-03 1.118045859038829803e-02 -4.264293611049652100e-02 2.002192102372646332e-02 1.352090854197740555e-03 -1.113846991211175919e-02 2.379280701279640198e-02 -1.296362094581127167e-02 -1.717117987573146820e-02 -4.113782569766044617e-02 -2.009905688464641571e-02 -3.396015986800193787e-02 -4.294386133551597595e-02 -2.338036708533763885e-02 -2.687095478177070618e-02 -3.769237920641899109e-02 -2.500708028674125671e-02 -5.107009038329124451e-02 4.101039841771125793e-02 2.319400385022163391e-02 4.004018381237983704e-02 -1.529212482273578644e-02 1.230020634829998016e-02 2.854595892131328583e-02 -4.533113539218902588e-02 -3.234963491559028625e-02 2.986820787191390991e-02 2.530005946755409241e-02 -4.043349623680114746e-02 -3.259526565670967102e-02 1.406509429216384888e-03 -2.597468905150890350e-02 -3.563168644905090332e-02 4.225033149123191833e-02 2.797690965235233307e-02 1.746992208063602448e-02 3.070915862917900085e-02 1.072920206934213638e-02 -4.592427611351013184e-02 -4.120596498250961304e-02 2.978872135281562805e-02 -2.497191168367862701e-02 2.879790402948856354e-02 -7.279486861079931259e-03 4.690640047192573547e-02 2.599386312067508698e-02 -2.049373462796211243e-02 4.836103692650794983e-02 1.796466857194900513e-02 -1.507392525672912598e-02 -1.744779385626316071e-02
2.556367963552474976e-02 2.794099412858486176e-02 5.240829661488533020e-02 2.779453806579113007e-02 -4.409735649824142456e-02 -5.574131384491920471e-02 -1.576444879174232483e-02 -1.911413669586181641e-02 2.196095325052738190e-02 5.676296353340148926e-02 -1.434125564992427826e-02 -2.010546438395977020e-02 2.075233682990074158e-02 -3.738078102469444275e-02 -8.102401159703731537e-03 5.131105426698923111e-03 -2.487216517329216003e-02 -2.370105311274528503e-02 -3.684223070740699768e-02 7.103981915861368179e-03 -3.677941393107175827e-03 1.871198415756225586e-02 4.687341675162315369e-02 2.833969518542289734e-02 3.454313799738883972e-02 -2.423761645331978798e-03 1.175375655293464661e-02 8.289261721074581146e-03 3.899428993463516235e-02 1.316041965037584305e-02 5.324769765138626099e-02 -4.085812717676162720e-02 5.582832172513008118e-02 -1.948620751500129700e-02 3.672074154019355774e-02 1.935822889208793640e-03 4.233597591519355774e-02 6.201583892107009888e-03 3.256671130657196045e-03 4.155768081545829773e-02 5.159438028931617737e-02 -4.635908827185630798e-02 3.352978825569152832e-02 2.209671586751937866e-02 3.058638609945774078e-02 -4.135672748088836670e-02 -5.851641297340393066e-03 2.623262628912925720e-02 -3.014082461595535278e-02 -4.119339957833290100e-02 2.179736085236072540e-02 -1.816890202462673187e-03 -6.885912269353866577e-03 -6.801981013268232346e-03 -1.887815073132514954e-02 3.957151493523269892e-04 -2.455186285078525543e-02 -5.767149850726127625e-03 -5.324943456798791885e-03 1.536041963845491409e-02 1.541086821816861629e-03 -4.667698964476585388e-02 1.572920382022857666e-02 -2.358056977391242981e-02 -8.024331182241439819e-03 1.349636260420084000e-02 -1.150416117161512375e-02 1.602596021257340908e-03 -2.566590160131454468e-02 9.207060560584068298e-03 2.836157009005546570e-02 6.847054231911897659e-03 4.951470345258712769e-02 3.566348552703857422e-02 2.622846513986587524e-02 3.470685333013534546e-02 1.727541722357273102e-02 1.275298371911048889e-02 -1.614809595048427582e-02 2.991078421473503113e-02 -2.833356522023677826e-02 3.355046361684799194e-02 2.957947738468647003e-02 5.153094232082366943e-02 2.732998877763748169e-02 2.226053737103939056e-02 5.259918794035911560e-02 -2.421751059591770172e-02 -7.995866239070892334e-03 -4.804055765271186829e-02 1.857279613614082336e-02 -1.574389263987541199e-02 -2.964954823255538940e-02 3.689320012927055359e-02 -6.163056008517742157e-03 2.317045256495475769e-02 -3.854464739561080933e-02 3.932490013539791107e-03 4.099383950233459473e-02 5.469333380460739136e-02 -8.731744252145290375e-03 3.038754500448703766e-02 -5.903437267988920212e-03 3.476681932806968689e-02 4.282218590378761292e-02 -4.251289367675781250e-02 1.386409532278776169e-02 -3.927819058299064636e-02 -1.264553284272551537e-03 2.557545527815818787e-02 1.904192497022449970e-03 -5.495873745530843735e-03 -2.858244441449642181e-02 2.470579370856285095e-02 2.279193699359893799e-02 -3.822594508528709412e-02 3.526818379759788513e-02 1.576102338731288910e-03 4.916429053992033005e-03 -2.010206878185272217e-02 3.567340970039367676e-02 8.945935405790805817e-03 4.569606482982635498e-02 7.665283046662807465e-03 -7.773963734507560730e-03 5.513650830835103989e-03 3.657247498631477356e-02 4.607285372912883759e-03 -9.228976443409919739e-03 -1.261331955902278423e-03 1.770075410604476929e-03 -1.568160019814968109e-02 5.633162334561347961e-02 1.692637102678418159e-03 -1.096371747553348541e-02 -2.502295002341270447e-02 2.415988780558109283e-02 3.197452053427696228e-02 -1.367810182273387909e-02 -2.737824060022830963e-02 4.025847837328910828e-02 3.103082813322544098e-02 -1.233472954481840134e-02 -1.375572988763451576e-03 -2.197471447288990021e-02 4.674997180700302124e-03 2.763760276138782501e-02 1.170681789517402649e-02 -3.858415037393569946e-02 2.826621755957603455e-02 -3.301439061760902405e-02 1.678070053458213806e-02 4.816318675875663757e-02 3.957974910736083984e-02 -4.042863845825195312e-02 -4.161858558654785156e-02 2.263323403894901276e-02 -3.547105565667152405e-02 5.253287032246589661e-02 -5.112502723932266235e-03 -3.442475572228431702e-02 4.211572185158729553e-02 -1.824625767767429352e-02 3.776013851165771484e-02 3.797369077801704407e-02 -9.165622293949127197e-03 7.818493992090225220e-03 -1.824352517724037170e-02 -4.982324689626693726e-02 2.174054831266403198e-02 -4.110059514641761780e-02 1.380856800824403763e-02 -2.793490327894687653e-02 2.999181859195232391e-02 -6.680629681795835495e-03 4.056906327605247498e-03 -1.102214446291327477e-03 -5.968041252344846725e-03 3.549431450664997101e-03 -2.067547664046287537e-02 -4.049469530582427979e-02 -3.104667738080024719e-02 4.162882640957832336e-02 -2.429734542965888977e-02 -5.940229631960391998e-03 3.639313206076622009e-02 3.086994960904121399e-02 4.719334840774536133e-02 3.565090149641036987e-02 -2.958597615361213684e-02 -4.560669884085655212e-02 3.992337733507156372e-02 2.228506840765476227e-03 3.523122519254684448e-02 -1.720234565436840057e-02 -4.974924772977828979e-02 1.126922480762004852e-02 3.337483620271086693e-03 1.062334980815649033e-02 -1.897085085511207581e-02 7.228211034089326859e-03 2.256732992827892303e-02 -9.765869937837123871e-03 4.211828485131263733e-02 -1.882587443105876446e-03 3.706308454275131226e-02 -4.009985551238059998e-02 3.803790314123034477e-03 -1.089872792363166809e-02 5.788846407085657120e-03 2.851891913451254368e-04 1.570166274905204773e-02 6.021544802933931351e-03 -2.579280175268650055e-02 -2.737648226320743561e-02 2.934836782515048981e-02 5.384538695216178894e-02 -6.023339927196502686e-03 2.724480815231800079e-02 -3.884849697351455688e-02 5.180461332201957703e-02 2.676837146282196045e-02 1.457492168992757797e-02 3.377564996480941772e-02 -3.936111181974411011e-02 -1.364139281213283539e-02 -3.440165519714355469e-02 -2.715768478810787201e-02 3.271720930933952332e-02 4.033657908439636230e-02 3.650372847914695740e-02 -2.430175431072711945e-02 9.958860464394092560e-04 -4.160450305789709091e-03 4.548307508230209351e-02 4.368638992309570312e-02 4.592392966151237488e-02 2.494139038026332855e-02 3.226726129651069641e-02 2.612621709704399109e-02 -2.128962986171245575e-02 2.333699166774749756e-02 2.796589955687522888e-02 -8.062080480158329010e-03 -4.046498239040374756e-02 -7.987299934029579163e-03 -1.367706339806318283e-03 -3.672890737652778625e-02 3.688460215926170349e-02 1.555081084370613098e-02 3.637864720076322556e-03 5.396445840597152710e-02 -2.626820839941501617e-02 3.831211850047111511e-02 3.348603099584579468e-02 7.939113304018974304e-03 1.101733883842825890e-03 4.166403040289878845e-02 5.350330099463462830e-02 2.365324273705482483e-02 4.198176786303520203e-02 5.621653515845537186e-03 -2.635336667299270630e-02 3.459803014993667603e-02 2.046922408044338226e-02 4.317285120487213135e-02 -1.751983771100640297e-03 -8.331133285537362099e-04 -2.005864493548870087e-02 4.991754889488220215e-02 1.537410193122923374e-03 1.652977196499705315e-03 -4.013494029641151428e-02 -1.934835687279701233e-02 -4.161282628774642944e-02 9.478444233536720276e-03 5.627454817295074463e-02 -3.954175487160682678e-02 -1.215802598744630814e-02 1.827212981879711151e-02 2.191563881933689117e-02 -3.324502706527709961e-02 9.768732823431491852e-03 2.508333697915077209e-02 2.257843315601348877e-02 7.372461259365081787e-03 4.374613985419273376e-02 4.497552756220102310e-03 -8.989063091576099396e-03 -3.386984393000602722e-02 -2.176307328045368195e-02 -3.566629439592361450e-02 -8.804203942418098450e-03 1.761622168123722076e-02 -4.414564743638038635e-02 -2.992219850420951843e-02 -6.883631460368633270e-03 -3.414059057831764221e-02 4.430142045021057129e-02 -3.226758167147636414e-02 -2.351828478276729584e-02 3.415673598647117615e-02 -8.026880212128162384e-03 -4.016085341572761536e-02 2.838874235749244690e-02 9.457772597670555115e-03 5.427056550979614258e-02 3.740911930799484253e-02 -7.094697095453739166e-03 4.398967698216438293e-02 -1.104512717574834824e-02 -3.975056111812591553e-02 -3.322694823145866394e-02 -7.839836180210113525e-03 5.774763599038124084e-02 1.804621075280010700e-03 -2.200563251972198486e-02 2.156384103000164032e-02 -5.503413081169128418e-02 -4.065100476145744324e-02 -1.373758167028427124e-02 2.295319363474845886e-02 2.756488509476184845e-02 4.029401391744613647e-02 2.718394622206687927e-02 -8.951296098530292511e-03 1.128621492534875870e-02 -3.564542159438133240e-02 9.245316497981548309e-03 -5.087877810001373291e-02 1.380804576911032200e-03 2.365232259035110474e-02 -6.825887598097324371e-03 -2.819948596879839897e-03 3.954643383622169495e-02 2.951414883136749268e-02 4.202851653099060059e-02 -4.032346606254577637e-02 -1.286174915730953217e-02 -4.766496829688549042e-03 -3.183238953351974487e-02 1.480825711041688919e-03 -2.859541587531566620e-02 2.348303049802780151e-02 1.335037127137184143e-02 1.855797879397869110e-02 -1.423084177076816559e-02 -3.847482800483703613e-02 -3.184022381901741028e-02 9.035186842083930969e-03 4.059870913624763489e-02 -3.418300673365592957e-02 3.310581669211387634e-02 -1.753930561244487762e-02 -4.988602176308631897e-02 -4.276327788829803467e-02 1.135976985096931458e-02 1.146113965660333633e-02 2.567802742123603821e-02 -4.063228610903024673e-03 -2.541287615895271301e-02 1.458193437429144979e-04 -4.097227752208709717e-02 -1.312998775392770767e-02 -2.546189725399017334e-02 -2.174353972077369690e-02 -6.429783068597316742e-03 2.948481030762195587e-02 -1.230233814567327499e-02 -1.779935695230960846e-02 -1.692045666277408600e-02 -1.099219173192977905e-02 -4.295094683766365051e-02 -4.305346868932247162e-03 -9.643061086535453796e-03 -5.319721065461635590e-03 -3.784698247909545898e-02 -3.612263500690460205e-02 3.829436749219894409e-02 -2.180860936641693115e-02 -1.097667217254638672e-02 4.150766506791114807e-02 -3.484506905078887939e-02 -1.160357333719730377e-02 -1.485674548894166946e-02 3.807669132947921753e-02 1.520390971563756466e-03 3.339926153421401978e-02 -2.664827555418014526e-02 -1.048814970999956131e-03 -8.977139368653297424e-03 3.785515204071998596e-02 4.235456883907318115e-02 2.542585134506225586e-02 3.530635684728622437e-02 -2.138119377195835114e-02 2.351773902773857117e-02 -3.199345245957374573e-02 4.048964008688926697e-02 1.410103216767311096e-02
