9.386636316776275635e-03 -1.362244691699743271e-02 -3.654295578598976135e-02 -3.643386438488960266e-02 2.882191352546215057e-02 -4.649534448981285095e-02 4.360945150256156921e-02 -1.382992323487997055e-02 4.647074267268180847e-02 -3.457757830619812012e-02 2.748773247003555298e-02 -3.520863503217697144e-02 6.856257095932960510e-03 -3.796585835516452789e-03 1.619731821119785309e-02 4.880581051111221313e-02 -1.978069171309471130e-02 3.511926904320716858e-02 1.224551256746053696e-02 2.252564206719398499e-02 -1.121135894209146500e-02 4.327401891350746155e-02 -1.367103494703769684e-02 7.674820721149444580e-03 4.210291896015405655e-03 1.330978330224752426e-02 1.422546152025461197e-02 7.629731670022010803e-03 2.884036675095558167e-02 6.371072959154844284e-03 -2.616830170154571533e-02 -5.077318102121353149e-02 -5.553330481052398682e-02 9.847880341112613678e-03 -3.551176935434341431e-02 -2.053380012512207031e-02 2.337312325835227966e-02 -2.152832038700580597e-02 1.134459115564823151e-02 -2.043624967336654663e-02 -8.769728243350982666e-03 -1.911252178251743317e-02 -1.295271981507539749e-02 -4.812075570225715637e-02 1.558696851134300232e-02 3.522615507245063782e-02 -2.920114435255527496e-02 -1.459209341555833817e-02 1.661040820181369781e-02 5.303393676877021790e-02 -1.299761328846216202e-02 -1.652792282402515411e-02 -5.912131071090698242e-02 6.217656191438436508e-03 -2.334125526249408722e-02 -3.331972658634185791e-02 1.202671974897384644e-02 -3.331080451607704163e-02 -3.062337450683116913e-02 2.884835377335548401e-02 2.060314826667308807e-02 -2.975015435367822647e-03 5.474893748760223389e-02 -1.860735006630420685e-02 4.444781318306922913e-02 -3.759434074163436890e-02 4.697231110185384750e-03 -2.769009210169315338e-02 -3.290294855833053589e-02 4.787674918770790100e-02 6.985985208302736282e-03 -3.211693093180656433e-02 5.309189856052398682e-02 -3.630628436803817749e-02 1.507197879254817963e-02 5.483757331967353821e-02 2.519835531711578369e-02 2.642189338803291321e-02 -2.623866079375147820e-03 -2.851014956831932068e-03 -2.882442995905876160e-02 -1.241487264633178711e-02 4.561520367860794067e-02 5.070067569613456726e-02 2.138126641511917114e-02 2.057649567723274231e-02 -7.685208227485418320e-03 4.531744495034217834e-02 2.304356172680854797e-02 -5.710736848413944244e-03 3.734385129064321518e-03 3.865962848067283630e-02 -2.096378989517688751e-02 1.917979307472705841e-02 -3.417868632823228836e-03 -4.238525778055191040e-02 -2.465608902275562286e-02 -1.117294933646917343e-02 -4.194740578532218933e-02 4.954602196812629700e-02 -2.070692926645278931e-02 4.746667668223381042e-02 2.753219380974769592e-02 2.520820870995521545e-02 -4.822722077369689941e-02 2.385966852307319641e-02 5.630810558795928955e-02 -4.085380584001541138e-02 1.117107365280389786e-02 2.557751722633838654e-02 -4.864615947008132935e-02 3.145043924450874329e-02 -4.261210933327674866e-02 -2.364903688430786133e-02 -3.249283134937286377e-02 4.756946489214897156e-02 -6.989722023718059063e-04 3.860211372375488281e-02 -8.504222147166728973e-03 -4.421500116586685181e-02 3.156154975295066833e-02 3.465854749083518982e-02 -8.894022554159164429e-03 2.498371340334415436e-02 3.086015023291110992e-02 -4.137660935521125793e-02 2.041973546147346497e-02 1.017524744383990765e-03 -3.833590075373649597e-02 -2.685724385082721710e-02 4.260498657822608948e-02 -4.722451791167259216e-02 9.814342483878135681e-03 3.767787665128707886e-02 -1.636713184416294098e-02 -2.542201988399028778e-02 1.217490900307893753e-02 -1.224906463176012039e-02 -3.405792266130447388e-02 -4.380671307444572449e-02 -2.310261875391006470e-02 5.505113303661346436e-02 -9.839682839810848236e-03 -3.112390823662281036e-02 3.745030984282493591e-02 -2.978581748902797699e-02 -1.785606145858764648e-03 -5.153858661651611328e-02 1.103834901005029678e-02 5.206267349421977997e-03 2.287742868065834045e-02 3.983699530363082886e-02 -4.110369458794593811e-02 -2.502552047371864319e-02 6.132621318101882935e-03 1.237789448350667953e-02 8.819019421935081482e-03 3.205111250281333923e-02 3.986662626266479492e-02 1.890605129301548004e-02 -9.417372755706310272e-03 -1.557520125061273575e-03 -2.374896779656410217e-02 3.630623221397399902e-02 -5.475809797644615173e-02 -2.493241988122463226e-02 -4.965241067111492157e-03 -2.105515822768211365e-02 -1.845623552799224854e-02 -4.005846381187438965e-02 -3.561693802475929260e-02 -3.041497431695461273e-02 4.630597308278083801e-02 1.620264165103435516e-02 3.887063637375831604e-02 3.420949354767799377e-02 6.340323016047477722e-03 4.085107147693634033e-02 -4.911991301923990250e-03 1.603723154403269291e-03 2.219189144670963287e-02 2.235540933907032013e-02 3.690123558044433594e-03 9.428373305127024651e-04 -2.095968276262283325e-02 -3.891132026910781860e-02 8.199922740459442139e-04 -4.156563058495521545e-02 -2.951230295002460480e-02 -1.854466646909713745e-02 3.990475088357925415e-02 2.408891730010509491e-02 4.998698364943265915e-03 4.307547584176063538e-02 3.560730814933776855e-02 -8.166754618287086487e-03 3.307550027966499329e-02 -3.544952347874641418e-02 9.819190017879009247e-03 -2.556707710027694702e-02 3.812334313988685608e-02 -1.965837925672531128e-02 3.933303803205490112e-02 -5.262991786003112793e-02 -3.317034803330898285e-03 4.573691170662641525e-03 -2.967619337141513824e-02 -3.869214560836553574e-04 -4.310573637485504150e-02 7.878608070313930511e-03 -3.041422925889492035e-03 3.910596296191215515e-02 -4.650673642754554749e-02 1.405809447169303894e-02 -4.682055488228797913e-02 4.131872206926345825e-02 3.427816927433013916e-02 2.915716916322708130e-02 -1.413812767714262009e-02 3.466874361038208008e-02 1.009655371308326721e-02 -1.807626709342002869e-02 1.230779662728309631e-02 4.658730700612068176e-02 5.238223820924758911e-02 7.473255973309278488e-03 1.807061582803726196e-02 -4.119196534156799316e-02 -1.629915647208690643e-02 1.375511661171913147e-02 -3.971431404352188110e-02 -4.180778563022613525e-02 -2.495870739221572876e-02 3.469117358326911926e-02 5.646193772554397583e-02 -3.054387681186199188e-02 -1.933869905769824982e-02 -4.919877648353576660e-02 7.077273912727832794e-04 4.290300980210304260e-02 4.746846482157707214e-02 -2.275190316140651703e-02 -5.268597975373268127e-02 -9.702093899250030518e-03 1.236573047935962677e-02 3.797115525230765343e-03 -3.508267924189567566e-02 -1.055191271007061005e-02 4.937172681093215942e-02 1.509704813361167908e-02 -9.164302609860897064e-03 -5.492584779858589172e-02 3.629683703184127808e-02 -4.871713370084762573e-02 4.995761811733245850e-02 -3.733089938759803772e-02 -1.530988700687885284e-02 2.611654438078403473e-02 -2.514677122235298157e-02 -6.427479820558801293e-05 -4.027115926146507263e-02 -2.138587646186351776e-02 1.330414228141307831e-02 -3.083849884569644928e-02 4.648823291063308716e-02 -6.222705822438001633e-03 3.843085840344429016e-02 -4.392687231302261353e-02 3.129342198371887207e-02 -8.391152136027812958e-03 -3.366504097357392311e-03 1.574146561324596405e-02 4.531322419643402100e-02 -1.652903301874175668e-04 4.052519053220748901e-02 -8.457018062472343445e-03 -5.640422925353050232e-02 1.916960626840591431e-02 4.385660402476787567e-03 -5.001936107873916626e-02 -7.401081267744302750e-03 -1.935014128684997559e-02 5.039664730429649353e-02 2.937809191644191742e-02 4.501466080546379089e-02 -9.322859346866607666e-03 1.956323534250259399e-02 -4.794303700327873230e-02 -2.321703732013702393e-02 3.277832642197608948e-02 3.195324540138244629e-02 4.217163193970918655e-03 3.910626098513603210e-02 7.140299770981073380e-03 4.442472383379936218e-02 -2.509375661611557007e-02 -6.486710160970687866e-03 4.497655853629112244e-02 -3.790197148919105530e-02 2.079629339277744293e-02 4.798355326056480408e-02 -1.030769292265176773e-02 -9.521537460386753082e-03 -2.923982590436935425e-02 1.266018254682421684e-03 -6.103905290365219116e-02 1.798613369464874268e-02 -3.089391253888607025e-02 -5.135541316121816635e-03 4.188414663076400757e-02 -4.184714332222938538e-02 1.778207719326019287e-02 1.638313755393028259e-02 -1.922753266990184784e-02 -1.438372302800416946e-02 -4.407943785190582275e-02 1.005394849926233292e-02 -3.119935281574726105e-02 5.695510655641555786e-02 -3.220900148153305054e-02 -3.525049251038581133e-04 2.960557863116264343e-02 3.137275110930204391e-03 -4.838186129927635193e-02 3.231783211231231689e-02 3.470344468951225281e-02 8.590203709900379181e-03 -2.685484290122985840e-02 6.068590655922889709e-02 -3.665086627006530762e-02 -2.301874756813049316e-02 1.097161881625652313e-02 -3.213832154870033264e-02 -1.015301514416933060e-02 -4.578302800655364990e-02 5.490281060338020325e-02 2.377980202436447144e-02 1.683587767183780670e-02 -5.277283024042844772e-03 -1.675432920455932617e-02 1.906695589423179626e-02 1.119492668658494949e-02 6.725779734551906586e-03 -5.767590366303920746e-03 -4.517246782779693604e-02 3.765892470255494118e-03 1.338753756135702133e-02 -2.926435321569442749e-02 -2.664898894727230072e-02 2.468632161617279053e-02 -1.064355298876762390e-02 4.175348579883575439e-02 -3.982901945710182190e-02 -3.104391135275363922e-02 4.292215686291456223e-03 -5.323949456214904785e-02 3.560809418559074402e-02 2.535195834934711456e-02 3.184945881366729736e-02 -4.852231591939926147e-02 5.121072381734848022e-02 -1.297246478497982025e-02 -3.369874879717826843e-02 4.284578934311866760e-02 5.714746937155723572e-02 3.137594833970069885e-02 -3.927574306726455688e-02 3.496897593140602112e-02 -9.865832515060901642e-03 -2.238384680822491646e-03 -1.441904809325933456e-02 3.460572287440299988e-02 -1.414589001797139645e-03 -4.188683256506919861e-02 -4.464633017778396606e-02 5.268372967839241028e-02 -7.039040327072143555e-03 -2.178616821765899658e-03 -4.122987017035484314e-02 -3.210499649867415428e-03 3.191956132650375366e-02 5.381792783737182617e-02 -1.938117318786680698e-03 -1.953083090484142303e-02 3.251492232084274292e-02 -1.063318364322185516e-02 -4.689599946141242981e-02 3.926223516464233398e-02 -3.159698471426963806e-02 -3.666770830750465393e-02 4.810466617345809937e-02 -4.253388941287994385e-02 3.722957521677017212e-02 -9.267043322324752808e-03 2.765413001179695129e-02 3.234286606311798096e-02 3.725577145814895630e-02 -4.607878997921943665e-02 -1.244247891008853912e-02 2.863573841750621796e-02
4.713803902268409729e-02 -4.313868656754493713e-02 2.495708130300045013e-02 1.246631518006324768e-02 2.000335231423377991e-02 2.521362341940402985e-02 -4.023511335253715515e-02 3.148842602968215942e-02 1.102903485298156738e-02 1.902619376778602600e-02 4.937857389450073242e-02 -4.365823790431022644e-02 2.233039960265159607e-02 -2.499451488256454468e-02 3.082182817161083221e-02 -2.946485392749309540e-02 2.360339462757110596e-02 1.901966333389282227e-02 4.630580078810453415e-03 -2.329878881573677063e-02 2.180869877338409424e-02 -3.196838777512311935e-03 2.687354572117328644e-02 1.489589270204305649e-02 -2.843546681106090546e-02 -4.052937403321266174e-02 -3.019001148641109467e-02 4.928864073008298874e-03 -5.102172866463661194e-02 -3.345219790935516357e-02 3.057775273919105530e-02 2.212894149124622345e-02 2.003236487507820129e-02 2.268369495868682861e-02 2.754996158182621002e-02 4.615647345781326294e-02 -1.215021358802914619e-03 4.194565862417221069e-02 7.141074165701866150e-03 -2.284677699208259583e-02 5.315259913913905621e-04 -4.648872092366218567e-02 2.309828437864780426e-02 3.881402686238288879e-02 1.734639517962932587e-02 -3.503430262207984924e-02 -2.080121077597141266e-02 3.952543437480926514e-02 1.294793619308620691e-04 -4.481090605258941650e-02 1.779154525138437748e-03 5.326244048774242401e-03 3.779994696378707886e-02 -2.825609222054481506e-02 3.657479956746101379e-02 1.540581323206424713e-02 -4.415224492549896240e-02 -2.674441039562225342e-02 -1.998799480497837067e-02 -2.696138061583042145e-02 3.260426223278045654e-02 3.139821067452430725e-02 -6.563003407791256905e-04 -3.010683692991733551e-03 3.190879523754119873e-02 -4.259013570845127106e-03 -2.933463454246520996e-02 1.965972781181335449e-02 3.198792412877082825e-02 4.007985070347785950e-02 -1.619220711290836334e-02 1.708222553133964539e-02 2.674949169158935547e-02 5.622202903032302856e-02 -4.035127907991409302e-02 1.100176200270652771e-02 -2.874353714287281036e-02 -1.765591651201248169e-02 -6.459239870309829712e-03 -4.272729530930519104e-02 4.500617831945419312e-02 -3.983868658542633057e-02 3.582339733839035034e-03 4.332487657666206360e-02 3.515724092721939087e-02 1.471130177378654480e-03 -4.218951985239982605e-02 1.334923040121793747e-02 -6.144624203443527222e-03 -4.619020968675613403e-02 -2.703124657273292542e-02 3.581174835562705994e-02 1.576546393334865570e-02 2.032725885510444641e-02 -2.880074828863143921e-02 3.025907650589942932e-02 6.914393045008182526e-03 -3.319037705659866333e-02 -3.705761581659317017e-02 -1.387437433004379272e-02 2.959582582116127014e-02 -1.900636032223701477e-02 1.401894539594650269e-02 4.906218498945236206e-02 -3.809196129441261292e-02 2.089704852551221848e-03 -5.021561309695243835e-02 5.049361661076545715e-02 4.088259860873222351e-02 3.210616856813430786e-02 -5.842322483658790588e-02 3.719921410083770752e-02 -5.048621445894241333e-02 3.595314919948577881e-02 -4.883601795881986618e-03 -4.490562528371810913e-02 -8.458027616143226624e-03 -2.348352782428264618e-02 -3.005692176520824432e-02 9.950550273060798645e-03 -2.955649793148040771e-02 -2.059999480843544006e-02 2.009463310241699219e-02 -1.748290471732616425e-02 -2.350522950291633606e-02 5.036755464971065521e-03 1.062300801277160645e-02 -3.462205082178115845e-02 -4.454296827316284180e-02 2.629884332418441772e-02 -4.238050431013107300e-02 -2.873467840254306793e-02 1.395976636558771133e-02 2.865964919328689575e-02 4.367579147219657898e-02 -4.782379418611526489e-02 4.490796476602554321e-02 8.873065002262592316e-03 3.469515964388847351e-02 -1.617511361837387085e-02 5.992878577671945095e-04 -2.630926854908466339e-02 -9.931753389537334442e-03 1.989416778087615967e-02 -2.299920469522476196e-02 2.667077817022800446e-02 -4.711751267313957214e-02 -3.405454009771347046e-02 -3.316105529665946960e-02 -4.175731539726257324e-02 -1.386912073940038681e-02 3.944285213947296143e-02 -9.415358304977416992e-03 -4.026537016034126282e-02 -2.988198958337306976e-02 -3.322143107652664185e-02 1.072106976062059402e-02 -4.505283385515213013e-02 2.633303776383399963e-02 5.854771658778190613e-02 -4.984657466411590576e-02 -4.875754937529563904e-02 1.810825057327747345e-02 -5.041244253516197205e-02 -1.970813982188701630e-02 -2.272185310721397400e-02 3.042213246226310730e-02 -4.265549127012491226e-03 1.317790523171424866e-02 -5.832845717668533325e-02 3.895466402173042297e-02 -4.469200223684310913e-02 2.104641310870647430e-02 8.149343542754650116e-03 2.334853447973728180e-02 2.625638619065284729e-02 6.275579798966646194e-03 -4.988728463649749756e-02 -2.417343668639659882e-02 5.692145321518182755e-03 -3.631924092769622803e-02 -6.187541410326957703e-02 1.041234377771615982e-02 -2.271150425076484680e-02 -3.096418641507625580e-02 -5.215988960117101669e-03 1.791257783770561218e-02 -3.911359608173370361e-02 1.234308071434497833e-02 9.486728347837924957e-03 -4.826879501342773438e-02 -2.297420054674148560e-02 -4.125673696398735046e-02 1.222494337707757950e-02 -5.150544270873069763e-02 3.676063939929008484e-02 1.121370960026979446e-02 4.357900097966194153e-02 5.251486599445343018e-02 2.067537046968936920e-02 -7.532311137765645981e-03 1.036977395415306091e-02 -2.100343815982341766e-02 -2.615753188729286194e-02 5.315985903143882751e-02 -1.284565590322017670e-02 3.169384598731994629e-02 -5.903386697173118591e-02 4.621378332376480103e-02 -5.064783990383148193e-02 5.311407893896102905e-02 -4.873081296682357788e-02 3.603337332606315613e-02 4.258086159825325012e-02 4.291718080639839172e-02 5.819310899823904037e-03 -1.096938829869031906e-02 -2.930189669132232666e-02 -7.101062801666557789e-04 2.452798746526241302e-02 2.945732139050960541e-02 -1.163539197295904160e-02 -1.961612701416015625e-02 3.921645507216453552e-02 7.287718355655670166e-03 4.579758271574974060e-02 -1.379944570362567902e-02 3.198393434286117554e-02 8.931101299822330475e-03 2.793076261878013611e-02 3.517192229628562927e-02 -5.593461915850639343e-02 -1.142857223749160767e-02 4.965129122138023376e-02 -1.065250765532255173e-02 -3.669518604874610901e-02 -1.222664583474397659e-02 4.731310531497001648e-02 6.572078913450241089e-03 1.360348984599113464e-02 -1.785968616604804993e-02 -2.757976762950420380e-03 -1.886310055851936340e-02 4.301078245043754578e-02 -3.433974087238311768e-02 -4.335509613156318665e-02 -3.916973993182182312e-02 -1.605734601616859436e-02 -2.997179143130779266e-02 2.217837050557136536e-02 -3.304561227560043335e-02 -6.037130486220121384e-03 -9.994935244321823120e-03 1.015228871256113052e-02 3.765776380896568298e-02 -2.467178180813789368e-02 -3.097645007073879242e-02 2.386855892837047577e-02 -2.426323480904102325e-02 4.471853747963905334e-02 -4.742249846458435059e-02 -7.795742247253656387e-03 2.465994469821453094e-02 -1.668735407292842865e-02 -2.119298838078975677e-02 -2.738950774073600769e-02 2.262956835329532623e-02 -5.553909018635749817e-02 4.439463466405868530e-02 6.219383329153060913e-03 2.313896082341670990e-02 -4.051546379923820496e-02 -2.476323023438453674e-02 -2.912602014839649200e-02 -3.346850350499153137e-02 2.594806253910064697e-02 -2.881914936006069183e-02 -2.100973203778266907e-02 -3.001441061496734619e-02 1.687713712453842163e-02 1.695634797215461731e-02 -2.565063722431659698e-02 9.487485513091087341e-03 -4.357977211475372314e-02 9.365528821945190430e-03 -4.088414832949638367e-02 -5.058499798178672791e-02 -3.895540535449981689e-02 -5.814519245177507401e-03 -1.737496233545243740e-03 4.752194136381149292e-02 8.992301300168037415e-03 3.162311390042304993e-02 -3.567776829004287720e-02 2.174835465848445892e-02 2.877403609454631805e-02 -4.356688633561134338e-02 -1.480808109045028687e-02 3.685622289776802063e-02 -7.823312655091285706e-03 3.957773000001907349e-02 -2.448877319693565369e-02 1.850206987001001835e-03 -3.716320171952247620e-02 -2.252465672791004181e-02 -8.722407743334770203e-03 -5.791041534394025803e-03 -2.608449012041091919e-02 -3.056822344660758972e-02 -3.033102862536907196e-02 1.430711336433887482e-02 3.133852034807205200e-02 -5.966396629810333252e-02 1.662738062441349030e-02 7.255716715008020401e-03 1.269250176846981049e-02 4.515341669321060181e-02 1.725704595446586609e-02 -4.252021014690399170e-02 3.507328685373067856e-03 1.234501879662275314e-02 1.496270392090082169e-02 -3.537013754248619080e-02 4.996001254767179489e-03 8.824071846902370453e-03 -2.974633313715457916e-02 -4.880864918231964111e-02 2.561960369348526001e-02 3.637756779789924622e-02 3.612884506583213806e-02 -1.917486824095249176e-02 2.397597953677177429e-02 -2.162685804069042206e-02 -3.126370161771774292e-02 -2.925431542098522186e-02 -1.801513694226741791e-02 -2.035711705684661865e-02 -5.782770738005638123e-02 3.456480568274855614e-03 -3.077873028814792633e-02 -2.354842424392700195e-02 -4.829315468668937683e-02 -1.964079402387142181e-02 -3.311327472329139709e-02 -2.621879242360591888e-02 2.857670374214649200e-02 -3.682321682572364807e-02 -9.570611873641610146e-04 -5.322559550404548645e-02 -2.658888325095176697e-02 -3.289199620485305786e-02 -6.030602380633354187e-02 4.369155503809452057e-03 3.734659776091575623e-02 3.702117130160331726e-02 3.395540267229080200e-02 -5.195886269211769104e-02 2.893260680139064789e-02 3.268577530980110168e-02 4.674095660448074341e-02 -5.142328329384326935e-03 -1.929327659308910370e-02 4.132722318172454834e-02 2.755020931363105774e-02 -8.559656329452991486e-03 2.726220525801181793e-02 -6.089341361075639725e-03 -1.236099936068058014e-02 -2.492335997521877289e-02 4.349930956959724426e-02 2.413468062877655029e-02 -2.240242436528205872e-02 -2.260877192020416260e-02 3.110329154878854752e-03 1.254547480493783951e-02 6.758897099643945694e-03 3.298003226518630981e-02 1.031140238046646118e-02 3.927595168352127075e-02 -2.255052095279097557e-03 1.709398627281188965e-02 2.107741124927997589e-02 4.306401312351226807e-02 5.352704599499702454e-02 -5.524880811572074890e-02 -1.770384237170219421e-02 1.577043533325195312e-02 5.358106573112308979e-04 -2.431599982082843781e-02 3.389969468116760254e-02 -8.003230206668376923e-03 -1.198490895330905914e-02 2.144638821482658386e-02 3.020750172436237335e-02 -1.517737749963998795e-02 4.086380824446678162e-02 2.320097573101520538e-02 2.613162621855735779e-02 -4.305090382695198059e-02 -8.712654002010822296e-03
2.755539491772651672e-02 -5.228543654084205627e-02 -3.676023334264755249e-02 -1.872447505593299866e-02 1.632506586611270905e-02 -2.868425846099853516e-02 5.204569548368453979e-03 -3.437714418396353722e-03 -3.123568557202816010e-02 -5.470348987728357315e-03 3.325263783335685730e-02 3.238749504089355469e-02 1.797234266996383667e-02 4.587066546082496643e-02 4.035137593746185303e-02 -1.553325355052947998e-02 5.086491256952285767e-02 9.347010403871536255e-03 -5.133966356515884399e-02 -4.979438707232475281e-02 -1.890879124402999878e-02 -3.175949677824974060e-02 -2.561739459633827209e-02 -1.728799566626548767e-02 -2.487285248935222626e-02 5.760102998465299606e-03 4.326635226607322693e-02 3.451772406697273254e-02 -1.763265207409858704e-02 4.997903853654861450e-02 -4.618318378925323486e-02 -2.755967341363430023e-02 1.661783643066883087e-02 3.228436410427093506e-02 7.008461747318506241e-03 -1.631586998701095581e-02 -2.153977006673812866e-02 -5.181908607482910156e-03 -2.402214519679546356e-02 1.345343072898685932e-03 -1.532743405550718307e-02 5.669454112648963928e-03 2.593570575118064880e-02 -3.233536845073103905e-03 -3.948527574539184570e-02 -3.962081670761108398e-02 -4.610494524240493774e-02 2.965607307851314545e-02 -7.161209359765052795e-03 -1.477613300085067749e-02 -4.727537930011749268e-02 -1.344820018857717514e-02 1.781665161252021790e-02 -4.157234355807304382e-02 -4.568994045257568359e-02 -4.980383440852165222e-02 -6.073860451579093933e-03 3.665061295032501221e-02 5.211170017719268799e-02 -1.896119490265846252e-02 1.174680422991514206e-02 3.621333092451095581e-02 5.757871270179748535e-02 2.242560684680938721e-02 2.992413751780986786e-02 -4.348122701048851013e-02 -1.171689666807651520e-02 -3.150520101189613342e-02 4.660807549953460693e-02 4.606272280216217041e-02 2.967826463282108307e-02 -3.749272599816322327e-02 1.669249311089515686e-02 2.945288084447383881e-02 -2.510701492428779602e-02 -7.869851775467395782e-03 -2.520417794585227966e-02 -4.399579018354415894e-03 -1.085558161139488220e-02 2.953031472861766815e-02 2.681659534573554993e-02 -7.252990268170833588e-03 5.723575595766305923e-03 1.010231953114271164e-02 -2.107318304479122162e-02 -4.905172064900398254e-02 -4.679560370277613401e-04 -1.444862596690654755e-02 3.572267666459083557e-02 2.702024020254611969e-02 -3.992292657494544983e-02 2.471422031521797180e-02 3.769010305404663086e-02 -8.291345089673995972e-03 4.084346815943717957e-02 1.885748654603958130e-02 -1.012536417692899704e-02 2.011363022029399872e-02 3.940977901220321655e-02 -1.840223185718059540e-02 5.619807541370391846e-02 -1.412810175679624081e-03 2.192026749253273010e-02 3.067295998334884644e-02 1.152172405272722244e-02 4.868937283754348755e-02 4.935868456959724426e-02 -5.002652853727340698e-02 4.793325811624526978e-02 -9.327374398708343506e-03 -2.063672617077827454e-02 -1.145124342292547226e-02 3.997642919421195984e-02 1.407984737306833267e-02 -1.712725125253200531e-02 6.007614731788635254e-02 4.251806065440177917e-02 3.839766234159469604e-02 3.297994658350944519e-02 -4.236373305320739746e-02 3.051363304257392883e-02 2.962107583880424500e-02 -5.664421617984771729e-02 -2.355472557246685028e-02 -2.888302132487297058e-02 3.305776044726371765e-03 -4.971138760447502136e-02 5.155107006430625916e-02 -2.850618399679660797e-02 -2.813771553337574005e-02 6.706064566969871521e-03 -2.635912410914897919e-02 -1.513797417283058167e-02 -2.156464196741580963e-02 1.512867491692304611e-02 4.200578108429908752e-02 9.498881176114082336e-03 -1.613773778080940247e-02 1.747639849781990051e-02 -1.485704071819782257e-02 4.439016431570053101e-02 4.291954264044761658e-02 5.885148420929908752e-02 -1.380267180502414703e-02 -3.733832621946930885e-03 1.044648606330156326e-02 3.724721446633338928e-02 -3.480647876858711243e-02 -2.925380133092403412e-02 1.171621773391962051e-02 -2.533517964184284210e-02 4.540537670254707336e-02 1.120236795395612717e-02 -4.264053422957658768e-03 -3.221563249826431274e-02 2.749477513134479523e-02 4.021150618791580200e-02 -4.335714876651763916e-02 1.494053844362497330e-02 2.885193005204200745e-02 -5.802525207400321960e-03 2.841709740459918976e-02 -2.879902534186840057e-02 2.025243826210498810e-02 -2.245283499360084534e-02 3.077851794660091400e-02 -5.122512951493263245e-02 -3.262633830308914185e-02 -1.948837563395500183e-02 -5.031865555793046951e-03 1.627019234001636505e-02 -3.802864253520965576e-02 -3.269265964627265930e-02 -3.057729452848434448e-02 -3.200992941856384277e-02 3.718576207756996155e-02 -9.951720014214515686e-03 2.988195419311523438e-02 1.650747284293174744e-02 2.799735032021999359e-02 4.464775323867797852e-02 -3.324883058667182922e-02 -3.863542526960372925e-02 4.099626839160919189e-02 3.510179370641708374e-02 5.066331475973129272e-02 -4.316473752260208130e-02 -3.715750947594642639e-02 -5.451379343867301941e-02 -1.532893534749746323e-02 -3.769426047801971436e-02 -5.178367719054222107e-03 4.640184715390205383e-02 -3.135545179247856140e-02 1.022034790366888046e-02 3.749354556202888489e-02 -1.653796248137950897e-02 1.067313272505998611e-02 5.342029966413974762e-03 2.171876374632120132e-03 1.056009065359830856e-02 -1.379591785371303558e-02 2.425453439354896545e-02 -2.874134667217731476e-02 -4.537501186132431030e-02 1.465188898146152496e-02 8.625089190900325775e-03 -8.406162261962890625e-03 1.544819585978984833e-02 2.115215361118316650e-02 -4.558646306395530701e-02 -5.305913742631673813e-03 -5.688679963350296021e-02 -2.717499807476997375e-02 -3.827331960201263428e-02 5.320705845952033997e-02 2.922805026173591614e-02 8.482669480144977570e-03 3.071235492825508118e-02 9.132144041359424591e-03 3.188651055097579956e-02 2.698278287425637245e-03 -5.327707901597023010e-02 3.338907379657030106e-03 5.861923098564147949e-02 2.371915057301521301e-02 -3.079175017774105072e-02 1.094809733331203461e-02 -3.503761440515518188e-02 3.617247566580772400e-02 7.006347179412841797e-03 5.866231396794319153e-02 1.549653522670269012e-02 -9.886087849736213684e-03 3.332372009754180908e-02 -4.583182558417320251e-02 -2.547161094844341278e-02 2.602763660252094269e-02 4.081203788518905640e-02 5.523094162344932556e-02 1.145757921040058136e-02 5.211769044399261475e-02 -2.090293169021606445e-02 -3.870071098208427429e-02 -3.227683901786804199e-02 -3.695001080632209778e-02 1.863855496048927307e-02 -2.979346178472042084e-02 3.307995200157165527e-02 4.143341630697250366e-02 -2.099014632403850555e-02 1.343200355768203735e-02 -1.879436708986759186e-02 -1.919432170689105988e-02 2.597351267468184233e-04 3.748337551951408386e-02 -1.524313446134328842e-02 4.031526669859886169e-02 4.230732843279838562e-02 -2.725807018578052521e-02 -2.719758637249469757e-02 3.971123322844505310e-02 5.361600220203399658e-02 -4.672738537192344666e-02 -2.916574943810701370e-03 -3.919282183051109314e-02 4.553908482193946838e-02 -4.611323401331901550e-02 -3.810780122876167297e-02 2.035244740545749664e-02 -1.005198992788791656e-02 6.353993713855743408e-02 -2.306482009589672089e-02 -3.604079410433769226e-02 5.514202266931533813e-02 -4.136258363723754883e-02 -9.185256436467170715e-03 6.062855944037437439e-02 1.530516147613525391e-02 -5.401374027132987976e-02 2.765445597469806671e-02 3.539207950234413147e-02 1.848906092345714569e-02 5.242742225527763367e-02 -2.253269590437412262e-02 -1.135786343365907669e-02 -5.337054375559091568e-03 3.961114957928657532e-02 4.613048955798149109e-02 -4.557859525084495544e-02 -2.570100314915180206e-02 -4.882406909018754959e-03 5.128437653183937073e-02 -2.653602883219718933e-02 2.132289577275514603e-03 3.351007774472236633e-02 1.826361007988452911e-02 1.396169513463973999e-02 -6.124315317720174789e-03 6.078888103365898132e-02 3.518481180071830750e-02 1.132357772439718246e-02 -1.482060179114341736e-02 -5.047001317143440247e-02 -1.331497356295585632e-02 3.583471104502677917e-02 4.903788119554519653e-02 2.428658120334148407e-02 -8.865439333021640778e-03 2.246829494833946228e-02 -2.715023793280124664e-02 -1.828073989599943161e-03 3.945790231227874756e-02 3.267750516533851624e-02 -1.201594527810811996e-02 -5.006419867277145386e-02 2.557635866105556488e-02 -5.553717911243438721e-02 -3.760327026247978210e-02 -5.020315200090408325e-02 8.199337869882583618e-03 4.882516339421272278e-03 -2.069097012281417847e-02 4.035871475934982300e-02 3.743859007954597473e-02 4.049505293369293213e-02 6.031322851777076721e-02 -4.971751943230628967e-02 -3.090106323361396790e-02 -3.223918750882148743e-02 1.362166181206703186e-02 4.467722028493881226e-03 -4.411963373422622681e-02 4.787204787135124207e-02 -2.244886010885238647e-03 2.378786541521549225e-02 -1.216064993059262633e-04 -1.640659198164939880e-02 5.743150785565376282e-02 4.335037618875503540e-02 1.953531522303819656e-03 -1.657307147979736328e-03 -2.505602315068244934e-02 -1.017881371080875397e-02 3.161500394344329834e-02 -2.425668388605117798e-02 -3.601528331637382507e-02 3.028324805200099945e-02 -5.155165214091539383e-03 -3.057809919118881226e-02 -5.775231868028640747e-03 7.503389380872249603e-03 -3.586313687264919281e-03 1.049163285642862320e-02 -2.170831151306629181e-02 -2.234080107882618904e-03 4.508560150861740112e-02 -5.054342001676559448e-02 -4.587598610669374466e-03 3.345248475670814514e-02 1.571081206202507019e-02 3.477363288402557373e-02 -2.224403992295265198e-02 -1.417689397931098938e-02 1.774972490966320038e-02 2.961686113849282265e-04 1.960896514356136322e-02 1.371948514133691788e-02 -6.767321377992630005e-03 -2.496620872989296913e-03 -4.042499233037233353e-03 4.660880938172340393e-02 -2.421366050839424133e-02 2.195323258638381958e-02 -3.745938837528228760e-02 3.152219951152801514e-02 -3.786234557628631592e-02 1.361780241131782532e-02 -5.090448074042797089e-03 -1.975593902170658112e-02 -3.864313289523124695e-02 -2.248046547174453735e-02 9.553456911817193031e-04 2.050096727907657623e-02 3.054612874984741211e-02 -7.388834375888109207e-03 -1.442176941782236099e-02 -5.499481037259101868e-02 -5.400136858224868774e-02 1.023417245596647263e-02 -1.507075037807226181e-02 4.939040541648864746e-02 3.711478784680366516e-02 -9.456510655581951141e-03 2.426454611122608185e-02 1.191395055502653122e-02 -4.014797136187553406e-02 -1.409521792083978653e-02 3.575786575675010681e-02 3.173266351222991943e-02
3.701156750321388245e-02 -1.754918321967124939e-02 8.729132823646068573e-03 -1.841998286545276642e-02 4.844599589705467224e-02 -1.896593160927295685e-02 -1.716650277376174927e-02 8.952449425123631954e-04 -5.421633366495370865e-03 -3.734250366687774658e-02 -2.109265141189098358e-02 -2.890264242887496948e-02 -5.847875773906707764e-02 -2.734610997140407562e-02 -4.312527552247047424e-02 1.276916731148958206e-02 -3.960680589079856873e-02 2.398711070418357849e-02 1.146326400339603424e-02 -4.951573535799980164e-02 7.371737621724605560e-03 -1.483390294015407562e-02 -1.201473455876111984e-02 -1.062162593007087708e-02 -3.839615359902381897e-02 -4.056996479630470276e-02 -3.984680771827697754e-02 4.987687245011329651e-02 -3.278493881225585938e-02 -1.326670218259096146e-02 4.228494316339492798e-02 -1.343843759968876839e-03 4.573537036776542664e-02 4.015034064650535583e-02 3.615358471870422363e-02 -3.162888064980506897e-02 -7.819828460924327374e-04 -1.090973336249589920e-02 -1.424463093280792236e-02 2.782955765724182129e-02 -4.234512522816658020e-02 -9.237926453351974487e-03 -2.114230068400502205e-03 2.893671393394470215e-02 3.850117325782775879e-02 -3.807207196950912476e-02 3.713930025696754456e-02 -4.127079993486404419e-02 1.581561192870140076e-02 2.713723666965961456e-02 4.921172186732292175e-02 -3.319775685667991638e-02 5.567129328846931458e-02 -2.435751445591449738e-02 -3.470964729785919189e-02 2.215092629194259644e-02 -3.395158424973487854e-02 -4.398168995976448059e-02 3.425030782818794250e-02 9.484260226599872112e-04 3.680605068802833557e-02 -2.947772294282913208e-02 3.706614673137664795e-02 1.609304361045360565e-02 1.309262961149215698e-02 -3.380629047751426697e-02 4.477036371827125549e-02 -3.397563472390174866e-02 4.178940504789352417e-02 1.740338467061519623e-02 -2.057370264083147049e-03 -8.480830118060112000e-03 -1.144703105092048645e-02 -5.090723745524883270e-03 -3.593299537897109985e-02 -2.327869459986686707e-02 1.609796844422817230e-02 1.801634952425956726e-02 3.366342280060052872e-03 -2.495987527072429657e-02 -4.241142049431800842e-02 -3.858431009575724602e-03 9.212207049131393433e-03 2.181069925427436829e-02 -4.142755270004272461e-02 -1.828607916831970215e-02 7.209888193756341934e-03 -1.354009937494993210e-02 1.558660343289375305e-02 6.779632531106472015e-03 5.087871849536895752e-02 2.560674026608467102e-02 9.411153383553028107e-03 -2.942393161356449127e-02 3.270673751831054688e-02 3.711237758398056030e-02 -3.064431436359882355e-02 -4.169840365648269653e-02 -2.894579432904720306e-02 -2.036097273230552673e-02 3.180826781317591667e-03 7.354257395491003990e-04 -2.247516624629497528e-02 3.547738119959831238e-02 -4.590616747736930847e-02 -4.556420817971229553e-02 -2.733939327299594879e-02 -2.445229887962341309e-02 -3.349060937762260437e-02 -9.035342372953891754e-03 -1.122031267732381821e-02 -3.462794795632362366e-02 1.738834753632545471e-02 -3.319407999515533447e-02 3.513831645250320435e-02 -4.252732172608375549e-02 1.422027591615915298e-03 -4.300808534026145935e-02 -4.140878841280937195e-02 1.099631097167730331e-02 -3.009754791855812073e-02 -8.117797784507274628e-03 8.362746797502040863e-03 3.362779691815376282e-02 4.158636555075645447e-02 1.238794066011905670e-02 -1.084844022989273071e-02 -3.289422020316123962e-03 -3.430264070630073547e-02 2.612631581723690033e-02 4.784663021564483643e-02 3.479586914181709290e-02 -4.481452330946922302e-02 4.323162510991096497e-02 3.823466598987579346e-02 4.315733537077903748e-02 -3.910410031676292419e-02 3.950597718358039856e-02 2.730368264019489288e-02 -3.964392095804214478e-02 -7.243393920361995697e-03 -8.624067530035972595e-03 -2.856919169425964355e-02 3.718080371618270874e-02 -2.390024252235889435e-02 3.199813514947891235e-02 3.817051649093627930e-03 5.322135612368583679e-02 -1.535251270979642868e-02 4.503788799047470093e-02 -1.718793646432459354e-03 -8.655267767608165741e-03 3.136412054300308228e-02 4.736731573939323425e-02 2.415723726153373718e-02 -7.742282003164291382e-03 7.175318896770477295e-03 -1.375788263976573944e-02 -3.450046852231025696e-02 4.798702895641326904e-02 2.013110555708408356e-02 -9.666483849287033081e-03 5.414470657706260681e-02 -1.998778991401195526e-02 2.715754136443138123e-02 3.360219299793243408e-02 4.395040217787027359e-03 -5.222795903682708740e-02 5.026940628886222839e-02 -1.881926693022251129e-02 2.811089903116226196e-02 -4.814214631915092468e-02 5.126764997839927673e-02 8.473249152302742004e-03 -1.764588616788387299e-02 2.648534998297691345e-02 3.916531801223754883e-02 -1.106690056622028351e-02 1.607939787209033966e-02 -4.340967908501625061e-02 1.220868714153766632e-02 -4.445234686136245728e-02 -3.684555739164352417e-02 -2.256288938224315643e-02 -2.689495496451854706e-02 -2.202501334249973297e-02 4.294199869036674500e-02 4.422022029757499695e-02 -5.664404947310686111e-03 -4.958555847406387329e-02 -2.072400040924549103e-02 9.014250710606575012e-03 -2.531887404620647430e-02 -5.886280909180641174e-03 -2.825848013162612915e-02 -1.415372733026742935e-02 5.905750766396522522e-02 -4.519599303603172302e-02 5.005525425076484680e-02 1.145794056355953217e-02 -4.145018011331558228e-02 -4.061729088425636292e-02 -2.543734386563301086e-02 -4.890443384647369385e-02 -1.162306964397430420e-02 -4.453622922301292419e-02 -1.400470361113548279e-02 -1.881300657987594604e-02 1.306546479463577271e-02 -3.739902051165699959e-03 -1.427501346915960312e-02 4.583802819252014160e-02 3.796089673414826393e-03 -4.732140526175498962e-02 2.392346225678920746e-02 -3.070924431085586548e-02 1.356708700768649578e-03 4.210057109594345093e-02 -6.748831365257501602e-03 -3.469086065888404846e-02 2.326636388897895813e-02 -1.075488422065973282e-02 -2.416636236011981964e-02 -1.819495856761932373e-02 -4.666052386164665222e-02 5.043578520417213440e-02 -9.552828967571258545e-03 4.080124199390411377e-02 -2.573220059275627136e-02 -1.017417758703231812e-02 -7.574059069156646729e-03 -2.176062576472759247e-02 1.614581979811191559e-02 4.756060987710952759e-02 2.755108103156089783e-02 -5.064848810434341431e-02 4.973819479346275330e-03 -4.770550876855850220e-02 -1.625210978090763092e-02 -1.663505099713802338e-02 1.709893229417502880e-03 -4.154609516263008118e-02 4.842031747102737427e-03 1.450949534773826599e-02 -1.487416028976440430e-02 8.886726573109626770e-04 2.212393470108509064e-02 -3.180491924285888672e-02 4.624350368976593018e-02 -3.684046491980552673e-02 3.142323717474937439e-02 2.233941853046417236e-02 -3.199561685323715210e-02 -7.027918007224798203e-03 8.117166347801685333e-03 4.372003488242626190e-03 -4.029321670532226562e-02 -3.039471432566642761e-02 -4.690402653068304062e-03 -2.125613018870353699e-02 8.776390925049781799e-03 1.037116441875696182e-02 3.558772802352905273e-02 -4.418820142745971680e-02 -2.131291478872299194e-02 -3.130898624658584595e-02 -2.177074179053306580e-02 1.013947743922472000e-02 4.438457638025283813e-02 -2.073619514703750610e-02 4.786550253629684448e-02 -4.964805021882057190e-02 3.940488770604133606e-02 -1.581680774688720703e-02 2.313927002251148224e-02 8.594386745244264603e-04 -3.066174872219562531e-02 1.296885404735803604e-02 3.912488743662834167e-02 2.407867088913917542e-02 -5.352503433823585510e-02 -3.536390885710716248e-02 -6.194629240781068802e-03 -1.042833179235458374e-02 4.505708441138267517e-02 4.317158833146095276e-02 2.855708636343479156e-02 -4.216771572828292847e-02 -4.670895636081695557e-03 -1.301171910017728806e-02 -3.901233151555061340e-02 -4.511627927422523499e-02 4.314728081226348877e-02 3.346958011388778687e-02 -1.360654132440686226e-03 -4.322154447436332703e-02 4.346770048141479492e-02 -3.542545810341835022e-02 -4.650723561644554138e-02 -1.870709098875522614e-02 3.797421604394912720e-02 -1.070456113666296005e-03 6.530635990202426910e-03 -1.839210279285907745e-03 2.570099756121635437e-02 1.570747583173215389e-03 -4.462822154164314270e-02 3.230521827936172485e-02 2.957933582365512848e-02 -2.193924598395824432e-02 -4.498108848929405212e-02 3.772545978426933289e-02 -1.675080973654985428e-03 -5.144094303250312805e-02 -3.131720796227455139e-02 4.554513096809387207e-02 2.847734093666076660e-02 4.820019379258155823e-02 3.861410915851593018e-02 -3.386558592319488525e-02 5.109875649213790894e-02 9.458302520215511322e-03 6.117283832281827927e-03 -6.432698573917150497e-04 5.488450638949871063e-03 -9.451556019484996796e-03 1.531504373997449875e-02 -2.834460930898785591e-03 -1.474601402878761292e-02 -1.797361485660076141e-02 -2.326145768165588379e-02 -2.322128787636756897e-02 2.322797663509845734e-03 -4.133769869804382324e-02 1.168319117277860641e-02 4.438213258981704712e-02 -1.192405979963950813e-04 -4.599454626441001892e-02 -5.346318706870079041e-02 2.994714677333831787e-02 1.592763327062129974e-02 3.937610983848571777e-02 -4.850524477660655975e-03 4.906562343239784241e-02 -2.146577835083007812e-02 5.217590928077697754e-02 -4.079632461071014404e-02 -3.038379736244678497e-02 3.434035554528236389e-02 3.289179503917694092e-02 3.700789436697959900e-02 -4.742760583758354187e-02 -4.172823205590248108e-02 -2.986880019307136536e-03 -4.570631776005029678e-03 3.837145119905471802e-02 -5.328958481550216675e-02 1.901744492352008820e-02 3.310663998126983643e-02 -1.704651489853858948e-02 -5.127841979265213013e-02 -1.013851165771484375e-02 -3.398047015070915222e-02 2.583720907568931580e-02 3.844803199172019958e-02 -3.627723082900047302e-02 7.831360213458538055e-03 8.810048922896385193e-03 -2.557852119207382202e-02 1.773320697247982025e-02 -4.333256557583808899e-02 9.167402982711791992e-03 -2.415434643626213074e-02 3.758490458130836487e-02 2.423247089609503746e-03 -5.081157386302947998e-02 2.123215794563293457e-02 -2.273406460881233215e-02 2.227137051522731781e-02 1.320417225360870361e-02 3.886040300130844116e-02 3.671379014849662781e-02 6.221540737897157669e-03 -5.934443790465593338e-03 2.294931793585419655e-03 3.047380223870277405e-02 -1.420045178383588791e-02 1.355289132334291935e-03 4.302850458770990372e-03 2.798528783023357391e-02 -4.192525893449783325e-02 1.233713352121412754e-03 5.888724327087402344e-02 1.187528297305107117e-02 3.509012237191200256e-02 -6.764675490558147430e-03 4.023353010416030884e-02 -3.220364078879356384e-02 2.928110212087631226e-02 1.265118736773729324e-02
4.709244146943092346e-02 -2.692395821213722229e-02 4.551236703991889954e-02 -1.164947729557752609e-02 -3.249542089179158211e-03 -3.103562258183956146e-02 -3.879964351654052734e-02 -4.490907862782478333e-02 2.466803416609764099e-02 -6.694328039884567261e-03 1.541084889322519302e-02 8.652085438370704651e-03 3.901379182934761047e-02 2.888140641152858734e-02 -1.753384619951248169e-02 2.031602710485458374e-02 3.386513097211718559e-03 4.099808260798454285e-02 -3.260727226734161377e-02 -3.466984629631042480e-02 6.353549542836844921e-04 -5.443901568651199341e-02 -2.916727401316165924e-02 -1.980659179389476776e-02 4.119263961911201477e-02 3.712528198957443237e-02 -4.630846530199050903e-02 -4.719522967934608459e-02 -8.889392949640750885e-03 2.882929705083370209e-02 4.172108694911003113e-02 -4.295573756098747253e-02 -2.588557638227939606e-02 -3.445987030863761902e-02 4.738959670066833496e-02 2.923070639371871948e-02 -2.642689459025859833e-02 6.506382953375577927e-03 -2.771832607686519623e-02 -4.279305040836334229e-02 -2.649689465761184692e-02 5.467124283313751221e-02 -4.405694082379341125e-02 -4.809017479419708252e-02 4.377889260649681091e-02 2.875991538166999817e-02 2.526495233178138733e-02 3.504781424999237061e-02 -2.296928549185395241e-03 4.579078406095504761e-02 4.768015816807746887e-02 5.945048481225967407e-02 -1.564341713674366474e-03 4.645966365933418274e-02 -2.744029089808464050e-02 4.689162224531173706e-02 -2.101682126522064209e-02 -8.393969386816024780e-03 -1.980634592473506927e-02 4.672003909945487976e-02 1.353384740650653839e-02 -1.787674613296985626e-02 1.514239702373743057e-02 -5.892436020076274872e-03 3.268164023756980896e-02 -1.752240583300590515e-02 -2.749953046441078186e-02 -5.911465268582105637e-03 -3.945627808570861816e-02 -3.902909159660339355e-02 1.473381649702787399e-03 -2.346517704427242279e-02 4.639568179845809937e-02 -4.999965056777000427e-02 1.370272599160671234e-02 -6.096621975302696228e-03 -5.153467413038015366e-03 -2.889230847358703613e-02 -4.484599083662033081e-02 5.350408330559730530e-02 5.401734262704849243e-02 2.720515057444572449e-02 4.858621582388877869e-02 -3.129214420914649963e-02 4.369229450821876526e-02 -6.258600624278187752e-04 2.293178439140319824e-02 4.963193833827972412e-02 3.732956945896148682e-03 5.177491530776023865e-02 3.483384614810347557e-03 3.035479225218296051e-02 5.269635468721389771e-02 -3.048174269497394562e-02 2.850275672972202301e-02 6.556545384228229523e-03 -2.633702941238880157e-02 3.815216198563575745e-02 1.303962804377079010e-02 2.686490863561630249e-02 2.388150058686733246e-02 -2.127915620803833008e-02 3.800212638452649117e-03 -5.201383680105209351e-02 1.150267664343118668e-02 7.932856678962707520e-03 -3.180233389139175415e-02 -5.037020519375801086e-02 5.661042407155036926e-03 -2.566980198025703430e-02 3.174358978867530823e-02 1.855424791574478149e-02 4.061782360076904297e-02 -1.563143916428089142e-02 5.507600679993629456e-02 4.250540211796760559e-02 3.594006970524787903e-02 -8.740502409636974335e-03 2.039633318781852722e-02 -1.901115477085113525e-02 1.871970109641551971e-02 1.598695106804370880e-02 -2.415935508906841278e-02 1.571031473577022552e-02 -2.761286683380603790e-02 -9.688323363661766052e-03 -1.653844863176345825e-02 1.814934052526950836e-02 8.077066391706466675e-03 -5.290897190570831299e-02 -3.044527024030685425e-02 -7.859729230403900146e-03 2.433687262237071991e-02 4.470505192875862122e-02 -2.822405658662319183e-02 2.498264983296394348e-02 4.217877611517906189e-02 -5.323212593793869019e-02 -1.071987394243478775e-02 -4.173175990581512451e-02 -4.660179838538169861e-04 9.443092159926891327e-03 4.079477861523628235e-02 -1.281752064824104309e-02 2.627584524452686310e-02 -2.991736680269241333e-02 -4.795091971755027771e-02 -1.158980280160903931e-02 5.184278264641761780e-02 2.808599732816219330e-02 -2.834674715995788574e-02 -1.807044632732868195e-02 -1.880872994661331177e-02 3.876308444887399673e-03 2.463735640048980713e-03 6.285237148404121399e-03 4.340084269642829895e-02 -4.811923950910568237e-02 4.522474855184555054e-02 -9.913670830428600311e-03 -4.401470068842172623e-03 -4.439218342304229736e-02 -5.987978354096412659e-02 5.614955443888902664e-03 2.670313231647014618e-02 3.891254588961601257e-02 -3.833210468292236328e-02 4.911149665713310242e-02 3.226336464285850525e-02 2.902495302259922028e-02 4.503332823514938354e-02 -1.817531883716583252e-02 -4.724905639886856079e-02 -4.356871545314788818e-02 -5.306860059499740601e-02 2.428691461682319641e-02 -4.730359464883804321e-02 1.792019000276923180e-03 3.586224839091300964e-02 -5.011704191565513611e-02 -2.722010388970375061e-02 2.752749621868133545e-02 7.337210699915885925e-03 5.161550268530845642e-02 4.572447761893272400e-02 4.903235286474227905e-02 -3.847471997141838074e-02 3.974744305014610291e-02 -2.263994142413139343e-02 1.319813309237360954e-03 1.307990588247776031e-02 3.369472175836563110e-02 1.978566497564315796e-02 4.453813284635543823e-02 -1.330879423767328262e-02 5.176629498600959778e-02 -3.158732131123542786e-02 -5.753358826041221619e-03 5.528241023421287537e-02 -3.665214776992797852e-02 -2.495572715997695923e-02 4.849539324641227722e-02 4.010026529431343079e-02 -3.195807337760925293e-02 -1.594997756183147430e-02 9.175209328532218933e-03 -3.221830725669860840e-02 2.282316051423549652e-02 -2.788733690977096558e-02 -3.323520347476005554e-02 -4.185808449983596802e-02 -6.366674322634935379e-03 5.625645816326141357e-02 -1.650970429182052612e-03 -2.107222191989421844e-02 1.694882661104202271e-02 -4.451211914420127869e-02 5.061690509319305420e-02 -1.297530368901789188e-03 1.416719332337379456e-02 3.043006733059883118e-02 -2.471674932166934013e-03 -3.217835351824760437e-02 1.772497966885566711e-02 5.054289847612380981e-02 2.567587792873382568e-02 4.837421327829360962e-02 1.125653274357318878e-02 4.184882342815399170e-02 -2.528117410838603973e-02 -5.101144313812255859e-03 4.610034823417663574e-02 -3.246121853590011597e-02 -7.293251343071460724e-03 -1.116614229977130890e-02 2.522327192127704620e-02 1.350101549178361893e-02 2.560601755976676941e-02 3.020224533975124359e-02 5.058861803263425827e-03 -7.421027868986129761e-03 -2.675718627870082855e-02 4.927902668714523315e-02 -1.249283552169799805e-03 -9.135502390563488007e-03 8.280005306005477905e-03 -7.908256724476814270e-03 -4.499050974845886230e-02 -3.710871562361717224e-02 -1.130533218383789062e-02 -5.205192416906356812e-02 -2.563950605690479279e-02 -2.091890666633844376e-03 -6.397707387804985046e-03 4.352918267250061035e-02 -1.427951548248529434e-02 -3.555558249354362488e-02 8.344691246747970581e-03 5.100402235984802246e-02 -1.440787874162197113e-02 3.635948896408081055e-02 2.802391164004802704e-02 4.855117760598659515e-03 1.698204129934310913e-02 4.228976368904113770e-02 -2.557531557977199554e-02 3.813359141349792480e-02 1.373455207794904709e-02 -4.078923538327217102e-02 -4.084322974085807800e-02 3.504757583141326904e-02 -3.104328736662864685e-02 -4.492039792239665985e-03 5.799730308353900909e-03 2.351852133870124817e-02 2.511516585946083069e-02 -3.781434893608093262e-02 3.342060372233390808e-02 -4.761606454849243164e-02 1.558360084891319275e-02 -4.916753992438316345e-02 2.835840731859207153e-02 4.584526643157005310e-02 1.449449360370635986e-02 -1.978372223675251007e-02 1.509915851056575775e-02 -2.567678503692150116e-02 2.281190082430839539e-02 -9.738322347402572632e-03 1.386874471791088581e-03 1.504596229642629623e-02 6.678301841020584106e-03 2.758693136274814606e-02 1.362279802560806274e-02 -7.935918867588043213e-03 1.274501904845237732e-02 -4.021492972970008850e-02 1.423594169318675995e-02 2.732673659920692444e-02 -2.987902611494064331e-02 -1.867097802460193634e-02 -1.944502070546150208e-02 -4.227908700704574585e-02 4.128791019320487976e-02 -4.372262582182884216e-02 -3.372915461659431458e-02 1.476383581757545471e-02 -3.432310372591018677e-02 -1.654194481670856476e-02 2.413741312921047211e-02 -4.500894248485565186e-02 5.214128643274307251e-02 3.622999414801597595e-03 1.213647425174713135e-02 -7.523979060351848602e-03 -3.935189545154571533e-02 -3.300512954592704773e-02 -5.460205301642417908e-02 2.489849552512168884e-02 -1.182340923696756363e-02 -5.625856295228004456e-02 -8.822903968393802643e-03 -2.086010761559009552e-02 1.852893643081188202e-02 2.120174467563629150e-02 1.045233942568302155e-02 -2.118317037820816040e-02 -7.129688747227191925e-03 2.394377626478672028e-02 -2.589880302548408508e-02 4.761682078242301941e-02 2.807677164673805237e-02 -2.177270129323005676e-02 -1.438894774764776230e-02 -2.713854983448982239e-02 1.078577712178230286e-02 -4.136908799409866333e-02 -5.402300506830215454e-03 2.474959380924701691e-02 1.649918593466281891e-02 -3.110307082533836365e-02 4.299357905983924866e-02 8.893718942999839783e-03 -4.478517547249794006e-02 -4.809714481234550476e-02 3.234307467937469482e-02 4.329737648367881775e-02 -2.515182644128799438e-02 3.496095165610313416e-02 3.370970254763960838e-03 2.364257350564002991e-02 4.221849516034126282e-02 3.518057614564895630e-02 5.008847638964653015e-02 2.847413346171379089e-02 -4.637315869331359863e-02 1.708591543138027191e-02 -1.987606659531593323e-02 6.165572907775640488e-03 -4.461450874805450439e-02 -3.660012036561965942e-02 -2.519612945616245270e-02 -4.198573529720306396e-02 1.815817132592201233e-02 5.059592425823211670e-02 1.804411597549915314e-02 -1.359893288463354111e-02 4.847722873091697693e-02 1.539850793778896332e-02 2.378534898161888123e-02 1.095385989174246788e-03 -2.425941266119480133e-02 4.606685414910316467e-02 -3.953306376934051514e-02 -1.961483852937817574e-03 3.702560439705848694e-03 -2.759517170488834381e-02 -3.162352740764617920e-02 -2.475809678435325623e-02 -3.716788813471794128e-02 2.012891881167888641e-02 5.249431356787681580e-02 -3.920710086822509766e-02 3.886863961815834045e-02 -6.151634268462657928e-03 -3.131847083568572998e-02 5.546187981963157654e-03 3.471587970852851868e-02 -1.584129035472869873e-02 2.946695312857627869e-02 1.790735125541687012e-02 1.369686610996723175e-02 -4.472946003079414368e-02 -1.827283762395381927e-02 1.758620142936706543e-02 1.979256421327590942e-02 -2.382407337427139282e-02 -3.576119616627693176e-02 1.835747249424457550e-02 3.690033452585339546e-03
5.797661840915679932e-03 -3.148133680224418640e-02 3.062408417463302612e-02 5.455976724624633789e-02 3.243595361709594727e-02 -1.905097626149654388e-02 -4.979127645492553711e-02 -3.678677976131439209e-02 3.677070140838623047e-02 -3.806468844413757324e-02 3.720781952142715454e-02 -2.079828456044197083e-02 1.159027032554149628e-02 -1.987231150269508362e-02 1.263887714594602585e-02 -5.061505734920501709e-02 4.012930765748023987e-02 -3.705265745520591736e-02 2.524230070412158966e-02 -1.723986119031906128e-02 9.067680686712265015e-03 5.196314677596092224e-02 1.198679860681295395e-02 3.415626659989356995e-02 -4.920551553368568420e-02 -5.851916596293449402e-02 1.080963853746652603e-02 2.170068584382534027e-02 1.430841721594333649e-02 -4.442535713315010071e-02 1.514093368314206600e-03 -2.005632966756820679e-02 -3.221152350306510925e-02 2.337441965937614441e-02 -1.016130205243825912e-02 1.458887942135334015e-02 1.504015875980257988e-03 -1.204484235495328903e-02 -5.101624503731727600e-02 1.258192118257284164e-02 3.022920340299606323e-02 -2.181036025285720825e-02 -4.667421430349349976e-02 -1.397929899394512177e-02 -3.882114961743354797e-02 -2.059456519782543182e-02 9.699445217847824097e-03 1.510094199329614639e-02 3.498402237892150879e-02 -3.547412902116775513e-02 3.273737430572509766e-02 3.167786076664924622e-02 3.604924678802490234e-02 2.012927457690238953e-02 -2.248654700815677643e-02 9.664569981396198273e-03 -3.082607313990592957e-02 6.697110831737518311e-03 4.174211248755455017e-02 -1.983389072120189667e-02 2.275310456752777100e-03 2.524143084883689880e-02 -5.161596089601516724e-02 5.263113975524902344e-02 -3.542225807905197144e-02 -4.718690365552902222e-02 -2.731399983167648315e-02 -1.379579771310091019e-02 4.121021181344985962e-02 8.474926464259624481e-03 -2.151469327509403229e-02 3.968622162938117981e-02 9.063761099241673946e-04 7.431275676935911179e-03 -4.344746842980384827e-02 -4.423033446073532104e-02 1.146001275628805161e-02 -1.299876719713211060e-03 -2.884326875209808350e-02 -5.165462940931320190e-02 -4.139602929353713989e-02 -9.151643142104148865e-03 -2.552262321114540100e-02 -1.718699932098388672e-02 -6.794556975364685059e-03 -2.083983644843101501e-02 -3.015377791598439217e-03 4.191732779145240784e-02 5.689423531293869019e-03 -4.570887237787246704e-02 -2.697190456092357635e-02 1.129871048033237457e-02 -2.416446805000305176e-02 2.284191362559795380e-02 3.976861480623483658e-03 -3.450885042548179626e-02 -7.059677969664335251e-03 1.135727157816290855e-03 -2.902035228908061981e-02 -2.998061291873455048e-02 1.093028485774993896e-02 3.148902952671051025e-02 -1.504343375563621521e-02 1.774327270686626434e-02 -2.655596286058425903e-02 1.869016885757446289e-02 2.914107963442802429e-02 -4.987409338355064392e-02 -4.695955663919448853e-02 3.366086632013320923e-02 2.419846365228295326e-03 -2.318515069782733917e-02 -7.023730315268039703e-03 -5.407575145363807678e-02 2.615580707788467407e-02 -5.190690234303474426e-02 -1.080089277820661664e-04 -1.953264884650707245e-02 1.086999941617250443e-02 3.660173341631889343e-02 4.775814339518547058e-02 5.567883327603340149e-02 -2.655188739299774170e-02 -3.084965050220489502e-02 3.488628193736076355e-02 2.723989821970462799e-02 -4.118204861879348755e-02 3.971554338932037354e-02 7.071313913911581039e-03 3.680624067783355713e-02 1.294643152505159378e-02 -7.225014269351959229e-03 3.018672019243240356e-02 4.281444102525711060e-02 1.969652017578482628e-03 1.138667017221450806e-02 3.359297290444374084e-02 1.007781829684972763e-02 4.987187683582305908e-03 -1.309179328382015228e-02 -1.589829451404511929e-03 4.047697409987449646e-02 2.214324660599231720e-02 3.135264292359352112e-02 -3.991413977928459644e-04 -1.944473572075366974e-02 -1.702492684125900269e-02 3.406833857297897339e-02 -8.608488366007804871e-03 2.979451790452003479e-02 3.982710093259811401e-02 3.139747679233551025e-02 -2.854247018694877625e-02 -2.595434524118900299e-02 -4.954914376139640808e-02 -4.242740571498870850e-02 9.211921133100986481e-03 -1.929654739797115326e-02 -3.089523129165172577e-02 -8.557386696338653564e-03 3.782596439123153687e-02 -5.629697442054748535e-02 4.854175820946693420e-02 6.013530306518077850e-03 2.589111030101776123e-02 -7.234591990709304810e-03 4.889859631657600403e-02 -5.680743977427482605e-02 7.047920953482389450e-03 2.876807563006877899e-02 -7.805968169122934341e-03 -4.541155323386192322e-02 -4.848813172429800034e-03 -3.724177554249763489e-02 2.838476374745368958e-02 -2.601663395762443542e-02 -1.846997998654842377e-02 2.491644583642482758e-03 2.765082195401191711e-02 1.730506867170333862e-02 5.038102716207504272e-02 8.615259081125259399e-03 -2.682392299175262451e-02 3.062366135418415070e-02 -7.726237643510103226e-03 3.832523524761199951e-02 3.108460828661918640e-02 -3.865109011530876160e-02 2.694027498364448547e-02 3.850574418902397156e-02 1.571397483348846436e-02 4.287132620811462402e-02 1.285088621079921722e-02 4.419063776731491089e-02 -3.002559021115303040e-02 -3.248913213610649109e-02 3.803998604416847229e-02 -6.108275149017572403e-03 1.139059476554393768e-02 -3.143576160073280334e-02 2.444285200908780098e-03 3.181255981326103210e-02 -1.657692342996597290e-02 3.046897612512111664e-02 2.084258943796157837e-02 -3.633449226617813110e-02 -3.546271100640296936e-02 8.836528286337852478e-03 -2.673351578414440155e-02 -4.793382808566093445e-02 2.802425809204578400e-02 -1.153090130537748337e-02 -5.579574406147003174e-02 -2.424173429608345032e-02 2.280419692397117615e-02 -2.716771699488162994e-02 2.259357646107673645e-02 1.095823291689157486e-02 7.160121109336614609e-03 -6.578165572136640549e-03 -8.158603683114051819e-03 2.705953083932399750e-02 -2.656400948762893677e-02 2.374282106757164001e-02 4.265827685594558716e-02 -2.896610274910926819e-02 2.918477170169353485e-02 1.499987120041623712e-04 -3.734227642416954041e-02 2.076907828450202942e-02 4.738256707787513733e-02 2.722131088376045227e-02 3.696139156818389893e-02 -2.071622759103775024e-02 2.155530080199241638e-02 1.228211447596549988e-02 -4.541989415884017944e-02 -1.375273149460554123e-02 -1.254309341311454773e-02 -4.295456036925315857e-02 -7.104386575520038605e-03 1.824249140918254852e-02 -1.645765849389135838e-03 4.911882802844047546e-02 -1.184146758168935776e-02 9.166372939944267273e-03 -8.835270069539546967e-03 1.294612698256969452e-02 -3.949086368083953857e-02 -4.791532829403877258e-02 4.038500413298606873e-02 -1.486692950129508972e-02 -5.025810375809669495e-02 1.020674407482147217e-02 3.667121008038520813e-02 4.377071186900138855e-02 -3.607109934091567993e-02 -3.078880952671170235e-03 4.249688982963562012e-02 -3.555618226528167725e-02 -1.332199014723300934e-02 -2.311075478792190552e-02 2.934881299734115601e-02 -3.239407762885093689e-02 1.594465970993041992e-02 -2.554962597787380219e-02 2.657486125826835632e-02 2.534866891801357269e-02 -3.927287086844444275e-02 -1.504527591168880463e-02 4.056027159094810486e-02 -5.220529809594154358e-02 -1.527389977127313614e-02 6.890294142067432404e-03 1.947015710175037384e-02 -1.300249621272087097e-02 4.328418895602226257e-02 -2.566782757639884949e-02 1.053406763821840286e-02 5.661649629473686218e-03 3.377794474363327026e-02 5.325662717223167419e-02 -1.657930575311183929e-02 4.203138500452041626e-02 3.476805984973907471e-02 3.910552244633436203e-03 2.930604293942451477e-02 3.926299884915351868e-02 -3.211855888366699219e-02 -3.183682449162006378e-03 4.117015749216079712e-02 2.333348616957664490e-02 -6.785160861909389496e-03 3.164394199848175049e-02 4.165267571806907654e-03 6.102230865508317947e-03 2.680122852325439453e-02 4.394482076168060303e-02 2.684101089835166931e-02 5.477649625390768051e-03 -1.598282344639301300e-02 1.606800779700279236e-02 3.865176811814308167e-02 -5.242678150534629822e-02 1.153112947940826416e-02 9.869148023426532745e-03 5.617804359644651413e-03 9.975927881896495819e-03 -5.585407465696334839e-02 -8.661597035825252533e-03 -2.246269490569829941e-03 -2.592033520340919495e-02 -3.672966733574867249e-02 2.707029506564140320e-02 -8.220251649618148804e-03 3.586130589246749878e-02 2.571439743041992188e-02 1.596238277852535248e-02 4.804426338523626328e-03 1.882434822618961334e-02 -3.851881995797157288e-02 4.416065290570259094e-02 -2.136737853288650513e-02 -2.026021666824817657e-02 -2.289071865379810333e-02 -3.631646558642387390e-02 -1.038084737956523895e-03 3.935141488909721375e-02 8.723263628780841827e-03 -5.559955909848213196e-02 -4.808061942458152771e-02 4.126176983118057251e-02 -2.897012792527675629e-02 -1.609320938587188721e-02 2.488012053072452545e-02 -5.552685633301734924e-02 -5.686379969120025635e-02 -4.286655411124229431e-02 3.269057348370552063e-02 1.503395661711692810e-02 2.819351851940155029e-02 -3.346995264291763306e-02 3.546173498034477234e-02 2.532075345516204834e-02 -1.633079349994659424e-02 1.097672432661056519e-02 -3.286340460181236267e-02 -2.550208009779453278e-03 -1.161349192261695862e-02 4.350227117538452148e-02 -3.733457252383232117e-02 2.439452148973941803e-02 2.613395452499389648e-02 -5.273001641035079956e-02 -5.555980652570724487e-02 3.615273535251617432e-02 -3.063271939754486084e-02 -1.421023276634514332e-03 3.751896321773529053e-02 -7.164686918258666992e-03 -4.040829371660947800e-03 4.829485900700092316e-03 1.817832514643669128e-02 -4.726428538560867310e-03 6.424059160053730011e-03 -2.794165909290313721e-02 -3.403066471219062805e-02 -5.113050341606140137e-02 -4.898926243185997009e-02 -4.982185736298561096e-02 -8.640490472316741943e-03 1.370626315474510193e-02 -2.434172295033931732e-02 3.595814108848571777e-02 -3.117384947836399078e-02 -4.389877617359161377e-02 -2.485224790871143341e-02 4.846821352839469910e-02 7.880342192947864532e-03 -4.233441874384880066e-02 2.682606317102909088e-02 2.496306598186492920e-02 3.682828322052955627e-02 1.917428337037563324e-02 -9.078816510736942291e-03 3.819311782717704773e-02 4.390863701701164246e-02 3.376942127943038940e-02 4.492139443755149841e-02 2.841997332870960236e-02 -4.960397258400917053e-02 1.450600661337375641e-02 -4.124712944030761719e-02 -3.854679688811302185e-02 1.015506871044635773e-02 8.896684274077415466e-03 2.158775180578231812e-02 -4.836958646774291992e-02 3.086209110915660858e-02 4.028378054499626160e-02
-4.628145694732666016e-02 1.688644848763942719e-02 2.203434705734252930e-02 1.316831074655056000e-02 -4.921189695596694946e-02 2.162503264844417572e-02 -1.722138002514839172e-02 -3.066081367433071136e-02 1.018080301582813263e-02 -1.327085029333829880e-02 4.391391202807426453e-02 1.396715268492698669e-02 7.133020088076591492e-03 4.760555177927017212e-02 2.700527384877204895e-02 5.621661245822906494e-02 4.373356699943542480e-02 3.361816750839352608e-03 -3.404022753238677979e-02 -2.627660147845745087e-02 1.247686799615621567e-02 -3.705903142690658569e-02 -3.915838897228240967e-02 -3.783667460083961487e-02 2.302163653075695038e-02 -3.198095411062240601e-02 1.688468270003795624e-02 -2.704206667840480804e-02 5.459687113761901855e-02 2.576953545212745667e-02 3.908875957131385803e-02 2.659189142286777496e-02 4.959958046674728394e-02 -4.298069700598716736e-02 1.739230565726757050e-02 -3.387117758393287659e-02 3.133333101868629456e-02 2.013962715864181519e-02 2.400689263595268130e-04 -2.087667584419250488e-02 5.157709494233131409e-02 4.897158592939376831e-02 6.873156875371932983e-03 -2.850517071783542633e-02 -8.353575132787227631e-03 9.643451776355504990e-04 -3.138002753257751465e-02 -2.034189552068710327e-02 -1.073447335511445999e-02 -2.268782258033752441e-02 -3.921789303421974182e-02 1.028926461003720760e-03 -3.501718863844871521e-02 -4.128502309322357178e-02 2.969901077449321747e-02 -3.052272088825702667e-02 -1.476589497178792953e-02 4.719363525509834290e-02 -1.406518090516328812e-02 4.386019334197044373e-02 -5.990793183445930481e-02 -2.277922071516513824e-02 4.607143998146057129e-02 -6.040154397487640381e-02 -2.535764873027801514e-02 3.429563716053962708e-02 -2.529755793511867523e-02 7.186175324022769928e-03 -3.905490785837173462e-02 3.076528944075107574e-02 -6.005460862070322037e-03 -1.582081429660320282e-02 -2.985195070505142212e-02 -1.454676501452922821e-02 1.239646691828966141e-02 -3.237563371658325195e-02 4.418913647532463074e-02 2.035987749695777893e-02 4.369819536805152893e-02 6.488053500652313232e-02 1.828384771943092346e-02 -3.517387807369232178e-02 1.572357490658760071e-02 1.146523375064134598e-02 -2.877964451909065247e-02 -3.885944187641143799e-02 -2.341507561504840851e-02 6.115861237049102783e-03 -4.842431470751762390e-02 9.775963611900806427e-03 2.984702400863170624e-02 2.025974169373512268e-02 2.509133145213127136e-02 1.623484678566455841e-02 -3.388598933815956116e-02 5.306045338511466980e-02 2.249366603791713715e-02 2.320914342999458313e-02 -3.991214092820882797e-03 8.147032000124454498e-03 1.553934067487716675e-02 -2.528282999992370605e-02 1.865235529839992523e-02 -2.173340506851673126e-02 3.040420636534690857e-02 2.235704101622104645e-02 -2.046540565788745880e-02 -1.489970553666353226e-02 -4.718019440770149231e-02 -3.725024685263633728e-02 7.518260739743709564e-03 -3.417284926399588585e-03 2.477195113897323608e-02 -3.292062506079673767e-02 -1.404009014368057251e-02 4.573114961385726929e-02 1.993451081216335297e-02 3.605542704463005066e-02 5.976422131061553955e-02 5.432092025876045227e-02 -1.674275100231170654e-02 2.072723023593425751e-02 -2.139122411608695984e-02 -3.434542566537857056e-02 1.834178529679775238e-02 -2.951516071334481239e-03 2.175702527165412903e-02 1.081742253154516220e-02 -3.546118969097733498e-03 -2.158627659082412720e-02 -1.914297975599765778e-02 3.155954182147979736e-04 -3.273311257362365723e-02 -4.566527530550956726e-02 -1.447800896130502224e-03 -2.198236621916294098e-02 3.612600639462471008e-02 -3.391910716891288757e-02 -1.906703226268291473e-02 7.761224638670682907e-03 -3.055476024746894836e-02 3.306810185313224792e-02 5.128709226846694946e-02 3.406753763556480408e-02 2.053406275808811188e-02 -1.671501994132995605e-02 -1.140819862484931946e-02 -1.674320362508296967e-02 2.431637607514858246e-03 -4.335221275687217712e-02 5.291575565934181213e-02 5.256573855876922607e-02 -2.571439743041992188e-02 -3.223628923296928406e-02 4.432760551571846008e-02 2.190820313990116119e-02 3.019277192652225494e-02 1.608685217797756195e-02 -9.828654117882251740e-03 -5.179766565561294556e-02 2.152784727513790131e-02 4.662738740444183350e-02 1.649773120880126953e-02 3.097002394497394562e-02 -7.080007810145616531e-03 -1.649029739201068878e-02 -3.393065184354782104e-02 -3.841734305024147034e-02 -5.087885260581970215e-02 2.781216986477375031e-02 -2.408993802964687347e-02 5.302161350846290588e-02 2.349086338654160500e-03 2.351360581815242767e-02 -2.327578142285346985e-02 5.337077751755714417e-02 -1.533902622759342194e-02 -1.014537084847688675e-02 5.178778991103172302e-02 -2.106967009603977203e-02 6.012345664203166962e-03 4.769209027290344238e-02 -2.493872679769992828e-02 -7.504220120608806610e-04 -6.093539297580718994e-03 1.212301570922136307e-02 1.946754753589630127e-03 -4.823920782655477524e-03 -4.357618093490600586e-02 -4.523109272122383118e-02 2.132747322320938110e-02 -1.344136986881494522e-02 1.393620390444993973e-02 9.342724457383155823e-03 -1.015880052000284195e-02 2.208832092583179474e-02 -1.378233637660741806e-02 4.884095489978790283e-02 1.815541181713342667e-03 4.377403482794761658e-02 -2.005594596266746521e-02 2.844031341373920441e-02 1.530011370778083801e-02 -1.599881611764431000e-02 5.355222895741462708e-02 4.026994854211807251e-02 -3.002156876027584076e-02 -7.800920866429805756e-03 5.524056404829025269e-02 2.475367113947868347e-02 3.880586475133895874e-02 5.628477409482002258e-02 4.068334773182868958e-02 2.062757685780525208e-02 3.062621131539344788e-02 -2.001882530748844147e-02 2.837763912975788116e-02 -2.581776119768619537e-02 -1.539699081331491470e-02 -2.989909984171390533e-02 5.972930416464805603e-02 -3.816353157162666321e-02 -3.061100654304027557e-02 5.948349833488464355e-02 4.912736639380455017e-02 -5.153408646583557129e-02 3.986547142267227173e-02 5.678317323327064514e-02 -8.392811752855777740e-03 4.659206792712211609e-02 -2.143203094601631165e-02 6.401463411748409271e-03 -3.761631995439529419e-02 -2.566378749907016754e-02 1.878140121698379517e-02 4.327701404690742493e-03 4.911758936941623688e-03 5.470354855060577393e-02 -9.833890013396739960e-03 2.379140444099903107e-02 2.231535315513610840e-02 1.611024141311645508e-02 1.392062287777662277e-02 -1.313932240009307861e-03 4.192906618118286133e-02 1.580587588250637054e-02 -9.114007116295397282e-04 4.016428440809249878e-02 4.507398605346679688e-02 2.518818154931068420e-02 -3.994310274720191956e-02 1.473429612815380096e-02 -3.970896080136299133e-02 -3.121268749237060547e-02 -4.585018754005432129e-02 8.303049951791763306e-03 5.961217451840639114e-03 -4.054600000381469727e-02 1.552214496769011021e-03 -4.084325954318046570e-02 4.332750663161277771e-02 4.459606111049652100e-02 9.954823181033134460e-03 4.770420119166374207e-02 -2.711504139006137848e-02 1.119221560657024384e-02 4.030445963144302368e-02 1.124192494899034500e-02 1.720245555043220520e-02 -4.271766543388366699e-02 1.039506401866674423e-03 -2.863315865397453308e-02 -3.431868681218475103e-04 7.336017442867159843e-04 4.017911106348037720e-02 -6.061373278498649597e-03 -2.521727292332798243e-04 1.365805882960557938e-02 -3.511183708906173706e-02 -2.929847873747348785e-02 3.341292217373847961e-02 3.016678988933563232e-02 3.063838183879852295e-02 -2.753651142120361328e-02 2.741271443665027618e-02 -1.578512229025363922e-02 8.329993113875389099e-03 -5.175244435667991638e-02 -5.477225873619318008e-03 5.963755398988723755e-02 3.363225981593132019e-02 2.674045041203498840e-02 3.148834034800529480e-02 1.730642654001712799e-02 -2.273391187191009521e-02 -1.883733645081520081e-02 -2.890728786587715149e-02 1.220496371388435364e-02 -2.871606312692165375e-02 -2.032389678061008453e-02 3.275138558819890022e-03 3.850333020091056824e-02 1.599130406975746155e-02 -3.799379989504814148e-02 -1.354251988232135773e-02 -4.807182401418685913e-02 3.480246290564537048e-02 2.057200111448764801e-02 5.207065492868423462e-02 4.423270374536514282e-02 4.733048006892204285e-02 -7.235605880850926042e-05 3.637307509779930115e-02 2.952987793833017349e-03 2.035413123667240143e-02 3.439769893884658813e-02 -4.303442686796188354e-02 -1.425390969961881638e-02 -8.990018628537654877e-03 3.565785661339759827e-02 1.583825796842575073e-02 -5.386246368288993835e-03 -4.841966927051544189e-02 4.051618650555610657e-02 4.299067705869674683e-02 -1.497328374534845352e-02 5.130092427134513855e-02 1.745496690273284912e-02 4.371588118374347687e-03 4.296036064624786377e-02 4.175807163119316101e-02 4.651059955358505249e-02 3.689891099929809570e-02 -2.737519890069961548e-02 -3.703699912875890732e-03 -2.156388387084007263e-02 -2.232180722057819366e-02 3.876307234168052673e-02 -2.418526262044906616e-02 -1.338091958314180374e-02 9.931535460054874420e-03 -2.057001180946826935e-02 1.185914780944585800e-02 1.336628012359142303e-02 4.121381789445877075e-02 3.205849975347518921e-02 5.121100228279829025e-03 -3.373860940337181091e-02 4.686903581023216248e-02 -2.874458953738212585e-02 4.755983129143714905e-02 2.821971289813518524e-02 3.731057420372962952e-02 -4.081767797470092773e-02 -2.167146094143390656e-02 -6.198716536164283752e-02 -3.370514884591102600e-02 -2.099157683551311493e-02 4.002198576927185059e-02 -2.970277518033981323e-02 5.256666243076324463e-02 3.870874270796775818e-02 -6.026080623269081116e-02 -2.997629158198833466e-02 4.813051968812942505e-02 -2.936627157032489777e-02 2.243989892303943634e-02 -4.728470370173454285e-02 7.562421262264251709e-03 -4.918700456619262695e-02 -7.374454755336046219e-03 1.477861031889915466e-02 4.857479408383369446e-02 -2.517027407884597778e-02 -9.935298934578895569e-03 -1.636818237602710724e-02 7.261192426085472107e-03 3.600088134407997131e-02 2.363867871463298798e-02 -2.179225534200668335e-02 9.501989930868148804e-03 -3.459845110774040222e-02 -3.841263800859451294e-02 4.276830330491065979e-02 -2.181348949670791626e-02 5.394607782363891602e-03 4.394573718309402466e-02 -2.167002670466899872e-02 -2.111085318028926849e-02 3.955774009227752686e-02 3.108322198386304080e-05 -3.343914821743965149e-02 3.367898240685462952e-02 3.224311769008636475e-02 -8.620996028184890747e-03 3.005926869809627533e-02 -5.505255237221717834e-02 1.340788975358009338e-02 2.738279290497303009e-02 -1.367122493684291840e-02
-1.574654132127761841e-03 -8.389331400394439697e-03 -3.657172666862607002e-03 3.996226936578750610e-02 -2.639459632337093353e-02 -2.888218499720096588e-02 -3.415423631668090820e-02 -4.228374455124139786e-03 -5.536611378192901611e-02 -3.346706926822662354e-02 -6.831058999523520470e-04 4.086865112185478210e-02 3.815315663814544678e-02 -1.525443233549594879e-02 -3.943199664354324341e-02 2.430731803178787231e-02 2.007973752915859222e-02 2.069036848843097687e-02 -4.246767237782478333e-02 2.957620844244956970e-02 -1.239365246146917343e-02 -1.406885217875242233e-02 -1.987054198980331421e-02 3.649526834487915039e-02 -2.417800761759281158e-02 5.175553634762763977e-02 -2.966381236910820007e-02 6.066094618290662766e-03 -5.309610441327095032e-02 1.935421861708164215e-02 8.780510164797306061e-03 -2.836069650948047638e-02 4.270446673035621643e-02 2.918009087443351746e-02 -4.003495723009109497e-02 1.099130837246775627e-03 2.304923161864280701e-02 -4.740548506379127502e-02 -3.880060836672782898e-02 5.152705125510692596e-03 4.882744513452053070e-03 -3.895528614521026611e-02 -1.519621233455836773e-03 2.688192995265126228e-03 3.259143233299255371e-02 1.591504784300923347e-03 -3.918449953198432922e-02 -3.788365423679351807e-02 -3.426878154277801514e-02 7.096968125551939011e-03 5.442464724183082581e-03 4.633604735136032104e-02 2.662538178265094757e-02 1.343950070440769196e-02 3.420582972466945648e-03 -3.536417335271835327e-02 8.067142218351364136e-03 -2.677501738071441650e-02 -4.707633703947067261e-02 -3.382110595703125000e-02 2.180269733071327209e-02 -3.487813472747802734e-02 -3.742933645844459534e-02 -7.437144522555172443e-04 4.354185983538627625e-02 -3.088312968611717224e-02 9.501894004642963409e-03 2.388400956988334656e-02 4.780128598213195801e-03 1.048286259174346924e-02 2.010648325085639954e-02 -1.253624912351369858e-02 -4.825829342007637024e-02 4.782345145940780640e-02 2.263762056827545166e-02 -4.571721702814102173e-02 -4.794053733348846436e-03 1.731476560235023499e-02 -5.184607952833175659e-02 -8.198518306016921997e-03 -2.249586582183837891e-02 -2.429212816059589386e-02 -2.750207204371690750e-03 -5.102633498609066010e-03 -1.426961179822683334e-02 8.271635510027408600e-03 -2.164236083626747131e-02 4.191639833152294159e-03 1.507715508341789246e-02 -3.106407262384891510e-02 -1.301895454525947571e-02 -2.431975305080413818e-02 2.102825790643692017e-02 1.759498845785856247e-03 3.217005357146263123e-02 4.179736599326133728e-02 5.945013463497161865e-02 -9.183024056255817413e-03 4.301189258694648743e-02 -2.876518294215202332e-02 -3.816348686814308167e-02 -4.937526956200599670e-02 -3.067341819405555725e-02 3.247961774468421936e-02 3.720278665423393250e-02 3.186127543449401855e-02 2.451229840517044067e-02 -6.171131972223520279e-03 4.815686121582984924e-02 4.394365474581718445e-02 4.500948265194892883e-02 -5.627407226711511612e-03 5.061320215463638306e-02 -2.513386495411396027e-02 -4.084270074963569641e-02 -3.890606015920639038e-02 -1.187160890549421310e-02 -3.248927369713783264e-02 -2.225176198408007622e-03 5.820045247673988342e-02 -5.645895376801490784e-03 4.689497128129005432e-02 1.304846163839101791e-02 -5.092353746294975281e-02 5.518468096852302551e-02 -3.165402263402938843e-02 4.344445839524269104e-02 -2.521956525743007660e-02 3.650565864518284798e-03 5.780817940831184387e-03 1.985823735594749451e-02 -4.381797835230827332e-02 1.324647106230258942e-02 -1.563378982245922089e-02 8.887167088687419891e-03 1.799768581986427307e-02 1.656996831297874451e-02 -2.542044222354888916e-02 1.223629433661699295e-02 5.146061070263385773e-03 3.079975210130214691e-02 4.065066576004028320e-02 -5.820825695991516113e-02 2.232367731630802155e-02 6.442919373512268066e-03 -2.799737267196178436e-02 -3.580085933208465576e-03 -5.010590329766273499e-02 1.529297884553670883e-02 -4.899181053042411804e-02 1.311680767685174942e-02 -2.346477471292018890e-02 4.094979166984558105e-02 1.218854263424873352e-02 1.528151333332061768e-04 1.305332034826278687e-02 3.389966860413551331e-02 3.136702813208103180e-03 -2.791582792997360229e-02 4.692897945642471313e-02 2.506165578961372375e-02 -2.320513874292373657e-02 -1.056938897818326950e-02 3.047027811408042908e-02 4.112261533737182617e-02 -4.118483141064643860e-02 -4.006944969296455383e-02 2.989455126225948334e-02 -4.409224912524223328e-02 -5.089275911450386047e-02 -5.956382956355810165e-03 2.827812731266021729e-02 -3.822077810764312744e-02 -5.722565576434135437e-02 2.175111882388591766e-02 3.957317024469375610e-02 -7.649817038327455521e-03 5.902020260691642761e-03 2.714805677533149719e-02 -5.969844758510589600e-02 1.548540126532316208e-02 1.399561855942010880e-02 -1.862429082393646240e-02 -4.599983990192413330e-02 1.259591954294592142e-04 2.959386073052883148e-02 2.563307806849479675e-02 2.031344361603260040e-02 3.540082648396492004e-02 -4.182370752096176147e-02 2.737136185169219971e-02 -1.828159391880035400e-02 6.290034856647253036e-03 2.856101281940937042e-02 -2.603365294635295868e-02 -4.110235720872879028e-02 -4.851097241044044495e-02 -5.916456133127212524e-02 2.305915951728820801e-02 3.079626709222793579e-02 3.470762819051742554e-02 1.060793269425630569e-02 1.122417487204074860e-02 2.150646783411502838e-02 -2.949600666761398315e-02 -4.835295956581830978e-03 4.270521458238363266e-03 9.312570095062255859e-03 -2.135117724537849426e-02 3.038362972438335419e-02 1.135266106575727463e-02 -2.246710285544395447e-02 5.013034492731094360e-02 3.962531313300132751e-02 4.339504614472389221e-02 2.517218515276908875e-02 1.659071817994117737e-02 2.624979615211486816e-02 -1.829545013606548309e-02 1.716601662337779999e-03 2.158390916883945465e-02 6.073771510273218155e-03 -2.149927616119384766e-02 4.111361503601074219e-02 -2.820597961544990540e-02 3.852208703756332397e-02 -3.443099558353424072e-02 2.685441076755523682e-02 1.318109966814517975e-02 -2.655152790248394012e-02 7.471792399883270264e-03 -3.360969200730323792e-02 3.678399696946144104e-02 -4.621297493577003479e-02 -6.492076441645622253e-03 2.614287100732326508e-02 1.852443441748619080e-02 -3.033827617764472961e-02 1.644291169941425323e-02 4.030463844537734985e-02 3.799870982766151428e-02 -1.182947587221860886e-02 1.011152938008308411e-02 -4.348582774400711060e-02 -3.733645007014274597e-02 4.991902038455009460e-03 -3.886684402823448181e-02 6.767150480300188065e-03 -1.010686904191970825e-02 1.710289902985095978e-02 -1.212252676486968994e-02 -1.216664258390665054e-02 -1.073841657489538193e-02 -3.914337232708930969e-02 -4.486814141273498535e-02 3.211326524615287781e-02 3.496393188834190369e-02 2.297416329383850098e-02 -2.770717814564704895e-02 -4.035029187798500061e-02 -1.517252530902624130e-02 4.018005356192588806e-02 -4.448474198579788208e-02 3.011446632444858551e-02 2.142669074237346649e-02 1.607838831841945648e-02 4.395259544253349304e-02 1.933848857879638672e-02 -2.778746746480464935e-02 -3.088151104748249054e-02 -5.493405833840370178e-02 -4.974358528852462769e-02 7.814127020537853241e-03 -4.504295065999031067e-02 -3.667329996824264526e-02 4.108596220612525940e-02 3.469878062605857849e-02 -2.763401903212070465e-02 3.075874596834182739e-02 8.475835435092449188e-03 -4.051413759589195251e-02 -2.666698582470417023e-02 -8.929706178605556488e-03 -4.270020872354507446e-02 -4.104321077466011047e-02 -2.057686634361743927e-02 1.280104089528322220e-02 -2.702093310654163361e-02 2.368593588471412659e-02 -5.822143983095884323e-03 -2.940547838807106018e-02 3.812740370631217957e-02 -5.068454518914222717e-02 -2.201719768345355988e-02 -1.929618604481220245e-02 7.164155133068561554e-03 -3.385474160313606262e-02 -3.760784491896629333e-02 6.951345596462488174e-03 -6.066602654755115509e-03 -3.656774759292602539e-02 -2.738741226494312286e-02 -4.060973599553108215e-02 5.437890812754631042e-02 2.421779558062553406e-02 -3.765464201569557190e-02 7.360936608165502548e-03 -1.536508463323116302e-02 3.637998364865779877e-03 1.702200062572956085e-02 -1.380845718085765839e-02 1.473565772175788879e-02 9.927257196977734566e-04 2.967188693583011627e-02 3.024603053927421570e-02 4.504564777016639709e-02 1.912169903516769409e-02 1.867141202092170715e-02 4.824832454323768616e-02 -4.451132565736770630e-02 -5.448646843433380127e-02 2.715876139700412750e-02 6.345164496451616287e-03 -4.204422701150178909e-03 3.563857823610305786e-02 -3.168522939085960388e-02 -3.560994938015937805e-02 3.974896389991044998e-03 -3.380389884114265442e-02 -9.169309400022029877e-03 3.603686764836311340e-02 -5.376333743333816528e-02 3.389876335859298706e-02 2.590845897793769836e-02 -2.412004768848419189e-02 -5.575121846050024033e-03 -3.205584362149238586e-02 -4.290644824504852295e-02 -2.181048877537250519e-02 -4.813867434859275818e-02 4.403809830546379089e-02 5.105018150061368942e-03 -4.062276333570480347e-03 2.172326296567916870e-02 3.727355971932411194e-02 -3.524886816740036011e-02 1.106757484376430511e-02 -2.392531186342239380e-02 4.819746688008308411e-02 1.505085267126560211e-02 -2.968620136380195618e-02 -4.053331911563873291e-02 1.702260598540306091e-02 3.716653212904930115e-02 -2.262091077864170074e-02 3.860431164503097534e-02 -5.376952700316905975e-03 -9.788806783035397530e-04 -1.380250696092844009e-02 -1.146382093429565430e-02 -9.032323956489562988e-03 4.975841194391250610e-02 -1.723176240921020508e-02 6.203494966030120850e-03 -3.111042082309722900e-03 3.145036846399307251e-02 9.480424225330352783e-03 3.901360183954238892e-02 -3.117096796631813049e-02 -1.373600447550415993e-03 3.588067367672920227e-02 8.267737925052642822e-03 -5.774398148059844971e-02 4.989955201745033264e-02 -4.409419745206832886e-02 2.978710457682609558e-02 -4.684719443321228027e-02 -4.664938524365425110e-02 -2.783476933836936951e-02 -9.797037579119205475e-03 4.126938059926033020e-02 1.924050971865653992e-02 9.727685712277889252e-03 4.138553887605667114e-02 4.414011724293231964e-03 3.238620236515998840e-02 8.520381525158882141e-03 -4.417398571968078613e-02 -1.375111192464828491e-02 -1.308014988899230957e-02 -4.172752797603607178e-02 -3.019140288233757019e-02 -1.469418779015541077e-02 -3.772731870412826538e-02 1.294385828077793121e-02 -2.133453637361526489e-02 -7.972481660544872284e-03 1.252977235708385706e-04 -8.308390155434608459e-03 1.916938275098800659e-02
-4.831977561116218567e-02 -2.310293726623058319e-02 5.276967957615852356e-02 -3.174348175525665283e-02 -3.717879578471183777e-02 1.082655391655862331e-03 -2.406868338584899902e-02 5.049006640911102295e-02 3.981913626194000244e-02 4.739101510494947433e-03 2.190756052732467651e-02 3.957023099064826965e-02 4.792268201708793640e-02 -1.581009477376937866e-02 2.460932917892932892e-02 -2.683832868933677673e-02 -4.101745318621397018e-03 -2.939494326710700989e-02 2.891825325787067413e-02 -7.127363234758377075e-03 -3.999373689293861389e-02 -1.242418959736824036e-02 1.055453205481171608e-03 -3.699963539838790894e-02 -2.011028677225112915e-02 2.207487449049949646e-02 -3.550270572304725647e-02 -3.676089271903038025e-02 1.290513109415769577e-02 3.668238967657089233e-02 -4.183804243803024292e-02 4.219835996627807617e-02 -3.341469913721084595e-02 4.205125197768211365e-02 -1.851251162588596344e-02 -1.609156839549541473e-02 1.464612223207950592e-02 2.828194061294198036e-03 1.578365103341639042e-03 -2.236374281346797943e-02 8.975724689662456512e-03 -3.836318477988243103e-02 -1.530411932617425919e-02 1.480267010629177094e-02 -3.134888038039207458e-02 -4.264898970723152161e-02 4.915583878755569458e-03 -1.783290691673755646e-02 1.326375873759388924e-03 1.114760246127843857e-02 -3.200495615601539612e-02 -2.802511490881443024e-02 1.116349082440137863e-02 6.195683963596820831e-03 2.883455902338027954e-02 4.572870954871177673e-02 1.832624338567256927e-02 -3.938382491469383240e-02 -3.201368451118469238e-02 4.331189021468162537e-02 1.212095376104116440e-03 3.945330530405044556e-02 -3.994008526206016541e-02 -1.715251430869102478e-02 -4.108600318431854248e-02 -1.755352132022380829e-02 3.925968706607818604e-02 1.692454703152179718e-02 -4.843477159738540649e-02 -9.728840552270412445e-03 3.732662275433540344e-02 -1.600059494376182556e-02 1.500378455966711044e-02 -1.354163791984319687e-02 -4.032497107982635498e-02 2.995384298264980316e-02 1.246809400618076324e-02 -4.930347204208374023e-03 5.740902852267026901e-03 5.298551544547080994e-02 -3.191956505179405212e-02 5.516931414604187012e-02 -5.432930309325456619e-03 6.073539610952138901e-03 2.598226442933082581e-02 -5.190030112862586975e-02 4.210804402828216553e-02 -3.718734532594680786e-02 2.293819561600685120e-02 4.064979404211044312e-02 2.422441728413105011e-02 -3.853671625256538391e-02 1.288755796849727631e-02 3.986157849431037903e-02 2.944697439670562744e-02 -1.731583848595619202e-02 1.276896987110376358e-02 -8.946685120463371277e-03 -1.984857209026813507e-02 3.271392732858657837e-02 3.751971200108528137e-02 3.113249130547046661e-02 4.268394038081169128e-02 -8.062516339123249054e-03 3.500196337699890137e-02 3.376093506813049316e-02 5.449854303151369095e-03 -3.823564946651458740e-02 4.015157744288444519e-02 3.667215257883071899e-02 -7.275537122040987015e-03 2.213052939623594284e-03 -5.314850807189941406e-02 4.131284356117248535e-02 4.304972663521766663e-02 1.925384625792503357e-02 -6.982024642638862133e-04 5.853062495589256287e-02 5.299266055226325989e-02 -3.557774052023887634e-02 2.224431373178958893e-02 1.284174714237451553e-02 -4.028783738613128662e-02 2.443831646814942360e-03 -1.034880429506301880e-02 3.158431872725486755e-02 -3.079258278012275696e-02 1.615714281797409058e-02 -1.794446818530559540e-02 2.366877906024456024e-02 3.072545118629932404e-02 -2.690214663743972778e-03 -2.023101225495338440e-02 4.080500081181526184e-02 -1.613540202379226685e-02 4.915405437350273132e-02 1.276644226163625717e-02 2.826486900448799133e-02 -2.707639895379543304e-02 -1.460228860378265381e-02 1.514306478202342987e-02 3.640546277165412903e-02 -1.347384415566921234e-02 4.425387829542160034e-02 -4.737964645028114319e-02 2.362816408276557922e-02 -3.864913061261177063e-02 2.965516224503517151e-02 -1.294505596160888672e-02 4.331028461456298828e-02 2.612098120152950287e-02 4.707143455743789673e-02 -2.996329963207244873e-02 -2.022244408726692200e-02 8.285641670227050781e-04 2.406038716435432434e-02 -1.739577017724514008e-02 5.829443223774433136e-03 2.572773210704326630e-02 -2.459868602454662323e-02 -1.432169042527675629e-02 -3.634935710579156876e-03 6.283662747591733932e-03 1.556056085973978043e-02 4.951170086860656738e-02 -4.551529884338378906e-02 -1.840338483452796936e-02 2.018192782998085022e-02 -3.138233674690127373e-03 -2.684271149337291718e-02 -4.374731704592704773e-02 -5.431280937045812607e-03 1.619166694581508636e-02 1.152725704014301300e-02 -4.543414339423179626e-02 3.574034199118614197e-02 -2.246346138417720795e-02 -2.304474078118801117e-02 -2.071871981024742126e-02 3.437199443578720093e-02 -1.848056912422180176e-02 -2.474142611026763916e-02 -2.243921346962451935e-02 -3.465228900313377380e-02 1.218438241630792618e-02 -2.625765046104788780e-03 4.061457887291908264e-02 1.149895880371332169e-02 -1.175548136234283447e-02 -5.269465968012809753e-02 -1.776643469929695129e-02 -2.538662590086460114e-02 1.184564176946878433e-02 2.177695371210575104e-02 4.786344245076179504e-02 1.454199291765689850e-02 5.121495947241783142e-02 -3.223818540573120117e-02 -2.359563298523426056e-02 -2.708851173520088196e-02 4.428465291857719421e-02 4.832564666867256165e-02 3.408839553594589233e-02 3.536578640341758728e-02 -1.833680458366870880e-02 -2.271220553666353226e-03 -3.291382640600204468e-02 2.790600247681140900e-02 -3.812617855146527290e-03 3.201864287257194519e-02 -2.043795399367809296e-02 -9.740488021634519100e-04 -3.399568423628807068e-02 -4.340989142656326294e-02 3.110532276332378387e-02 -1.526492089033126831e-02 -2.722371183335781097e-02 4.783283453434705734e-03 -3.517911583185195923e-02 5.217263475060462952e-02 5.754256993532180786e-02 5.518079921603202820e-02 4.672569036483764648e-02 1.395418494939804077e-02 4.982430115342140198e-02 3.584167733788490295e-02 5.435243993997573853e-02 4.786815866827964783e-02 -8.805995807051658630e-03 4.494435712695121765e-02 1.165587827563285828e-02 2.661444805562496185e-02 2.770336903631687164e-02 5.101476982235908508e-02 -4.564205929636955261e-02 2.845418406650424004e-03 2.768972702324390411e-02 3.444724529981613159e-02 1.131238881498575211e-02 -2.415638230741024017e-02 -2.483483217656612396e-02 -2.200545743107795715e-02 9.840860962867736816e-03 3.846302255988121033e-02 -2.079889923334121704e-02 4.254790768027305603e-02 1.983309350907802582e-02 -8.305110968649387360e-03 -5.247064679861068726e-02 4.221913963556289673e-02 3.289053961634635925e-02 -2.953650616109371185e-02 4.501223936676979065e-02 3.494678437709808350e-02 -3.039695322513580322e-02 -3.683031722903251648e-02 4.104968160390853882e-02 -1.463701110333204269e-02 4.396509379148483276e-02 -5.859772861003875732e-02 3.602573648095130920e-02 -1.259701233357191086e-02 1.128922402858734131e-02 3.313826024532318115e-02 2.757667005062103271e-02 -3.687194362282752991e-02 -3.807287896052002907e-03 -1.769681647419929504e-02 5.107986927032470703e-02 -2.938518486917018890e-02 -1.699847169220447540e-02 -2.260284312069416046e-02 3.759042546153068542e-02 8.703783154487609863e-03 -7.240685634315013885e-03 1.105900108814239502e-02 -4.661871585994958878e-03 -1.942561753094196320e-02 3.766400367021560669e-02 2.770486474037170410e-02 2.286829426884651184e-02 -9.869089350104331970e-03 1.339759863913059235e-02 4.156531020998954773e-02 1.797751337289810181e-02 5.090899020433425903e-02 -2.567605301737785339e-02 2.811071090400218964e-02 -3.109671175479888916e-02 2.368118800222873688e-02 1.184111926704645157e-02 -3.536101058125495911e-02 3.737917542457580566e-02 -5.343972891569137573e-02 2.526771277189254761e-02 1.165548991411924362e-02 -5.839250981807708740e-03 1.563213765621185303e-02 -8.457028307020664215e-03 1.477293483912944794e-02 5.435651913285255432e-02 -9.758574306033551693e-04 -4.094294086098670959e-02 -3.575218841433525085e-02 -2.102929167449474335e-02 -2.174718305468559265e-03 1.896889694035053253e-02 -1.368431746959686279e-02 5.963535048067569733e-03 2.926330454647541046e-02 -4.589012823998928070e-03 -2.595682255923748016e-02 4.776136018335819244e-03 4.698659107089042664e-02 4.205131530761718750e-02 -1.751986419549211860e-04 -3.120000846683979034e-02 9.934129193425178528e-03 3.190427273511886597e-02 2.047025226056575775e-02 -1.218022871762514114e-02 -2.285049669444561005e-02 -4.031989350914955139e-02 2.881976962089538574e-02 6.951169925741851330e-04 -4.038369283080101013e-02 -2.491972036659717560e-02 -4.106356576085090637e-02 5.715907737612724304e-02 2.927487529814243317e-02 -8.028738200664520264e-03 1.405473449267446995e-03 -6.691806484013795853e-03 4.834723100066184998e-02 -1.205612160265445709e-02 -2.982629090547561646e-02 4.776955768465995789e-02 4.666237160563468933e-02 2.770454250276088715e-02 -3.762646019458770752e-02 4.347327351570129395e-02 3.201826661825180054e-02 -5.450295656919479370e-02 -3.050387650728225708e-02 -2.241900376975536346e-02 -1.010064594447612762e-02 3.363160789012908936e-02 6.240927055478096008e-02 -4.933911375701427460e-03 -1.080528460443019867e-02 -1.633893698453903198e-02 -2.865672484040260315e-02 1.505590975284576416e-02 9.659103234298527241e-04 -2.863586507737636566e-02 1.985464990139007568e-02 4.240445792675018311e-02 3.471481055021286011e-02 1.589909568428993225e-02 -1.891389861702919006e-02 -1.007785089313983917e-02 3.890207782387733459e-02 -2.783240564167499542e-02 4.647588357329368591e-02 -3.516246005892753601e-02 3.199889138340950012e-02 1.442679762840270996e-02 3.585955873131752014e-02 5.387421324849128723e-02 -3.998055309057235718e-02 -4.912752285599708557e-02 1.400408521294593811e-02 5.893464013934135437e-02 -2.619484253227710724e-02 -1.820439286530017853e-02 4.347003996372222900e-02 -4.907316341996192932e-02 1.494178548455238342e-02 -1.806055195629596710e-02 2.594712935388088226e-02 2.672136761248111725e-02 -1.457546837627887726e-02 5.193969234824180603e-02 -3.741393238306045532e-02 -5.347722209990024567e-03 -2.035263553261756897e-02 1.457515079528093338e-02 3.261607140302658081e-02 1.317009679041802883e-03 3.425758332014083862e-02 -3.088949248194694519e-03 -3.622446581721305847e-02 -2.050188556313514709e-02 3.553517535328865051e-02 -1.700743800029158592e-03 -7.391995284706354141e-03 -3.559388220310211182e-02 3.528780117630958557e-02 3.831529244780540466e-02 -2.959661372005939484e-02
