2.239719778299331665e-02
-1.511252601630985737e-03
-1.688210666179656982e-02
-2.226343192160129547e-02
1.565028540790081024e-02
2.720825374126434326e-02
1.229320466518402100e-02
2.258666977286338806e-02
2.337501198053359985e-02
-2.899039909243583679e-02
4.871779121458530426e-03
-1.317655853927135468e-02
1.087135449051856995e-02
1.480443030595779419e-02
3.501727944239974022e-03
2.538601122796535492e-02
-2.233259566128253937e-02
5.506210029125213623e-03
-2.589612826704978943e-02
2.564814314246177673e-02
1.337121799588203430e-02
7.351599633693695068e-04
2.682196721434593201e-02
7.749889045953750610e-03
2.023216336965560913e-03
-7.775615435093641281e-03
-4.807474091649055481e-03
-1.036472618579864502e-03
3.082917630672454834e-02
-1.092857867479324341e-02
-2.699249982833862305e-02
-3.091308474540710449e-02
2.618309669196605682e-02
1.758833788335323334e-02
-7.425442337989807129e-03
-1.286879647523164749e-02
-2.297418005764484406e-02
2.877718955278396606e-02
-1.748191006481647491e-02
-6.295850500464439392e-03
-3.189289942383766174e-02
1.681096665561199188e-02
-2.143875695765018463e-02
1.103457435965538025e-02
-9.249361231923103333e-03
7.254015654325485229e-04
-2.018660120666027069e-02
1.038899365812540054e-02
5.382007453590631485e-03
-2.663062512874603271e-02
2.576135843992233276e-02
3.963750787079334259e-03
-7.706017233431339264e-03
-1.807951368391513824e-02
1.581122912466526031e-02
-1.107328850775957108e-02
1.260032225400209427e-02
7.252714131027460098e-03
-1.780929043889045715e-02
-2.928131818771362305e-02
2.279100380837917328e-02
-2.287575416266918182e-02
-7.921863347291946411e-03
8.795463480055332184e-03
1.139616500586271286e-02
1.626264676451683044e-02
-1.977842859923839569e-02
-6.418684497475624084e-03
6.808582693338394165e-03
1.297452300786972046e-02
2.656140923500061035e-02
-2.025412581861019135e-02
-2.413808554410934448e-02
2.996583352796733379e-04
2.392333233729004860e-03
-8.469302207231521606e-03
7.022826466709375381e-03
6.428074091672897339e-03
-2.240268886089324951e-02
1.709827035665512085e-02
-1.257070526480674744e-02
8.591960649937391281e-04
-2.455888688564300537e-02
1.625684835016727448e-02
2.949610119685530663e-03
7.686611264944076538e-03
-3.058215370401740074e-03
-1.371631212532520294e-02
7.298911921679973602e-03
-2.933962643146514893e-02
2.706110849976539612e-02
2.802049927413463593e-02
2.671493589878082275e-02
1.149019954027608037e-04
7.148459553718566895e-04
-1.918813213706016541e-02
-2.600433304905891418e-03
1.259844191372394562e-02
-2.976715937256813049e-02
7.299590855836868286e-03
-4.486143589019775391e-03
-2.831543423235416412e-02
9.351504035294055939e-03
2.299380674958229065e-02
2.291757054626941681e-02
-1.436799950897693634e-02
-3.065498080104589462e-03
1.903925463557243347e-02
-1.955525204539299011e-02
1.290709711611270905e-02
-1.017628051340579987e-02
2.519932016730308533e-02
-2.611211687326431274e-02
9.080089628696441650e-03
-2.127777040004730225e-02
2.891903556883335114e-02
1.202401891350746155e-02
2.161433361470699310e-02
-1.015427708625793457e-02
-2.263144403696060181e-02
6.409811321645975113e-03
3.044646605849266052e-02
-8.806287311017513275e-03
7.270365953445434570e-03
-2.647340483963489532e-02
-2.903646789491176605e-02
-1.350303925573825836e-02
-2.052305266261100769e-02
-2.777666598558425903e-02
-2.338809659704566002e-03
2.316075190901756287e-02
2.024772763252258301e-02
1.392656238749623299e-03
1.955859549343585968e-02
7.112944498658180237e-03
-1.176949869841337204e-02
9.370494633913040161e-03
-1.002409309148788452e-02
-8.422120474278926849e-03
-1.548363268375396729e-02
1.766420900821685791e-04
-3.288002312183380127e-02
-2.501862496137619019e-02
1.894249767065048218e-02
4.502758383750915527e-03
1.056632678955793381e-02
-1.181830279529094696e-02
-2.155820280313491821e-02
3.074468346312642097e-03
1.912628673017024994e-02
-5.867966916412115097e-03
2.712572365999221802e-02
1.444418355822563171e-02
2.649084106087684631e-02
1.787485741078853607e-02
-1.497851219028234482e-03
1.390327513217926025e-02
-2.319725230336189270e-03
8.181678131222724915e-03
2.883478999137878418e-03
-2.222617715597152710e-02
-1.648723892867565155e-02
1.549986656755208969e-02
2.284973487257957458e-02
-2.293488942086696625e-02
-1.907232031226158142e-02
-2.179950475692749023e-02
2.770886570215225220e-02
5.861178040504455566e-03
-2.608458325266838074e-02
-1.126680709421634674e-02
-2.185147628188133240e-02
-1.606621779501438141e-02
7.457758300006389618e-03
-1.794058829545974731e-02
9.865097701549530029e-03
-2.856605686247348785e-02
1.765793561935424805e-02
-4.530186206102371216e-02
1.406591385602951050e-02
-2.690715715289115906e-03
-1.257250737398862839e-02
-2.216141484677791595e-02
-2.584085240960121155e-02
-2.413433603942394257e-02
2.213347330689430237e-02
2.640843857079744339e-03
-1.169783994555473328e-02
-7.146654650568962097e-03
-3.761416301131248474e-03
6.789913866668939590e-03
-6.510811392217874527e-03
-3.164004534482955933e-03
-9.860976599156856537e-03
-9.800290688872337341e-03
-2.456113509833812714e-02
3.494560718536376953e-03
-6.004597991704940796e-03
-8.572469465434551239e-03
-1.509640738368034363e-02
-1.682503335177898407e-02
1.990920677781105042e-02
1.710120961070060730e-02
2.785310521721839905e-02
-9.330708533525466919e-03
2.645344473421573639e-02
2.877294830977916718e-02
1.705779135227203369e-02
2.158673107624053955e-02
-2.889689616858959198e-02
1.630278863012790680e-02
-3.152616694569587708e-02
-2.074908697977662086e-03
5.743586807511746883e-04
-2.532440423965454102e-02
1.751018315553665161e-02
-2.919218130409717560e-02
-1.352004986256361008e-02
1.188020780682563782e-02
2.110123075544834137e-02
2.228215895593166351e-02
-1.085853762924671173e-02
2.972386404871940613e-02
2.705536037683486938e-02
-8.474536240100860596e-03
-1.797492988407611847e-02
-2.624648995697498322e-02
2.431936562061309814e-02
-2.494222670793533325e-02
1.797854527831077576e-02
2.068345807492733002e-02
1.531972736120223999e-02
1.965540647506713867e-02
9.669158607721328735e-03
-3.040330857038497925e-02
-1.174447406083345413e-02
1.321595162153244019e-02
-3.115791827440261841e-02
3.286440391093492508e-03
2.334508113563060760e-02
-2.528518810868263245e-02
1.141475141048431396e-02
-2.569917961955070496e-02
2.227152511477470398e-02
3.281637327745556831e-04
-1.987347565591335297e-02
-1.829604618251323700e-02
-2.907514944672584534e-02
3.405440831556916237e-03
-2.542670816183090210e-03
-1.828653737902641296e-02
1.131373643875122070e-02
-2.453832887113094330e-03
2.503042668104171753e-02
-1.159194391220808029e-02
3.178020566701889038e-02
8.406112319789826870e-04
2.161188051104545593e-02
-3.008441254496574402e-02
6.639402825385332108e-03
-2.412177063524723053e-02
-3.201631084084510803e-02
-3.134954348206520081e-02
4.086911678314208984e-03
2.522490546107292175e-02
-7.389340549707412720e-03
-2.690928429365158081e-02
-2.836826443672180176e-02
1.908543333411216736e-02
2.908738330006599426e-02
-1.489540562033653259e-02
-1.979086734354496002e-02
2.201217226684093475e-02
-3.014031238853931427e-02
-9.916368871927261353e-03
-3.250471130013465881e-02
1.471932325512170792e-02
-2.590263821184635162e-02
-3.559319674968719482e-02
-1.949413679540157318e-02
7.070707157254219055e-03
1.588851772248744965e-02
2.313211187720298767e-02
-1.844253391027450562e-02
3.015843033790588379e-02
-3.218992846086621284e-03
-2.678957022726535797e-02
1.208160445094108582e-02
-2.706772647798061371e-02
2.618072554469108582e-02
2.424270380288362503e-03
-5.170800257474184036e-03
2.976552397012710571e-02
-1.807392691262066364e-03
1.452235877513885498e-02
2.798404730856418610e-02
-4.237400833517313004e-03
-9.485884569585323334e-03
-2.186107262969017029e-02
-6.013460457324981689e-03
3.438800573348999023e-03
1.169834379106760025e-02
-2.952413633465766907e-02
2.161933481693267822e-02
-1.397416926920413971e-02
-4.505002871155738831e-03
-2.926982380449771881e-02
-2.912192605435848236e-02
2.365169487893581390e-02
8.430447429418563843e-03
-3.254627436399459839e-02
-1.491978578269481659e-02
9.890749119222164154e-03
-5.021032411605119705e-03
-1.978494971990585327e-02
-2.287436276674270630e-02
-2.515817433595657349e-02
-1.389772817492485046e-02
-2.559217438101768494e-02
-2.392008714377880096e-02
-1.270958164241164923e-04
2.061300352215766907e-02
-4.913031589239835739e-03
1.486542355269193649e-02
-3.881478216499090195e-03
-8.487044833600521088e-03
-1.370498631149530411e-02
1.183830946683883667e-02
-1.611291617155075073e-02
2.563092857599258423e-03
-2.671356312930583954e-02
-4.561685025691986084e-03
1.154766790568828583e-02
-1.291184313595294952e-02
-1.958840712904930115e-02
2.510579861700534821e-02
3.039507009088993073e-02
1.863426901400089264e-02
6.360348314046859741e-03
2.434368431568145752e-02
2.035021223127841949e-02
-9.588470682501792908e-03
2.185405790805816650e-02
-1.900548301637172699e-02
-2.728837169706821442e-02
8.029717952013015747e-03
-3.005586564540863037e-03
-1.234628376550972462e-03
-2.800350822508335114e-02
1.123220007866621017e-02
1.206002198159694672e-02
4.158551339060068130e-03
-4.707090556621551514e-03
6.845429539680480957e-03
2.210980514064431190e-03
1.690233498811721802e-02
-2.909928560256958008e-03
-2.860568463802337646e-02
-2.939233928918838501e-02
4.710957407951354980e-03
1.778859150363132358e-04
-1.136963255703449249e-02
1.691269129514694214e-02
-8.201256394386291504e-03
-2.403442934155464172e-02
-3.142531216144561768e-02
-2.420029230415821075e-02
2.311194688081741333e-02
-1.470671035349369049e-02
2.217938378453254700e-02
3.159624338150024414e-02
-2.803299948573112488e-02
-2.695767953991889954e-02
-1.805335842072963715e-02
-4.452578723430633545e-04
1.726710796356201172e-02
-3.070628968998789787e-03
-2.563057467341423035e-02
-2.973125688731670380e-02
-1.573619991540908813e-02
-6.121156737208366394e-03
-2.908472903072834015e-02
-2.769735828042030334e-02
3.001004457473754883e-03
-2.660436183214187622e-02
-2.913377434015274048e-02
2.743139863014221191e-02
7.468760013580322266e-04
-7.730233017355203629e-03
-1.502672326751053333e-03
-2.819416671991348267e-02
-1.236684806644916534e-02
-1.294188201427459717e-02
-1.724671758711338043e-02
-1.049907226115465164e-02
-2.275213832035660744e-03
-1.149848941713571548e-02
7.841005921363830566e-03
-2.986066229641437531e-02
-2.331451140344142914e-02
