2.233935296535491943e-01
4.204818233847618103e-02
8.405826985836029053e-02
8.087684959173202515e-02
1.693485826253890991e-01
1.551380157470703125e-01
-1.270957477390766144e-02
1.658487766981124878e-01
7.840779609978199005e-03
1.769067347049713135e-01
2.565397918224334717e-01
-6.230426207184791565e-02
7.365558296442031860e-02
2.440159581601619720e-02
-1.245774328708648682e-02
2.932804264128208160e-02
7.843239605426788330e-02
9.170503169298171997e-02
-6.516670342534780502e-03
2.692449651658535004e-02
1.900254637002944946e-01
2.252974957227706909e-01
1.088627427816390991e-01
1.524559110403060913e-01
-6.796842068433761597e-02
-1.451635062694549561e-01
-7.766503258608281612e-04
7.161473482847213745e-02
-1.270296052098274231e-02
1.160262059420347214e-02
1.647990196943283081e-03
6.631253752857446671e-03
-1.660754531621932983e-02
1.885749585926532745e-02
-2.264085225760936737e-02
6.656546145677566528e-02
2.491568028926849365e-01
2.249893248081207275e-01
2.469769269227981567e-01
2.343728542327880859e-01
2.107266038656234741e-01
-3.872456401586532593e-02
1.958494633436203003e-01
-3.186805173754692078e-02
-2.426167130470275879e-01
9.468406438827514648e-02
-1.992214284837245941e-02
2.132324129343032837e-01
2.263945788145065308e-01
-2.225434035062789917e-02
1.793582290410995483e-01
2.503080368041992188e-01
2.616991521790623665e-03
3.066344931721687317e-02
-2.625436186790466309e-01
-5.922839976847171783e-03
2.138109356164932251e-01
1.368745695799589157e-02
2.423121780157089233e-01
1.193274185061454773e-02
8.420592546463012695e-02
-7.251995801925659180e-02
2.027902901172637939e-01
9.937062859535217285e-02
1.820786111056804657e-02
-7.481583952903747559e-02
1.182368118315935135e-02
5.533163994550704956e-02
-5.538944527506828308e-02
1.205531787127256393e-02
2.322624772787094116e-01
1.974103450775146484e-01
-2.207872085273265839e-02
-9.871479868888854980e-02
4.618022218346595764e-02
9.408489614725112915e-02
4.604069516062736511e-02
5.566311255097389221e-02
1.293460130691528320e-01
4.739074036478996277e-02
1.182487457990646362e-01
1.701915711164474487e-01
2.262946963310241699e-01
1.945032328367233276e-01
2.118950933218002319e-01
-1.002142503857612610e-01
8.406026661396026611e-02
-7.841093093156814575e-02
2.133324891328811646e-01
5.021832138299942017e-02
-3.474518284201622009e-02
-7.290611974895000458e-03
1.324435472488403320e-01
-1.040982753038406372e-01
-2.089910767972469330e-02
-8.978375233709812164e-03
2.745893299579620361e-01
3.364092856645584106e-02
-1.381684676744043827e-03
3.205376118421554565e-02
-1.991378329694271088e-02
2.327012643218040466e-02
6.186630204319953918e-02
7.970552146434783936e-02
1.666853278875350952e-01
-4.231005907058715820e-02
-3.343365713953971863e-02
4.320804402232170105e-02
2.633650898933410645e-01
2.580106854438781738e-01
2.176136225461959839e-01
-3.521437197923660278e-02
-1.979979127645492554e-02
5.189316347241401672e-02
1.196389049291610718e-01
1.356127113103866577e-01
-3.776813298463821411e-02
-4.183955490589141846e-02
4.579851776361465454e-02
2.416262477636337280e-01
3.142179548740386963e-02
1.619334071874618530e-01
9.361730888485908508e-03
1.088733151555061340e-01
-1.897341907024383545e-01
2.589417994022369385e-01
1.805885434150695801e-01
1.755985245108604431e-02
2.439589947462081909e-01
-4.985006153583526611e-02
-2.635427713394165039e-01
1.947033405303955078e-01
-6.804634630680084229e-02
-4.384591430425643921e-02
2.118788510560989380e-01
1.956163346767425537e-01
3.084055185317993164e-01
-3.103383444249629974e-02
8.326877653598785400e-02
-1.997319050133228302e-02
-3.404358029365539551e-02
-1.986298710107803345e-02
1.434887349605560303e-01
-3.327850485220551491e-03
-1.232129856944084167e-01
-1.066836118698120117e-01
8.994826674461364746e-02
8.021823316812515259e-02
5.775791406631469727e-02
1.199213266372680664e-01
8.735270798206329346e-02
-3.602702170610427856e-02
-5.284275859594345093e-02
1.308990716934204102e-01
-4.224101454019546509e-02
-5.979693308472633362e-02
2.244079671800136566e-02
-2.632019221782684326e-01
2.197194248437881470e-01
7.891308516263961792e-02
7.764959335327148438e-02
1.987165026366710663e-02
2.067734748125076294e-01
-6.421891599893569946e-02
-2.218746952712535858e-02
1.432974487543106079e-01
9.131228923797607422e-02
1.521474961191415787e-02
-1.102746929973363876e-02
6.161634251475334167e-02
-4.273760318756103516e-02
1.634029299020767212e-01
-1.843296736478805542e-02
1.989354044198989868e-01
-1.385912150144577026e-01
5.522343516349792480e-02
-2.189888805150985718e-02
2.058424353599548340e-01
6.937291473150253296e-02
-4.150857217609882355e-03
2.324027717113494873e-01
-4.645217582583427429e-02
2.443830370903015137e-01
-3.323206305503845215e-02
1.810239702463150024e-01
-6.601960211992263794e-02
8.474537730216979980e-02
-2.817246504127979279e-02
4.736058786511421204e-02
1.994641870260238647e-01
-1.401656121015548706e-01
1.461793929338455200e-01
2.430200427770614624e-01
-6.344538927078247070e-02
-9.344948828220367432e-02
7.137559354305267334e-02
-9.479925967752933502e-03
-1.963179791346192360e-03
-2.006398737430572510e-01
-5.369741842150688171e-02
2.517694793641567230e-02
2.742817401885986328e-01
-3.154201060533523560e-02
-3.987249732017517090e-02
8.574048057198524475e-03
1.902638822793960571e-01
1.448108106851577759e-01
1.754489354789257050e-02
1.760420501232147217e-01
5.114638060331344604e-02
5.787617713212966919e-02
7.247544825077056885e-02
5.026144161820411682e-02
4.836202412843704224e-02
1.226292252540588379e-01
6.320600368781015277e-05
-3.952075913548469543e-02
1.037300005555152893e-01
-4.002318531274795532e-02
2.279632836580276489e-01
2.613805234432220459e-02
-3.475496172904968262e-02
2.281796932220458984e-02
2.317222766578197479e-02
7.118923962116241455e-02
-3.562526106834411621e-01
-2.307065576314926147e-02
-4.096990916877985001e-03
2.525181043893098831e-03
-1.177762262523174286e-02
-4.854885116219520569e-02
6.630851328372955322e-02
-2.571332501247525215e-03
2.657051980495452881e-01
2.464891821146011353e-01
-3.282159194350242615e-02
6.621477752923965454e-02
1.281611025333404541e-01
1.366620361804962158e-01
1.766015426255762577e-03
3.067151829600334167e-02
2.718382477760314941e-01
2.119562029838562012e-01
9.677536040544509888e-02
2.098050266504287720e-01
5.279539152979850769e-02
1.357865706086158752e-02
-5.457519367337226868e-02
-6.987053900957107544e-02
2.144027650356292725e-01
9.260258823633193970e-02
1.189658716320991516e-01
-6.246911734342575073e-02
2.623978815972805023e-02
-4.687479883432388306e-02
1.755389384925365448e-03
1.267834901809692383e-01
5.493590608239173889e-02
2.285719662904739380e-01
3.479471663013100624e-03
1.858718134462833405e-02
6.289758533239364624e-02
2.790661528706550598e-02
2.787801027297973633e-01
1.565870344638824463e-01
2.141516953706741333e-01
3.722898894920945168e-03
9.905736148357391357e-02
2.793720960617065430e-01
-1.326136291027069092e-02
1.162105798721313477e-01
1.288058012723922729e-01
-1.203898247331380844e-02
6.638322770595550537e-02
6.250166147947311401e-02
1.949989050626754761e-02
-3.503945469856262207e-02
-4.271633550524711609e-02
-1.775176823139190674e-02
1.301031857728958130e-01
-3.275877982378005981e-02
7.384620606899261475e-02
2.661827206611633301e-01
2.453644871711730957e-01
2.591947838664054871e-02
2.118754237890243530e-01
2.929825149476528168e-02
-3.904212266206741333e-02
7.296152412891387939e-03
7.127946615219116211e-02
2.530642449855804443e-01
5.788934975862503052e-02
1.100304163992404938e-02
2.847936004400253296e-02
-1.849995180964469910e-02
-1.255922298878431320e-02
-5.182118713855743408e-02
-1.266687642782926559e-02
2.536354959011077881e-01
3.313428163528442383e-02
2.167005985975265503e-01
-3.525992110371589661e-02
-2.148907631635665894e-02
1.771707534790039062e-01
-4.710139334201812744e-02
-4.129517823457717896e-02
4.557127598673105240e-03
-3.338548168540000916e-02
3.166485950350761414e-02
7.624357938766479492e-02
1.853705048561096191e-01
2.159497439861297607e-01
5.957613512873649597e-02
1.607897132635116577e-02
2.954884171485900879e-01
-4.752311389893293381e-03
4.048009589314460754e-02
8.470766991376876831e-02
4.645151272416114807e-02
2.586627900600433350e-01
2.945870719850063324e-02
3.680583613459020853e-04
-4.718057811260223389e-02
5.410975590348243713e-02
2.855114936828613281e-01
2.633612230420112610e-02
-5.040527135133743286e-02
-4.115051776170730591e-02
2.441304773092269897e-01
1.627322882413864136e-01
-4.316677898168563843e-02
1.715081632137298584e-01
-3.188920617103576660e-01
-1.130727678537368774e-02
1.057974323630332947e-01
5.580933019518852234e-02
2.263949364423751831e-01
2.233158349990844727e-01
1.403024196624755859e-01
-2.126657031476497650e-02
2.857783436775207520e-01
2.552643120288848877e-01
2.101554423570632935e-01
7.710579782724380493e-02
-4.322474449872970581e-02
1.837041676044464111e-01
5.855238996446132660e-03
1.823119670152664185e-01
2.955518476665019989e-02
1.761695742607116699e-01
1.917797625064849854e-01
2.585225999355316162e-01
-4.156836867332458496e-02
3.607102483510971069e-02
-7.521063834428787231e-02
2.444705553352832794e-02
-2.574099041521549225e-02
1.004548519849777222e-01
4.209997504949569702e-02
-1.190449893474578857e-01
-8.411899954080581665e-02
1.391875445842742920e-01
2.305320203304290771e-01
-1.545412987470626831e-01
2.099495828151702881e-01
2.424645721912384033e-01
-2.322173565626144409e-01
-2.907269820570945740e-02
2.497141063213348389e-01
1.622367091476917267e-02
2.657876014709472656e-01
6.552708335220813751e-03
-4.387946426868438721e-02
2.495017051696777344e-01
4.175771772861480713e-02
-2.368211448192596436e-01
-9.777820855379104614e-02
7.692020386457443237e-02
1.474568899720907211e-02
1.996230632066726685e-01
-3.153446363285183907e-03
2.843207418918609619e-01
1.209098920226097107e-01
-3.889732062816619873e-01
1.568155139684677124e-01
1.856878399848937988e-01
-1.968957297503948212e-02
1.984743624925613403e-01
-8.959815837442874908e-03
9.309888631105422974e-02
4.396600648760795593e-02
-1.662365533411502838e-02
1.501605752855539322e-02
1.950906217098236084e-01
2.404962480068206787e-01
-4.648747667670249939e-02
6.641379091888666153e-03
-1.316334772855043411e-02
-3.895935788750648499e-02
1.692518442869186401e-01
