-1.435289625078439713e-03 -6.762804090976715088e-02 1.410303115844726562e-01 -8.639921993017196655e-02 3.951755911111831665e-02 2.207010425627231598e-02 -3.189156576991081238e-02 1.590036153793334961e-01 6.563683971762657166e-03 3.091279864311218262e-01 -6.006750091910362244e-02 -1.591229438781738281e-02 -8.744036406278610229e-02 -2.661887370049953461e-02 2.227951027452945709e-02 -6.029785424470901489e-02 2.602799236774444580e-01 -5.622664690017700195e-01 4.955315589904785156e-02 -2.027603611350059509e-02 2.066336274147033691e-01 -4.568058252334594727e-02 -4.425041377544403076e-02 -4.514173138886690140e-03 2.121684141457080841e-02 1.102151349186897278e-01 -1.310566719621419907e-02 -9.072197717614471912e-04 3.933585062623023987e-02 -2.554662711918354034e-02 3.319532424211502075e-02 -3.345519304275512695e-02 -2.446355856955051422e-02 -6.228503305464982986e-03 -1.014177724719047546e-01 9.299860894680023193e-02 -1.196174602955579758e-02 8.620873093605041504e-03 1.989021152257919312e-01 6.227619014680385590e-03 -4.759572446346282959e-02 -3.962586447596549988e-02 -2.375429123640060425e-02 -1.168275251984596252e-03 -1.212252527475357056e-01 -3.584308549761772156e-02 -3.480768576264381409e-02 -3.992252424359321594e-02 3.773167554754763842e-04 1.330343447625637054e-02 6.336632650345563889e-03 -4.451947659254074097e-02 -1.161868870258331299e-02 -1.407518535852432251e-01 -1.961166411638259888e-02 7.887209206819534302e-02 1.873416826128959656e-02 2.268073707818984985e-02 -3.816498443484306335e-02 1.740113273262977600e-02 -3.287665545940399170e-02 1.213652417063713074e-01 -1.112355478107929230e-02 1.037165056914091110e-02 -3.557046130299568176e-02 -7.229679822921752930e-02 4.822014644742012024e-02 1.357623748481273651e-02 -4.574710875749588013e-02 6.675166636705398560e-02 -1.311176829040050507e-02 -3.455796837806701660e-02 -5.544342566281557083e-03 -2.281222492456436157e-01 1.630746200680732727e-02 1.117458380758762360e-02 6.509863585233688354e-02 4.392981901764869690e-02 -3.622825443744659424e-02 -9.417919814586639404e-02 -2.112285001203417778e-03 -4.028641805052757263e-02 3.363206610083580017e-02 -3.335617855191230774e-02 1.771491318941116333e-01 3.410797566175460815e-02 -7.589431107044219971e-02 -6.076063588261604309e-02 1.041633263230323792e-02 -7.215649634599685669e-02 1.151375938206911087e-02 -2.336781285703182220e-02 -4.368564113974571228e-03 3.077891655266284943e-02 -3.576697409152984619e-02 1.270488277077674866e-02 7.068885024636983871e-03 3.052842989563941956e-02 8.201974630355834961e-02 9.362706542015075684e-02 2.465821243822574615e-02 -8.278752118349075317e-02 2.074119448661804199e-01 9.565225243568420410e-02 -2.740592509508132935e-02 3.305675834417343140e-02 8.450496010482311249e-03 -6.931859999895095825e-02 -9.886721149086952209e-03 -3.745470568537712097e-02 -6.231627985835075378e-02 -4.613996297121047974e-02 3.782024374231696129e-03 1.180855557322502136e-01 -3.004139848053455353e-02 5.639052391052246094e-02 -9.086143225431442261e-02 2.215553820133209229e-02 -6.672826409339904785e-02 -1.787388138473033905e-02 9.066476672887802124e-02 -4.575207456946372986e-02 2.142962766811251640e-03 3.256693854928016663e-02 1.746762543916702271e-01 -5.480631813406944275e-02 7.620432972908020020e-02 -6.947667151689529419e-02 -6.646811962127685547e-02 -3.559838980436325073e-02 1.126394607126712799e-02 -5.612266808748245239e-02 1.684544831514358521e-01 -3.586950898170471191e-02 3.966263309121131897e-02 -1.403866894543170929e-02 -1.521204318851232529e-02 -1.375753525644540787e-02 1.330404728651046753e-01 -7.795958314090967178e-03 3.540086373686790466e-02 9.185360372066497803e-02 -2.563083544373512268e-02 -1.530638779513537884e-03 -2.147062718868255615e-01 -6.897259503602981567e-02 -5.219165701419115067e-03 2.491777017712593079e-02 8.503361791372299194e-02 1.332559585571289062e-01 7.486775517463684082e-03 -1.456078588962554932e-01 1.283867564052343369e-02 2.916050725616514683e-04 -5.010174587368965149e-02 -2.650874666869640350e-02 9.741193801164627075e-02 2.099771350622177124e-01 -1.356414109468460083e-01 7.853518426418304443e-02 1.881638765335083008e-01 4.869482666254043579e-02 2.934047877788543701e-01 -4.865941777825355530e-02 -3.134210780262947083e-02 3.456795960664749146e-02 1.809006929397583008e-02 -2.598632127046585083e-02 3.612455353140830994e-02 7.931406795978546143e-02 -3.863449767231941223e-02 -9.077424183487892151e-04 1.338878646492958069e-02 -3.360912576317787170e-02 1.215604692697525024e-01 -3.999653831124305725e-02 7.278075907379388809e-03 2.417842447757720947e-01 8.257273584604263306e-02 -8.346477895975112915e-02 2.416104264557361603e-02 -6.385033577680587769e-02 3.287121187895536423e-03 4.934858158230781555e-02 -4.950121790170669556e-02 -1.396541446447372437e-01 1.990528777241706848e-02 2.079318836331367493e-02 1.646752469241619110e-02 -3.906960785388946533e-02 3.395138308405876160e-02 3.209746256470680237e-02 -7.424627989530563354e-02 -3.986762836575508118e-02 -1.610916107892990112e-01 1.141128409653902054e-02 -4.458020627498626709e-02 1.186556415632367134e-03 9.319014847278594971e-03 4.584014788269996643e-02 2.377802506089210510e-02 2.474485710263252258e-02 -5.461452528834342957e-03 -2.357942424714565277e-02 -4.465849325060844421e-02 2.623484469950199127e-02 4.440088197588920593e-02 1.408114004880189896e-02 2.318676859140396118e-01 -5.722154304385185242e-02 1.163570433855056763e-01 2.494547143578529358e-02 7.621335331350564957e-03 1.184601038694381714e-01 1.960579305887222290e-01 1.438676100224256516e-02 -1.468213945627212524e-01 -3.022114001214504242e-02 -4.455674439668655396e-02 2.724626846611499786e-02 -2.456259727478027344e-01 -9.487625211477279663e-03 -1.654418185353279114e-02 -7.615778129547834396e-03 -4.696654528379440308e-02 9.305485337972640991e-02 -2.681434713304042816e-02 1.011813059449195862e-01 -5.335217341780662537e-02 6.553265452384948730e-02 5.562729388475418091e-02 1.954787597060203552e-02 -3.137243911623954773e-02 -4.124272963963449001e-04 3.135449811816215515e-02 -4.210046678781509399e-02 -3.855014741420745850e-01 1.513799875974655151e-01 -4.641320556402206421e-04 -1.210371851921081543e-01 6.847554445266723633e-02 -4.557295516133308411e-02 -3.030404821038246155e-02 -9.995903074741363525e-02 1.184124946594238281e-01 -4.134973883628845215e-02 8.061448112130165100e-03 -2.365522272884845734e-02 -1.727877706289291382e-01 1.455713063478469849e-01 1.897725909948348999e-01 3.037562780082225800e-02 6.860629469156265259e-02 1.331902295351028442e-01 1.138038188219070435e-02 -6.626470386981964111e-02 3.481595963239669800e-02 1.179790310561656952e-02 -9.204770438373088837e-03 -3.557319566607475281e-02 -6.791175156831741333e-02 1.464545540511608124e-02 -7.197130471467971802e-02 -2.277808822691440582e-02 -8.240792155265808105e-02 7.826586253941059113e-03 5.844076164066791534e-03 1.723211705684661865e-01 8.229053765535354614e-02 -2.350444532930850983e-02 4.517867416143417358e-02 -4.433160275220870972e-02 3.081428632140159607e-02 5.540541559457778931e-02 -2.237385660409927368e-01 -4.106410220265388489e-02 2.183811739087104797e-02 -6.224282458424568176e-02 -5.120282247662544250e-02 3.506933897733688354e-02 -6.351072341203689575e-02 -3.855199515819549561e-01 -3.620514646172523499e-02 3.121083378791809082e-01 9.846256114542484283e-03 -3.693028818815946579e-03 3.007904998958110809e-02 -1.411397457122802734e-01 -4.028728231787681580e-02 7.668040692806243896e-02 -6.256125401705503464e-03 -1.744340360164642334e-01 1.668488532304763794e-01 5.592353176325559616e-03 3.298416361212730408e-02 1.898101158440113068e-02 1.234421133995056152e-01 -1.532588852569460869e-03 -3.258882462978363037e-02 -9.266303852200508118e-03 1.629377007484436035e-01 -3.755730018019676208e-02 -5.738152936100959778e-02 -1.813037693500518799e-02 -1.657629571855068207e-02 -1.841636002063751221e-02 1.293501257896423340e-01 -2.794868871569633484e-02 5.798237770795822144e-02 -5.868688970804214478e-02 7.369690138148143888e-05 -3.341810312122106552e-03 -4.081678017973899841e-02 -4.292163997888565063e-02 -2.107418142259120941e-02 1.055016666650772095e-01 3.087122738361358643e-02 -3.564865514636039734e-02 -1.949530653655529022e-02 2.096722871065139771e-01 -2.753975428640842438e-02 -2.473299577832221985e-02 3.595507517457008362e-02 1.444238871335983276e-01 6.307648029178380966e-03 -2.852574922144412994e-03 1.583453640341758728e-02 -1.200421029352582991e-04 2.063425816595554352e-02 -4.627119377255439758e-02 -2.698158845305442810e-02 6.001715362071990967e-02 4.674417525529861450e-02 1.948760077357292175e-02 1.679335087537765503e-01 4.264362901449203491e-02 -4.137361422181129456e-02 -2.872255071997642517e-02 1.307047307491302490e-01 1.594090908765792847e-01 -6.837006658315658569e-03 -3.569096699357032776e-02 -2.735340036451816559e-02 -6.209546700119972229e-02 2.386045828461647034e-02 2.003695070743560791e-01 1.036043167114257812e-01 -4.344905167818069458e-02 -3.010268136858940125e-02 -3.866684436798095703e-02 -3.612779453396797180e-02 -5.299647524952888489e-02 2.075380645692348480e-02 2.552371099591255188e-02 6.744667142629623413e-02 -1.127446293830871582e-01 -1.375174056738615036e-02 -7.794932276010513306e-02 -2.137258499860763550e-01 8.191521465778350830e-02 -4.199846833944320679e-02 8.842573501169681549e-03 -4.213044792413711548e-02 -1.708112806081771851e-01 4.224499221891164780e-03 1.838617771863937378e-02 -2.808669395744800568e-02 -2.135965526103973389e-01 1.700106635689735413e-02 2.883266285061836243e-02 -4.339083656668663025e-02 -6.433584541082382202e-02 -4.263587668538093567e-02 -3.281309083104133606e-02 -3.769502416253089905e-02 -1.925439387559890747e-01 -1.247992366552352905e-01 -1.420671585947275162e-02 -4.767954945564270020e-01 3.543203696608543396e-02 -1.555039640516042709e-02 -9.687898308038711548e-02 -1.385667733848094940e-02 1.427926421165466309e-01 4.592200368642807007e-02 1.023874338716268539e-02 -6.410739570856094360e-02 -3.540520090609788895e-03 2.287901192903518677e-01 -1.905651576817035675e-02 -1.341849416494369507e-01 4.286539927124977112e-02 -4.450488463044166565e-02 -6.035772711038589478e-02 -3.108192048966884613e-02 -3.269110247492790222e-02 3.252214193344116211e-02 -7.151062786579132080e-02 -1.609856635332107544e-01 2.358016185462474823e-02
-2.662145905196666718e-02 1.067282259464263916e-01 -8.468964695930480957e-02 3.069955296814441681e-02 -4.951333999633789062e-02 3.670454490929841995e-03 -2.479377947747707367e-02 1.293030381202697754e-01 -2.759524248540401459e-02 -1.029216870665550232e-02 -4.282124340534210205e-02 -8.432011236436665058e-04 -7.196522783488035202e-03 -1.903638616204261780e-02 3.997423499822616577e-02 1.858421713113784790e-01 1.787300966680049896e-02 2.236465066671371460e-01 1.378247688990086317e-04 -6.064433604478836060e-02 5.313352122902870178e-02 -3.947494551539421082e-02 4.454818740487098694e-02 1.670193225145339966e-01 -3.962496761232614517e-03 -3.833165168762207031e-01 7.003764808177947998e-02 6.027624383568763733e-02 1.723914965987205505e-02 4.033271968364715576e-02 1.095776073634624481e-02 1.851130835711956024e-02 -2.409807778894901276e-02 1.034326851367950439e-02 1.261677592992782593e-01 -6.390928477048873901e-02 -2.507408522069454193e-02 2.281229384243488312e-02 2.302928864955902100e-01 -9.130820631980895996e-03 -4.308114759624004364e-03 4.655258730053901672e-02 -5.785546079277992249e-02 1.113772466778755188e-01 1.467061638832092285e-01 -2.080293595790863037e-01 -2.564496919512748718e-02 -6.008529290556907654e-02 -2.603461742401123047e-01 -1.676263287663459778e-02 4.865793138742446899e-02 -7.120313495397567749e-02 -2.168178185820579529e-02 7.371830195188522339e-02 1.765030473470687866e-01 -1.021751835942268372e-01 -7.317776791751384735e-03 1.398939546197652817e-02 1.619679480791091919e-02 -4.365987330675125122e-02 1.801911741495132446e-01 -4.445007145404815674e-01 2.896276861429214478e-02 -1.035282388329505920e-01 4.257726483047008514e-03 -2.382208220660686493e-02 2.783369272947311401e-02 -4.971146211028099060e-02 -2.055192738771438599e-02 -7.686725258827209473e-02 2.575597167015075684e-02 -4.563628137111663818e-02 1.929294317960739136e-01 2.578253448009490967e-01 2.206348627805709839e-02 1.410072762519121170e-02 -1.018431112170219421e-01 -1.245084330439567566e-01 1.120511665940284729e-01 8.566640317440032959e-02 1.305221207439899445e-02 -4.536023363471031189e-03 8.874614723026752472e-04 2.522743307054042816e-03 -5.813945829868316650e-02 1.031303852796554565e-01 2.259705215692520142e-01 1.862054914236068726e-01 2.364247478544712067e-02 1.129828616976737976e-01 3.841645084321498871e-03 2.823327295482158661e-02 1.159082725644111633e-02 2.917655743658542633e-02 4.332613945007324219e-02 -1.616021804511547089e-02 1.208459772169589996e-02 9.938434511423110962e-02 -2.586523890495300293e-01 -8.021026104688644409e-02 1.080400776118040085e-02 1.227777525782585144e-01 1.483920514583587646e-01 -6.475201249122619629e-02 -2.054103650152683258e-02 4.420509561896324158e-02 1.467853877693414688e-02 1.580142378807067871e-01 1.113683171570301056e-02 -4.109146818518638611e-02 -3.786924108862876892e-02 1.054036244750022888e-01 1.639015413820743561e-02 -2.094339281320571899e-01 1.207215338945388794e-01 -2.626515924930572510e-01 3.109131753444671631e-01 -1.382623054087162018e-02 5.457257479429244995e-02 -6.978408247232437134e-02 1.184875369071960449e-01 -2.931568957865238190e-02 -4.879338294267654419e-02 -1.312920749187469482e-01 -4.210853576660156250e-01 -6.082191318273544312e-02 -2.887472510337829590e-02 1.485195308923721313e-01 1.528550684452056885e-02 3.102207742631435394e-02 4.242211952805519104e-02 4.249954223632812500e-02 2.230354025959968567e-02 3.038338199257850647e-02 -5.146339535713195801e-02 -1.901452057063579559e-02 -4.680793266743421555e-03 -1.590063050389289856e-02 -6.302712112665176392e-02 1.234513148665428162e-02 -2.549238502979278564e-03 -1.554772704839706421e-01 2.803027257323265076e-02 3.938430175185203552e-02 1.937681287527084351e-01 7.728452980518341064e-02 1.398140192031860352e-01 -9.802778065204620361e-02 -4.930546879768371582e-02 -4.112865030765533447e-02 -2.306117210537195206e-03 -2.975443564355373383e-02 -3.355851769447326660e-02 -1.462330389767885208e-02 -5.042844265699386597e-02 5.601896904408931732e-03 -1.044107973575592041e-01 2.724438160657882690e-02 2.622023969888687134e-02 -1.994640566408634186e-02 -2.868583202362060547e-01 -4.277528449892997742e-02 -4.009912014007568359e-01 -2.291546901687979698e-03 -4.161097481846809387e-02 1.255329549312591553e-01 -1.065454408526420593e-01 1.127815470099449158e-01 -1.218294724822044373e-02 -1.239200457930564880e-01 -1.973195187747478485e-02 3.003432648256421089e-04 5.181010067462921143e-02 -1.068961527198553085e-02 -2.834228575229644775e-01 -5.019499454647302628e-03 -6.832721084356307983e-02 -7.560422271490097046e-02 -7.478370517492294312e-02 2.194074094295501709e-01 -1.574751175940036774e-02 1.900774091482162476e-01 -2.197038382291793823e-02 2.187747135758399963e-02 -1.302116829901933670e-02 1.196041926741600037e-01 5.803649500012397766e-02 2.207614108920097351e-02 -5.793178454041481018e-02 -3.722711699083447456e-03 1.814170777797698975e-01 1.771236062049865723e-01 -3.271334618330001831e-02 -3.785010799765586853e-02 4.530689716339111328e-01 -4.075534641742706299e-02 4.111533984541893005e-03 -4.257854074239730835e-02 4.067713916301727295e-01 -4.010577499866485596e-02 -8.379639685153961182e-02 -2.075850032269954681e-03 6.306686252355575562e-02 1.381859183311462402e-04 8.600860089063644409e-02 2.128601772710680962e-03 -7.852188497781753540e-02 -1.470020785927772522e-02 9.134745597839355469e-02 5.443575978279113770e-02 -6.992269307374954224e-02 7.163055241107940674e-02 3.278174996376037598e-02 1.873921044170856476e-02 -3.102332539856433868e-02 -6.577342748641967773e-02 -4.572952091693878174e-01 8.316976577043533325e-02 -7.785439491271972656e-03 -3.718104213476181030e-02 1.403977274894714355e-01 -3.462531790137290955e-02 -1.544490735977888107e-02 5.215916037559509277e-02 6.229981034994125366e-02 8.445648849010467529e-02 -4.210329428315162659e-02 -5.790666118264198303e-02 9.588685631752014160e-02 -2.308002263307571411e-01 -1.769884116947650909e-02 1.266541611403226852e-02 -1.668327860534191132e-02 -2.368777059018611908e-02 -3.850464150309562683e-02 -3.067839331924915314e-02 1.367041319608688354e-01 -4.507888481020927429e-02 1.777349039912223816e-02 7.133706659078598022e-02 -9.984699636697769165e-02 -4.705754294991493225e-02 -3.388993442058563232e-02 2.050538212060928345e-01 -3.360734507441520691e-02 4.006426408886909485e-02 2.628126740455627441e-01 2.111861854791641235e-02 2.779853343963623047e-01 1.344867795705795288e-01 -4.360363259911537170e-02 1.241688132286071777e-01 -4.606256261467933655e-02 -1.141542345285415649e-01 4.534732550382614136e-03 3.480575606226921082e-02 -1.123441010713577271e-01 6.316286325454711914e-02 -2.695748209953308105e-02 1.188355386257171631e-01 1.402209401130676270e-01 -6.688086688518524170e-02 1.359919607639312744e-01 2.069439925253391266e-02 -5.458999052643775940e-02 -7.323118392378091812e-03 -8.676097728312015533e-03 -4.713554680347442627e-02 -2.282971516251564026e-02 2.437184005975723267e-02 -1.609305292367935181e-01 -8.878480643033981323e-02 1.606146432459354401e-02 -1.115061864256858826e-01 7.590040564537048340e-03 1.105104833841323853e-01 -3.422263078391551971e-03 5.079007521271705627e-02 -2.502700313925743103e-02 -3.809588775038719177e-02 1.173522248864173889e-01 1.697110682725906372e-01 -2.077238634228706360e-02 4.002095758914947510e-01 -3.384558483958244324e-02 -5.434213206171989441e-02 2.217260561883449554e-02 1.007976159453392029e-01 8.365551009774208069e-03 -7.822441309690475464e-02 -4.634959250688552856e-02 -4.223108664155006409e-02 -4.708431065082550049e-01 -7.136356085538864136e-02 -1.901859790086746216e-02 1.283293217420578003e-02 -9.905789047479629517e-02 1.451801788061857224e-02 -1.792121864855289459e-02 6.320303771644830704e-03 -1.202256605029106140e-01 1.139001250267028809e-01 2.132044136524200439e-01 -1.388127654790878296e-01 2.544651366770267487e-02 4.047558456659317017e-02 -1.835859715938568115e-01 2.499659545719623566e-03 -1.271674782037734985e-01 2.348110079765319824e-02 4.314037039875984192e-02 -4.470352083444595337e-02 1.208759397268295288e-01 1.967910379171371460e-01 -8.220487087965011597e-02 -1.194087639451026917e-01 -8.891316503286361694e-02 1.531058549880981445e-01 1.485831011086702347e-02 -3.740981593728065491e-02 1.131886988878250122e-02 2.538773119449615479e-01 -1.754606142640113831e-02 -8.215802162885665894e-02 -1.432670373469591141e-02 -7.517209649085998535e-02 -3.155011311173439026e-02 -4.959102254360914230e-03 -5.495151877403259277e-02 -2.123170532286167145e-02 -1.484355609863996506e-02 -5.848677828907966614e-02 2.271980606019496918e-02 1.932660117745399475e-02 -2.386889904737472534e-01 7.388309389352798462e-02 3.345281293150037527e-04 -3.900463134050369263e-02 -2.833085693418979645e-02 -8.579098433256149292e-02 -2.339143119752407074e-02 -6.300453096628189087e-02 -5.732066184282302856e-02 -5.173363164067268372e-02 2.555786259472370148e-02 2.688123881816864014e-01 1.804132014513015747e-02 -4.884435981512069702e-02 6.021044100634753704e-04 3.999801725149154663e-02 6.167572923004627228e-03 -5.064702779054641724e-02 5.687979981303215027e-03 -8.990140259265899658e-02 -1.831561774015426636e-01 8.573080599308013916e-02 4.777516704052686691e-03 -7.219387590885162354e-02 6.972157955169677734e-02 -1.501995325088500977e-01 -2.144615650177001953e-01 -2.320528626441955566e-01 -1.632364653050899506e-02 4.476745054125785828e-02 -3.809709474444389343e-02 4.821377806365489960e-03 2.507461607456207275e-01 7.938342541456222534e-02 3.755950368940830231e-03 -4.028591513633728027e-02 -5.232075229287147522e-02 -4.138338193297386169e-02 -2.399128116667270660e-02 1.967047713696956635e-02 2.561502158641815186e-02 2.557652592658996582e-01 2.055661827325820923e-01 2.147110849618911743e-01 -2.626640908420085907e-02 -4.776329919695854187e-02 -2.491108607500791550e-03 -6.802184879779815674e-02 1.670703440904617310e-01 1.071780100464820862e-01 -1.444469485431909561e-02 8.804303407669067383e-02 4.091901332139968872e-02 -5.238037928938865662e-02 -1.168400570750236511e-01 1.048967614769935608e-01 3.590141609311103821e-02 3.229208663105964661e-02 1.118612959980964661e-01 2.541269361972808838e-02 -3.838846832513809204e-02 -3.303558006882667542e-02 2.336041070520877838e-02 8.488641679286956787e-02 1.633389294147491455e-01 3.870093077421188354e-02
-7.080141454935073853e-02 -3.182271495461463928e-02 1.866739839315414429e-01 -1.225756853818893433e-01 1.643073745071887970e-02 -4.610931128263473511e-02 -4.500255361199378967e-02 1.589741855859756470e-01 -3.459492698311805725e-02 3.180271089076995850e-01 -3.858075290918350220e-02 5.751536809839308262e-04 -1.420230716466903687e-01 2.584698796272277832e-02 2.721093967556953430e-02 -1.544330716133117676e-01 3.760441243648529053e-01 -7.268878221511840820e-01 1.996627077460289001e-02 -9.616857767105102539e-02 2.818995714187622070e-01 -8.211660385131835938e-02 -4.141062870621681213e-02 4.944708943367004395e-02 1.281218882650136948e-02 3.136723041534423828e-01 -2.421138808131217957e-02 5.708451848477125168e-03 -1.921164616942405701e-02 -8.988504856824874878e-02 3.809046000242233276e-02 -6.316965818405151367e-02 6.717485189437866211e-02 -9.644117206335067749e-02 -1.361429542303085327e-01 8.349020779132843018e-02 -5.813620984554290771e-02 -7.886627316474914551e-02 3.745272457599639893e-01 -3.390145674347877502e-02 -3.888524696230888367e-02 -2.982096187770366669e-02 -5.869872495532035828e-02 -3.293165937066078186e-02 -2.454171776771545410e-01 5.522030964493751526e-02 -1.317696645855903625e-03 -1.615239307284355164e-02 6.461730692535638809e-03 -3.924404829740524292e-02 -7.732841186225414276e-03 -2.337730111321434379e-04 -3.409799933433532715e-02 -3.638802468776702881e-01 -1.482984237372875214e-02 1.305332630872726440e-01 2.275233529508113861e-02 -3.614831715822219849e-02 -3.812308236956596375e-02 7.465709000825881958e-03 -9.479957073926925659e-02 1.641382426023483276e-01 6.621477194130420685e-03 9.107136726379394531e-02 -3.240730613470077515e-02 -1.112418025732040405e-01 3.987909480929374695e-02 4.744292423129081726e-02 -3.134753182530403137e-02 1.051504239439964294e-01 -2.613827772438526154e-02 -6.372655183076858521e-02 -9.096965193748474121e-02 -4.508033096790313721e-01 -6.105785444378852844e-02 -6.218632683157920837e-03 1.204402968287467957e-01 9.760314971208572388e-02 -6.754876580089330673e-03 -8.390524983406066895e-02 -1.431144960224628448e-02 -2.618109434843063354e-02 -5.360807105898857117e-02 -3.016119450330734253e-02 3.527463078498840332e-01 1.650804430246353149e-01 -6.070502847433090210e-02 -9.331095963716506958e-02 -4.191267490386962891e-02 -8.828217536211013794e-02 -4.534389451146125793e-02 1.475208532065153122e-02 -2.101439423859119415e-02 -5.681785568594932556e-02 4.218028858304023743e-02 -2.176603768020868301e-03 -4.257121682167053223e-02 -2.395852841436862946e-02 1.912638545036315918e-01 2.267597764730453491e-01 -1.402506418526172638e-02 -2.697814702987670898e-01 2.664218246936798096e-01 2.193404883146286011e-01 -2.702989429235458374e-02 3.065989166498184204e-02 6.064680963754653931e-02 -2.319445013999938965e-01 -5.236548930406570435e-02 -6.829145550727844238e-02 -8.559389412403106689e-02 -9.368807077407836914e-02 2.831528522074222565e-02 2.589390277862548828e-01 6.312768440693616867e-03 1.136709749698638916e-01 -8.149483799934387207e-02 2.470459789037704468e-02 -1.662002652883529663e-01 -5.523490905761718750e-02 2.411038875579833984e-01 -8.069391548633575439e-02 -4.092016257345676422e-03 1.672841757535934448e-01 3.163066804409027100e-01 -5.920490995049476624e-02 9.938582777976989746e-02 -1.641250848770141602e-01 -1.842598244547843933e-02 -7.501465827226638794e-02 7.267799973487854004e-02 -6.914190948009490967e-02 3.234889209270477295e-01 1.161101926118135452e-02 -2.280274638906121254e-03 -7.077049463987350464e-02 1.605442352592945099e-02 -2.221782132983207703e-02 2.449330836534500122e-01 6.664928048849105835e-03 2.115109935402870178e-02 1.567977666854858398e-01 7.439809851348400116e-03 3.978414088487625122e-02 -4.324613809585571289e-01 -1.127191632986068726e-01 -3.521746397018432617e-02 8.403689414262771606e-02 1.984369605779647827e-01 3.035533726215362549e-01 -1.857227645814418793e-02 -1.753595769405364990e-01 -2.419500611722469330e-02 2.320551872253417969e-02 -2.947045862674713135e-02 4.088847432285547256e-03 1.935033053159713745e-01 3.537773787975311279e-01 -2.717219889163970947e-01 1.319973319768905640e-01 2.768354713916778564e-01 1.633659899234771729e-01 4.473060965538024902e-01 -4.260933399200439453e-02 1.024282258003950119e-02 -3.305447101593017578e-02 1.394831091165542603e-01 -9.938190877437591553e-02 -3.178881853818893433e-02 1.203857809305191040e-01 -2.755312994122505188e-02 -3.960192576050758362e-02 5.024089664220809937e-02 -4.992350190877914429e-02 2.756355702877044678e-01 -1.011498272418975830e-01 3.751165792346000671e-02 4.344477355480194092e-01 1.385085880756378174e-01 -1.531980335712432861e-01 -1.292008068412542343e-02 -9.998187422752380371e-02 -9.494229219853878021e-03 -1.425504218786954880e-02 -7.685468345880508423e-02 -3.023730218410491943e-01 -2.828757092356681824e-02 -2.310660481452941895e-02 1.040076166391372681e-01 6.619980558753013611e-03 3.777408227324485779e-02 -4.638755321502685547e-02 -2.090488560497760773e-02 5.490792449563741684e-03 -3.069419860839843750e-01 4.709606245160102844e-02 -4.326467402279376984e-03 -3.717123344540596008e-02 -8.699355274438858032e-02 -8.671891875565052032e-03 9.807716310024261475e-02 3.587346291169524193e-03 4.729727283120155334e-02 8.619181811809539795e-03 -8.000011555850505829e-03 -1.494474802166223526e-02 4.015876725316047668e-02 -1.979060098528862000e-02 3.746261894702911377e-01 -1.175329163670539856e-01 2.470678240060806274e-01 -6.850515305995941162e-02 -9.385437704622745514e-03 -5.055532976984977722e-02 3.042719364166259766e-01 6.596203893423080444e-02 -1.566278040409088135e-01 -1.459384616464376450e-02 4.187219217419624329e-02 -4.019935056567192078e-02 -3.907422125339508057e-01 -3.404645249247550964e-02 -3.928712382912635803e-02 -4.435440525412559509e-02 -5.569217354059219360e-02 1.569607555866241455e-01 4.422760009765625000e-02 2.110342085361480713e-01 -1.020664423704147339e-01 1.383606940507888794e-01 4.870187863707542419e-02 -3.555957227945327759e-03 2.268131636083126068e-02 2.520924434065818787e-02 3.155717253684997559e-02 -4.572851583361625671e-02 -6.710575222969055176e-01 3.429803848266601562e-01 -2.314734272658824921e-02 -1.081599444150924683e-01 7.533656060695648193e-02 -7.463370263576507568e-02 -2.015829086303710938e-02 -4.292687401175498962e-02 3.199023902416229248e-01 -8.810598403215408325e-02 8.677487075328826904e-02 -1.531816087663173676e-02 -3.479857444763183594e-01 1.733451783657073975e-01 3.331677317619323730e-01 4.772352799773216248e-02 9.128355979919433594e-02 2.407576292753219604e-01 2.515165135264396667e-02 -1.327936798334121704e-01 9.449383616447448730e-02 -8.327957242727279663e-02 -2.828582562506198883e-02 -6.315915286540985107e-02 -5.072111636400222778e-02 3.427146375179290771e-02 -5.448151379823684692e-02 -4.732368886470794678e-02 -1.385323423892259598e-02 -1.604121550917625427e-02 2.002443559467792511e-02 2.981705069541931152e-01 1.357085108757019043e-01 -3.207955136895179749e-02 9.825144708156585693e-02 -3.443203121423721313e-02 -1.051644142717123032e-02 1.687657833099365234e-01 -2.982785105705261230e-01 -7.659246027469635010e-02 -3.515204787254333496e-02 -1.036287322640419006e-01 2.093064785003662109e-02 2.514198124408721924e-01 -1.303938478231430054e-01 -5.336268544197082520e-01 -2.335679717361927032e-02 4.546312689781188965e-01 1.373852882534265518e-02 -2.115744538605213165e-02 -1.078802496194839478e-01 -2.199054956436157227e-01 -2.903221920132637024e-02 1.837089359760284424e-01 -5.501041561365127563e-02 -2.979998886585235596e-01 2.345535606145858765e-01 -3.383697196841239929e-02 3.325712680816650391e-02 3.519501537084579468e-02 2.122014611959457397e-01 -5.374085903167724609e-02 -1.064732205122709274e-02 -4.356631264090538025e-02 2.837185561656951904e-01 -8.417512476444244385e-02 -4.352385178208351135e-02 -4.569231346249580383e-02 1.531163230538368225e-02 -5.304512102156877518e-03 2.189926058053970337e-01 3.538453578948974609e-02 1.075253039598464966e-01 -7.727511227130889893e-02 -4.248362034559249878e-02 -7.157889753580093384e-02 -7.494658976793289185e-02 -1.087924186140298843e-02 -3.004651889204978943e-02 1.725252568721771240e-01 1.301004439592361450e-01 -2.757546119391918182e-02 -1.013417616486549377e-01 3.050557076930999756e-01 3.173384815454483032e-02 -7.931732386350631714e-02 -1.344392728060483932e-02 1.801717132329940796e-01 9.137818589806556702e-03 -1.050559207797050476e-01 2.536926418542861938e-02 3.835112601518630981e-02 -2.373546920716762543e-02 -7.182227075099945068e-02 -3.772668715100735426e-04 3.350825980305671692e-02 1.815766692161560059e-01 -1.895341277122497559e-02 2.760020494461059570e-01 5.162938684225082397e-02 -1.502321287989616394e-02 -7.998655736446380615e-02 2.663761973381042480e-01 2.501644194126129150e-01 -7.511822134256362915e-02 -4.925045743584632874e-02 -7.585801929235458374e-02 -5.150351673364639282e-02 -2.806414617225527763e-03 3.364997208118438721e-01 2.050662785768508911e-01 -5.326569825410842896e-02 2.922596037387847900e-02 -1.567628607153892517e-02 -5.534195154905319214e-02 -7.420432567596435547e-02 9.401901625096797943e-03 1.302384585142135620e-01 1.125580593943595886e-01 -1.763201355934143066e-01 6.058738101273775101e-03 -5.975474044680595398e-02 -4.045535326004028320e-01 1.741591095924377441e-01 -8.626443892717361450e-02 7.337550818920135498e-02 -6.981209665536880493e-02 -3.310454189777374268e-01 -6.616362184286117554e-02 -4.547316953539848328e-02 -6.772094219923019409e-02 -4.598697423934936523e-01 -2.432944718748331070e-03 -9.158595275948755443e-06 -1.145387161523103714e-02 -8.677580952644348145e-02 3.811003640294075012e-02 -4.464368149638175964e-02 -3.586376085877418518e-02 -4.269708991050720215e-01 -2.822286188602447510e-01 -6.569861620664596558e-02 -8.038959503173828125e-01 -8.152491413056850433e-03 3.309405967593193054e-02 -1.487089395523071289e-01 -5.942672491073608398e-02 2.603087127208709717e-01 2.087830938398838043e-02 -3.713668137788772583e-02 -1.177189499139785767e-01 -6.379335373640060425e-02 4.259876608848571777e-01 1.873353030532598495e-04 -4.837158918380737305e-01 3.261396661400794983e-02 -7.625409215688705444e-02 -5.588678177446126938e-03 -4.688611999154090881e-02 7.181021384894847870e-03 -3.976514562964439392e-02 -1.317536830902099609e-01 -3.470744490623474121e-01 4.553689435124397278e-02
-7.254216354340314865e-03 1.690845489501953125e-01 -1.365548819303512573e-01 2.244710922241210938e-01 -5.763226747512817383e-02 -5.855457857251167297e-02 1.356605999171733856e-02 2.550630271434783936e-01 -3.116831742227077484e-02 2.948687076568603516e-01 -5.160137638449668884e-02 1.777058281004428864e-02 3.847726061940193176e-02 -3.665867447853088379e-02 2.550111897289752960e-02 -4.546480625867843628e-02 2.953777089715003967e-02 4.502457678318023682e-01 -1.022562966682016850e-03 5.479850247502326965e-02 2.919285893440246582e-01 -7.897961139678955078e-02 3.067033737897872925e-02 1.942470073699951172e-01 1.375898160040378571e-02 -7.144861221313476562e-01 5.651937797665596008e-02 1.694165319204330444e-01 -3.053355030715465546e-02 1.674880981445312500e-01 -1.710165478289127350e-02 -1.618661731481552124e-02 2.520183846354484558e-02 6.654358655214309692e-02 1.750833839178085327e-01 -1.569705158472061157e-01 -9.124499559402465820e-02 -7.190829515457153320e-02 5.633565783500671387e-01 -8.359446376562118530e-02 -6.295368075370788574e-02 3.279961273074150085e-02 -4.653029609471559525e-04 2.666473761200904846e-02 3.341099917888641357e-01 -2.660303413867950439e-01 1.715143211185932159e-02 -4.616125673055648804e-02 -3.899695277214050293e-01 9.045644663274288177e-03 -3.345493599772453308e-02 -8.761436492204666138e-02 7.591135054826736450e-02 8.236150443553924561e-02 3.606761097908020020e-01 -1.225237175822257996e-01 -1.724370382726192474e-02 -1.143294852226972580e-02 -4.478440061211585999e-02 -6.434809416532516479e-03 3.447394073009490967e-01 -6.735782623291015625e-01 -2.910168282687664032e-02 -9.307184815406799316e-02 2.219607867300510406e-02 1.092698145657777786e-02 -4.325094446539878845e-02 -1.817634850740432739e-01 -8.125613443553447723e-03 -9.958010166883468628e-02 -4.645786806941032410e-02 1.036599627695977688e-03 2.484190016984939575e-01 3.740112483501434326e-01 -2.617415739223361015e-03 8.571639657020568848e-02 -2.603005170822143555e-01 -2.860602140426635742e-01 2.645478248596191406e-01 1.486528515815734863e-01 -9.589328430593013763e-03 -5.698487162590026855e-03 -3.042640350759029388e-02 1.808362081646919250e-03 -1.217193827033042908e-01 6.022007018327713013e-02 2.872096300125122070e-01 1.706144362688064575e-01 -8.780979365110397339e-02 1.879606842994689941e-01 -1.419737655669450760e-02 -2.441453747451305389e-02 1.564901620149612427e-01 1.021419316530227661e-01 -3.543300554156303406e-02 2.436765655875205994e-02 -9.823080897331237793e-02 1.395077854394912720e-01 -4.622236192226409912e-01 -2.238270342350006104e-01 1.197086879983544350e-03 3.282313048839569092e-01 4.441379010677337646e-01 1.193548664450645447e-01 -2.877517603337764740e-02 1.238129660487174988e-02 9.860225021839141846e-02 2.926279306411743164e-01 -8.078545331954956055e-02 -3.204903379082679749e-02 -8.914106525480747223e-03 1.086459159851074219e-01 1.952067576348781586e-02 -2.737962305545806885e-01 2.705032229423522949e-01 -3.557047545909881592e-01 1.806588172912597656e-01 -4.639073833823204041e-02 9.446174651384353638e-02 -4.529644176363945007e-02 -3.856983780860900879e-01 -1.619682088494300842e-02 -7.328551728278398514e-03 -1.835258007049560547e-01 -6.811536550521850586e-01 -8.003397285938262939e-02 -7.135139405727386475e-02 2.749634683132171631e-01 -3.170287609100341797e-02 2.514479458332061768e-01 1.888363957405090332e-01 -5.228915438055992126e-02 -6.792746484279632568e-02 2.972125262022018433e-02 -1.631737314164638519e-02 -2.108323201537132263e-02 -6.184785813093185425e-02 3.550135716795921326e-02 1.292228102684020996e-01 6.626353133469820023e-03 -3.292176127433776855e-02 -3.573198616504669189e-01 -5.158938583917915821e-04 1.617784425616264343e-02 4.603351056575775146e-01 1.882243305444717407e-01 3.256871700286865234e-01 -1.789934635162353516e-01 -1.332819908857345581e-01 -1.379308402538299561e-01 1.910740509629249573e-02 4.051981866359710693e-02 1.776017248630523682e-02 -2.089185453951358795e-02 -3.115985542535781860e-02 -6.452998612076044083e-03 -1.560014933347702026e-01 -5.230172723531723022e-02 -3.218942880630493164e-02 -5.778507795184850693e-03 -3.827020823955535889e-01 -1.106218695640563965e-01 -5.293758511543273926e-01 -1.084429863840341568e-02 7.445842493325471878e-04 2.770409584045410156e-01 -2.547432780265808105e-01 1.910782009363174438e-01 2.784458175301551819e-02 -2.451752722263336182e-01 1.148877572268247604e-02 -5.469572544097900391e-02 -2.246021851897239685e-02 7.433507125824689865e-03 -5.073792338371276855e-01 7.874362170696258545e-02 -7.460779696702957153e-02 -1.872849166393280029e-01 -2.792012393474578857e-01 3.122220039367675781e-01 -4.131007194519042969e-02 2.636773288249969482e-01 -1.346031483262777328e-02 -3.879050165414810181e-02 -3.236106038093566895e-02 3.757388889789581299e-01 2.525751106441020966e-02 1.939714513719081879e-02 -2.099088877439498901e-01 -3.238219022750854492e-02 2.480208277702331543e-01 2.811990976333618164e-01 -6.179061904549598694e-02 -2.651924081146717072e-02 6.169701218605041504e-01 -1.603085845708847046e-01 -2.430048957467079163e-02 6.501390016637742519e-04 6.017442941665649414e-01 1.321223191916942596e-02 -1.808214187622070312e-01 -7.922649383544921875e-02 6.355845928192138672e-02 4.818557575345039368e-02 1.251672655344009399e-01 -2.440232597291469574e-02 -9.796135872602462769e-02 -2.654491364955902100e-02 3.392543196678161621e-01 1.952725052833557129e-01 -2.264891862869262695e-01 1.513354480266571045e-01 -7.843375205993652344e-02 1.900356709957122803e-01 8.692184090614318848e-02 -1.091677248477935791e-01 -9.458391666412353516e-01 1.732901185750961304e-01 -4.139918088912963867e-02 -2.558413892984390259e-02 1.859393864870071411e-01 -2.775942534208297729e-02 3.340926021337509155e-02 1.369647383689880371e-01 1.828623265027999878e-01 1.267067939043045044e-01 4.680501297116279602e-02 -1.211159974336624146e-01 1.656325608491897583e-01 -5.488250255584716797e-01 3.185434266924858093e-03 4.213147610425949097e-02 -4.955409560352563858e-03 1.245446223765611649e-02 -3.993953764438629150e-02 7.537561934441328049e-03 3.002233803272247314e-01 -3.412170708179473877e-02 -5.722171068191528320e-02 2.384957075119018555e-01 -1.652877628803253174e-01 -5.633330717682838440e-02 -2.263330668210983276e-02 2.093257755041122437e-01 -1.247749924659729004e-01 9.626021236181259155e-02 6.755492091178894043e-02 8.064931607805192471e-04 4.955528676509857178e-01 2.219036817550659180e-01 -9.824490547180175781e-02 3.168214857578277588e-01 -2.138063684105873108e-02 -2.048364281654357910e-01 -3.855880349874496460e-02 1.098518595099449158e-01 -2.413538098335266113e-01 1.907780170440673828e-01 -7.523159682750701904e-02 2.002789527177810669e-01 7.270468026399612427e-02 -1.198701038956642151e-01 2.477037161588668823e-01 -6.171576678752899170e-02 1.813365332782268524e-02 -1.448465511202812195e-02 -5.078033730387687683e-02 -9.447589516639709473e-02 -7.541596889495849609e-02 1.272879634052515030e-02 -3.133520185947418213e-01 -2.072994709014892578e-01 2.621476165950298309e-02 -2.395207583904266357e-01 -4.968595504760742188e-01 2.254848331212997437e-01 -5.006980895996093750e-02 2.130637019872665405e-01 9.056563139893114567e-04 -1.063837110996246338e-01 1.238422170281410217e-01 2.709620594978332520e-01 -4.719908535480499268e-02 2.785889208316802979e-01 -4.135466367006301880e-02 -5.470895767211914062e-02 1.210361942648887634e-01 1.984588652849197388e-01 1.177076622843742371e-01 -7.554583251476287842e-02 -4.600520804524421692e-02 1.204287260770797729e-01 -5.471990108489990234e-01 -6.497829407453536987e-02 2.084952592849731445e-02 2.903685905039310455e-02 -2.419513463973999023e-01 -1.246530376374721527e-02 -4.137385636568069458e-02 3.907511010766029358e-02 2.864921651780605316e-02 2.515390217304229736e-01 3.127576112747192383e-01 1.562258694320917130e-02 -1.118641253560781479e-02 8.084818720817565918e-03 -2.396586090326309204e-01 3.292113170027732849e-02 -2.291396409273147583e-01 2.128717117011547089e-02 -4.347655922174453735e-02 -5.764452368021011353e-02 2.414073050022125244e-01 3.642939031124114990e-02 -8.597249537706375122e-02 -2.506565451622009277e-01 -1.776394098997116089e-01 3.074516355991363525e-01 6.133742257952690125e-02 -5.165698379278182983e-02 4.250932484865188599e-02 3.213541209697723389e-01 3.010595962405204773e-02 -1.083877012133598328e-01 -1.129279956221580505e-01 1.815556176006793976e-02 2.095388993620872498e-02 2.982258051633834839e-02 -1.849904074333608150e-04 5.021330434828996658e-03 7.279155543074011803e-04 -8.918916573747992516e-04 4.514132812619209290e-02 -3.412179648876190186e-03 -3.523651063442230225e-01 1.449234038591384888e-01 -1.629040576517581940e-02 -3.784222528338432312e-02 -1.637262850999832153e-01 -1.087734997272491455e-01 -2.039215154945850372e-02 -3.204210475087165833e-02 -7.480253279209136963e-02 -1.431448459625244141e-01 3.281800076365470886e-02 4.311863481998443604e-01 -1.314513534307479858e-01 -5.556448549032211304e-02 -4.210748896002769470e-02 -2.731388993561267853e-02 1.427421253174543381e-02 -4.495285078883171082e-02 2.313802391290664673e-02 -2.298020124435424805e-01 -2.583581507205963135e-01 1.941929906606674194e-01 1.814121752977371216e-02 -6.891103461384773254e-03 1.435422748327255249e-01 -2.468860596418380737e-01 -2.914530634880065918e-01 -2.302618026733398438e-01 -6.968733668327331543e-02 8.491013199090957642e-02 -5.942676961421966553e-02 -6.137954816222190857e-02 3.360224068164825439e-01 2.665489017963409424e-01 -6.451117247343063354e-02 -3.853993490338325500e-02 -5.428602918982505798e-02 3.892688080668449402e-02 8.577376138418912888e-04 -5.255009979009628296e-02 3.655451908707618713e-02 4.809581637382507324e-01 3.614622652530670166e-01 2.576236426830291748e-01 2.496801689267158508e-02 -5.008206516504287720e-02 -1.047891564667224884e-02 -2.158657759428024292e-01 2.367300987243652344e-01 1.549162864685058594e-01 -5.946355406194925308e-03 1.641426831483840942e-01 1.817279160022735596e-01 -8.094659447669982910e-02 7.430522236973047256e-03 2.326549291610717773e-01 7.131889462471008301e-02 -2.575274743139743805e-02 2.199496030807495117e-01 -4.770695790648460388e-02 -6.061132997274398804e-02 1.454867608845233917e-02 2.204703353345394135e-02 1.567362695932388306e-01 2.606776952743530273e-01 -8.100248873233795166e-03
-1.489512436091899872e-02 -1.215067580342292786e-01 3.063949048519134521e-01 -9.118771553039550781e-02 -5.059039965271949768e-02 -4.506690800189971924e-02 -2.627112902700901031e-02 4.084978997707366943e-02 1.788344047963619232e-02 2.472427040338516235e-01 -5.952186509966850281e-02 2.522562071681022644e-02 -2.394061982631683350e-01 -3.647947683930397034e-02 2.686561457812786102e-02 -1.927352100610733032e-01 3.933605849742889404e-01 -7.482219338417053223e-01 -5.847818683832883835e-03 -1.553931087255477905e-01 3.056280314922332764e-01 -3.342918306589126587e-02 -5.368143320083618164e-02 -1.828766055405139923e-02 2.846344374120235443e-02 5.395258665084838867e-01 -8.505181968212127686e-02 -2.515732496976852417e-02 -1.857429556548595428e-02 -1.215289756655693054e-01 2.380886813625693321e-03 -1.371067911386489868e-01 -2.212178707122802734e-02 -1.673370450735092163e-01 -1.295797079801559448e-01 7.854418456554412842e-02 -7.801543921232223511e-02 -2.611563727259635925e-02 5.286440253257751465e-01 -7.653691619634628296e-02 -1.669695973396301270e-02 4.482860490679740906e-02 -8.121936023235321045e-02 -1.130234077572822571e-01 -2.722759544849395752e-01 1.166827455163002014e-01 1.845485717058181763e-02 -1.641067676246166229e-02 1.099520102143287659e-01 4.201560840010643005e-02 -3.029963374137878418e-02 -6.083538010716438293e-02 -1.177824288606643677e-01 -6.828078627586364746e-01 -3.134664520621299744e-02 1.922070086002349854e-01 -2.577058225870132446e-02 -4.725049063563346863e-02 -3.455618862062692642e-03 -1.735665649175643921e-02 -1.635883897542953491e-01 1.687382459640502930e-01 -1.045022904872894287e-01 1.289836019277572632e-01 5.188749358057975769e-02 -1.957114338874816895e-01 2.203918620944023132e-02 1.152062863111495972e-01 -4.325984418392181396e-02 2.494673281908035278e-01 -9.732129424810409546e-02 -8.412159979343414307e-02 -1.436015665531158447e-01 -6.948055028915405273e-01 -7.564938813447952271e-02 -3.202785272151231766e-03 1.693336665630340576e-01 1.668557971715927124e-01 -5.376248061656951904e-02 -9.616850316524505615e-02 -1.081806421279907227e-01 -3.700532764196395874e-02 -4.366014897823333740e-02 -5.267623066902160645e-02 4.428664445877075195e-01 2.627578973770141602e-01 -7.225322723388671875e-02 -1.455221027135848999e-01 -3.959877043962478638e-02 -1.574899703264236450e-01 -4.623118042945861816e-02 -1.102785859256982803e-02 1.309739309363067150e-03 -1.068957597017288208e-01 -3.880663961172103882e-02 1.893579773604869843e-02 -5.578290671110153198e-02 -7.528083771467208862e-02 3.250825405120849609e-01 4.240186512470245361e-01 -4.582718014717102051e-02 -3.039683401584625244e-01 4.057308733463287354e-01 2.830639481544494629e-01 -1.314685586839914322e-02 -2.465294301509857178e-02 1.140630915760993958e-01 -1.866384148597717285e-01 -8.563158661127090454e-02 -1.704274117946624756e-02 -8.718343824148178101e-02 -1.899893432855606079e-01 1.758630014955997467e-02 3.115809261798858643e-01 1.384614873677492142e-02 1.751557439565658569e-01 -1.129620373249053955e-01 -1.745805703103542328e-02 -2.317960411310195923e-01 -8.645091950893402100e-02 3.416039049625396729e-01 -5.938079580664634705e-02 -4.564315080642700195e-02 2.252091616392135620e-01 3.988420665264129639e-01 -3.992535918951034546e-02 8.630489557981491089e-02 -1.647359877824783325e-01 -3.486849740147590637e-02 -1.708965003490447998e-01 1.009123101830482483e-01 -5.950645357370376587e-02 4.688080549240112305e-01 1.771838590502738953e-02 -5.238427966833114624e-02 -8.473931998014450073e-02 -1.962577179074287415e-02 2.017329446971416473e-02 3.393757045269012451e-01 -1.465458422899246216e-02 6.824053823947906494e-03 2.806210517883300781e-01 3.428551927208900452e-02 1.505698729306459427e-02 -6.651119589805603027e-01 -1.685553789138793945e-01 -1.390512734651565552e-01 6.619129329919815063e-02 2.958550155162811279e-01 4.096641838550567627e-01 2.516117319464683533e-02 -5.981006845831871033e-02 -3.001887910068035126e-02 -5.256647616624832153e-02 -5.192655324935913086e-02 3.351255133748054504e-02 1.997151821851730347e-01 5.457063913345336914e-01 -3.199106454849243164e-01 1.541320979595184326e-01 3.610157966613769531e-01 2.482599467039108276e-01 5.041748285293579102e-01 2.002178132534027100e-02 -4.032173659652471542e-03 -3.234104067087173462e-02 2.552060782909393311e-01 -1.080451980233192444e-01 -1.666658557951450348e-02 2.335495799779891968e-01 -2.927375026047229767e-03 -3.772969171404838562e-02 4.283694922924041748e-02 -6.078726053237915039e-02 3.782420158386230469e-01 -1.152781471610069275e-01 4.595518857240676880e-02 5.422508716583251953e-01 2.307213693857192993e-01 -1.781147718429565430e-01 -5.076975561678409576e-03 -2.083897143602371216e-01 -7.172317057847976685e-02 -1.890585757791996002e-02 -8.845628798007965088e-02 -5.328617691993713379e-01 -1.189168021082878113e-01 -1.749996095895767212e-02 1.987945139408111572e-01 -8.911221474409103394e-02 -6.163923069834709167e-02 -2.662918344140052795e-02 -4.860955104231834412e-02 1.567434147000312805e-02 -5.595977902412414551e-01 1.086080744862556458e-01 -4.530470445752143860e-02 5.560464691370725632e-03 -1.616161167621612549e-01 -1.364996656775474548e-03 1.306595057249069214e-01 -5.366477742791175842e-02 2.427783235907554626e-02 -2.129012905061244965e-02 7.626645267009735107e-02 -1.533078774809837341e-02 6.847465410828590393e-03 -4.095158353447914124e-02 4.428376257419586182e-01 -7.208597660064697266e-02 3.025081157684326172e-01 -7.921991497278213501e-02 -3.476064279675483704e-02 -3.065252900123596191e-01 4.059891998767852783e-01 1.203440427780151367e-01 -5.134654790163040161e-02 -4.352895170450210571e-02 3.293607011437416077e-02 -8.077467978000640869e-02 -5.239561200141906738e-01 3.831258043646812439e-02 -8.754504844546318054e-03 -1.144858300685882568e-01 -1.031781211495399475e-01 1.823191344738006592e-01 3.198076039552688599e-02 2.908032536506652832e-01 -1.189663410186767578e-01 2.996187508106231689e-01 -2.684397436678409576e-02 -3.445162624120712280e-02 -3.566185943782329559e-03 -3.510577604174613953e-02 -3.767282515764236450e-02 -4.537193477153778076e-02 -8.655116558074951172e-01 4.643706679344177246e-01 -6.233139708638191223e-02 -1.339071989059448242e-01 2.033519893884658813e-01 -3.331281617283821106e-02 -8.470391482114791870e-02 -7.686116546392440796e-02 4.591340422630310059e-01 -1.415625512599945068e-01 1.241914033889770508e-01 2.389013208448886871e-02 -4.909753501415252686e-01 1.863059550523757935e-01 4.516038596630096436e-01 -5.913749337196350098e-02 1.296925097703933716e-01 3.189741373062133789e-01 -4.723668098449707031e-04 -1.818568408489227295e-01 2.004670351743698120e-01 -9.799192845821380615e-02 -8.409149199724197388e-02 -1.352389901876449585e-01 -3.841723874211311340e-02 1.572152040898799896e-02 -1.232799068093299866e-01 -1.045248750597238541e-02 7.659871131181716919e-03 -6.498610228300094604e-02 4.291735962033271790e-02 3.986217379570007324e-01 5.277395620942115784e-02 1.825992576777935028e-02 1.952040940523147583e-01 -1.620164327323436737e-02 1.734641147777438164e-03 2.577600777149200439e-01 -3.566543459892272949e-01 -1.842153221368789673e-01 2.038064785301685333e-02 -1.054435968399047852e-01 -2.241726033389568329e-02 3.800543844699859619e-01 -1.432116478681564331e-01 -5.293144583702087402e-01 -6.755270808935165405e-02 4.545048177242279053e-01 -4.400730133056640625e-02 -8.728804439306259155e-02 -1.414046585559844971e-01 -3.463036417961120605e-01 -9.876450896263122559e-02 2.996003329753875732e-01 -7.125600427389144897e-02 -1.858232915401458740e-01 3.615438342094421387e-01 -1.284028752706944942e-03 -2.216589264571666718e-02 -1.407544827088713646e-03 3.236105442047119141e-01 3.259250894188880920e-02 -7.941278815269470215e-02 -2.864323742687702179e-02 3.436309695243835449e-01 -7.200551033020019531e-02 6.161129102110862732e-03 -4.746404476463794708e-03 -2.056269720196723938e-02 1.517862197943031788e-03 3.288658857345581055e-01 2.299646101891994476e-02 1.854562163352966309e-01 -5.686458945274353027e-02 -6.004976853728294373e-02 -8.234610408544540405e-02 -1.116639301180839539e-01 3.782314946874976158e-03 -4.741471633315086365e-02 3.095004260540008545e-01 1.796164065599441528e-01 -5.650042742490768433e-02 -1.797567456960678101e-01 3.584022223949432373e-01 2.862502634525299072e-02 -1.464982777833938599e-01 -1.949530094861984253e-02 2.910728752613067627e-01 -5.750014260411262512e-02 -1.630073636770248413e-01 -3.845668584108352661e-02 2.378214616328477859e-03 -7.091990113258361816e-02 -5.535718798637390137e-02 -8.997993543744087219e-03 -2.594169229269027710e-02 3.877389729022979736e-01 3.985872492194175720e-02 3.680667281150817871e-01 4.556525871157646179e-02 -7.200184464454650879e-02 -3.283363580703735352e-02 4.681289196014404297e-01 3.096666336059570312e-01 -3.806021809577941895e-02 -3.552230820059776306e-02 -5.507034435868263245e-02 -4.718016088008880615e-02 -3.899270901456475258e-03 3.210482895374298096e-01 2.685104012489318848e-01 -4.255681857466697693e-02 2.915330417454242706e-02 -7.008087635040283203e-02 -4.428778961300849915e-02 -4.862731695175170898e-02 4.054764658212661743e-02 2.228628396987915039e-01 5.581943690776824951e-02 -2.222741693258285522e-01 -3.736672550439834595e-02 -9.347041696310043335e-02 -5.197861194610595703e-01 3.312599956989288330e-01 -1.049059107899665833e-01 2.363309860229492188e-01 -7.345039397478103638e-02 -4.438574314117431641e-01 -7.548858970403671265e-02 -4.293607175350189209e-02 -7.848636806011199951e-02 -7.048013806343078613e-01 -1.841664128005504608e-02 1.825681515038013458e-02 -6.077690422534942627e-02 -1.020407229661941528e-01 -1.828358159400522709e-03 -4.565514624118804932e-02 -4.606685787439346313e-02 -6.517260074615478516e-01 -4.584095776081085205e-01 -3.929274901747703552e-02 -9.878127574920654297e-01 -6.627696007490158081e-02 -4.657879099249839783e-02 -2.102196216583251953e-01 -8.618090301752090454e-02 2.725576162338256836e-01 -4.444327950477600098e-02 2.557214349508285522e-02 -1.062522456049919128e-01 -8.332694321870803833e-02 5.612210631370544434e-01 -3.063726052641868591e-02 -8.020275831222534180e-01 -1.593904197216033936e-02 -1.026583760976791382e-01 -9.276719391345977783e-02 -6.258068978786468506e-02 2.110183797776699066e-02 -4.772708564996719360e-02 -1.852139234542846680e-01 -5.917531251907348633e-01 4.923425614833831787e-03
-8.129241317510604858e-02 1.990700513124465942e-01 -2.923325598239898682e-01 3.069154024124145508e-01 -4.964416846632957458e-02 -6.983805447816848755e-02 -4.113064333796501160e-02 4.608677625656127930e-01 -1.395493745803833008e-02 4.141964614391326904e-01 -7.972853630781173706e-02 3.029569284990429878e-03 2.252915352582931519e-01 1.612852886319160461e-02 3.295965027064085007e-03 1.928047686815261841e-01 2.802048623561859131e-01 4.175208806991577148e-01 -1.132337097078561783e-02 7.101342827081680298e-02 4.029952287673950195e-01 -1.981905847787857056e-02 7.564174011349678040e-03 3.376602232456207275e-01 -1.802250742912292480e-02 -9.157789945602416992e-01 3.788026422262191772e-02 1.581249088048934937e-01 -5.769821256399154663e-02 2.400737851858139038e-01 1.177015155553817749e-02 9.533685445785522461e-02 3.142089024186134338e-02 1.085227653384208679e-01 1.903110891580581665e-01 -2.006785720586776733e-01 -6.651309877634048462e-02 -9.607440978288650513e-02 4.497820138931274414e-01 -1.034148782491683960e-01 -3.975982591509819031e-02 1.767325773835182190e-02 -5.135373398661613464e-02 4.154935479164123535e-02 6.116843223571777344e-01 -3.076225221157073975e-01 -2.544904500246047974e-02 -4.136140272021293640e-02 -5.030911564826965332e-01 1.099927723407745361e-02 -2.508301474153995514e-02 -8.334986865520477295e-02 1.111441776156425476e-01 1.953806281089782715e-01 6.144327521324157715e-01 -2.179199755191802979e-01 -3.285071626305580139e-02 -2.306359261274337769e-02 -1.063655242323875427e-01 -4.190851002931594849e-02 4.425870478153228760e-01 -7.763030529022216797e-01 -8.557073026895523071e-02 -2.024624049663543701e-01 -5.086569488048553467e-02 6.819561868906021118e-02 2.200997248291969299e-02 -4.052422940731048584e-01 9.156372398138046265e-03 -2.690863907337188721e-01 -4.882632568478584290e-02 -5.606231838464736938e-02 2.902239263057708740e-01 4.462355673313140869e-01 -1.566493511199951172e-01 9.501928091049194336e-02 -3.466840684413909912e-01 -3.559558093547821045e-01 3.412879705429077148e-01 1.723767518997192383e-01 -3.324224427342414856e-02 -3.377334028482437134e-02 -4.138448834419250488e-02 -7.579738646745681763e-02 -9.390652179718017578e-02 1.431923061609268188e-01 4.030760228633880615e-01 2.506020665168762207e-01 -6.967224180698394775e-02 2.394425421953201294e-01 -2.730492874979972839e-02 -1.540692057460546494e-02 3.477847874164581299e-01 2.046330720186233521e-01 1.407307805493474007e-03 3.265082091093063354e-02 -1.029845029115676880e-01 2.606247961521148682e-01 -6.264557242393493652e-01 -3.713085949420928955e-01 2.213321626186370850e-02 3.337166905403137207e-01 4.085994958877563477e-01 4.384763538837432861e-01 7.029360625892877579e-03 3.909816965460777283e-02 1.049399375915527344e-02 3.421466648578643799e-01 -6.502122431993484497e-02 -8.081171661615371704e-02 -1.169427186250686646e-01 1.871352195739746094e-01 1.372042763978242874e-02 -2.844013869762420654e-01 3.849117457866668701e-01 -3.842990994453430176e-01 3.313640952110290527e-01 3.175096958875656128e-02 9.104934334754943848e-02 -1.145492568612098694e-01 -8.720497488975524902e-01 7.768927025608718395e-04 4.485833272337913513e-02 -2.849570810794830322e-01 -8.353713750839233398e-01 -8.751223236322402954e-02 -1.802019178867340088e-01 2.949777841567993164e-01 -9.325633198022842407e-02 3.399884402751922607e-01 3.120290637016296387e-01 -9.436778724193572998e-02 -4.536431655287742615e-02 1.413774304091930389e-02 -7.771140336990356445e-02 -5.926569923758506775e-02 -8.818918466567993164e-02 -2.557042799890041351e-02 3.914085030555725098e-01 6.204034015536308289e-02 -9.875506162643432617e-03 -5.332954525947570801e-01 -7.746504619717597961e-03 4.789724946022033691e-02 8.052694201469421387e-01 2.456317692995071411e-01 4.165878891944885254e-01 -2.539583444595336914e-01 -2.556034624576568604e-01 -1.802336573600769043e-01 1.717325672507286072e-02 5.995406955480575562e-02 2.238409966230392456e-02 9.370889514684677124e-03 4.598179459571838379e-02 -2.424979582428932190e-02 -2.768575251102447510e-01 -9.678533673286437988e-02 -2.898241952061653137e-02 -9.973376989364624023e-02 -4.082707166671752930e-01 -1.986698955297470093e-01 -1.846805065870285034e-01 3.607102856040000916e-02 2.833624556660652161e-02 3.261958956718444824e-01 -3.583900630474090576e-01 1.875014305114746094e-01 3.956239297986030579e-02 -4.086768031120300293e-01 -7.506237830966711044e-03 -2.053085900843143463e-02 -2.618761919438838959e-02 -5.078415572643280029e-02 -5.858139395713806152e-01 8.764597028493881226e-02 -1.115854829549789429e-01 -2.975690364837646484e-01 -3.444648981094360352e-01 3.590335547924041748e-01 -8.643090724945068359e-02 3.226137161254882812e-01 -1.151380464434623718e-01 -2.010139822959899902e-02 -1.190078444778919220e-02 6.896427869796752930e-01 6.585469841957092285e-02 1.366926636546850204e-02 -3.600077331066131592e-01 -8.905050158500671387e-02 2.728095054626464844e-01 3.405542075634002686e-01 -8.991012722253799438e-02 -6.338386330753564835e-03 7.467961907386779785e-01 -2.992955744266510010e-01 1.218996476382017136e-02 -2.681472338736057281e-02 7.804778814315795898e-01 -3.732152655720710754e-02 -2.924688458442687988e-01 -8.677865564823150635e-02 -2.117231860756874084e-02 1.930681243538856506e-02 8.623739331960678101e-02 -3.548798337578773499e-02 -4.798167198896408081e-02 -2.080984599888324738e-02 4.742927551269531250e-01 2.991861104965209961e-01 -2.519236803054809570e-01 2.414799630641937256e-01 -2.427080571651458740e-01 1.103617902845144272e-02 4.060702025890350342e-01 -2.206602394580841064e-01 -9.175747036933898926e-01 3.369216620922088623e-01 2.616486325860023499e-02 -9.400171786546707153e-02 -1.668773032724857330e-02 2.967424690723419189e-03 -3.243859857320785522e-02 1.214316859841346741e-01 2.097159922122955322e-01 1.727843284606933594e-01 -3.530408814549446106e-02 -2.451596260070800781e-01 2.400131672620773315e-01 -9.230800867080688477e-01 -1.135734003037214279e-02 3.201486542820930481e-02 -3.370296210050582886e-02 -6.098071858286857605e-02 -8.189074695110321045e-02 -1.968278922140598297e-02 3.918566107749938965e-01 2.364456886425614357e-03 1.661932654678821564e-02 3.067762255668640137e-01 -3.138033449649810791e-01 -1.002090722322463989e-01 -8.216118812561035156e-02 3.035758435726165771e-01 -1.492684930562973022e-01 1.464681476354598999e-01 -1.298461407423019409e-01 -3.929884359240531921e-02 6.635291576385498047e-01 4.398614466190338135e-01 -1.611405760049819946e-01 4.072536826133728027e-01 9.491671621799468994e-02 -2.340292781591415405e-01 -3.880658000707626343e-02 2.895658910274505615e-01 -4.101224243640899658e-01 2.982424199581146240e-01 -4.782338440418243408e-02 3.395881354808807373e-01 -1.068507283926010132e-01 -2.245175391435623169e-01 3.362234830856323242e-01 -1.063876971602439880e-01 8.639226108789443970e-02 -5.166161805391311646e-02 -2.235308289527893066e-02 -1.585686653852462769e-01 -6.764734536409378052e-02 -4.274001717567443848e-02 -3.803535401821136475e-01 -2.473887354135513306e-01 3.643860667943954468e-02 -3.362570703029632568e-01 -6.549447774887084961e-01 3.422632217407226562e-01 -4.564980417490005493e-02 2.616976797580718994e-01 -4.751512035727500916e-02 7.674928009510040283e-02 1.586750149726867676e-01 2.211150974035263062e-01 -1.176528707146644592e-01 2.487676590681076050e-01 6.856265943497419357e-03 -1.121402904391288757e-01 1.470407843589782715e-01 2.552560865879058838e-01 1.818366944789886475e-01 -8.821369707584381104e-02 -7.188318669795989990e-02 1.194224432110786438e-01 -6.292811632156372070e-01 -5.121925473213195801e-02 1.125955372117459774e-03 3.138320147991180420e-02 -3.992204666137695312e-01 -2.763197198510169983e-02 -9.617909789085388184e-02 -2.227013558149337769e-02 1.782938539981842041e-01 3.032764494419097900e-01 2.738893628120422363e-01 2.617451846599578857e-01 -1.440830621868371964e-02 1.674559339880943298e-02 -2.834480404853820801e-01 -6.861632224172353745e-03 -3.699574172496795654e-01 -6.568638235330581665e-02 -5.265249311923980713e-02 -9.019812196493148804e-02 2.883805930614471436e-01 1.755422800779342651e-01 -8.499054610729217529e-02 -2.418268471956253052e-01 -3.122602701187133789e-01 3.365007638931274414e-01 1.453074067831039429e-01 -3.973395004868507385e-02 3.556110337376594543e-02 3.662924766540527344e-01 7.904318161308765411e-03 -1.857398152351379395e-01 -7.909310609102249146e-02 1.990457922220230103e-01 1.087219268083572388e-02 1.846624072641134262e-03 -8.106808364391326904e-02 -1.978322677314281464e-02 3.505748510360717773e-02 -6.753179430961608887e-02 7.712779939174652100e-02 -1.300295069813728333e-02 -3.846509754657745361e-01 1.871470808982849121e-01 -6.524809449911117554e-02 -1.206743791699409485e-01 -8.873102068901062012e-02 -1.684501618146896362e-01 -9.635798633098602295e-02 -4.342208057641983032e-02 -5.099870637059211731e-02 -1.784038394689559937e-01 -3.074404038488864899e-02 3.986572027206420898e-01 -2.344888150691986084e-01 -1.109838392585515976e-02 3.235819935798645020e-02 -5.400472134351730347e-02 -3.927664086222648621e-02 -5.395932495594024658e-02 2.056023664772510529e-02 -2.910325527191162109e-01 -3.329121470451354980e-01 3.453174233436584473e-01 -4.298996552824974060e-02 -1.090010181069374084e-01 1.449733823537826538e-01 -2.046556025743484497e-01 -1.217299327254295349e-01 -5.130491256713867188e-01 -1.152061894536018372e-01 4.053491055965423584e-01 -4.620531201362609863e-02 -1.044107526540756226e-01 4.787698090076446533e-01 3.961901366710662842e-01 -1.493679285049438477e-01 4.880079627037048340e-02 -9.431612491607666016e-02 1.618865132331848145e-01 3.020591847598552704e-02 -8.556148409843444824e-02 7.947959005832672119e-02 7.588971257209777832e-01 5.586040019989013672e-01 3.476751446723937988e-01 1.444526910781860352e-01 -1.459009572863578796e-02 -3.978831693530082703e-02 -3.603862226009368896e-01 2.503611743450164795e-01 1.864623874425888062e-01 -2.607463626191020012e-03 2.716297805309295654e-01 1.478210389614105225e-01 -9.193879365921020508e-02 3.222738951444625854e-02 3.661262691020965576e-01 1.467055827379226685e-01 2.683519572019577026e-02 2.469948679208755493e-01 -5.111186206340789795e-02 -4.367115348577499390e-02 -3.765438869595527649e-02 4.089517891407012939e-02 2.101421058177947998e-01 1.873837858438491821e-01 5.967690795660018921e-02
-8.048745244741439819e-02 -1.392980515956878662e-01 3.423504829406738281e-01 -4.200517386198043823e-02 -1.871167570352554321e-01 -5.799844115972518921e-02 5.034027248620986938e-02 -9.263531118631362915e-02 -4.364761337637901306e-02 1.876520365476608276e-01 -1.073484346270561218e-01 -8.303093723952770233e-03 -2.401079833507537842e-01 -2.668683417141437531e-02 2.227083407342433929e-02 -1.610096842050552368e-01 5.052198767662048340e-01 -6.450858712196350098e-01 -1.955993287265300751e-02 -1.456136107444763184e-01 2.847681045532226562e-01 -1.006911247968673706e-01 -4.007821902632713318e-02 1.579417102038860321e-02 -1.061496604233980179e-02 7.058160901069641113e-01 -6.822194904088973999e-02 -5.222191289067268372e-02 3.308700397610664368e-02 -2.113607376813888550e-01 7.214094512164592743e-04 -1.806981563568115234e-01 -4.526706412434577942e-02 -1.551249772310256958e-01 -1.540201902389526367e-01 1.266576349735260010e-01 -3.588730096817016602e-02 -7.259168475866317749e-02 5.370879769325256348e-01 -2.885127253830432892e-02 -5.434032157063484192e-02 1.605132594704627991e-02 -6.993543356657028198e-02 -1.475064158439636230e-01 -3.330171704292297363e-01 2.393938601016998291e-01 -3.242434933781623840e-02 -9.686922281980514526e-02 2.576775550842285156e-01 -6.680473685264587402e-03 -1.786447502672672272e-02 -1.073212996125221252e-01 -1.220523342490196228e-01 -9.140745401382446289e-01 -1.130196601152420044e-01 2.930716574192047119e-01 -5.436503142118453979e-02 -9.681404568254947662e-03 -8.781454712152481079e-02 -3.803937509655952454e-02 -2.417684495449066162e-01 1.436272114515304565e-01 -5.282816663384437561e-02 1.382018178701400757e-01 1.938454434275627136e-02 -2.296022921800613403e-01 -4.332414362579584122e-03 1.270574778318405151e-01 2.580332010984420776e-02 3.085546791553497314e-01 -5.775281041860580444e-02 -6.867101043462753296e-02 -2.209688276052474976e-01 -9.916442036628723145e-01 -1.337312608957290649e-01 -1.088715866208076477e-01 2.540045678615570068e-01 1.765488535165786743e-01 -8.034671097993850708e-02 -2.282837033271789551e-01 -5.772104486823081970e-02 -1.975717954337596893e-02 -8.821165561676025391e-02 -2.944072522222995758e-02 5.594618916511535645e-01 3.055606484413146973e-01 -1.234713569283485413e-01 -1.427614837884902954e-01 -9.764843434095382690e-02 -2.326242178678512573e-01 -9.910034714266657829e-04 6.130951922386884689e-03 -2.657024189829826355e-02 -1.296096891164779663e-01 -5.621964856982231140e-02 1.289029722101986408e-03 -7.087523490190505981e-02 -1.597375571727752686e-01 5.230334401130676270e-01 5.576617121696472168e-01 -1.133282552473247051e-03 -3.625653386116027832e-01 5.685930848121643066e-01 4.416953325271606445e-01 -1.146107017993927002e-01 3.015878051519393921e-02 1.176675409078598022e-01 4.875306785106658936e-02 -7.898093014955520630e-02 -1.065015420317649841e-01 -7.356845587491989136e-02 -1.786072701215744019e-01 -5.355397239327430725e-02 4.942046701908111572e-01 -6.501749902963638306e-02 2.544977366924285889e-01 -9.065580368041992188e-02 4.104334861040115356e-02 -2.744595706462860107e-01 -5.093942210078239441e-02 4.581715464591979980e-01 -6.091657280921936035e-02 1.955156214535236359e-02 2.771752178668975830e-01 5.687255263328552246e-01 -8.489386737346649170e-02 5.767307057976722717e-02 -1.894017606973648071e-01 -3.626199811697006226e-02 -1.836003512144088745e-01 2.068158686161041260e-01 -3.233101963996887207e-02 5.937865972518920898e-01 1.136343367397785187e-02 -7.743449509143829346e-02 -2.259994484484195709e-02 -1.168349608778953552e-01 3.247864916920661926e-02 4.606400430202484131e-01 -7.937114685773849487e-02 6.675124168395996094e-03 4.261762499809265137e-01 -3.410335257649421692e-02 1.626113057136535645e-02 -8.795130848884582520e-01 -1.479645222425460815e-01 -1.620153635740280151e-01 5.579190328717231750e-02 3.921322822570800781e-01 5.348203182220458984e-01 1.714576967060565948e-02 1.001704335212707520e-01 -3.625923767685890198e-02 -8.221162110567092896e-02 3.409335762262344360e-02 -2.718895301222801208e-02 3.447460234165191650e-01 7.166706323623657227e-01 -3.222878277301788330e-01 1.267427504062652588e-01 4.631536304950714111e-01 3.064631223678588867e-01 5.418260693550109863e-01 7.964942604303359985e-03 3.549320623278617859e-03 -4.385901615023612976e-02 3.406910598278045654e-01 -2.170495688915252686e-01 1.790407695807516575e-03 2.363271564245223999e-01 -7.703571114689111710e-03 -3.047391213476657867e-02 -5.287764128297567368e-03 -4.676510766148567200e-02 6.006051898002624512e-01 -1.850436627864837646e-01 1.266794502735137939e-01 5.982104539871215820e-01 3.061198592185974121e-01 -2.231575697660446167e-01 -1.041879802942276001e-01 -2.370205074548721313e-01 -5.756065249443054199e-02 -1.170074939727783203e-02 -9.230546653270721436e-02 -7.073408365249633789e-01 -2.093495130538940430e-01 3.651058301329612732e-02 2.600497007369995117e-01 -2.985456027090549469e-02 -1.110269799828529358e-01 -3.212364017963409424e-02 -8.704096823930740356e-02 -1.269099302589893341e-02 -7.483736872673034668e-01 9.385745972394943237e-02 -1.637685112655162811e-02 4.466835409402847290e-02 -3.237524330615997314e-01 -2.491171285510063171e-02 2.585102617740631104e-01 -1.046964153647422791e-01 3.109586052596569061e-02 -1.159999519586563110e-02 1.500876527279615402e-02 -5.431332439184188843e-02 -1.190937869250774384e-02 -2.391521073877811432e-02 4.720196127891540527e-01 -1.662796884775161743e-01 3.855963945388793945e-01 -7.824645936489105225e-02 -6.185619905591011047e-02 -5.310988426208496094e-01 4.489860236644744873e-01 1.656704396009445190e-01 4.285771399736404419e-02 -9.532158821821212769e-02 4.260664060711860657e-02 -8.461617678403854370e-02 -5.867846012115478516e-01 -6.058266386389732361e-02 -3.811120614409446716e-02 -1.336853951215744019e-01 -1.648738235235214233e-01 3.061854541301727295e-01 -7.230245973914861679e-03 3.920810520648956299e-01 -1.726621240377426147e-01 4.683315455913543701e-01 8.485973812639713287e-03 -1.145653277635574341e-01 2.030408754944801331e-02 -1.040007099509239197e-01 -1.065967828035354614e-01 1.441142521798610687e-02 -1.114368438720703125e+00 4.957084059715270996e-01 -7.437662780284881592e-02 -1.967519968748092651e-01 3.036372661590576172e-01 -1.122419089078903198e-01 -5.164087563753128052e-02 -4.910518229007720947e-02 5.034417510032653809e-01 -2.325678169727325439e-01 1.075624376535415649e-01 3.190757334232330322e-02 -6.979648470878601074e-01 4.669914022088050842e-02 5.330720543861389160e-01 -7.504546642303466797e-02 1.255161464214324951e-01 4.356245696544647217e-01 1.870525255799293518e-02 -1.231258437037467957e-01 2.000329494476318359e-01 -1.440941095352172852e-01 -7.387233525514602661e-02 -2.102982401847839355e-01 -7.823443412780761719e-02 1.693515479564666748e-02 -1.173023134469985962e-01 -6.870389729738235474e-02 1.465350296348333359e-02 -8.666257560253143311e-02 4.223798587918281555e-02 5.000824332237243652e-01 -6.653787195682525635e-02 4.440673068165779114e-02 2.812851965427398682e-01 2.083253301680088043e-02 2.562083536759018898e-03 3.721344769001007080e-01 -3.798239529132843018e-01 -1.804715842008590698e-01 -1.437988784164190292e-02 -1.792641282081604004e-01 3.866184502840042114e-02 4.722552895545959473e-01 -1.666918843984603882e-01 -5.252725481986999512e-01 -1.038368195295333862e-01 3.463848233222961426e-01 -2.429967001080513000e-02 -7.001080363988876343e-02 -1.858155280351638794e-01 -3.792316913604736328e-01 -1.490829288959503174e-01 3.737444877624511719e-01 -1.094523221254348755e-01 5.549927055835723877e-02 4.755465090274810791e-01 2.906027436256408691e-02 4.051062464714050293e-02 -1.088615600019693375e-02 4.495491683483123779e-01 -1.976746693253517151e-02 -8.813495934009552002e-02 -5.125947762280702591e-03 3.101460039615631104e-01 -1.627954393625259399e-01 6.632723379880189896e-03 8.159213513135910034e-02 -4.397620633244514465e-02 2.212937921285629272e-02 3.601537346839904785e-01 -1.481720432639122009e-02 2.505056858062744141e-01 -4.040940105915069580e-02 -7.579785585403442383e-02 -8.319915831089019775e-02 -1.151882037520408630e-01 -1.900166831910610199e-02 -6.842771172523498535e-02 4.462868273258209229e-01 3.232132792472839355e-01 -1.134336441755294800e-01 -2.220621258020401001e-01 3.799166679382324219e-01 4.555705189704895020e-02 -2.648513317108154297e-01 4.895696765743196011e-04 3.209661543369293213e-01 -1.250524520874023438e-01 -1.421069800853729248e-01 -2.292564697563648224e-02 -3.256477182731032372e-03 -2.105661295354366302e-02 -2.896200492978096008e-02 4.335226118564605713e-02 -7.006929814815521240e-02 4.889360964298248291e-01 -9.117055684328079224e-03 4.496515393257141113e-01 7.313055917620658875e-03 -8.781642466783523560e-02 -8.761972188949584961e-02 4.861396253108978271e-01 4.116576015949249268e-01 -1.034492403268814087e-01 -6.639790534973144531e-02 -6.955408304929733276e-02 6.410035490989685059e-02 -9.482413530349731445e-02 2.945298850536346436e-01 3.833549618721008301e-01 -2.904911525547504425e-02 4.325535148382186890e-02 -8.953890949487686157e-02 -6.745126098394393921e-02 -3.928587585687637329e-02 -1.190096512436866760e-02 2.456354498863220215e-01 -6.913986057043075562e-02 -2.523470818996429443e-01 4.076383076608181000e-03 -1.117622107267379761e-01 -5.863854885101318359e-01 4.785387814044952393e-01 -1.022751927375793457e-01 3.434889614582061768e-01 -4.467435553669929504e-02 -6.195756196975708008e-01 -6.937514245510101318e-02 -6.887170672416687012e-02 -1.161055043339729309e-01 -9.311853647232055664e-01 -1.217451542615890503e-01 -3.322949260473251343e-02 -1.138607710599899292e-01 -1.520346254110336304e-01 1.228005741722881794e-03 -7.067567855119705200e-02 -7.019666582345962524e-02 -8.235545754432678223e-01 -6.411498785018920898e-01 -1.529631465673446655e-01 -1.175023198127746582e+00 -8.800130337476730347e-02 3.463688865303993225e-02 -2.851832509040832520e-01 -2.051745308563113213e-03 3.460203707218170166e-01 1.875070855021476746e-02 3.566095605492591858e-02 -1.448013931512832642e-01 -7.130682468414306641e-02 6.236893534660339355e-01 -8.339689671993255615e-02 -1.074767589569091797e+00 5.876043811440467834e-03 -1.313038468360900879e-01 -1.417171210050582886e-01 -9.072660654783248901e-02 2.473975718021392822e-02 -2.602871274575591087e-03 -2.358303815126419067e-01 -9.008623957633972168e-01 -4.544083029031753540e-02
-9.889496117830276489e-02 2.427737712860107422e-01 -3.469196259975433350e-01 4.248803555965423584e-01 8.370497077703475952e-02 -1.657777465879917145e-02 3.737814025953412056e-03 4.938001632690429688e-01 1.424132473766803741e-02 2.855700850486755371e-01 -1.169919744133949280e-01 -2.286898734382702969e-06 2.903997600078582764e-01 -4.359853640198707581e-02 1.414405088871717453e-02 2.050053477287292480e-01 3.217667937278747559e-01 3.873214721679687500e-01 4.171691369265317917e-03 1.641618311405181885e-01 4.443448483943939209e-01 -1.145980209112167358e-01 -8.386690169572830200e-02 4.935183525085449219e-01 3.580217249691486359e-03 -9.605416059494018555e-01 6.339358538389205933e-02 9.526305645704269409e-02 -6.292929500341415405e-02 2.340216785669326782e-01 2.376163750886917114e-02 1.043155863881111145e-01 2.511259913444519043e-02 1.870305389165878296e-01 1.857777833938598633e-01 -3.281482756137847900e-01 -1.364482194185256958e-01 -6.536240130662918091e-02 3.502894341945648193e-01 -8.366077393293380737e-02 -1.226246058940887451e-01 -9.412281215190887451e-04 -1.095618084073066711e-01 -9.370189905166625977e-02 9.484527707099914551e-01 -4.642384648323059082e-01 -4.307404905557632446e-02 -5.507421493530273438e-02 -2.607028484344482422e-01 4.810312762856483459e-02 -2.068387530744075775e-02 -1.438877731561660767e-01 1.307209581136703491e-01 6.043662875890731812e-02 8.884645700454711914e-01 -3.520421385765075684e-01 -4.064735025167465210e-02 -3.120920062065124512e-02 -1.301115751266479492e-01 2.762765064835548401e-02 4.785432815551757812e-01 -8.335964679718017578e-01 -7.743535935878753662e-02 -2.843939960002899170e-01 -2.284557744860649109e-02 1.910468488931655884e-01 -1.196040492504835129e-02 -5.352945327758789062e-01 -2.700739167630672455e-02 -3.743515014648437500e-01 -1.421054452657699585e-01 -8.938574790954589844e-02 3.913135528564453125e-01 4.137208163738250732e-01 -1.266233921051025391e-01 6.120204925537109375e-02 -4.173626303672790527e-01 -5.502965450286865234e-01 4.492629468441009521e-01 1.905273497104644775e-01 -2.487793937325477600e-02 -7.412857562303543091e-02 -1.155170351266860962e-01 -6.531104445457458496e-02 1.554484814405441284e-01 1.468361765146255493e-01 4.403085410594940186e-01 4.214311838150024414e-01 -1.092128902673721313e-01 2.510129511356353760e-01 -3.847892582416534424e-02 2.732528001070022583e-02 5.074124336242675781e-01 3.355845212936401367e-01 -1.146528590470552444e-02 -7.036850787699222565e-03 -1.305842399597167969e-01 3.512589633464813232e-01 -7.912815809249877930e-01 -4.148157536983489990e-01 2.524047717452049255e-02 2.774348556995391846e-01 7.004151493310928345e-02 3.096115291118621826e-01 -6.951907277107238770e-02 3.351495787501335144e-02 -1.224802248179912567e-02 3.374888598918914795e-01 -1.218866929411888123e-01 -1.334445327520370483e-01 -1.320108026266098022e-01 1.814676523208618164e-01 3.828770294785499573e-02 -3.421589434146881104e-01 4.670161306858062744e-01 -4.552876651287078857e-01 3.853154778480529785e-01 -5.742836277931928635e-03 1.825318038463592529e-01 -6.628490984439849854e-02 -1.104217290878295898e+00 -8.432903140783309937e-02 2.175250276923179626e-02 -3.745233714580535889e-01 -9.845340847969055176e-01 -1.239538341760635376e-01 -1.720121800899505615e-01 4.085555076599121094e-01 -6.436992436647415161e-02 3.623747229576110840e-01 4.417269825935363770e-01 -1.222185641527175903e-01 5.668636411428451538e-02 8.691855706274509430e-03 -7.683890312910079956e-02 -1.065365597605705261e-01 -1.381786316633224487e-01 -4.864683374762535095e-03 3.574911952018737793e-01 1.837345212697982788e-02 -8.840225636959075928e-03 -6.429340243339538574e-01 -2.052077278494834900e-02 -2.013917453587055206e-02 9.117856621742248535e-01 3.689084351062774658e-01 5.007860660552978516e-01 -3.301263153553009033e-01 -2.538096010684967041e-01 -1.711283326148986816e-01 -9.688030928373336792e-02 -4.438746720552444458e-02 1.700430922210216522e-02 -3.478529304265975952e-02 9.657318703830242157e-03 1.420053280889987946e-02 -3.919538259506225586e-01 -9.729569405317306519e-02 -6.358971446752548218e-02 -1.215591877698898315e-01 -3.641816675662994385e-01 -3.151044845581054688e-01 9.442167729139328003e-02 -2.876857854425907135e-02 1.521051954478025436e-02 4.564525187015533447e-01 -3.257335722446441650e-01 2.250702381134033203e-01 -1.539332140237092972e-02 -4.358113110065460205e-01 8.414344862103462219e-03 -9.080835431814193726e-02 -2.874336577951908112e-02 -7.698894292116165161e-02 -5.953766107559204102e-01 8.333214372396469116e-02 -2.011755108833312988e-01 -1.513890624046325684e-01 -4.384976625442504883e-01 4.308808743953704834e-01 -1.053065359592437744e-01 3.832177519798278809e-01 -1.356253325939178467e-01 3.467928990721702576e-02 -1.052193343639373779e-01 7.628613114356994629e-01 1.506130695343017578e-01 -1.762169040739536285e-02 -4.042432308197021484e-01 -8.616045862436294556e-02 3.864512741565704346e-01 4.960460066795349121e-01 -1.393271237611770630e-01 1.632245443761348724e-02 9.188941717147827148e-01 -2.770440578460693359e-01 1.064257975667715073e-02 -1.710083894431591034e-02 8.180978894233703613e-01 -2.406181022524833679e-02 -3.910858333110809326e-01 -6.865781545639038086e-02 -6.244120374321937561e-02 2.610049024224281311e-02 2.415115013718605042e-02 -1.160966753959655762e-01 -2.350037544965744019e-01 -3.547251224517822266e-02 4.677968621253967285e-01 3.613640069961547852e-01 -2.922914326190948486e-01 4.056951701641082764e-01 -6.226200461387634277e-01 1.462097093462944031e-02 3.948202133178710938e-01 -2.559589743614196777e-01 -9.599680900573730469e-01 4.023086428642272949e-01 2.600838616490364075e-02 -1.014640331268310547e-01 -1.367893964052200317e-01 8.567189797759056091e-03 2.056293655186891556e-03 1.985008269548416138e-01 1.551888287067413330e-01 1.352476328611373901e-01 2.471254020929336548e-02 -2.958041131496429443e-01 2.968782782554626465e-01 -1.308899521827697754e+00 4.477759823203086853e-02 1.754336431622505188e-02 -2.643017098307609558e-02 -5.001026019454002380e-02 -7.959232479333877563e-02 2.074402943253517151e-02 5.143513083457946777e-01 2.306336462497711182e-01 -3.185563907027244568e-02 3.897545039653778076e-01 -3.571606576442718506e-01 -8.528243750333786011e-02 -5.844619125127792358e-02 4.811542630195617676e-01 1.065866872668266296e-01 1.079870983958244324e-01 -3.027502894401550293e-01 3.213288635015487671e-02 6.264900565147399902e-01 5.665313601493835449e-01 -2.664186358451843262e-01 5.009592175483703613e-01 -5.466309189796447754e-02 -3.195290267467498779e-01 1.027182489633560181e-02 3.415842354297637939e-01 -4.476654827594757080e-01 3.958759605884552002e-01 -1.133212596178054810e-01 3.432795107364654541e-01 3.866808721795678139e-03 -3.024775981903076172e-01 3.927701115608215332e-01 -1.285321712493896484e-01 2.453029453754425049e-01 -1.177721545100212097e-01 2.133685350418090820e-02 -1.922347098588943481e-01 6.447363644838333130e-02 -6.578635424375534058e-03 -4.500362575054168701e-01 -1.536767035722732544e-01 2.630847739055752754e-03 -3.356222510337829590e-01 -7.269188165664672852e-01 4.449293017387390137e-01 1.682014949619770050e-02 3.386920690536499023e-01 -4.431711882352828979e-02 3.711732029914855957e-01 1.854866892099380493e-01 1.904547214508056641e-01 -8.216003328561782837e-02 3.009564578533172607e-01 5.450443550944328308e-02 -8.642407506704330444e-02 1.687609702348709106e-01 3.585162460803985596e-01 1.899863779544830322e-01 -2.007610052824020386e-01 -6.059656664729118347e-02 1.280577778816223145e-01 -5.804620385169982910e-01 -6.477167457342147827e-02 -6.379468832165002823e-04 3.003335930407047272e-02 -5.404528975486755371e-01 2.937180735170841217e-02 -6.455760449171066284e-02 5.054748058319091797e-02 4.115635752677917480e-01 3.232350945472717285e-01 4.547763764858245850e-01 3.369937539100646973e-01 4.454635456204414368e-02 1.431673206388950348e-02 -3.604400753974914551e-01 5.367263220250606537e-03 -4.678226411342620850e-01 -6.950500607490539551e-02 -8.576682955026626587e-02 -8.088182657957077026e-02 4.297926127910614014e-01 2.214912772178649902e-01 -1.398748606443405151e-01 -3.098995685577392578e-01 -3.951295316219329834e-01 4.707099199295043945e-01 2.018977105617523193e-01 1.429099291563034058e-01 -2.774851862341165543e-03 3.625837266445159912e-01 -1.642916537821292877e-02 -3.296465277671813965e-01 -1.217443197965621948e-01 2.671341001987457275e-01 -1.824800856411457062e-02 4.220520332455635071e-02 -4.011126235127449036e-02 -9.473913908004760742e-02 1.314546912908554077e-02 -7.850289344787597656e-02 3.637791797518730164e-02 2.902597561478614807e-02 -4.394902884960174561e-01 9.888049215078353882e-02 -1.349942684173583984e-01 -9.410237520933151245e-02 2.628804743289947510e-01 -4.041295647621154785e-01 -1.224249601364135742e-01 -1.264303773641586304e-01 -1.217088848352432251e-01 -1.895908713340759277e-01 3.627241402864456177e-02 4.091154932975769043e-01 -2.250003665685653687e-01 -7.579916715621948242e-02 3.500949963927268982e-02 -5.235720053315162659e-02 -6.912622600793838501e-02 -1.148468703031539917e-01 2.677249349653720856e-02 -3.327596187591552734e-01 -4.667423963546752930e-01 3.919401466846466064e-01 -2.224646322429180145e-02 -9.915881603956222534e-02 -2.226924002170562744e-01 -2.079531401395797729e-01 5.821833852678537369e-03 -8.709849715232849121e-01 -4.483661055564880371e-02 6.453126072883605957e-01 -1.108548864722251892e-01 -7.525410503149032593e-02 5.409344434738159180e-01 6.376583576202392578e-01 -1.373286098241806030e-01 7.559174671769142151e-03 -8.750763535499572754e-02 2.028061151504516602e-01 2.711395174264907837e-02 -1.321001946926116943e-01 1.132547482848167419e-02 1.145665526390075684e+00 7.387902140617370605e-01 4.152635633945465088e-01 2.052654027938842773e-01 -1.041241437196731567e-01 -1.716732792556285858e-02 -3.706332743167877197e-01 4.204068779945373535e-01 1.174767464399337769e-01 -8.455465734004974365e-02 4.369445741176605225e-01 2.448691427707672119e-01 -9.513831883668899536e-02 -3.680898994207382202e-02 4.856027960777282715e-01 3.576779067516326904e-01 -1.107852254062891006e-02 3.528470396995544434e-01 -1.169427111744880676e-01 -9.922533482313156128e-02 -1.797518320381641388e-02 -4.934934154152870178e-02 2.195023298263549805e-01 2.150064557790756226e-01 -2.659228816628456116e-02
-1.007438898086547852e-01 -2.513264715671539307e-01 3.417413830757141113e-01 -1.339758373796939850e-02 -2.480190843343734741e-01 -6.075670570135116577e-02 -1.081456523388624191e-02 -2.411728799343109131e-01 7.616639486514031887e-04 1.009855046868324280e-01 -7.801568508148193359e-02 -2.738032722845673561e-03 -2.289466112852096558e-01 -7.029019761830568314e-03 1.180170103907585144e-02 -1.633653342723846436e-01 4.847400784492492676e-01 -5.453660488128662109e-01 -1.297624781727790833e-02 -1.860425472259521484e-01 3.719596564769744873e-01 -7.895823568105697632e-02 1.103061623871326447e-02 -5.017638206481933594e-02 -6.583865266293287277e-03 9.070954918861389160e-01 -6.384062767028808594e-02 -1.018618717789649963e-01 3.005555085837841034e-02 -3.117853701114654541e-01 4.106746986508369446e-02 -2.367843538522720337e-01 2.752516046166419983e-02 -1.537880152463912964e-01 -1.491949856281280518e-01 2.496658563613891602e-01 -1.061351001262664795e-01 -8.359336107969284058e-02 5.168897509574890137e-01 -1.038261651992797852e-01 -9.948918223381042480e-02 -1.346847414970397949e-02 -4.872560873627662659e-02 -1.313144564628601074e-01 -4.222114384174346924e-01 3.348753452301025391e-01 1.779311918653547764e-03 -8.016829192638397217e-02 3.847007155418395996e-01 8.978858590126037598e-03 -1.183630228042602539e-01 -6.467568129301071167e-02 -1.908784210681915283e-01 -1.184715867042541504e+00 -1.751539707183837891e-01 4.030620157718658447e-01 -1.346588581800460815e-01 1.738091558218002319e-02 -1.144480183720588684e-01 9.061396121978759766e-03 -3.287316858768463135e-01 1.139502823352813721e-01 -5.482772737741470337e-02 2.187571227550506592e-01 -1.664640568196773529e-02 -2.363532483577728271e-01 -3.874209895730018616e-02 7.892565429210662842e-02 -7.300242781639099121e-03 3.631992936134338379e-01 -5.426018312573432922e-02 -6.928652524948120117e-02 -2.930648922920227051e-01 -1.275746226310729980e+00 -2.395427376031875610e-01 -2.225437313318252563e-01 2.824505865573883057e-01 2.031139880418777466e-01 -4.024544730782508850e-03 -3.076496422290802002e-01 -9.311706759035587311e-03 -1.128950938582420349e-01 -1.009960770606994629e-01 -1.253108680248260498e-01 5.637787580490112305e-01 3.409904837608337402e-01 -2.330233752727508545e-01 -2.126014232635498047e-01 -7.365328818559646606e-02 -3.289019465446472168e-01 1.259503886103630066e-02 7.004807703197002411e-03 8.914272300899028778e-03 -2.049211263656616211e-01 3.032072074711322784e-02 -1.700613833963871002e-02 -1.376078277826309204e-01 -2.275320887565612793e-01 7.028614878654479980e-01 6.452825069427490234e-01 2.462250180542469025e-02 -3.799962401390075684e-01 6.881343126296997070e-01 5.642064213752746582e-01 -3.332329541444778442e-02 -2.805945987347513437e-04 1.470702141523361206e-01 2.799543142318725586e-01 -1.010893434286117554e-01 -7.127451151609420776e-02 -2.586779557168483734e-02 -2.022145539522171021e-01 -9.654358029365539551e-03 6.899428963661193848e-01 -1.235117018222808838e-01 3.493704497814178467e-01 -3.406329825520515442e-02 1.308025140315294266e-02 -3.168397545814514160e-01 -9.478540718555450439e-02 5.069824457168579102e-01 -3.370518609881401062e-02 3.664540126919746399e-02 3.103955388069152832e-01 6.771609783172607422e-01 -7.736086845397949219e-02 -3.967872634530067444e-02 -1.979914456605911255e-01 -1.131859645247459412e-01 -2.555005848407745361e-01 3.703946173191070557e-01 -9.677698463201522827e-02 6.710054278373718262e-01 3.745052590966224670e-02 -1.665666848421096802e-01 -9.088354557752609253e-02 -1.230814978480339050e-01 -4.411566630005836487e-02 5.243558287620544434e-01 -7.650674134492874146e-02 -1.283212751150131226e-02 6.117116808891296387e-01 -8.394414186477661133e-02 -4.449565336108207703e-02 -1.066913485527038574e+00 -1.644059717655181885e-01 -2.235909700393676758e-01 3.231445589335635304e-05 5.737699270248413086e-01 6.311414241790771484e-01 1.046289224177598953e-02 2.919195294380187988e-01 9.241845458745956421e-03 -3.996285423636436462e-02 3.393198177218437195e-02 3.922950010746717453e-03 3.546939194202423096e-01 8.027834892272949219e-01 -2.941336333751678467e-01 1.008583456277847290e-01 5.549781322479248047e-01 3.662640452384948730e-01 6.363703012466430664e-01 3.783984482288360596e-02 3.204825893044471741e-02 -3.016028925776481628e-02 4.145119190216064453e-01 -3.083528578281402588e-01 -2.738750725984573364e-02 3.297278285026550293e-01 2.781345322728157043e-02 -8.375934511423110962e-02 -3.073431551456451416e-03 -8.837878704071044922e-02 8.269675374031066895e-01 -3.055592775344848633e-01 2.001025080680847168e-01 6.586806774139404297e-01 3.232490122318267822e-01 -3.397656977176666260e-01 -1.861038655042648315e-01 -2.448181807994842529e-01 -9.874290972948074341e-02 1.279494445770978928e-02 -1.512441877275705338e-02 -8.229682445526123047e-01 -3.131129741668701172e-01 1.141457632184028625e-02 3.860971033573150635e-01 -9.384907782077789307e-02 -2.572880685329437256e-01 -9.444913268089294434e-02 -7.496447116136550903e-02 1.110935583710670471e-02 -1.048965930938720703e+00 1.565238088369369507e-01 3.124397620558738708e-02 2.344110794365406036e-02 -4.398418068885803223e-01 -2.085276879370212555e-02 4.391321241855621338e-01 -7.992570102214813232e-02 8.291894197463989258e-02 -3.161129355430603027e-02 3.275489807128906250e-02 -1.076964959502220154e-01 -8.226302452385425568e-03 4.652232304215431213e-02 4.500096142292022705e-01 -1.867944747209548950e-01 4.035899341106414795e-01 -1.574472337961196899e-01 -9.896024316549301147e-02 -6.781338453292846680e-01 5.066941380500793457e-01 2.535177767276763916e-01 7.656998932361602783e-03 -8.536862581968307495e-02 4.496530070900917053e-02 -9.012836217880249023e-02 -6.895451545715332031e-01 -1.951180212199687958e-02 -2.944872528314590454e-02 -1.317394375801086426e-01 -2.216507345438003540e-01 3.656048178672790527e-01 4.631571099162101746e-02 4.508698880672454834e-01 -2.276872098445892334e-01 6.043576598167419434e-01 -2.060269378125667572e-02 -1.296001970767974854e-01 3.473795950412750244e-02 -1.259795874357223511e-01 -1.505044102668762207e-01 4.413511196617037058e-04 -1.327709317207336426e+00 6.016956567764282227e-01 -3.748510032892227173e-02 -1.691095679998397827e-01 3.865727186203002930e-01 -6.934579461812973022e-02 -1.059394851326942444e-01 -3.864873945713043213e-02 5.272403359413146973e-01 -2.626422047615051270e-01 1.423038542270660400e-01 -2.160498127341270447e-02 -8.866049647331237793e-01 -1.745168417692184448e-01 6.019530296325683594e-01 -1.500055789947509766e-01 2.062693089246749878e-01 4.952806234359741211e-01 -2.597336843609809875e-02 -1.060042157769203186e-01 3.227449357509613037e-01 -1.356635242700576782e-01 -6.291966140270233154e-02 -2.695696353912353516e-01 -5.495022982358932495e-02 1.714797876775264740e-02 -1.978484243154525757e-01 -1.238685995340347290e-01 9.624809026718139648e-03 -9.424357116222381592e-02 2.278392668813467026e-03 5.728121399879455566e-01 -2.273267656564712524e-01 -3.652986139059066772e-02 3.323670327663421631e-01 3.963604941964149475e-02 -2.116308081895112991e-03 3.793591260910034180e-01 -3.393163383007049561e-01 -1.806311160326004028e-01 -3.428139165043830872e-02 -2.018563300371170044e-01 -4.060733318328857422e-02 6.013583540916442871e-01 -1.614599078893661499e-01 -4.896813631057739258e-01 -9.747650474309921265e-02 1.553793400526046753e-01 -1.198161486536264420e-02 -3.288166597485542297e-02 -2.296958118677139282e-01 -4.261395633220672607e-01 -2.312120050191879272e-01 4.797001481056213379e-01 -6.196436658501625061e-02 3.471845686435699463e-01 4.937472343444824219e-01 3.544595837593078613e-02 1.129272021353244781e-02 3.553074225783348083e-02 6.080760955810546875e-01 2.758432179689407349e-02 -9.752079844474792480e-02 2.341493777930736542e-02 2.949005663394927979e-01 -1.897264122962951660e-01 -2.038692310452461243e-02 7.208370417356491089e-02 2.305705286562442780e-02 4.502197727560997009e-03 3.954178094863891602e-01 -1.438293978571891785e-02 3.543473780155181885e-01 -9.234619326889514923e-03 -7.227309793233871460e-02 -6.172844022512435913e-02 -8.889177441596984863e-02 4.701818898320198059e-02 -1.251602470874786377e-01 5.654153823852539062e-01 3.851369023323059082e-01 -1.825749129056930542e-01 -2.070051878690719604e-01 3.496437668800354004e-01 -4.679281264543533325e-02 -3.120630979537963867e-01 3.871771693229675293e-02 4.301538467407226562e-01 -1.201824769377708435e-01 -1.354378461837768555e-01 2.894834615290164948e-02 4.440344125032424927e-02 -1.355978250503540039e-01 -7.912285625934600830e-02 -3.664022311568260193e-03 -1.778427362442016602e-01 6.510360836982727051e-01 2.484721317887306213e-02 5.199122428894042969e-01 -2.378444001078605652e-02 -6.459392607212066650e-02 -1.051691323518753052e-01 6.052569746971130371e-01 5.298134088516235352e-01 -1.046613305807113647e-01 -1.073927581310272217e-01 -6.254161894321441650e-02 1.033638641238212585e-01 -9.173598140478134155e-02 2.162888795137405396e-01 4.517424106597900391e-01 -1.098997294902801514e-01 2.646435983479022980e-02 -2.723763324320316315e-02 -5.617261305451393127e-02 -1.184710413217544556e-01 -3.451614826917648315e-02 3.507969677448272705e-01 -1.792717874050140381e-01 -2.964414060115814209e-01 -2.264666743576526642e-02 -9.776686131954193115e-02 -5.890961885452270508e-01 6.348768472671508789e-01 -7.029423117637634277e-02 5.051009058952331543e-01 -9.935100376605987549e-02 -7.306178212165832520e-01 -6.468338519334793091e-02 -1.014676019549369812e-01 -1.503169685602188110e-01 -1.179053425788879395e+00 -1.423712819814682007e-01 2.771792002022266388e-02 -9.126111865043640137e-02 -2.164646834135055542e-01 -3.907242417335510254e-02 -1.228296607732772827e-01 -1.037102788686752319e-01 -1.010596275329589844e+00 -7.822410464286804199e-01 -1.477269679307937622e-01 -1.265007495880126953e+00 -1.097738444805145264e-01 2.398103661835193634e-02 -3.371083736419677734e-01 1.624251343309879303e-02 4.147111773490905762e-01 -1.007838100194931030e-01 -1.581923104822635651e-02 -1.631359755992889404e-01 -8.431977778673171997e-02 6.735770702362060547e-01 -2.484329976141452789e-02 -1.376954913139343262e+00 -5.047783721238374710e-03 -2.613569498062133789e-01 -1.675558686256408691e-01 -5.143572762608528137e-02 -1.959828846156597137e-02 -3.143685683608055115e-02 -2.590979635715484619e-01 -1.229161739349365234e+00 -1.053844615817070007e-01
