-6.921627558767795563e-03 -4.570819437503814697e-02 4.642465338110923767e-02 -1.134667992591857910e-01 -7.288964092731475830e-02 -1.097710952162742615e-01 -5.077318474650382996e-02 1.139459237456321716e-01 1.492994837462902069e-02 1.646008491516113281e-01 -5.580414086580276489e-02 -1.901382207870483398e-02 -8.597254008054733276e-02 -3.501743376255035400e-01 2.880474925041198730e-02 -1.889792978763580322e-01 1.893244832754135132e-01 -3.816285431385040283e-01 1.561523880809545517e-02 4.773720726370811462e-02 2.192532569169998169e-01 -2.258889377117156982e-02 -1.903284341096878052e-01 -4.320118576288223267e-02 3.087457269430160522e-02 1.029631271958351135e-01 1.316318055614829063e-03 1.566591300070285797e-02 5.597285926342010498e-02 -6.477807462215423584e-02 2.909025922417640686e-02 1.315077114850282669e-02 -3.812632348854094744e-04 2.128446940332651138e-03 -3.852480649948120117e-02 5.223263055086135864e-02 -1.490576099604368210e-02 3.766793012619018555e-02 2.462919205427169800e-01 1.598592288792133331e-02 2.526806900277733803e-03 -3.651614487171173096e-02 7.742726709693670273e-03 8.754312247037887573e-02 -5.356177687644958496e-02 -6.259726360440254211e-03 -1.913744956254959106e-02 1.322562396526336670e-01 3.828742355108261108e-02 9.941174648702144623e-03 -8.032009750604629517e-02 -5.034185573458671570e-02 2.945850603282451630e-02 -2.771403491497039795e-01 -1.647717505693435669e-02 8.084212988615036011e-02 1.507023721933364868e-01 -2.540758810937404633e-02 1.350720506161451340e-02 -1.681929081678390503e-01 -3.974053263664245605e-02 8.969090878963470459e-02 1.174362301826477051e-01 6.060590595006942749e-02 1.180580109357833862e-01 -4.813227802515029907e-02 4.215614870190620422e-02 7.624423503875732422e-02 -4.899007454514503479e-02 1.118504032492637634e-01 -2.069316990673542023e-02 -2.995430119335651398e-02 -2.966246753931045532e-02 -2.398711740970611572e-01 -9.281992167234420776e-02 8.813692629337310791e-02 6.697104126214981079e-02 -1.427971292287111282e-02 -6.884060800075531006e-02 -1.246068105101585388e-01 5.118003115057945251e-02 8.786347694694995880e-03 4.405225813388824463e-02 -6.743723899126052856e-02 1.485119163990020752e-01 6.538511812686920166e-02 -3.803563490509986877e-02 -5.522779747843742371e-02 1.285473629832267761e-02 -4.264362156391143799e-02 -1.297303587198257446e-01 -1.366489939391613007e-02 1.572841033339500427e-02 4.646210744976997375e-02 -3.263878449797630310e-02 1.708337292075157166e-02 4.507538396865129471e-03 1.183878816664218903e-02 5.633933842182159424e-02 8.638381212949752808e-02 2.828864566981792450e-02 -1.155664846301078796e-01 2.164726108312606812e-01 1.296603679656982422e-01 -1.301205605268478394e-01 2.538279257714748383e-02 1.927736848592758179e-01 -8.665953576564788818e-02 -1.032912917435169220e-02 -3.938528522849082947e-02 -6.549350917339324951e-02 -2.849330566823482513e-02 -1.637130230665206909e-01 1.108052060008049011e-01 -1.284983195364475250e-02 2.859013527631759644e-02 -2.837515249848365784e-02 7.200485467910766602e-02 -1.780402474105358124e-02 5.405561532825231552e-03 1.796301156282424927e-01 -3.369726007804274559e-03 3.617765905801206827e-04 2.700685150921344757e-02 1.054055839776992798e-01 -4.269804060459136963e-02 2.036399208009243011e-03 -5.992511659860610962e-02 -2.649213187396526337e-02 -8.610887825489044189e-02 5.594793707132339478e-02 -9.228410571813583374e-02 1.228054538369178772e-01 -5.741051957011222839e-02 1.334791351109743118e-02 4.287179931998252869e-02 -2.464680187404155731e-02 -1.058139652013778687e-02 1.326216161251068115e-01 -1.032306347042322159e-03 3.049847111105918884e-02 1.525577455759048462e-01 -2.175107784569263458e-02 1.771440804004669189e-01 -2.339514940977096558e-01 -8.102746307849884033e-02 2.047605579718947411e-03 5.869685113430023193e-02 7.495619356632232666e-02 1.498837023973464966e-01 -3.599341213703155518e-02 1.577641256153583527e-02 -1.049081981182098389e-01 4.943704605102539062e-02 -4.281944036483764648e-02 4.939174652099609375e-02 1.132334396243095398e-01 1.555693745613098145e-01 -3.129721432924270630e-02 1.157858222723007202e-01 1.110320165753364563e-01 7.195174694061279297e-02 2.202139943838119507e-01 -4.865941777825355530e-02 -2.648182585835456848e-02 9.151861071586608887e-02 3.205448761582374573e-02 2.044369932264089584e-03 -2.703370898962020874e-02 1.068384498357772827e-01 6.671117246150970459e-02 7.680366281419992447e-03 2.321263775229454041e-02 -7.929731160402297974e-02 1.054514944553375244e-01 -3.642465919256210327e-02 4.882396757602691650e-02 1.143080070614814758e-01 1.191596612334251404e-01 -1.080051437020301819e-01 -4.625265672802925110e-02 -6.155753508210182190e-02 -1.227159611880779266e-02 -1.748893782496452332e-02 -6.134391948580741882e-02 -1.187921389937400818e-01 6.038051564246416092e-03 7.314393669366836548e-02 -1.372255617752671242e-03 1.155685354024171829e-02 2.781273797154426575e-02 -7.007330423220992088e-04 -9.420327097177505493e-02 -3.988651558756828308e-02 -1.557079553604125977e-01 2.129978314042091370e-02 7.592324167490005493e-02 2.711933478713035583e-02 -7.804464548826217651e-02 4.067533090710639954e-02 1.037011481821537018e-02 -3.552316222339868546e-03 3.311300277709960938e-02 -1.009503677487373352e-01 7.059524767100811005e-03 1.877098716795444489e-02 -1.254684466402977705e-04 4.741226881742477417e-02 2.364199310541152954e-01 -3.562791971489787102e-03 7.910094410181045532e-02 6.044470518827438354e-02 -3.806171240285038948e-03 1.814633905887603760e-01 1.643768101930618286e-01 1.975974068045616150e-02 2.335489261895418167e-03 -1.004131138324737549e-02 5.057113617658615112e-02 7.478851824998855591e-02 -1.778187006711959839e-01 -9.487625211477279663e-03 -3.174265474081039429e-02 2.857951074838638306e-02 -6.749942898750305176e-03 9.209612011909484863e-02 -7.045594975352287292e-03 5.748134851455688477e-02 -1.675896160304546356e-02 8.336795866489410400e-02 1.400425285100936890e-01 9.163120388984680176e-02 -3.137243911623954773e-02 6.605259329080581665e-02 -2.673946879804134369e-02 -3.322676941752433777e-02 -1.889790594577789307e-01 6.989897042512893677e-02 -6.425443291664123535e-02 -7.662929594516754150e-02 2.573109045624732971e-02 -4.529418796300888062e-02 4.596695303916931152e-02 -1.081722602248191833e-01 1.325157731771469116e-01 -2.550852112472057343e-02 -2.352241240441799164e-02 -6.225847173482179642e-03 -1.215423345565795898e-01 6.951099634170532227e-02 8.619087189435958862e-02 -2.129286155104637146e-02 2.704145619645714760e-03 9.419100731611251831e-02 -3.966170828789472580e-03 -1.930002309381961823e-02 3.151559829711914062e-02 2.639848738908767700e-02 3.398780897259712219e-02 -6.616719812154769897e-02 -2.547750715166330338e-03 1.065922807902097702e-02 -3.578979754820466042e-03 -3.867103159427642822e-02 -1.251551210880279541e-01 2.888805419206619263e-02 -1.295344438403844833e-02 7.861613482236862183e-02 -1.214465592056512833e-02 -1.150627732276916504e-01 -1.239742711186408997e-02 -5.446698889136314392e-02 -1.179959345608949661e-02 6.456276401877403259e-03 -6.900406628847122192e-02 -4.053361713886260986e-02 1.966310292482376099e-02 1.211722148582339287e-03 -3.554333373904228210e-02 1.308032870292663574e-01 -1.552064344286918640e-02 -3.647076785564422607e-01 -4.648340865969657898e-02 2.523199915885925293e-01 -5.669060721993446350e-02 3.039749339222908020e-02 2.903833054006099701e-02 -6.601158529520034790e-02 -5.157283972948789597e-03 2.372029796242713928e-02 -1.450232230126857758e-02 -9.375126659870147705e-02 1.147884726524353027e-01 3.344533964991569519e-02 -2.841128408908843994e-02 -2.876934409141540527e-01 7.713809609413146973e-02 -5.714654922485351562e-03 -8.975457400083541870e-03 2.597317397594451904e-01 1.160609498620033264e-01 -2.787549793720245361e-02 -5.458194389939308167e-02 -3.064754046499729156e-02 -9.624926745891571045e-02 1.820635609328746796e-02 5.456512048840522766e-02 1.020490303635597229e-01 3.490813774988055229e-03 -1.597609221935272217e-01 6.983102113008499146e-02 5.369202420115470886e-02 -2.192318066954612732e-02 4.893073439598083496e-02 -4.073343053460121155e-02 1.111292168498039246e-01 7.405646145343780518e-02 -3.297675028443336487e-02 -3.763743489980697632e-02 1.729515045881271362e-01 -5.234789848327636719e-02 -3.296487033367156982e-02 2.476331405341625214e-02 1.001958623528480530e-01 3.834828734397888184e-02 3.787698596715927124e-02 -1.363713443279266357e-01 1.683188416063785553e-02 -4.296495765447616577e-02 -2.680589631199836731e-02 -2.158101275563240051e-02 5.811996292322874069e-03 6.727842241525650024e-02 2.557714879512786865e-01 1.679039746522903442e-01 1.329227816313505173e-03 -5.678297951817512512e-02 -3.151552751660346985e-02 6.961451470851898193e-02 6.531909108161926270e-02 -2.018518745899200439e-02 -1.079034898430109024e-02 -2.356792800128459930e-02 -1.893583498895168304e-02 -8.241228014230728149e-02 4.992670938372612000e-02 2.949567511677742004e-02 5.099650844931602478e-02 -1.517658978700637817e-01 -6.615924090147018433e-02 1.698572002351284027e-02 -4.838576167821884155e-02 2.443924993276596069e-01 -8.349389769136905670e-03 9.413997828960418701e-02 -5.293842032551765442e-02 3.082418069243431091e-02 -9.807950258255004883e-02 -1.037883087992668152e-01 -5.007312633097171783e-03 -1.210537254810333252e-01 6.543381512165069580e-02 1.699354499578475952e-03 -2.046946883201599121e-01 4.129611328244209290e-02 2.469719760119915009e-02 -8.136703819036483765e-02 -2.216023057699203491e-01 -8.954514749348163605e-03 -3.404684364795684814e-02 -4.264678061008453369e-02 -5.474457517266273499e-02 -6.498100608587265015e-02 -1.731203123927116394e-02 -1.147157549858093262e-01 -1.029516160488128662e-01 -1.012597084045410156e-01 -1.852885074913501740e-02 -2.923546433448791504e-01 1.131313443183898926e-01 -4.889266565442085266e-03 -6.420164555311203003e-02 -3.558732941746711731e-02 1.062819808721542358e-01 -8.642907254397869110e-03 -5.323273688554763794e-02 -2.282516472041606903e-02 1.106633618474006653e-02 1.718077659606933594e-01 1.082042977213859558e-01 -2.687664628028869629e-01 4.778657108545303345e-02 -9.338189847767353058e-03 -3.116974607110023499e-02 6.810980848968029022e-03 -2.229606732726097107e-02 -9.874057024717330933e-02 -3.501996025443077087e-02 -1.910348981618881226e-01 1.469223387539386749e-02
6.265420913696289062e-01 3.959488868713378906e-02 -7.045484334230422974e-02 1.085492521524429321e-01 -5.224071443080902100e-02 3.995606303215026855e-01 -3.411668539047241211e-02 1.122202724218368530e-01 2.217676304280757904e-02 -1.484986245632171631e-01 -2.618175186216831207e-02 -3.320846008136868477e-03 -5.745355039834976196e-03 -3.678896725177764893e-01 8.224662393331527710e-03 5.397560000419616699e-01 9.976793825626373291e-02 2.986166179180145264e-01 8.859682828187942505e-02 -1.199836805462837219e-01 1.275090575218200684e-01 -9.727991186082363129e-03 9.049175977706909180e-01 1.974561251699924469e-02 4.572439007461071014e-03 -3.529812097549438477e-01 1.287057697772979736e-01 1.559598278254270554e-02 -4.802841693162918091e-02 1.015750020742416382e-01 1.014373544603586197e-02 -4.867065325379371643e-02 -1.928402669727802277e-02 3.225510939955711365e-02 2.862457372248172760e-02 -8.507411181926727295e-02 -6.106988526880741119e-03 4.604998603463172913e-02 3.006976246833801270e-01 3.627125173807144165e-02 1.278131008148193359e-01 4.961450397968292236e-02 -1.754340529441833496e-02 -1.132998540997505188e-01 1.596606373786926270e-01 -1.182349696755409241e-01 -1.374718695878982544e-01 2.189011275768280029e-01 -1.477632969617843628e-01 -5.573236383497714996e-03 5.088537186384201050e-02 -5.529033020138740540e-02 -3.590516746044158936e-02 -4.816674627363681793e-03 1.990425586700439453e-01 -1.238437369465827942e-01 2.692418098449707031e-01 8.484487235546112061e-02 -6.705816835165023804e-02 9.763487428426742554e-02 6.085085868835449219e-02 -3.059578239917755127e-01 3.502915501594543457e-01 -6.156667694449424744e-02 -1.864915937185287476e-01 1.974883722141385078e-03 -1.016473844647407532e-01 -8.754216134548187256e-02 -4.334517940878868103e-02 -6.657876819372177124e-02 2.804638259112834930e-02 -3.337687626481056213e-02 1.077910810708999634e-01 2.628335058689117432e-01 6.385935842990875244e-02 2.227843850851058960e-01 -4.071336984634399414e-02 -7.273647934198379517e-02 1.329053640365600586e-01 9.974612295627593994e-02 8.269479870796203613e-02 -2.321543544530868530e-01 8.729811012744903564e-02 2.658588625490665436e-02 -1.774665713310241699e-02 7.567428052425384521e-03 2.015824913978576660e-01 1.605971157550811768e-01 5.230672284960746765e-02 6.927612423896789551e-02 1.043025180697441101e-01 4.483330994844436646e-02 4.408395662903785706e-02 -4.394177719950675964e-02 4.629401490092277527e-02 8.018459379673004150e-02 1.688435859978199005e-02 1.206201463937759399e-01 -2.009884566068649292e-01 -8.768121898174285889e-02 5.040482617914676666e-03 1.795134693384170532e-01 1.707481294870376587e-01 1.279623340815305710e-02 -3.117447495460510254e-01 4.535574465990066528e-02 6.326489150524139404e-02 1.212876811623573303e-01 4.947413876652717590e-02 -2.131763286888599396e-02 -2.706615626811981201e-02 1.698758080601692200e-02 2.934638038277626038e-02 -1.538807451725006104e-01 8.639238774776458740e-02 -1.518646627664566040e-01 2.504516243934631348e-01 -5.229134857654571533e-02 5.771651864051818848e-02 -4.010680317878723145e-02 -3.329476118087768555e-01 -5.931072682142257690e-02 9.999361634254455566e-02 -6.776402145624160767e-02 -2.837966382503509521e-01 -2.096776477992534637e-02 -1.897068135440349579e-02 1.810406893491744995e-01 3.388221561908721924e-02 -1.137008331716060638e-02 5.028754100203514099e-02 -1.087560877203941345e-01 -4.521064087748527527e-02 1.689335145056247711e-02 3.898365050554275513e-02 6.658279150724411011e-02 4.602606873959302902e-03 -1.038712933659553528e-01 2.289611473679542542e-02 -3.777185047511011362e-04 5.869501270353794098e-03 -2.233445495367050171e-01 8.063120767474174500e-03 8.770474791526794434e-02 2.295802831649780273e-01 1.085486635565757751e-01 6.157045066356658936e-02 -4.495992884039878845e-02 -4.038568586111068726e-02 -5.502998456358909607e-02 -1.303050480782985687e-02 -6.137607619166374207e-02 5.314252525568008423e-02 -1.428595650941133499e-02 -5.510895326733589172e-02 -7.521855831146240234e-02 -1.096760183572769165e-01 6.839109212160110474e-02 -2.021751925349235535e-02 -3.394660353660583496e-01 -1.766347289085388184e-01 -4.142159596085548401e-02 -4.570787250995635986e-01 -2.291546901687979698e-03 -3.112124465405941010e-02 -3.036012500524520874e-02 -3.766189888119697571e-02 -2.656429633498191833e-02 6.356114149093627930e-02 -8.058593422174453735e-02 -6.538591533899307251e-02 2.417157292366027832e-01 5.438808351755142212e-02 2.009519636631011963e-01 -2.017635703086853027e-01 2.746397070586681366e-02 -5.275646969676017761e-02 -9.313546866178512573e-02 -4.578344151377677917e-02 2.802128195762634277e-01 3.070445358753204346e-02 1.283226758241653442e-01 -1.313676685094833374e-02 5.283150076866149902e-01 -2.169881910085678101e-01 9.148143976926803589e-02 6.863831728696823120e-02 2.597871236503124237e-02 -1.684882491827011108e-02 3.779006004333496094e-02 8.435356616973876953e-02 1.983623504638671875e-01 -3.257782012224197388e-02 -3.960563614964485168e-02 2.795891761779785156e-01 -5.890535935759544373e-02 1.322245001792907715e-01 -2.887715585529804230e-02 2.419011741876602173e-01 -9.719973430037498474e-03 -9.951422363519668579e-02 -9.141433984041213989e-03 1.082974746823310852e-01 -1.307082623243331909e-01 -9.873191267251968384e-02 9.085760451853275299e-03 -5.369134992361068726e-02 -1.068656668066978455e-01 1.784449666738510132e-01 -9.450864046812057495e-02 -8.810324966907501221e-02 -3.903556987643241882e-02 -9.660504758358001709e-03 -2.906053662300109863e-01 5.562935397028923035e-02 -2.802716009318828583e-02 -3.947658538818359375e-01 2.886736206710338593e-02 3.312548696994781494e-01 -2.845021151006221771e-02 8.588004112243652344e-02 -3.462531790137290955e-02 -4.054641723632812500e-02 4.218518361449241638e-02 7.300392538309097290e-02 1.548332907259464264e-02 5.768036469817161560e-02 -1.171604618430137634e-01 1.037254035472869873e-01 -2.044972628355026245e-01 -1.342354863882064819e-01 4.887296631932258606e-02 -1.668327860534191132e-02 -5.913377553224563599e-02 -4.576270282268524170e-02 -3.756763786077499390e-02 1.432279646396636963e-01 1.082306504249572754e-01 1.301752328872680664e-01 7.118476182222366333e-02 -5.334359034895896912e-02 -4.301984608173370361e-02 8.357161283493041992e-02 2.261785715818405151e-01 -5.677969753742218018e-02 -2.418743260204792023e-02 2.101047486066818237e-01 1.074072159826755524e-02 1.767807900905609131e-01 2.392785847187042236e-01 -5.996174365282058716e-02 1.097132638096809387e-01 -8.012717217206954956e-02 -1.413218230009078979e-01 2.460368536412715912e-02 5.183563008904457092e-02 -1.189507693052291870e-01 6.551997363567352295e-02 -1.150813698768615723e-01 3.365466371178627014e-02 7.537392526865005493e-02 -5.251700803637504578e-02 9.452518820762634277e-02 1.398323010653257370e-02 3.438671678304672241e-02 1.210767310112714767e-02 -1.719927489757537842e-01 -6.246989965438842773e-02 -9.303975850343704224e-02 7.805709242820739746e-01 -2.777669951319694519e-02 2.179562896490097046e-01 3.648485057055950165e-03 -9.890136122703552246e-02 -2.052923142910003662e-01 1.196587085723876953e-01 -1.064032409340143204e-02 6.176347658038139343e-02 5.608889739960432053e-03 -1.468371134251356125e-02 5.779722705483436584e-02 -1.443449109792709351e-01 -2.698795124888420105e-02 2.228035330772399902e-01 7.907889783382415771e-02 -7.200940512120723724e-03 -7.501295208930969238e-02 -1.452672295272350311e-02 4.603495076298713684e-02 -8.053112030029296875e-02 -4.394730180501937866e-02 -1.220128834247589111e-01 -3.338828384876251221e-01 -2.195256054401397705e-01 -2.288680970668792725e-01 7.817491143941879272e-02 -1.397490352392196655e-01 2.069007977843284607e-02 1.674307510256767273e-02 1.279821842908859253e-01 -4.851879179477691650e-02 8.409453183412551880e-02 1.038515642285346985e-01 -3.920264169573783875e-02 3.402018547058105469e-02 -2.681683562695980072e-02 -3.882623836398124695e-02 -1.457047760486602783e-01 -4.335946217179298401e-02 -3.288383409380912781e-02 -5.204964876174926758e-01 1.265760511159896851e-01 -7.908955216407775879e-03 2.432389706373214722e-01 -8.539795875549316406e-02 -1.063856407999992371e-01 -8.220520615577697754e-02 5.580236762762069702e-02 6.601046770811080933e-02 -1.278363764286041260e-01 4.810971766710281372e-02 1.658350676298141479e-01 -1.880422793328762054e-02 -5.850614234805107117e-02 2.267087064683437347e-02 -6.664684414863586426e-02 1.512109488248825073e-01 3.179438039660453796e-02 -1.854272559285163879e-02 5.736710876226425171e-02 -1.008766982704401016e-02 -2.348204329609870911e-02 -1.874019764363765717e-02 -5.993061512708663940e-02 -2.465212047100067139e-01 6.882783025503158569e-02 -2.095187315717339516e-03 -2.834396436810493469e-02 5.293697118759155273e-02 -1.271515637636184692e-01 -2.857241593301296234e-02 2.455511130392551422e-03 -4.596247896552085876e-02 3.024080581963062286e-02 4.560967534780502319e-02 4.033395051956176758e-01 3.150195628404617310e-02 -6.506462395191192627e-02 4.703042097389698029e-03 -3.372740447521209717e-01 -6.828772276639938354e-02 -3.214003145694732666e-02 1.291622370481491089e-01 -6.089230626821517944e-02 -1.586653888225555420e-01 9.106864780187606812e-02 2.018617466092109680e-02 -4.774186760187149048e-02 1.149583160877227783e-01 -5.372260138392448425e-02 4.360453784465789795e-02 -3.207550942897796631e-01 2.101657167077064514e-02 1.656502485275268555e-01 -3.728923946619033813e-02 -1.609335988759994507e-01 2.318462133407592773e-01 1.311620473861694336e-01 3.710891818627715111e-03 -4.435514286160469055e-02 -1.575588993728160858e-02 -1.855853945016860962e-02 6.768983323127031326e-03 9.986416250467300415e-02 1.093876957893371582e-01 2.827105820178985596e-01 2.787351906299591064e-01 1.941560357809066772e-01 1.131120044738054276e-02 7.956276834011077881e-02 7.428648322820663452e-02 -5.169335380196571350e-02 1.417670994997024536e-01 -3.280495479702949524e-02 -1.803243346512317657e-02 5.885646492242813110e-02 9.129215963184833527e-03 -3.188664093613624573e-02 -1.155450344085693359e-01 1.647800505161285400e-01 5.091958865523338318e-02 1.051528030075132847e-03 1.298196893185377121e-02 9.969329461455345154e-03 5.421477835625410080e-03 -2.637142501771450043e-02 -8.840611577033996582e-02 4.693384468555450439e-02 2.954831421375274658e-01 2.516313828527927399e-02
1.246594339609146118e-01 -6.116853654384613037e-02 1.385308057069778442e-01 -1.532408893108367920e-01 -1.122482120990753174e-01 -1.884238794445991516e-02 -6.822685152292251587e-02 1.115443855524063110e-01 4.943891614675521851e-02 4.122696220874786377e-01 -5.329367518424987793e-02 -2.561314962804317474e-03 -1.454560905694961548e-01 -5.013533234596252441e-01 3.263700380921363831e-02 -2.477220296859741211e-01 3.685985505580902100e-01 -5.879593491554260254e-01 4.974441230297088623e-02 1.216694992035627365e-02 3.026847243309020996e-01 -6.542176753282546997e-02 -2.977253496646881104e-01 -1.883538998663425446e-02 2.226907201111316681e-02 2.352046966552734375e-01 4.334434121847152710e-02 2.114986814558506012e-02 6.268879026174545288e-02 -1.258509904146194458e-01 2.936680987477302551e-02 5.731908977031707764e-02 6.356085091829299927e-02 -7.932532578706741333e-02 -4.637816175818443298e-02 6.878376007080078125e-02 -7.281679660081863403e-02 -1.089133229106664658e-02 4.086444973945617676e-01 -5.274298135191202164e-03 5.633480846881866455e-02 -3.294885531067848206e-02 -2.751265279948711395e-02 -4.696658998727798462e-02 -1.064764782786369324e-01 4.234137386083602905e-02 -1.812834292650222778e-02 1.519754230976104736e-01 1.135526895523071289e-01 -5.031493678689002991e-02 -1.076372712850570679e-01 -2.659392356872558594e-02 5.578104406595230103e-02 -4.911571741104125977e-01 -6.174059212207794189e-02 1.420117616653442383e-01 1.562189161777496338e-01 -4.336605966091156006e-02 4.953557997941970825e-02 -2.321724295616149902e-01 -1.112109646201133728e-01 1.650213897228240967e-01 7.751343399286270142e-02 7.923259586095809937e-02 -2.584898769855499268e-01 -6.305419653654098511e-02 1.004468128085136414e-01 9.791311621665954590e-02 -9.233133867383003235e-03 1.460957825183868408e-01 -4.670621454715728760e-02 -8.112873136997222900e-02 -5.878025665879249573e-02 -4.734932184219360352e-01 -2.012523561716079712e-01 1.504021733999252319e-01 9.847996383905410767e-02 -3.365929797291755676e-02 -5.176457017660140991e-02 -1.169754192233085632e-01 1.225802227854728699e-01 -1.230012439191341400e-02 1.271054986864328384e-02 -7.071185111999511719e-02 2.808921635150909424e-01 1.400417238473892212e-01 -4.643226414918899536e-02 -8.468580245971679688e-02 -3.084076009690761566e-02 -5.617607012391090393e-02 -2.079826593399047852e-01 4.927997943013906479e-03 -5.117422342300415039e-02 3.978405892848968506e-02 4.533317312598228455e-02 -1.000422425568103790e-02 -5.832003429532051086e-02 -1.421435922384262085e-02 1.016198694705963135e-01 2.029715031385421753e-01 -1.160587370395660400e-02 -2.149605005979537964e-01 2.481539696455001831e-01 2.419886589050292969e-01 -3.113719224929809570e-01 3.491180017590522766e-02 4.602582454681396484e-01 -1.161001026630401611e-01 -5.052364990115165710e-02 -8.510751277208328247e-02 -1.142087504267692566e-01 -3.844777494668960571e-02 -2.462369203567504883e-01 2.122013717889785767e-01 1.208206289447844028e-03 3.331903740763664246e-02 -4.762288182973861694e-02 1.460002660751342773e-01 -4.209396243095397949e-02 -5.100028216838836670e-02 3.787656128406524658e-01 6.444640923291444778e-03 -3.243200853466987610e-02 8.383827656507492065e-02 2.204076051712036133e-01 -6.717149168252944946e-02 4.477880895137786865e-02 -1.529552191495895386e-01 5.014629568904638290e-03 -1.467404216527938843e-01 1.194985061883926392e-01 -1.075951531529426575e-01 2.165227979421615601e-01 -1.335612535476684570e-01 -6.770379841327667236e-02 -1.715336740016937256e-02 -4.581981338560581207e-03 -1.994851045310497284e-02 2.550776600837707520e-01 -4.178372211754322052e-03 1.625026762485504150e-02 2.678299248218536377e-01 -3.687848150730133057e-02 3.635460138320922852e-01 -4.732884764671325684e-01 -1.103374361991882324e-01 -1.651757210493087769e-02 6.970935314893722534e-02 1.785850971937179565e-01 2.571116983890533447e-01 -2.333310618996620178e-02 1.712349243462085724e-02 -2.149860560894012451e-01 5.221969261765480042e-02 -2.781439013779163361e-02 1.386242806911468506e-01 1.997819542884826660e-01 3.161533474922180176e-01 -7.642053067684173584e-02 1.784686297178268433e-01 2.121999412775039673e-01 1.519422084093093872e-01 3.312427103519439697e-01 -4.260933399200439453e-02 7.775380276143550873e-03 8.599997311830520630e-02 5.374332517385482788e-02 2.887168899178504944e-02 -6.421382725238800049e-02 1.273384988307952881e-01 1.681112796068191528e-01 3.747630119323730469e-02 4.300097003579139709e-02 -8.972289040684700012e-03 2.163537144660949707e-01 -8.764868229627609253e-02 1.271146535873413086e-01 2.208899855613708496e-01 1.552741676568984985e-01 -1.724537163972854614e-01 -1.185766980051994324e-01 -7.857710123062133789e-02 -3.806614130735397339e-02 1.026032119989395142e-02 -1.239960491657257080e-01 -2.445218563079833984e-01 -7.312347739934921265e-02 1.340174376964569092e-01 5.583658441901206970e-02 7.331185042858123779e-02 5.597390234470367432e-02 -8.304318785667419434e-02 -6.488940119743347168e-02 5.611421074718236923e-04 -2.643033862113952637e-01 1.332936994731426239e-02 8.632943034172058105e-02 -5.665756016969680786e-02 -1.630233079195022583e-01 5.662827566266059875e-02 7.869129627943038940e-02 -4.336751624941825867e-02 -2.779301255941390991e-02 -1.726020425558090210e-01 1.308012008666992188e-01 -3.640531748533248901e-02 7.429020479321479797e-03 2.025789581239223480e-02 3.914653658866882324e-01 -6.321702897548675537e-02 1.926561743021011353e-01 -2.590619400143623352e-02 2.830098755657672882e-02 1.447369158267974854e-01 3.339256048202514648e-01 3.375312313437461853e-02 9.297699667513370514e-03 -1.668649539351463318e-02 1.933796703815460205e-01 3.977455943822860718e-02 -3.745487630367279053e-01 -3.404645249247550964e-02 -1.305826604366302490e-01 -1.740299165248870850e-02 -5.183209478855133057e-02 1.841768324375152588e-01 -1.095994338393211365e-01 1.149014607071876526e-01 -3.260367736220359802e-02 2.074916511774063110e-01 1.996338069438934326e-01 2.055689394474029541e-01 2.268131636083126068e-02 1.273328661918640137e-01 -3.056415170431137085e-02 -2.059731446206569672e-02 -4.063658416271209717e-01 2.308583408594131470e-01 -1.299559772014617920e-01 -3.937816619873046875e-02 6.668134033679962158e-02 -9.593275934457778931e-02 9.797934442758560181e-02 -7.802563905715942383e-02 2.850799560546875000e-01 -4.408546164631843567e-02 -5.559275392442941666e-03 -8.179147727787494659e-03 -2.997782528400421143e-01 1.254791617393493652e-01 1.994965225458145142e-01 4.083772655576467514e-03 -1.394170988351106644e-02 2.351876199245452881e-01 3.006331808865070343e-02 -6.211371719837188721e-02 -1.216494012624025345e-02 -7.206667214632034302e-02 1.417525559663772583e-01 -9.664266556501388550e-02 -2.333289571106433868e-02 1.817472837865352631e-02 -1.156635489314794540e-02 -8.491316437721252441e-02 -1.498789936304092407e-01 2.633010037243366241e-02 -6.287984084337949753e-03 1.729976087808609009e-01 1.140640769153833389e-02 -1.917935758829116821e-01 1.326688006520271301e-02 -1.619257777929306030e-01 -3.490643575787544250e-02 3.764314204454421997e-02 -1.248417124152183533e-01 -6.903200596570968628e-02 -2.466927096247673035e-02 -5.117356404662132263e-02 2.325284853577613831e-02 2.797824740409851074e-01 -4.187082406133413315e-03 -5.604915022850036621e-01 -5.294699594378471375e-02 3.370366990566253662e-01 -1.091219335794448853e-01 2.376300096511840820e-02 -6.459736078977584839e-02 -1.164838671684265137e-01 -2.216876298189163208e-02 1.216100007295608521e-01 -8.104071766138076782e-02 -3.414902389049530029e-01 1.676078289747238159e-01 1.470470428466796875e-01 -1.504534482955932617e-01 -3.384216427803039551e-01 1.714263707399368286e-01 -5.425494164228439331e-02 6.522257346659898758e-03 3.118296563625335693e-01 2.543782889842987061e-01 -6.442774832248687744e-02 -5.597567930817604065e-02 -3.789682686328887939e-02 -1.925298124551773071e-01 5.834631249308586121e-02 1.250140070915222168e-01 1.882980763912200928e-01 2.814133465290069580e-02 -1.735793650150299072e-01 1.056763380765914917e-01 2.546498551964759827e-02 -5.138039588928222656e-02 7.890074700117111206e-02 -7.226973772048950195e-02 1.886036545038223267e-01 1.610284447669982910e-01 -3.806266933679580688e-02 -1.146644875407218933e-01 2.587299644947052002e-01 5.188440531492233276e-02 -9.703911095857620239e-02 -2.831361442804336548e-02 1.284133940935134888e-01 5.950329080224037170e-02 -2.699168585240840912e-02 -2.543182075023651123e-01 6.358142197132110596e-02 7.061405479907989502e-02 -7.689372450113296509e-02 2.778978319838643074e-03 -3.341003134846687317e-02 1.734866797924041748e-01 3.636029362678527832e-01 2.661381661891937256e-01 -1.937164738774299622e-02 -4.451595246791839600e-02 -1.007031798362731934e-01 2.032393664121627808e-01 2.015164792537689209e-01 -1.042625978589057922e-01 -5.038856528699398041e-03 -9.670537710189819336e-02 2.594665624201297760e-02 -1.958529949188232422e-01 1.793848425149917603e-01 9.906600415706634521e-02 -2.338566817343235016e-02 -2.895091772079467773e-01 1.206762436777353287e-02 1.462986506521701813e-02 -8.026870340108871460e-02 4.116352796554565430e-01 7.993526011705398560e-02 1.296774893999099731e-01 -8.332853764295578003e-02 4.815070703625679016e-02 -1.044010967016220093e-01 -2.201678603887557983e-01 2.785382233560085297e-02 -2.037456929683685303e-01 9.899702668190002441e-02 -1.890095137059688568e-02 -4.083686769008636475e-01 4.881700500845909119e-03 3.550403565168380737e-02 -1.335406303405761719e-01 -4.774572551250457764e-01 -6.848910450935363770e-02 -1.296863108873367310e-01 -2.459885366261005402e-02 -4.633475467562675476e-02 -1.158091649413108826e-01 -2.910726703703403473e-03 -2.294839173555374146e-01 -2.758469879627227783e-01 -1.785897612571716309e-01 -8.065867424011230469e-02 -5.957022905349731445e-01 1.464615017175674438e-01 -7.265834510326385498e-02 -1.339691281318664551e-01 -9.533248096704483032e-02 2.202931046485900879e-01 -3.096738131716847420e-03 -9.845577180385589600e-02 -8.636699616909027100e-02 -6.909997761249542236e-02 3.261901140213012695e-01 1.185005530714988708e-01 -5.529720187187194824e-01 8.192490786314010620e-02 -4.730031639337539673e-02 -3.381535038352012634e-02 2.359182108193635941e-03 1.569435372948646545e-02 -2.427396774291992188e-01 -5.676487088203430176e-02 -3.494367897510528564e-01 2.481098286807537079e-02
3.502097427845001221e-01 8.729863911867141724e-02 -1.170917004346847534e-01 2.597399055957794189e-01 -5.062257498502731323e-02 -1.169256865978240967e-01 1.812313310801982880e-02 2.214637845754623413e-01 6.782731413841247559e-02 -7.903364300727844238e-02 -5.116955190896987915e-02 2.090932987630367279e-02 7.622623443603515625e-02 -4.189603328704833984e-01 -4.840192198753356934e-02 3.723038434982299805e-01 1.233401596546173096e-01 4.687905609607696533e-01 1.907420456409454346e-01 -5.180132389068603516e-02 2.865726947784423828e-01 -5.132945254445075989e-02 8.496084213256835938e-01 2.032870799303054810e-01 1.420061662793159485e-02 -5.988851189613342285e-01 3.162081837654113770e-01 9.308569133281707764e-02 -1.492924690246582031e-01 1.376169323921203613e-01 6.225496064871549606e-03 -1.162932515144348145e-01 1.664057001471519470e-02 4.917591810226440430e-02 5.182758346199989319e-02 -1.388326883316040039e-01 -6.806372106075286865e-02 1.914031058549880981e-02 5.383629798889160156e-01 -4.199892748147249222e-03 2.268311381340026855e-01 3.588804602622985840e-02 4.227159172296524048e-02 -3.375472128391265869e-01 3.604750931262969971e-01 -1.722822189331054688e-01 -1.178444251418113708e-01 2.747333347797393799e-01 -3.303771018981933594e-01 3.376897051930427551e-02 3.698836266994476318e-02 -9.055897593498229980e-02 -3.654129803180694580e-02 -9.020147845149040222e-03 4.055366814136505127e-01 -1.635205447673797607e-01 2.885276675224304199e-01 1.344516575336456299e-01 -6.048636138439178467e-02 5.163842067122459412e-02 2.578765451908111572e-01 -5.920570492744445801e-01 1.002031117677688599e-01 -8.747491240501403809e-02 -3.077183067798614502e-01 9.292183443903923035e-03 -2.118960171937942505e-01 -2.047064453363418579e-01 -2.463595941662788391e-02 -1.065905317664146423e-01 -4.926379397511482239e-02 -7.560652215033769608e-03 1.789870560169219971e-01 3.907022774219512939e-01 8.164380490779876709e-02 2.063228487968444824e-01 -1.802292615175247192e-01 -1.806071549654006958e-01 2.762182950973510742e-01 9.333644062280654907e-02 -1.696896404027938843e-01 3.036935627460479736e-01 8.038580417633056641e-02 -2.369660697877407074e-02 -1.180314049124717712e-01 -4.360396414995193481e-02 2.486405223608016968e-01 2.407618910074234009e-01 -4.114288836717605591e-02 1.679373532533645630e-01 2.502993047237396240e-01 1.591853983700275421e-02 9.495974332094192505e-02 -5.267084389925003052e-02 -3.856857866048812866e-02 8.328042924404144287e-02 -8.916585147380828857e-02 1.259856373071670532e-01 -3.561182022094726562e-01 -2.272883951663970947e-01 -4.978535231202840805e-03 4.025505855679512024e-02 5.409774780273437500e-01 2.413862943649291992e-01 -3.652385249733924866e-02 4.789973143488168716e-03 -1.391773223876953125e-01 3.632046580314636230e-01 7.485222071409225464e-02 -1.519855577498674393e-02 -1.485585700720548630e-02 6.493858993053436279e-02 -5.924287810921669006e-02 -2.366707473993301392e-01 2.185196280479431152e-01 -2.151757925748825073e-01 2.365136891603469849e-01 -1.266895085573196411e-01 1.051720306277275085e-01 -2.225353755056858063e-02 -7.643834948539733887e-01 -1.421832144260406494e-01 1.339185982942581177e-01 -1.158600151538848877e-01 -6.098825335502624512e-01 -4.515464603900909424e-02 -3.184701874852180481e-02 2.265730500221252441e-01 2.577319741249084473e-02 1.510463804006576538e-01 1.514924615621566772e-01 -1.235366538166999817e-01 -8.068392425775527954e-02 1.654390096664428711e-01 5.049726739525794983e-02 1.988479346036911011e-01 -3.898295015096664429e-02 -1.717363744974136353e-01 2.311951816082000732e-01 3.943715244531631470e-02 -2.517195977270603180e-02 -4.378105103969573975e-01 1.692826673388481140e-02 3.110717236995697021e-01 5.147840380668640137e-01 2.189614772796630859e-01 2.099865972995758057e-01 -1.324007213115692139e-01 -1.132705584168434143e-01 -8.030355721712112427e-02 -9.645891841500997543e-04 -1.868239231407642365e-02 7.088380306959152222e-02 -8.710213750600814819e-02 -3.007275052368640900e-02 -1.720162481069564819e-01 -1.865270733833312988e-01 -3.009300120174884796e-02 -2.841178700327873230e-02 -3.108207285404205322e-01 -2.577874064445495605e-01 -1.032514423131942749e-01 -5.042222738265991211e-01 -1.084429863840341568e-02 -2.127475803717970848e-03 1.765928566455841064e-01 -1.249528974294662476e-01 3.083757124841213226e-02 1.533482968807220459e-01 -1.949294656515121460e-01 2.746364474296569824e-02 7.053524255752563477e-02 -3.050053119659423828e-02 1.026472747325897217e-01 -3.955864310264587402e-01 7.997634261846542358e-02 -1.852487772703170776e-01 -2.176344692707061768e-01 -2.407579421997070312e-01 3.585249185562133789e-01 6.869114004075527191e-03 2.629268467426300049e-01 -1.521566230803728104e-02 -8.213419467210769653e-02 -1.762459874153137207e-01 3.562091886997222900e-01 4.380365833640098572e-02 -2.401027642190456390e-02 -1.271048337221145630e-01 6.350804865360260010e-02 1.915759742259979248e-01 3.250703811645507812e-01 -8.727528899908065796e-02 -2.996290847659111023e-02 4.950645864009857178e-01 -1.202201545238494873e-01 1.268003433942794800e-01 -8.051767945289611816e-03 4.560917317867279053e-01 -1.688817590475082397e-01 -1.589234918355941772e-01 -1.042693629860877991e-01 7.177278399467468262e-02 1.368510723114013672e-02 -2.152427434921264648e-01 -2.369830571115016937e-02 -6.123376265168190002e-02 -1.911545544862747192e-01 3.659497499465942383e-01 2.830024436116218567e-02 -2.037968784570693970e-01 4.992512986063957214e-03 -2.326993085443973541e-02 -1.060236804187297821e-02 2.000767886638641357e-01 -9.073618799448013306e-02 -5.445119738578796387e-01 9.817443788051605225e-02 5.342667549848556519e-02 -1.313621457666158676e-02 1.735482066869735718e-01 -2.775942534208297729e-02 -3.293598443269729614e-02 1.074981242418289185e-01 1.053248643875122070e-01 -3.044656105339527130e-02 -2.725913748145103455e-02 -2.151448130607604980e-01 1.640150249004364014e-01 -4.854402244091033936e-01 -2.863060534000396729e-01 1.032103970646858215e-02 -4.955409560352563858e-03 -2.017281651496887207e-01 -1.159977074712514877e-02 2.912091091275215149e-02 2.940969765186309814e-01 -2.390052936971187592e-02 3.044607639312744141e-01 2.303962260484695435e-01 -1.619775444269180298e-01 -6.856095790863037109e-02 1.558201462030410767e-01 2.110943645238876343e-01 -1.096099168062210083e-01 2.479425445199012756e-02 6.757754087448120117e-02 -7.020343560725450516e-03 4.876361787319183350e-01 3.441829383373260498e-01 -1.004736870527267456e-01 2.708037197589874268e-01 -2.095780335366725922e-02 -1.892664283514022827e-01 -1.020734850317239761e-02 1.072096005082130432e-01 -1.674245148897171021e-01 1.498921662569046021e-01 1.790503412485122681e-02 9.528779238462448120e-02 8.442520350217819214e-02 -8.123140782117843628e-02 1.016615629196166992e-01 -6.975475698709487915e-02 8.845441043376922607e-02 4.294061288237571716e-02 -2.925444841384887695e-01 -4.495415091514587402e-02 -1.053708717226982117e-01 3.274280130863189697e-01 -1.615846902132034302e-01 1.472413092851638794e-01 1.762910559773445129e-02 -1.549050658941268921e-01 -7.963038086891174316e-01 2.209037244319915771e-01 -2.857379429042339325e-02 1.473626047372817993e-01 3.165310621261596680e-02 -4.284965246915817261e-02 5.377530679106712341e-02 7.871083915233612061e-02 -6.881269812583923340e-02 3.506130278110504150e-01 1.136912181973457336e-01 3.338038548827171326e-02 -1.205762661993503571e-02 -2.753561362624168396e-02 1.070531159639358521e-01 -6.430312991142272949e-02 -6.967575848102569580e-02 1.109060496091842651e-01 -3.892378211021423340e-01 -4.052200317382812500e-01 8.892355114221572876e-02 9.488037973642349243e-02 -2.945448458194732666e-01 -6.961046252399682999e-03 -4.513564053922891617e-03 2.853024601936340332e-01 1.023561879992485046e-01 1.192684397101402283e-01 3.231064975261688232e-01 5.985116213560104370e-02 3.286360576748847961e-02 5.095786415040493011e-03 -1.078524440526962280e-01 -1.150648593902587891e-01 -1.046406701207160950e-01 1.208603754639625549e-01 -2.927531599998474121e-01 1.071606948971748352e-01 4.185756668448448181e-02 8.644338697195053101e-02 -1.121705472469329834e-01 -2.206364572048187256e-01 -1.750231981277465820e-01 1.818277239799499512e-01 1.295725852251052856e-01 -8.247216790914535522e-02 -1.956883221864700317e-01 2.884261608123779297e-01 2.136483043432235718e-02 -9.629589319229125977e-02 -3.571603447198867798e-02 -1.317956391721963882e-02 1.620213836431503296e-01 -5.943107418715953827e-03 1.692381687462329865e-02 2.999390363693237305e-01 1.409839722327888012e-03 9.262541425414383411e-04 2.143315784633159637e-02 -1.009606122970581055e-01 -3.941707313060760498e-01 1.149134486913681030e-01 -3.698278218507766724e-02 -4.608950391411781311e-02 -3.383858874440193176e-02 -2.323921918869018555e-01 -4.184557497501373291e-02 3.142318502068519592e-02 -7.353352755308151245e-02 2.267597019672393799e-01 1.035866513848304749e-01 4.530209898948669434e-01 -9.595283120870590210e-02 1.898138970136642456e-02 5.735436081886291504e-02 -6.903823614120483398e-01 8.185710757970809937e-02 -4.071963578462600708e-02 2.498928755521774292e-01 -1.273949295282363892e-01 -3.268990218639373779e-01 2.178941518068313599e-01 1.844143122434616089e-02 1.056917570531368256e-02 1.368884146213531494e-01 -1.617007404565811157e-01 8.826533332467079163e-03 -3.891196250915527344e-01 -8.638459257781505585e-03 2.308000922203063965e-01 1.188707910478115082e-02 -1.073568910360336304e-01 4.316084086894989014e-01 2.337888628244400024e-01 -4.098096489906311035e-02 -5.443009361624717712e-02 -3.133485093712806702e-02 6.747347861528396606e-02 1.110987067222595215e-01 1.464175879955291748e-01 1.788982897996902466e-01 4.796842932701110840e-01 4.140037596225738525e-01 2.170617729425430298e-01 3.116810508072376251e-02 -5.441502109169960022e-02 1.198932304978370667e-01 -1.678084284067153931e-01 2.218573987483978271e-01 4.893895983695983887e-02 1.149198561906814575e-01 2.539369463920593262e-01 1.241527348756790161e-01 -6.996580213308334351e-02 -7.930628210306167603e-02 2.111860960721969604e-01 7.625392824411392212e-02 8.566200733184814453e-02 1.133661940693855286e-01 8.223424665629863739e-03 2.325081499293446541e-03 5.391880869865417480e-02 2.071295082569122314e-01 7.181141525506973267e-02 4.240438342094421387e-01 1.021178588271141052e-01
2.110281437635421753e-01 -1.237927451729774475e-01 1.965751945972442627e-01 -1.298106014728546143e-01 -1.615190058946609497e-01 -5.142898857593536377e-02 -3.918854519724845886e-02 2.524358406662940979e-02 1.475710421800613403e-01 4.802760481834411621e-01 -9.749811142683029175e-02 1.572278700768947601e-02 -2.119353562593460083e-01 -4.884625077247619629e-01 6.156302988529205322e-02 -3.365495800971984863e-01 4.404472410678863525e-01 -6.811355948448181152e-01 5.143560841679573059e-02 -4.503270238637924194e-02 3.366803824901580811e-01 -4.388065636157989502e-02 -1.773145347833633423e-01 -7.840795814990997314e-02 3.408793359994888306e-02 3.733294308185577393e-01 -5.589322745800018311e-02 -6.879036780446767807e-03 7.450168579816818237e-02 -1.509558856487274170e-01 -1.283885259181261063e-02 1.116897314786911011e-01 -2.982248924672603607e-02 -1.021235808730125427e-01 -1.134595572948455811e-01 1.070111095905303955e-01 -1.108990311622619629e-01 1.250211708247661591e-02 5.600539445877075195e-01 -6.176390871405601501e-02 4.647322371602058411e-02 4.168107360601425171e-02 -6.180686131119728088e-02 -1.817173659801483154e-01 -2.134847044944763184e-01 9.399464726448059082e-02 -3.170028701424598694e-02 1.419050395488739014e-01 1.749332994222640991e-01 3.798834607005119324e-02 -9.903328865766525269e-02 -1.027461290359497070e-01 6.439215969294309616e-03 -7.224631905555725098e-01 -8.722012490034103394e-02 2.421169728040695190e-01 1.464954912662506104e-01 -1.190316956490278244e-02 1.202900409698486328e-01 -3.007048964500427246e-01 -1.961476653814315796e-01 2.424622625112533569e-01 1.253343094140291214e-02 1.212550401687622070e-01 -4.421430826187133789e-01 -1.064795404672622681e-01 3.462073504924774170e-01 1.181218028068542480e-01 -3.770577907562255859e-02 2.791351974010467529e-01 -1.350940167903900146e-01 -1.230814754962921143e-01 -8.480928838253021240e-02 -7.062998414039611816e-01 -2.803917229175567627e-01 1.048979163169860840e-01 1.430415958166122437e-01 2.037146501243114471e-02 -8.957007527351379395e-02 -1.294782459735870361e-01 1.374434232711791992e-01 -1.563784778118133545e-01 5.283848941326141357e-02 -3.167705237865447998e-02 4.450165629386901855e-01 2.162399739027023315e-01 -6.593252718448638916e-02 -1.422456055879592896e-01 -4.832626879215240479e-02 -1.176034063100814819e-01 -3.437319993972778320e-01 -1.825947314500808716e-02 -5.281098186969757080e-02 4.040254279971122742e-02 -3.564687818288803101e-02 -3.121801838278770447e-02 -8.652403205633163452e-02 -5.426561832427978516e-02 1.966192722320556641e-01 3.508615195751190186e-01 -4.690342023968696594e-02 -3.376386165618896484e-01 3.746162652969360352e-01 3.130735158920288086e-01 -4.850827157497406006e-01 -2.978516742587089539e-02 6.655184030532836914e-01 5.248986929655075073e-02 -3.254539892077445984e-02 -5.467417091131210327e-02 -1.384891122579574585e-01 -6.527393311262130737e-02 -1.746612042188644409e-01 2.967047095298767090e-01 2.662237267941236496e-03 1.457009371370077133e-02 -6.444484740495681763e-02 2.130545079708099365e-01 -8.379417657852172852e-02 -9.295285493135452271e-02 5.325973629951477051e-01 1.044590324163436890e-01 -1.729355379939079285e-02 9.932176023721694946e-02 3.341090083122253418e-01 -7.185614854097366333e-02 6.067002564668655396e-02 -1.579285115003585815e-01 -2.030768059194087982e-02 -2.228410691022872925e-01 1.233582794666290283e-01 -8.392467349767684937e-02 2.691088020801544189e-01 -2.017819583415985107e-01 -1.513168513774871826e-01 -4.090877249836921692e-02 -4.416016861796379089e-02 -7.291479501873254776e-03 3.572067916393280029e-01 -3.681259462609887123e-03 2.357352152466773987e-02 4.111024141311645508e-01 -6.060938537120819092e-02 4.438740015029907227e-01 -7.313126921653747559e-01 -1.835359334945678711e-01 -8.773556351661682129e-02 8.787431567907333374e-02 2.469695955514907837e-01 3.344564735889434814e-01 2.719545364379882812e-02 6.960415840148925781e-02 -2.859931886196136475e-01 3.459697589278221130e-02 -5.011940002441406250e-02 2.459824383258819580e-01 2.449603229761123657e-01 5.185604095458984375e-01 -1.125678494572639465e-01 1.765610724687576294e-01 3.252708017826080322e-01 2.108913660049438477e-01 4.358338713645935059e-01 2.002178132534027100e-02 -5.719106644392013550e-03 9.898924082517623901e-02 1.095577999949455261e-01 2.972820075228810310e-03 -6.828138977289199829e-02 1.881682127714157104e-01 2.338684201240539551e-01 1.623783409595489502e-01 3.983761370182037354e-02 3.021693974733352661e-02 2.861159741878509521e-01 -1.032723560929298401e-01 2.132098823785781860e-01 3.686289787292480469e-01 1.970174312591552734e-01 -2.508103251457214355e-01 -1.334994286298751831e-01 -1.037224978208541870e-01 -1.115365102887153625e-01 4.606321081519126892e-02 -1.969843208789825439e-01 -4.407604038715362549e-01 -1.360083669424057007e-01 1.943408846855163574e-01 1.048355326056480408e-01 1.060142088681459427e-02 1.809500716626644135e-02 -6.402179598808288574e-02 -1.157221794128417969e-01 1.248641218990087509e-02 -4.296088218688964844e-01 3.762850537896156311e-02 7.657095044851303101e-02 -4.715014249086380005e-03 -2.363628447055816650e-01 3.527685254812240601e-02 1.012159138917922974e-01 -1.207090094685554504e-01 -5.511227622628211975e-02 -2.698910236358642578e-01 2.168376743793487549e-01 -5.562194064259529114e-02 -2.333563938736915588e-02 -6.451848894357681274e-02 4.821572601795196533e-01 -2.856342308223247528e-02 2.362579107284545898e-01 -3.470721468329429626e-02 3.578200563788414001e-02 -1.545898243784904480e-02 4.454672932624816895e-01 7.320156693458557129e-02 5.086673423647880554e-02 -5.143673717975616455e-02 3.017427921295166016e-01 2.152927219867706299e-02 -5.305877327919006348e-01 3.831258043646812439e-02 -1.557968556880950928e-01 -6.002489849925041199e-02 -1.008356884121894836e-01 2.364996075630187988e-01 -1.101152226328849792e-01 1.930078417062759399e-01 -4.182152822613716125e-02 3.342164158821105957e-01 2.230854332447052002e-01 1.191238909959793091e-01 -3.566185943782329559e-03 1.562006771564483643e-01 3.742800280451774597e-02 -6.076477840542793274e-02 -6.545653343200683594e-01 3.587739765644073486e-01 -1.691797971725463867e-01 -7.119242101907730103e-02 1.834606230258941650e-01 -7.435280084609985352e-02 5.995332449674606323e-02 -1.157340854406356812e-01 3.851014971733093262e-01 -6.413808465003967285e-02 2.513490803539752960e-02 3.114429116249084473e-02 -4.497901499271392822e-01 1.459694057703018188e-01 3.378038406372070312e-01 -7.454014569520950317e-02 5.103637930005788803e-03 3.149905800819396973e-01 1.494779158383607864e-02 -1.084253713488578796e-01 2.081816084682941437e-03 -8.807945251464843750e-02 1.430229842662811279e-01 -1.152789890766143799e-01 -9.157811850309371948e-02 -2.145044691860675812e-02 -3.902176767587661743e-02 -6.616695225238800049e-02 -1.324448883533477783e-01 6.604781839996576309e-03 5.844302102923393250e-02 2.325882911682128906e-01 -1.601399667561054230e-02 -7.719060033559799194e-02 4.508575797080993652e-02 -2.572743594646453857e-01 -1.178694330155849457e-02 7.542806118726730347e-02 -1.667708307504653931e-01 -1.626245677471160889e-01 2.047166042029857635e-02 -9.099347144365310669e-02 -3.995598852634429932e-02 4.525211751461029053e-01 -3.670124569907784462e-03 -6.263898611068725586e-01 -1.117199063301086426e-01 4.267395436763763428e-01 -9.927392750978469849e-02 -3.175984695553779602e-02 -1.124476343393325806e-01 -1.356386244297027588e-01 -2.019981853663921356e-02 2.112827003002166748e-01 -1.188163235783576965e-01 -2.741031646728515625e-01 2.469319701194763184e-01 2.340719550848007202e-01 -2.069835513830184937e-01 -3.700637817382812500e-01 2.393126189708709717e-01 1.854605413973331451e-02 -6.938804686069488525e-02 2.172235399484634399e-01 3.505671322345733643e-01 -8.415465056896209717e-02 -6.957494467496871948e-02 1.241840794682502747e-02 -2.123789191246032715e-01 9.089690446853637695e-02 2.218713760375976562e-01 2.683358490467071533e-01 6.168500334024429321e-02 -1.417167484760284424e-01 1.313556730747222900e-01 1.110935676842927933e-02 -7.791107892990112305e-02 5.424175038933753967e-02 -1.124006435275077820e-01 3.020481467247009277e-01 2.014949321746826172e-01 -5.684436485171318054e-02 -1.688795089721679688e-01 4.253855645656585693e-01 4.608495626598596573e-03 -1.784404665231704712e-01 -2.578170225024223328e-02 2.160527110099792480e-01 6.037544086575508118e-02 -8.952851593494415283e-02 -3.700968027114868164e-01 7.903061807155609131e-02 1.395430266857147217e-01 -2.545068860054016113e-01 -1.969845267012715340e-03 -8.428291976451873779e-02 3.084690570831298828e-01 5.203619003295898438e-01 4.412651062011718750e-01 -3.799732401967048645e-02 -1.191904768347740173e-01 -7.750422507524490356e-02 3.719035387039184570e-01 3.625106811523437500e-01 -8.780574053525924683e-02 -1.294121891260147095e-02 -9.678282588720321655e-02 -1.931806467473506927e-02 -2.830797731876373291e-01 1.767812371253967285e-01 1.656305491924285889e-01 -9.710933268070220947e-02 -2.781256735324859619e-01 -3.299093991518020630e-02 3.005880163982510567e-03 -8.026850223541259766e-02 5.337183475494384766e-01 1.555962264537811279e-01 1.031428501009941101e-01 -1.420544832944869995e-01 2.141148969531059265e-02 -1.030205041170120239e-01 -3.481680154800415039e-01 1.228383406996726990e-01 -2.785618603229522705e-01 1.323713362216949463e-01 -3.429846838116645813e-02 -5.476917028427124023e-01 -1.434246450662612915e-02 4.509710520505905151e-02 -2.150042206048965454e-01 -6.687842011451721191e-01 -1.115749999880790710e-01 -2.088753730058670044e-01 -9.111948311328887939e-02 -8.408723771572113037e-02 -1.711840629577636719e-01 -4.201922193169593811e-02 -2.946437895298004150e-01 -4.471126496791839600e-01 -2.749368846416473389e-01 -5.992740020155906677e-02 -8.756771087646484375e-01 1.377771049737930298e-01 -2.419013679027557373e-01 -1.929665803909301758e-01 -1.220089867711067200e-01 2.953811585903167725e-01 -3.179424628615379333e-02 -4.925639182329177856e-02 -1.109423115849494934e-01 -1.083918288350105286e-01 4.996921420097351074e-01 -5.537410266697406769e-03 -8.481460809707641602e-01 8.632791042327880859e-02 -6.472276151180267334e-02 -9.830331057310104370e-02 -3.437671810388565063e-02 2.595988288521766663e-02 -4.533950686454772949e-01 -9.524714201688766479e-02 -5.779975652694702148e-01 2.919925563037395477e-02
1.011493876576423645e-01 1.290822476148605347e-01 -2.008839100599288940e-01 2.638455927371978760e-01 -4.673688113689422607e-02 -5.675728917121887207e-01 -5.676105618476867676e-02 4.258136451244354248e-01 -7.387716788798570633e-03 1.496265828609466553e-01 -8.745742589235305786e-02 6.174908019602298737e-03 1.708451509475708008e-01 -5.416781902313232422e-01 -1.054904423654079437e-02 2.922649979591369629e-01 3.391010761260986328e-01 3.940174877643585205e-01 2.459767162799835205e-01 -2.426546066999435425e-02 4.872397780418395996e-01 6.015338003635406494e-03 8.523288965225219727e-01 3.812012970447540283e-01 -2.115073055028915405e-02 -7.960901856422424316e-01 4.178616404533386230e-01 1.151760891079902649e-01 -2.275467216968536377e-01 2.347119301557540894e-01 2.044218778610229492e-02 -7.726222276687622070e-02 2.986291423439979553e-02 5.283097922801971436e-02 3.450920805335044861e-02 -1.773506999015808105e-01 -5.926160886883735657e-02 -1.421895693056285381e-03 6.223700046539306641e-01 -2.532368712127208710e-02 2.866470813751220703e-01 1.450052950531244278e-02 1.232859771698713303e-02 -4.978976249694824219e-01 5.142296552658081055e-01 -2.519192397594451904e-01 -1.390548795461654663e-01 1.171267684549093246e-02 -4.437928497791290283e-01 -2.727907849475741386e-03 3.717176616191864014e-02 -9.812375158071517944e-02 -1.127747632563114166e-02 -1.757458150386810303e-01 5.797275900840759277e-01 -2.118345797061920166e-01 3.515650629997253418e-01 1.987420767545700073e-01 1.607263647019863129e-02 5.597011372447013855e-02 4.139265120029449463e-01 -8.675220608711242676e-01 9.596226364374160767e-02 -1.227560490369796753e-01 -3.509449362754821777e-01 5.407382920384407043e-02 -1.557548791170120239e-01 -2.686595618724822998e-01 8.297877502627670765e-04 -2.328884750604629517e-01 -5.928120389580726624e-02 -7.035955041646957397e-02 3.323884010314941406e-01 4.500507712364196777e-01 1.015004292130470276e-01 2.803382575511932373e-01 -2.705685794353485107e-01 -3.161116540431976318e-01 3.345608711242675781e-01 1.308175027370452881e-01 -2.783934772014617920e-01 6.349118947982788086e-01 7.937555760145187378e-02 -1.405534595251083374e-01 -1.390402615070343018e-01 -4.517471045255661011e-02 3.589808940887451172e-01 3.510258793830871582e-01 -3.010847605764865875e-02 2.475724518299102783e-01 4.084505140781402588e-01 -9.497981518507003784e-03 2.409166544675827026e-01 -2.953279763460159302e-02 -1.496301149018108845e-03 9.958777576684951782e-02 -9.485396742820739746e-02 1.867834180593490601e-01 -4.861261844635009766e-01 -3.885983824729919434e-01 1.758959330618381500e-02 1.011855378746986389e-01 4.213471114635467529e-01 4.335932135581970215e-01 1.891002804040908813e-01 2.193645760416984558e-02 -2.824150621891021729e-01 3.697801828384399414e-01 4.268659278750419617e-02 -7.190728932619094849e-02 -1.384648680686950684e-01 8.477333933115005493e-02 -1.033655703067779541e-01 -2.818545401096343994e-01 3.028423488140106201e-01 -2.738317251205444336e-01 3.087047636508941650e-01 -1.714856177568435669e-01 1.118992045521736145e-01 -8.379529416561126709e-02 -1.048735141754150391e+00 -1.351576894521713257e-01 1.751609146595001221e-01 -2.013751566410064697e-01 -9.223814606666564941e-01 -6.981052458286285400e-02 -8.227759599685668945e-02 2.661944925785064697e-01 -2.799081802368164062e-02 3.303664028644561768e-01 2.723469436168670654e-01 -1.136975362896919250e-01 -2.033407390117645264e-01 2.451806068420410156e-01 1.084316242486238480e-02 3.039976954460144043e-01 -5.384225770831108093e-02 -2.139054685831069946e-01 4.002903699874877930e-01 1.132917702198028564e-01 1.091668661683797836e-02 -6.123234033584594727e-01 7.041510194540023804e-02 1.672853231430053711e-01 8.216127753257751465e-01 3.087484240531921387e-01 3.080888986587524414e-01 -2.505670189857482910e-01 -2.033994644880294800e-01 -1.284994930028915405e-01 1.139378175139427185e-02 -5.002225749194622040e-03 1.531610935926437378e-01 -1.501030623912811279e-01 4.100923612713813782e-02 -2.731418609619140625e-01 -2.748608589172363281e-01 -9.420648962259292603e-02 3.747240826487541199e-02 -2.793138325214385986e-01 -3.374626636505126953e-01 -2.164784520864486694e-01 -2.730494737625122070e-01 3.607102856040000916e-02 2.012007124722003937e-02 2.665084898471832275e-01 -2.012568563222885132e-01 7.485802471637725830e-02 2.193915545940399170e-01 -3.473975062370300293e-01 -6.256506592035293579e-02 9.815667569637298584e-02 -5.581402406096458435e-02 4.254956264048814774e-03 -5.345509648323059082e-01 1.022557392716407776e-01 -3.249719142913818359e-01 -3.024896979331970215e-01 -2.995035350322723389e-01 3.776075541973114014e-01 -2.127020992338657379e-02 3.593655526638031006e-01 -1.262008845806121826e-01 -4.640585482120513916e-01 6.613916158676147461e-02 6.456725001335144043e-01 8.165691047906875610e-02 -9.820500761270523071e-02 -2.697050273418426514e-01 4.959843680262565613e-02 2.604939639568328857e-01 3.863823115825653076e-01 -1.385863721370697021e-01 -1.081392634660005569e-02 6.741111278533935547e-01 -1.550144553184509277e-01 1.534830331802368164e-01 -2.408892288804054260e-02 6.495584845542907715e-01 -1.358958482742309570e-01 -2.684165239334106445e-01 -1.343976855278015137e-01 4.252369701862335205e-02 -1.509991437196731567e-01 -2.841597497463226318e-01 -4.555107653141021729e-02 -3.138403221964836121e-02 -2.366512715816497803e-01 5.320345759391784668e-01 1.542233824729919434e-01 -2.428277134895324707e-01 5.363319069147109985e-02 -1.235638037323951721e-01 -1.108692213892936707e-01 4.654633104801177979e-01 -1.661720424890518188e-01 -7.713673114776611328e-01 2.301511913537979126e-01 3.311701714992523193e-01 -2.682492695748806000e-02 9.706266224384307861e-02 2.967424690723419189e-03 -2.860346809029579163e-02 1.743940860033035278e-01 1.234687790274620056e-01 -4.866408184170722961e-03 -6.791909039020538330e-02 -3.152605593204498291e-01 1.846460700035095215e-01 -8.126298785209655762e-01 -3.573585450649261475e-01 -8.971843868494033813e-02 -3.370296210050582886e-02 -1.604616045951843262e-01 4.611163213849067688e-02 -4.274451360106468201e-02 3.532053232192993164e-01 -4.347155615687370300e-02 4.456876218318939209e-01 2.250443100929260254e-01 -2.377245724201202393e-01 -1.197315901517868042e-01 1.418263018131256104e-01 2.829741239547729492e-01 -9.229782223701477051e-02 9.039925038814544678e-02 -4.915522783994674683e-02 -4.759983345866203308e-02 6.674785017967224121e-01 5.708388686180114746e-01 -1.459941118955612183e-01 4.100823998451232910e-01 5.388874188065528870e-02 -2.137569636106491089e-01 -3.045585006475448608e-02 1.622001379728317261e-01 -3.059044480323791504e-01 2.452427893877029419e-01 1.044137850403785706e-01 1.683482676744461060e-01 1.171289160847663879e-01 -1.847118884325027466e-01 1.268520802259445190e-01 -1.263190507888793945e-01 1.617169082164764404e-01 5.446666106581687927e-02 -3.713912665843963623e-01 -7.889766246080398560e-02 -1.200604364275932312e-01 -5.005992054939270020e-01 -2.280753254890441895e-01 9.814468771219253540e-02 1.900715194642543793e-02 -2.219787687063217163e-01 -9.845891594886779785e-01 3.130807876586914062e-01 -1.085183955729007721e-02 2.391251772642135620e-01 -3.334178030490875244e-02 1.873397678136825562e-01 2.517404593527317047e-02 1.741764694452285767e-01 -1.413369774818420410e-01 5.271665453910827637e-01 1.529449224472045898e-01 -2.115898206830024719e-02 3.497067093849182129e-02 6.824877113103866577e-02 1.042461469769477844e-01 -7.795089483261108398e-02 -1.033963561058044434e-01 -7.862325012683868408e-02 -4.603731334209442139e-01 -4.706875681877136230e-01 6.147178635001182556e-02 1.590894907712936401e-01 -4.809338748455047607e-01 -3.274659439921379089e-02 -4.293773323297500610e-02 4.248581826686859131e-01 2.665574550628662109e-01 1.883953660726547241e-01 4.550601541996002197e-01 2.732177376747131348e-01 4.178082197904586792e-02 4.275779798626899719e-02 -1.317489594221115112e-01 -1.182491108775138855e-01 -2.516303658485412598e-01 1.281581372022628784e-01 -7.522556185722351074e-02 8.896245062351226807e-02 9.217194467782974243e-02 4.574710726737976074e-01 -1.321387737989425659e-01 -1.973946839570999146e-01 -2.708224356174468994e-01 2.269445955753326416e-01 2.129192352294921875e-01 -1.512862928211688995e-02 -4.476967453956604004e-01 4.379489123821258545e-01 1.269923150539398193e-02 -1.691061258316040039e-01 -3.905749320983886719e-02 1.256543844938278198e-01 2.170281112194061279e-01 -4.295643419027328491e-03 1.885977014899253845e-02 3.476849198341369629e-01 3.997457399964332581e-02 -3.603380918502807617e-02 3.397475928068161011e-02 -1.397208422422409058e-01 -3.858776390552520752e-01 1.980511546134948730e-01 -9.805959463119506836e-02 -1.333706974983215332e-01 -6.420653313398361206e-02 -2.801865637302398682e-01 -1.225913614034652710e-01 5.697295535355806351e-03 -6.050585955381393433e-02 1.087101846933364868e-01 2.506607174873352051e-01 5.303448438644409180e-01 -1.587713062763214111e-01 2.402093261480331421e-02 6.092884019017219543e-02 -6.984985470771789551e-01 1.672893166542053223e-01 -4.898093268275260925e-02 3.984048068523406982e-01 -1.932391971349716187e-01 -4.942652881145477295e-01 2.962575554847717285e-01 -2.339507639408111572e-02 2.070678025484085083e-02 1.446368247270584106e-01 -1.711432933807373047e-01 7.298889756202697754e-02 -7.747766375541687012e-01 -2.746250294148921967e-02 3.397059738636016846e-01 2.407854795455932617e-02 3.878986835479736328e-02 6.250953078269958496e-01 3.641912937164306641e-01 -1.163394376635551453e-01 1.439726073294878006e-02 -7.836563885211944580e-02 1.363120675086975098e-01 1.441256850957870483e-01 7.201758027076721191e-02 3.828451931476593018e-01 7.180084586143493652e-01 5.942737460136413574e-01 2.891572415828704834e-01 4.769160225987434387e-02 -3.768493235111236572e-01 2.328440994024276733e-01 -3.016501963138580322e-01 2.068807184696197510e-01 1.072988137602806091e-01 2.487710416316986084e-01 3.955627083778381348e-01 1.729495674371719360e-01 -8.702380210161209106e-02 3.543680906295776367e-02 2.645131051540374756e-01 1.265836209058761597e-01 1.577047854661941528e-01 1.383593827486038208e-01 1.621309854090213776e-02 2.509489096701145172e-02 -2.732983045279979706e-02 2.641740441322326660e-01 6.979156285524368286e-02 4.318263530731201172e-01 1.812973916530609131e-01
1.491420269012451172e-01 -1.680810153484344482e-01 2.291102856397628784e-01 -7.987566292285919189e-02 -2.153382897377014160e-01 -2.569859623908996582e-01 3.848170116543769836e-02 -9.813559800386428833e-02 2.178689092397689819e-01 5.006659626960754395e-01 -1.559654176235198975e-01 -1.145748235285282135e-02 -2.420633584260940552e-01 -3.197596371173858643e-01 7.972290366888046265e-02 -4.235822558403015137e-01 5.532931685447692871e-01 -6.477802991867065430e-01 1.015748009085655212e-01 -5.307691916823387146e-02 3.759377896785736084e-01 -1.105588749051094055e-01 -1.911674588918685913e-01 -5.960528552532196045e-02 -1.827202271670103073e-03 5.444147586822509766e-01 -1.575771421194076538e-01 -4.566237330436706543e-02 8.083003014326095581e-02 -1.710344552993774414e-01 -1.316140126436948776e-02 1.453458964824676514e-01 -5.983082205057144165e-02 -1.814223229885101318e-01 -1.061934381723403931e-01 1.345792114734649658e-01 -7.999739050865173340e-02 -3.918510302901268005e-02 6.793920993804931641e-01 -3.002536855638027191e-02 -4.004222527146339417e-02 1.314648333936929703e-02 -5.671424046158790588e-02 -2.256326526403427124e-01 -3.037939369678497314e-01 1.415953338146209717e-01 -4.556731507182121277e-02 6.124373152852058411e-02 2.502921223640441895e-01 -2.029482834041118622e-02 -1.589810699224472046e-01 -1.539512872695922852e-01 6.098234094679355621e-03 -9.780277609825134277e-01 -1.327529251575469971e-01 3.312041461467742920e-01 -9.178902022540569305e-03 -4.010501503944396973e-02 -2.081170678138732910e-02 -3.021483719348907471e-01 -2.893275022506713867e-01 2.543286383152008057e-01 -6.411056965589523315e-02 1.182018592953681946e-01 -6.984653472900390625e-01 -1.317386925220489502e-01 4.997531473636627197e-01 1.568156331777572632e-01 1.431397534906864166e-02 3.394471108913421631e-01 -1.055341735482215881e-01 -1.180557757616043091e-01 -1.284091174602508545e-01 -1.006213903427124023e+00 -3.843900561332702637e-01 8.019099384546279907e-02 1.905139684677124023e-01 4.029583185911178589e-02 -1.100630238652229309e-01 -2.409057468175888062e-01 1.694657802581787109e-01 -4.340203702449798584e-01 -6.189560517668724060e-03 9.814985096454620361e-03 6.261060833930969238e-01 2.795693576335906982e-01 -1.083337739109992981e-01 -1.688961535692214966e-01 -1.099021360278129578e-01 -1.548254340887069702e-01 -5.070949792861938477e-01 1.458267332054674625e-03 -1.366613153368234634e-02 3.416397422552108765e-02 -5.305541306734085083e-02 -7.130425423383712769e-02 -1.155504956841468811e-01 -1.377037614583969116e-01 4.000025987625122070e-01 4.763975441455841064e-01 -1.264677150174975395e-03 -4.003412723541259766e-01 5.493152141571044922e-01 4.511338174343109131e-01 -4.399746954441070557e-01 3.118878044188022614e-02 8.138443231582641602e-01 1.441227197647094727e-01 -2.387108281254768372e-02 -1.471558660268783569e-01 -1.374949216842651367e-01 -4.493392631411552429e-02 -1.156273931264877319e-01 4.309275150299072266e-01 -5.515887215733528137e-02 8.908674865961074829e-02 -1.388498395681381226e-01 2.968766391277313232e-01 -1.265526264905929565e-01 -7.813051342964172363e-02 6.590505242347717285e-01 2.508615851402282715e-01 -1.446404308080673218e-02 1.575242578983306885e-01 5.186609029769897461e-01 -1.284335851669311523e-01 8.890579454600811005e-03 -1.863272935152053833e-01 -2.902667969465255737e-02 -2.948057949542999268e-01 1.208326295018196106e-01 -4.065264761447906494e-02 4.083510041236877441e-01 -2.497386038303375244e-01 -1.586694121360778809e-01 6.270639598369598389e-03 -1.371638178825378418e-01 1.002093683928251266e-02 4.639831185340881348e-01 -4.649861250072717667e-03 1.364877168089151382e-02 5.263800621032714844e-01 -2.100503817200660706e-02 3.307526111602783203e-01 -9.434783458709716797e-01 -2.102965116500854492e-01 -1.249779388308525085e-01 7.522475719451904297e-02 3.000839352607727051e-01 4.746291637420654297e-01 -3.309981152415275574e-02 2.342561632394790649e-01 -3.716447353363037109e-01 2.743142843246459961e-02 3.571889922022819519e-02 3.638018965721130371e-01 3.433475494384765625e-01 6.728583574295043945e-01 -1.607976108789443970e-01 1.924303025007247925e-01 3.956768512725830078e-01 2.676261365413665771e-01 5.763165354728698730e-01 7.964942604303359985e-03 1.270043384283781052e-02 -1.039641443639993668e-02 1.439586877822875977e-01 -2.871894277632236481e-02 -1.086870953440666199e-01 2.088949978351593018e-01 2.688393890857696533e-01 8.821894973516464233e-02 -2.297852374613285065e-02 1.112277247011661530e-02 4.387360811233520508e-01 -1.568907052278518677e-01 2.768856585025787354e-01 5.272973179817199707e-01 2.855264544486999512e-01 -3.065223395824432373e-01 -1.981604546308517456e-01 -1.266754269599914551e-01 -1.022967472672462463e-01 3.610514104366302490e-02 -2.212944477796554565e-01 -5.949415564537048340e-01 -1.992812603712081909e-01 2.379647195339202881e-01 1.339343637228012085e-01 2.798846550285816193e-02 7.492928300052881241e-03 -8.341301977634429932e-02 -1.593306213617324829e-01 -1.177427545189857483e-02 -6.150898337364196777e-01 7.381422072649002075e-02 8.334793895483016968e-02 4.355818405747413635e-02 -3.747318983078002930e-01 3.074826300144195557e-02 1.748133748769760132e-01 -1.762396991252899170e-01 -1.452706754207611084e-01 -3.275359272956848145e-01 2.790991067886352539e-01 -9.811677038669586182e-02 -1.950901933014392853e-02 -1.778187230229377747e-02 5.524460077285766602e-01 -1.202266663312911987e-01 3.180319368839263916e-01 -1.904599368572235107e-02 4.586578905582427979e-02 -2.630790472030639648e-01 4.821081161499023438e-01 1.261157840490341187e-01 1.219953149557113647e-01 -8.112100511789321899e-02 4.318574368953704834e-01 2.311420068144798279e-02 -7.030411362648010254e-01 -6.058266386389732361e-02 -4.954972490668296814e-02 -1.049148738384246826e-01 -1.573373377323150635e-01 3.292779028415679932e-01 -2.569614723324775696e-02 2.895917296409606934e-01 -1.021716818213462830e-01 4.524319171905517578e-01 1.867882311344146729e-01 4.612894356250762939e-02 2.030408754944801331e-02 3.898897022008895874e-02 -3.180596278980374336e-03 -1.027609594166278839e-02 -8.976640701293945312e-01 4.159635603427886963e-01 -8.426469564437866211e-02 -1.047999337315559387e-01 3.039100468158721924e-01 -1.622008383274078369e-01 2.433573640882968903e-02 -1.006371900439262390e-01 4.516718983650207520e-01 -9.104929119348526001e-02 1.911273039877414703e-02 3.601529821753501892e-02 -6.128959059715270996e-01 1.236054021865129471e-02 4.318263232707977295e-01 -1.029583513736724854e-01 4.012806341052055359e-02 3.806056380271911621e-01 2.650261484086513519e-02 -8.293161541223526001e-02 2.124180644750595093e-02 -1.451044976711273193e-01 8.375468850135803223e-02 -9.235491603612899780e-02 -8.966671675443649292e-02 -4.901553690433502197e-02 -3.380829095840454102e-02 -1.315519660711288452e-01 -6.748486310243606567e-02 -2.020191773772239685e-02 1.798907965421676636e-01 3.367153108119964600e-01 -1.037362664937973022e-01 -5.859530344605445862e-02 5.358513072133064270e-02 -3.223998248577117920e-01 -3.498573554679751396e-03 1.786181926727294922e-01 -2.105449140071868896e-01 -1.674673259258270264e-01 -3.140945360064506531e-02 -1.292407661676406860e-01 4.667687043547630310e-02 5.977327823638916016e-01 -2.550266683101654053e-02 -6.263725757598876953e-01 -1.551874130964279175e-01 4.155021905899047852e-01 -1.000058576464653015e-01 -3.661536052823066711e-02 -1.635473072528839111e-01 -1.485625505447387695e-01 -3.550576046109199524e-02 2.859488427639007568e-01 -1.678889095783233643e-01 -4.981516301631927490e-02 3.286266028881072998e-01 2.891518771648406982e-01 -2.352813035249710083e-01 -3.776191473007202148e-01 3.719653487205505371e-01 -3.355725854635238647e-02 -9.256779402494430542e-02 2.175953537225723267e-01 3.776167035102844238e-01 -1.613791882991790771e-01 -6.897988915443420410e-02 5.819168686866760254e-02 -4.349246323108673096e-01 1.440375000238418579e-01 2.912262082099914551e-01 3.312248289585113525e-01 7.767165452241897583e-02 -6.302007939666509628e-03 1.039739847183227539e-01 -3.738719597458839417e-02 -8.497028052806854248e-02 1.914959587156772614e-02 -1.405654251575469971e-01 3.947168588638305664e-01 3.360047936439514160e-01 -9.990588575601577759e-02 -2.254075556993484497e-01 5.405084490776062012e-01 -1.509693861007690430e-01 -2.983660697937011719e-01 -6.800319533795118332e-03 2.613451778888702393e-01 -1.498725358396768570e-02 -1.214539185166358948e-01 -4.950930476188659668e-01 1.061557009816169739e-01 6.239316985011100769e-02 -2.823332846164703369e-01 5.208998173475265503e-02 -1.101462692022323608e-01 4.560464024543762207e-01 6.777704358100891113e-01 5.910937786102294922e-01 -5.932647362351417542e-02 -1.373980045318603516e-01 -1.380417048931121826e-01 4.647073447704315186e-01 4.170943796634674072e-01 -1.596141904592514038e-01 -2.898889221251010895e-02 -1.193688586354255676e-01 -6.264626234769821167e-02 -3.551790714263916016e-01 2.219767570495605469e-01 2.688263654708862305e-01 -1.028585359454154968e-01 -1.673143953084945679e-01 -1.181456521153450012e-01 -7.194677740335464478e-02 -7.585848122835159302e-02 4.845493435859680176e-01 1.897579580545425415e-01 3.970893472433090210e-02 -2.075568139553070068e-01 7.189541310071945190e-02 1.923531480133533478e-02 -4.288167059421539307e-01 2.351974844932556152e-01 -3.469427525997161865e-01 1.548324525356292725e-01 -1.956992223858833313e-02 -7.179431915283203125e-01 -2.275066077709197998e-02 1.057238318026065826e-02 -3.357463777065277100e-01 -8.465957045555114746e-01 -1.302426606416702271e-01 -1.393880993127822876e-01 -1.508090347051620483e-01 -1.459833979606628418e-01 -2.098974436521530151e-01 -4.766843467950820923e-02 -2.949569523334503174e-01 -6.252562403678894043e-01 -3.910237848758697510e-01 -1.509565114974975586e-01 -1.149276614189147949e+00 -8.917003870010375977e-03 -2.851504087448120117e-01 -2.557781636714935303e-01 -6.107742711901664734e-02 3.862206339836120605e-01 -7.976178824901580811e-02 -5.367255583405494690e-02 -1.313105970621109009e-01 -1.129310205578804016e-01 7.154034972190856934e-01 -1.149067133665084839e-01 -1.129048466682434082e+00 1.002838760614395142e-01 -5.291082337498664856e-02 -1.037498861551284790e-01 -6.278815865516662598e-02 3.000262007117271423e-02 -6.781507134437561035e-01 -1.138061583042144775e-01 -7.951251864433288574e-01 -2.018761821091175079e-03
-3.119929134845733643e-01 1.684021949768066406e-01 -2.298811823129653931e-01 3.266203701496124268e-01 -2.421725913882255554e-02 -5.971360802650451660e-01 -4.060512408614158630e-03 4.955673813819885254e-01 4.483803212642669678e-01 5.399864912033081055e-01 -1.312956809997558594e-01 3.150634001940488815e-03 2.179697006940841675e-01 -4.715411365032196045e-01 -3.968198969960212708e-02 2.708455026149749756e-01 2.982168197631835938e-01 4.888889491558074951e-01 4.539308845996856689e-01 5.431159213185310364e-02 5.091937184333801270e-01 -9.052853286266326904e-02 3.558819890022277832e-01 4.731709361076354980e-01 7.008017040789127350e-03 -9.806447029113769531e-01 5.856542587280273438e-01 1.479403078556060791e-01 -3.106667399406433105e-01 2.594866156578063965e-01 4.551611468195915222e-02 -1.023155227303504944e-01 3.769386187195777893e-02 7.734057307243347168e-02 4.132917895913124084e-02 -2.252477705478668213e-01 -1.476383507251739502e-01 1.361551694571971893e-02 4.473378062248229980e-01 -2.108207717537879944e-02 1.646817624568939209e-01 -4.115183372050523758e-03 -3.897430002689361572e-02 -7.209938764572143555e-01 7.532657980918884277e-01 -3.739803135395050049e-01 -1.506914943456649780e-01 -1.416375339031219482e-01 -2.127817273139953613e-01 5.863146111369132996e-02 6.295678019523620605e-02 -1.751198768615722656e-01 -3.014035290107131004e-03 -1.689275950193405151e-01 8.396914005279541016e-01 -3.137101531028747559e-01 1.681310087442398071e-01 3.231568932533264160e-01 5.016453191637992859e-02 1.792527437210083008e-01 4.833779335021972656e-01 -1.116847276687622070e+00 1.279226690530776978e-01 -1.730832457542419434e-01 -3.704261779785156250e-01 9.717407822608947754e-02 -3.093857504427433014e-02 -3.881284594535827637e-01 -3.564035147428512573e-02 -3.155016899108886719e-01 -1.558514684438705444e-01 -1.107640787959098816e-01 3.715913891792297363e-01 4.624585509300231934e-01 7.797290384769439697e-02 4.500138387084007263e-02 -3.652932941913604736e-01 -4.468461871147155762e-01 4.324138164520263672e-01 1.503644436597824097e-01 -7.586494088172912598e-01 4.617281854152679443e-01 2.837482839822769165e-02 -1.171601116657257080e-01 8.489476144313812256e-02 -5.315958335995674133e-02 4.196165800094604492e-01 4.350750446319580078e-01 -7.852075994014739990e-02 3.150412142276763916e-01 8.034447580575942993e-02 6.061251834034919739e-02 4.400834143161773682e-01 -3.502997010946273804e-02 -8.323643356561660767e-03 1.168449819087982178e-01 -1.376849263906478882e-01 2.532343864440917969e-01 -6.601166725158691406e-01 -4.700786471366882324e-01 2.857227437198162079e-02 2.005353718996047974e-01 1.815643459558486938e-01 4.432964622974395752e-01 -1.805822104215621948e-01 1.791435293853282928e-02 -3.600879609584808350e-01 4.633873403072357178e-01 1.484179794788360596e-01 -1.378380358219146729e-01 -1.676844209432601929e-01 7.585129886865615845e-02 -1.195703744888305664e-01 -3.198544383049011230e-01 3.962437510490417480e-01 -3.542058467864990234e-01 4.728390872478485107e-01 -1.970964521169662476e-01 1.529934257268905640e-01 -5.384058505296707153e-02 -1.195893406867980957e+00 -3.527255654335021973e-01 2.516910731792449951e-01 -2.594432532787322998e-01 -1.228682875633239746e+00 -1.177970916032791138e-01 -3.360742703080177307e-02 3.730332851409912109e-01 -1.669566147029399872e-02 3.964526951313018799e-01 4.366218447685241699e-01 -1.776817739009857178e-01 -1.914228796958923340e-01 2.086082845926284790e-01 -5.378005281090736389e-02 2.940718531608581543e-01 -1.210741326212882996e-01 -1.967138200998306274e-01 4.451186656951904297e-01 1.250804066658020020e-01 -6.314668804407119751e-03 -8.307682871818542480e-01 5.237813293933868408e-02 2.185320407152175903e-01 9.480763673782348633e-01 4.076814949512481689e-01 3.841180205345153809e-01 -3.633182346820831299e-01 -2.040927857160568237e-01 -1.264382153749465942e-01 -6.259777396917343140e-02 -6.747187674045562744e-02 2.376213967800140381e-01 -2.092634141445159912e-01 5.366216413676738739e-03 -3.739970624446868896e-01 -3.833557963371276855e-01 -3.785867616534233093e-02 4.750210046768188477e-02 -2.746717929840087891e-01 -2.409340143203735352e-01 -3.122392892837524414e-01 1.833723336458206177e-01 -2.876857854425907135e-02 6.508775055408477783e-03 3.621330559253692627e-01 -1.888323873281478882e-01 9.244648367166519165e-02 3.943209052085876465e-01 -3.963240981101989746e-01 -1.623902171850204468e-01 -2.385597229003906250e-01 -1.171141210943460464e-02 8.321870118379592896e-02 -5.666734576225280762e-01 7.332342863082885742e-02 -4.689012765884399414e-01 -1.900723278522491455e-01 -3.980239331722259521e-01 4.535659849643707275e-01 -1.223166361451148987e-01 4.235176742076873779e-01 -1.644691228866577148e-01 -3.236013650894165039e-01 4.755733907222747803e-02 8.138003945350646973e-01 1.584420055150985718e-01 -1.807050555944442749e-01 -3.457833528518676758e-01 5.368570610880851746e-02 3.577568829059600830e-01 4.960264563560485840e-01 -2.029053568840026855e-01 9.853960014879703522e-03 8.446437120437622070e-01 -1.865685582160949707e-01 1.813469827175140381e-01 -2.326826378703117371e-02 7.617706060409545898e-01 -2.494695484638214111e-01 -3.158883154392242432e-01 -1.345897465944290161e-01 -7.533474266529083252e-02 -2.293969318270683289e-02 -3.747210502624511719e-01 -1.269733160734176636e-01 -1.657901853322982788e-01 -3.166144788265228271e-01 5.675732493400573730e-01 2.311310321092605591e-01 -2.395509183406829834e-01 2.063296586275100708e-01 -5.019056200981140137e-01 1.013218238949775696e-01 4.521383643150329590e-01 -1.715855747461318970e-01 -9.230914711952209473e-01 3.152194321155548096e-01 -2.220811545848846436e-01 3.574577346444129944e-02 -8.112023770809173584e-02 8.567189797759056091e-03 1.499815732240676880e-01 1.965968757867813110e-01 7.067253440618515015e-02 7.428015768527984619e-02 6.391390413045883179e-02 -3.421066403388977051e-01 2.150352448225021362e-01 -1.189820647239685059e+00 -5.226554274559020996e-01 -8.858455717563629150e-02 -2.643017098307609558e-02 -9.263517707586288452e-02 5.952263996005058289e-02 7.883214391767978668e-03 4.637902975082397461e-01 1.262961328029632568e-01 2.433034330606460571e-01 3.044246733188629150e-01 -2.892646193504333496e-01 -1.206354051828384399e-01 -9.911062568426132202e-02 4.066065847873687744e-01 9.996324777603149414e-02 6.350026279687881470e-02 -2.119695693254470825e-01 2.387524768710136414e-02 6.915259361267089844e-01 7.690861821174621582e-01 -2.214497476816177368e-01 5.137763619422912598e-01 -3.076301515102386475e-02 -2.680172622203826904e-01 6.125227548182010651e-03 2.635373473167419434e-01 -3.430835306644439697e-01 3.090391159057617188e-01 2.695611119270324707e-02 2.815259993076324463e-01 2.357953190803527832e-01 -2.624827623367309570e-01 1.044522002339363098e-01 -1.670520156621932983e-01 3.150246739387512207e-01 -3.036514972336590290e-04 -3.149168491363525391e-01 -1.366877108812332153e-01 8.856112509965896606e-02 -3.697602450847625732e-01 -3.024504482746124268e-01 1.913713812828063965e-01 -2.016263315454125404e-03 -2.233677059412002563e-01 -1.061502814292907715e+00 3.996776938438415527e-01 1.638861000537872314e-02 3.216395378112792969e-01 -3.291344270110130310e-02 3.872025609016418457e-01 -3.561724210157990456e-03 7.716709282249212265e-03 -1.272673010826110840e-01 5.850654840469360352e-01 1.897918283939361572e-01 -1.437214855104684830e-02 3.185501322150230408e-02 1.378185600042343140e-01 2.136375606060028076e-01 -1.442075967788696289e-01 -1.044973731040954590e-01 -3.034123964607715607e-02 -4.777175486087799072e-01 -5.472642779350280762e-01 5.179646983742713928e-02 2.026837021112442017e-01 -6.218122243881225586e-01 2.003125660121440887e-02 -2.370155416429042816e-02 5.104992985725402832e-01 5.428442955017089844e-01 1.867211163043975830e-01 5.575414896011352539e-01 4.068896174430847168e-01 1.027954295277595520e-01 2.654874324798583984e-02 -1.929053068161010742e-01 -1.520037800073623657e-01 -2.916108369827270508e-01 -6.734611233696341515e-04 1.799860298633575439e-01 7.881875336170196533e-02 2.286347895860671997e-01 5.157983303070068359e-01 -2.025164663791656494e-01 -2.533916234970092773e-01 -3.274428844451904297e-01 3.956704735755920410e-01 2.927098274230957031e-01 2.495547682046890259e-01 -1.280803233385086060e-01 4.693627357482910156e-01 -6.216459441930055618e-03 -2.654712796211242676e-01 -4.686281085014343262e-02 2.335561066865921021e-01 1.173197180032730103e-01 3.258921578526496887e-02 1.941973567008972168e-01 1.673530042171478271e-01 6.497521419078111649e-03 -1.161388531327247620e-01 2.435345761477947235e-02 -1.642700284719467163e-01 -3.405486643314361572e-01 2.718915045261383057e-01 -1.813138574361801147e-01 -1.238459795713424683e-01 2.747548818588256836e-01 -4.585265219211578369e-01 -1.615782827138900757e-01 -6.545258313417434692e-02 -1.434933990240097046e-01 4.687713831663131714e-02 2.925232946872711182e-01 6.097837686538696289e-01 -1.698099821805953979e-01 -1.286691725254058838e-01 8.888491988182067871e-02 -6.280932426452636719e-01 1.922710686922073364e-01 -1.184142976999282837e-01 1.435845494270324707e-01 -2.405712306499481201e-01 -6.673784255981445312e-01 3.980902433395385742e-01 -1.977110654115676880e-02 1.075105369091033936e-01 3.489357605576515198e-02 -1.736626625061035156e-01 3.270190656185150146e-01 -1.188206315040588379e+00 1.180955860763788223e-02 6.503151059150695801e-01 -3.345428779721260071e-02 2.867594361305236816e-01 7.201418876647949219e-01 6.026020646095275879e-01 -1.247605830430984497e-01 2.443929947912693024e-02 -9.244798123836517334e-02 1.688088327646255493e-01 1.166182830929756165e-01 2.180696465075016022e-02 1.641662418842315674e-01 1.033170819282531738e+00 7.439746856689453125e-01 3.886252939701080322e-01 4.319250583648681641e-02 -2.940402328968048096e-01 3.602379560470581055e-01 -3.770936429500579834e-01 3.322086930274963379e-01 7.714095711708068848e-02 3.006099462509155273e-01 5.010915398597717285e-01 3.177559077739715576e-01 -9.831880778074264526e-02 -6.159631907939910889e-02 3.893522322177886963e-01 1.753790974617004395e-01 4.213706254959106445e-01 2.469916492700576782e-01 -5.678431317210197449e-02 -2.658557705581188202e-02 -2.616516686975955963e-02 -1.948970407247543335e-01 2.975097857415676117e-02 3.753520250320434570e-01 -6.929479539394378662e-02
1.634953320026397705e-01 -2.380089163780212402e-01 2.901230454444885254e-01 -1.957394555211067200e-02 -2.709494531154632568e-01 -4.989025294780731201e-01 -3.258594498038291931e-02 -2.686298787593841553e-01 3.545212149620056152e-01 4.206934273242950439e-01 -1.576945483684539795e-01 -5.895068403333425522e-03 -2.877063751220703125e-01 -4.306494817137718201e-02 1.071372181177139282e-01 -5.657620429992675781e-01 5.564905405044555664e-01 -5.889024734497070312e-01 5.603612959384918213e-02 -8.730682730674743652e-02 4.805957078933715820e-01 -1.208688169717788696e-01 -4.155389666557312012e-01 -9.728192538022994995e-02 -4.513021558523178101e-03 7.575558423995971680e-01 -1.745377629995346069e-01 -9.491786360740661621e-02 1.386511921882629395e-01 -2.253692001104354858e-01 2.408054471015930176e-02 1.673253327608108521e-01 -3.993751015514135361e-03 -2.426881045103073120e-01 -7.692228257656097412e-02 1.681667864322662354e-01 -1.601487696170806885e-01 -5.740567669272422791e-02 7.367614507675170898e-01 -1.084878221154212952e-01 -1.609769016504287720e-01 -1.662698574364185333e-02 -5.972440540790557861e-02 -1.144772917032241821e-01 -3.995881080627441406e-01 2.002256214618682861e-01 -6.859952211380004883e-02 2.467681095004081726e-02 2.978749275207519531e-01 4.324267152696847916e-03 -2.422466576099395752e-01 -1.350454837083816528e-01 -5.031418800354003906e-02 -1.302230834960937500e+00 -1.819304972887039185e-01 4.571134150028228760e-01 -1.683658212423324585e-01 -7.704593241214752197e-02 -1.202882006764411926e-01 -3.218705654144287109e-01 -3.511475622653961182e-01 2.945743203163146973e-01 -1.561670452356338501e-01 1.914222836494445801e-01 -7.782607674598693848e-01 -1.616499572992324829e-01 5.232300758361816406e-01 2.115298509597778320e-01 -2.243352681398391724e-02 4.060365259647369385e-01 -1.250876784324645996e-01 -1.418398618698120117e-01 -1.672433763742446899e-01 -1.298174262046813965e+00 -5.005728006362915039e-01 6.620428711175918579e-02 2.245526015758514404e-01 8.284841477870941162e-02 -4.416067153215408325e-02 -3.215423822402954102e-01 1.734426915645599365e-01 -6.762786507606506348e-01 -4.489353671669960022e-02 -1.794842071831226349e-02 7.076070308685302734e-01 3.468711674213409424e-01 -2.227393537759780884e-01 -1.901350617408752441e-01 -1.079829409718513489e-01 -2.764398753643035889e-01 -6.562488675117492676e-01 1.591915381141006947e-03 5.427037924528121948e-02 3.798525547608733177e-03 3.348741307854652405e-02 -1.093394160270690918e-01 -2.084766924381256104e-01 -2.000824958086013794e-01 6.144716143608093262e-01 5.634638667106628418e-01 2.230020239949226379e-03 -4.576114416122436523e-01 7.302874326705932617e-01 6.163263916969299316e-01 -2.913355827331542969e-01 4.758566152304410934e-03 9.182299375534057617e-01 2.456561774015426636e-01 -8.375720120966434479e-03 -1.281706839799880981e-01 -1.065973937511444092e-01 -5.530038848519325256e-02 -5.505774170160293579e-02 5.655674338340759277e-01 -1.292761564254760742e-01 1.816566139459609985e-01 -1.519975066184997559e-01 3.616165220737457275e-01 -1.457841694355010986e-01 -1.450017243623733521e-01 7.486820816993713379e-01 4.824825823307037354e-01 -3.397735953330993652e-02 1.602680087089538574e-01 6.651748418807983398e-01 -1.380099356174468994e-01 -9.442646801471710205e-02 -1.865310072898864746e-01 -8.840751647949218750e-02 -3.894636631011962891e-01 1.452584564685821533e-01 -2.564132027328014374e-02 5.043918490409851074e-01 -2.263304293155670166e-01 -1.601110547780990601e-01 -3.553616255521774292e-02 -1.653547137975692749e-01 5.726407747715711594e-03 5.664656162261962891e-01 -7.178202737122774124e-03 -2.196379750967025757e-02 7.082935571670532227e-01 8.462608605623245239e-02 1.148121729493141174e-01 -1.168827891349792480e+00 -2.207186967134475708e-01 -1.844576746225357056e-01 2.110725194215774536e-01 4.245640337467193604e-01 6.016722917556762695e-01 -1.049788296222686768e-01 4.668458998203277588e-01 -4.837628304958343506e-01 -1.195665448904037476e-02 3.552548587322235107e-02 4.968349635601043701e-01 3.674437999725341797e-01 7.878468632698059082e-01 -1.932373940944671631e-01 1.719301939010620117e-01 4.776436388492584229e-01 2.927326261997222900e-01 7.671058177947998047e-01 3.783984482288360596e-02 4.143915697932243347e-02 -4.290649667382240295e-02 1.783609241247177124e-01 -6.366933137178421021e-02 -1.646182239055633545e-01 3.135593533515930176e-01 3.295031785964965820e-01 -4.824587702751159668e-02 -1.826094090938568115e-02 -8.896959573030471802e-02 5.937013030052185059e-01 -2.269998192787170410e-01 3.758796453475952148e-01 6.981315016746520996e-01 3.216965496540069580e-01 -4.068914949893951416e-01 -2.207266837358474731e-01 -1.466109603643417358e-01 -1.529507339000701904e-01 6.056905165314674377e-02 -1.970726996660232544e-01 -7.041296362876892090e-01 -2.817058563232421875e-01 3.019947409629821777e-01 2.097349911928176880e-01 -4.644125327467918396e-02 -3.040875867009162903e-02 -1.326639503240585327e-01 -1.600932627916336060e-01 6.402669474482536316e-03 -8.654242753982543945e-01 1.204209476709365845e-01 7.495144009590148926e-02 1.360328309237957001e-02 -4.806832075119018555e-01 4.290639981627464294e-02 3.071026802062988281e-01 -1.630023866891860962e-01 -1.526848822832107544e-01 -3.671206831932067871e-01 2.810381948947906494e-01 -1.660977303981781006e-01 -3.792161494493484497e-02 -7.281289994716644287e-02 5.547978281974792480e-01 -1.367076635360717773e-01 3.265213370323181152e-01 -8.790856599807739258e-02 -1.353348512202501297e-02 -5.991007089614868164e-01 5.592437386512756348e-01 1.640136539936065674e-01 1.312018334865570068e-01 -8.350025117397308350e-02 4.879615306854248047e-01 3.860778734087944031e-02 -8.802268505096435547e-01 -1.951180212199687958e-02 2.564697992056608200e-03 -1.339720487594604492e-01 -1.951722949743270874e-01 3.274269104003906250e-01 -3.185596317052841187e-02 3.679691255092620850e-01 -1.613383144140243530e-01 5.521151423454284668e-01 2.334311008453369141e-01 -1.277989298105239868e-01 3.473795950412750244e-02 -8.680244535207748413e-02 -5.372798070311546326e-02 -1.071633305400609970e-02 -1.115174293518066406e+00 5.706048011779785156e-01 7.107616961002349854e-02 -5.838479101657867432e-02 4.064100980758666992e-01 -1.445006579160690308e-01 -5.393039062619209290e-02 -5.697520449757575989e-02 5.352563261985778809e-01 -7.126302272081375122e-02 3.238992393016815186e-02 -8.566859178245067596e-03 -7.708936929702758789e-01 -2.343319654464721680e-01 4.723660051822662354e-01 -1.825946718454360962e-01 1.343285888433456421e-01 4.191095530986785889e-01 -1.557495724409818649e-02 -8.088045567274093628e-02 1.555927395820617676e-01 -1.416590958833694458e-01 2.804183214902877808e-02 -9.278925508260726929e-02 -1.418139338493347168e-01 -7.698947191238403320e-02 -7.037456333637237549e-02 -2.007937282323837280e-01 6.484139594249427319e-04 -4.219661653041839600e-02 1.979406028985977173e-01 4.336841106414794922e-01 -2.298627942800521851e-01 -3.475004434585571289e-02 2.036741748452186584e-02 -3.553761839866638184e-01 -7.645764388144016266e-03 2.011371701955795288e-01 -2.042777836322784424e-01 -1.801124215126037598e-01 -4.982682690024375916e-02 -1.620952636003494263e-01 -2.742785401642322540e-02 6.716254949569702148e-01 -7.869585417211055756e-03 -6.596703529357910156e-01 -1.757207959890365601e-01 3.436273038387298584e-01 -8.979825675487518311e-02 1.206391141749918461e-03 -2.221447080373764038e-01 -1.842595189809799194e-01 -2.736864052712917328e-02 3.707774281501770020e-01 -1.493591964244842529e-01 1.298926621675491333e-01 3.326732218265533447e-01 3.162102699279785156e-01 -3.119251728057861328e-01 -3.935284316539764404e-01 5.365002155303955078e-01 1.221674960106611252e-02 -1.299825012683868408e-01 3.583076894283294678e-01 4.030779004096984863e-01 -2.222575694322586060e-01 -1.371464878320693970e-01 1.495742518454790115e-02 -5.482258200645446777e-01 1.686229556798934937e-01 3.645647466182708740e-01 4.051237404346466064e-01 8.552039414644241333e-02 1.593479365110397339e-01 9.094274044036865234e-02 -3.941493853926658630e-02 -5.420677363872528076e-02 2.528588846325874329e-02 -2.174120992422103882e-01 4.747785329818725586e-01 4.120912253856658936e-01 -1.796661317348480225e-01 -2.849590778350830078e-01 6.853448152542114258e-01 -2.144895046949386597e-01 -3.608140051364898682e-01 2.161060646176338196e-02 3.460553288459777832e-01 -5.910629034042358398e-02 -1.487025320529937744e-01 -5.082803964614868164e-01 6.926713138818740845e-02 -4.098925366997718811e-02 -1.477627158164978027e-01 1.275167148560285568e-02 -1.429588347673416138e-01 6.218517422676086426e-01 7.292303442955017090e-01 7.301056981086730957e-01 -6.262943148612976074e-02 -1.315071582794189453e-01 -1.825348287820816040e-01 5.821741819381713867e-01 4.960755109786987305e-01 -1.859990507364273071e-01 -5.302591621875762939e-02 -1.330162137746810913e-01 -7.637047022581100464e-02 -3.876165747642517090e-01 2.554803788661956787e-01 3.194632232189178467e-01 -1.717011444270610809e-02 -1.132361069321632385e-01 -1.221635267138481140e-01 -9.152641892433166504e-02 -1.829385906457901001e-01 6.043981313705444336e-01 3.013579845428466797e-01 -1.855975948274135590e-02 -2.928573191165924072e-01 5.988515913486480713e-02 1.859337240457534790e-01 -5.071735978126525879e-01 3.687078356742858887e-01 -3.972648680210113525e-01 2.522049546241760254e-01 -9.732729941606521606e-02 -8.268009424209594727e-01 -8.603276684880256653e-03 -6.518613547086715698e-02 -4.717001318931579590e-01 -1.055305957794189453e+00 -1.073955520987510681e-01 -1.654511243104934692e-01 -1.473040580749511719e-01 -2.098792195320129395e-01 -2.748338878154754639e-01 -5.677654221653938293e-02 -2.693111300468444824e-01 -8.411663770675659180e-01 -4.708436131477355957e-01 -1.511947661638259888e-01 -1.393084883689880371e+00 -1.753084361553192139e-01 -1.668025702238082886e-01 -3.130646944046020508e-01 -9.292066097259521484e-03 4.455650448799133301e-01 -1.412772238254547119e-01 -8.661597222089767456e-02 -2.151327729225158691e-01 -1.545820385217666626e-01 9.447157382965087891e-01 -7.931783050298690796e-02 -1.408379554748535156e+00 1.122446656227111816e-01 -9.816897660493850708e-02 -7.087683677673339844e-02 -5.071682482957839966e-02 -1.846525073051452637e-02 -9.396052956581115723e-01 -1.273477673530578613e-01 -1.038087129592895508e+00 -1.217692391946911812e-03
