2.382726222276687622e-01
6.280447542667388916e-02
-7.387386634945869446e-03
2.631148099899291992e-01
2.039547115564346313e-01
2.780366837978363037e-01
-3.063752129673957825e-02
2.881882488727569580e-01
2.507879734039306641e-01
4.445725679397583008e-01
3.993775546550750732e-01
-7.797364890575408936e-02
1.407322585582733154e-01
7.695492357015609741e-02
-2.136693000793457031e-01
-2.404013276100158691e-01
1.756497770547866821e-01
3.900299668312072754e-01
1.023295819759368896e-01
1.392503231763839722e-01
3.686776459217071533e-01
3.293400704860687256e-01
2.224857509136199951e-01
3.082207739353179932e-01
-7.446678727865219116e-02
-5.023742914199829102e-01
-3.461029827594757080e-01
-9.708584845066070557e-02
9.002081304788589478e-02
9.766502305865287781e-03
-2.015742659568786621e-02
3.372368589043617249e-02
-3.247897699475288391e-02
-2.235843054950237274e-02
3.423727676272392273e-02
-5.744761228561401367e-02
3.987117111682891846e-01
2.527834475040435791e-01
4.661585986614227295e-01
3.108109533786773682e-01
1.905208677053451538e-01
-4.190054535865783691e-02
2.658648490905761719e-01
6.474868953227996826e-02
-5.789082646369934082e-01
-1.075123772025108337e-01
-1.360458582639694214e-01
1.528930813074111938e-01
4.067368507385253906e-01
-3.478735312819480896e-02
2.454036772251129150e-01
3.971737325191497803e-01
-1.074784784577786922e-03
2.251814752817153931e-01
-6.400804519653320312e-01
-1.431425958871841431e-01
1.509586721658706665e-01
-2.548395991325378418e-01
1.719858050346374512e-01
1.519596278667449951e-01
9.661280363798141479e-02
-1.834805123507976532e-02
1.670217514038085938e-01
9.358820319175720215e-02
1.830962449312210083e-01
-1.231545396149158478e-02
-3.639767765998840332e-01
2.479130327701568604e-01
-7.393106818199157715e-02
-9.328043460845947266e-02
3.651425242424011230e-01
3.403894305229187012e-01
-3.273299708962440491e-02
-2.560340762138366699e-01
6.957554817199707031e-02
-2.147835344076156616e-01
-7.347034662961959839e-02
2.886864542961120605e-01
2.488804757595062256e-01
1.648704409599304199e-01
3.630543947219848633e-01
2.685607373714447021e-01
1.821188479661941528e-01
2.405414581298828125e-01
4.971434772014617920e-01
-1.898363083600997925e-01
1.697904169559478760e-01
-2.714643180370330811e-01
3.072564303874969482e-01
2.594431303441524506e-02
-2.628607153892517090e-01
-2.330208010971546173e-02
2.523192763328552246e-01
-2.935118079185485840e-01
-2.407326363027095795e-02
-2.173801884055137634e-02
4.178646206855773926e-01
5.453290790319442749e-02
2.064037024974822998e-01
6.597703695297241211e-02
-3.895423933863639832e-02
2.098541855812072754e-01
2.620027959346771240e-01
2.596656382083892822e-01
3.428280055522918701e-01
-6.831859797239303589e-02
-1.325287371873855591e-01
2.710338532924652100e-01
1.472405791282653809e-01
3.978804647922515869e-01
3.840771615505218506e-01
-9.071659296751022339e-02
1.831363141536712646e-02
5.584452673792839050e-02
2.157189697027206421e-01
1.306512057781219482e-01
-1.346674114465713501e-01
-1.106734871864318848e-01
1.264387518167495728e-01
3.596550226211547852e-01
3.648879528045654297e-01
2.876417338848114014e-01
2.187938690185546875e-01
1.806242913007736206e-01
-3.010174632072448730e-01
3.930583894252777100e-01
2.306501567363739014e-01
-5.097895115613937378e-02
2.644500732421875000e-01
-2.239557057619094849e-01
-4.700113534927368164e-01
2.704199254512786865e-01
-4.441642463207244873e-01
-3.656542301177978516e-01
3.859281837940216064e-01
1.429613679647445679e-01
4.256043136119842529e-01
-1.243592705577611923e-02
2.228366285562515259e-01
-1.777633428573608398e-01
-4.444821551442146301e-02
-1.241574212908744812e-01
2.022892236709594727e-01
-4.247300326824188232e-02
-3.809926807880401611e-01
-2.821427285671234131e-01
7.348040491342544556e-02
1.609900444746017456e-01
2.572543360292911530e-02
8.839591592550277710e-02
2.411208450794219971e-01
-1.369287073612213135e-01
-1.778431236743927002e-01
7.416290044784545898e-02
-4.427284747362136841e-02
-8.182283490896224976e-02
-1.138886362314224243e-01
-5.110980868339538574e-01
2.442003041505813599e-01
2.081661373376846313e-01
2.823225595057010651e-02
-6.209647655487060547e-02
2.733847200870513916e-01
-6.421891599893569946e-02
-3.129589557647705078e-02
3.171007335186004639e-01
-1.770554110407829285e-02
2.387685328722000122e-02
1.283569168299436569e-02
3.412197902798652649e-02
-2.444629222154617310e-01
3.474178537726402283e-02
-3.863491490483283997e-02
9.817585349082946777e-02
-1.075552478432655334e-01
2.145337127149105072e-02
-3.381767868995666504e-01
4.358994364738464355e-01
4.941617697477340698e-02
-5.102542415261268616e-02
4.214662611484527588e-01
-1.568925231695175171e-01
3.834575116634368896e-01
-6.926646083593368530e-02
2.937826812267303467e-01
-2.466558068990707397e-01
1.118070259690284729e-01
-1.860557347536087036e-01
9.975458495318889618e-03
1.477628797292709351e-01
-3.818137347698211670e-01
3.058666586875915527e-01
4.318680763244628906e-01
-6.735382974147796631e-02
-2.466233819723129272e-01
-1.099030673503875732e-01
-6.846425682306289673e-02
-2.138520777225494385e-02
-4.690415263175964355e-01
-2.391292601823806763e-01
2.505521522834897041e-03
4.449884891510009766e-01
-1.684006303548812866e-01
-1.495889574289321899e-01
-5.795284360647201538e-02
3.137380182743072510e-01
1.883862763643264771e-01
4.425155743956565857e-02
3.896242082118988037e-01
3.129368647933006287e-02
-8.590839803218841553e-02
1.357252448797225952e-01
1.662121415138244629e-01
1.965404003858566284e-01
2.342220544815063477e-01
-4.715806245803833008e-02
5.815517306327819824e-01
1.750556677579879761e-01
2.419224977493286133e-01
2.283430993556976318e-01
1.595419645309448242e-01
-3.475496172904968262e-02
1.442420780658721924e-01
-1.627583056688308716e-01
4.888348653912544250e-02
-5.597264766693115234e-01
-6.058261170983314514e-02
-1.646767407655715942e-01
-5.556683521717786789e-03
2.745176255702972412e-01
-1.737938821315765381e-01
-4.536687955260276794e-02
-2.571332501247525215e-03
2.240036427974700928e-01
1.771052330732345581e-01
-5.718524008989334106e-02
1.359501034021377563e-01
2.147258371114730835e-01
2.096750140190124512e-01
-4.257369413971900940e-02
-1.240587905049324036e-01
4.224420785903930664e-01
4.414082691073417664e-02
2.362105548381805420e-01
3.283637762069702148e-01
4.734046384692192078e-02
1.793876886367797852e-01
-7.249277085065841675e-02
-2.385129630565643311e-01
4.347774088382720947e-01
6.018183007836341858e-02
2.437151968479156494e-01
-1.318464577198028564e-01
4.346794635057449341e-02
-7.830750942230224609e-02
-5.035498738288879395e-02
5.690320953726768494e-02
8.337826281785964966e-02
9.475365281105041504e-02
-1.201853975653648376e-01
-6.387161463499069214e-02
1.188722401857376099e-01
-1.869213134050369263e-01
4.450349509716033936e-01
4.073635041713714600e-01
1.834083050489425659e-01
6.070008501410484314e-02
3.131886720657348633e-01
4.431302547454833984e-01
-2.561471164226531982e-01
4.994970187544822693e-02
2.916758060455322266e-01
-4.231300950050354004e-02
-2.563042938709259033e-02
4.190982878208160400e-01
1.761311851441860199e-02
-7.541886717081069946e-02
-2.122001647949218750e-01
-4.198648035526275635e-02
1.123451292514801025e-01
-1.029943823814392090e-01
4.249921441078186035e-01
4.247088134288787842e-01
4.900783300399780273e-01
2.371382564306259155e-01
2.111252248287200928e-01
1.518473029136657715e-01
-2.530384957790374756e-01
-4.222999885678291321e-02
1.683708578348159790e-01
4.088805615901947021e-01
-3.804764151573181152e-02
4.364513978362083435e-02
-2.864623665809631348e-01
-7.586086541414260864e-02
1.651120185852050781e-01
-4.899964109063148499e-02
-2.574532292783260345e-02
3.474487066268920898e-01
3.800182640552520752e-01
3.730194866657257080e-01
-9.723553061485290527e-02
-1.644503474235534668e-01
4.353079795837402344e-01
5.727659538388252258e-02
-2.539915964007377625e-02
-1.752618253231048584e-01
-3.414693176746368408e-01
8.181493729352951050e-02
2.587093710899353027e-01
1.552933603525161743e-01
1.753171533346176147e-01
1.459869295358657837e-01
-1.412675678730010986e-01
4.711291491985321045e-01
4.750323016196489334e-03
-6.900247186422348022e-02
1.574531644582748413e-01
1.556011438369750977e-01
5.824106931686401367e-01
3.285066187381744385e-01
1.371572026982903481e-03
-6.782748550176620483e-02
-8.760897070169448853e-02
2.084341943264007568e-01
4.450290650129318237e-02
-2.384760081768035889e-01
-6.339907646179199219e-02
1.614395231008529663e-01
2.264073044061660767e-01
-6.176563352346420288e-02
2.854228317737579346e-01
-5.297552347183227539e-01
-7.198747247457504272e-02
5.307095497846603394e-02
-2.537307143211364746e-01
3.793546855449676514e-01
3.759626746177673340e-01
2.688049376010894775e-01
-7.847684435546398163e-03
4.470004141330718994e-01
2.792281210422515869e-01
3.635315299034118652e-01
-1.946381926536560059e-01
-3.087579011917114258e-01
3.981821238994598389e-01
9.943525306880474091e-03
2.105249166488647461e-01
3.336601331830024719e-02
1.257562786340713501e-01
2.421055734157562256e-01
3.869174122810363770e-01
-4.612445831298828125e-02
-9.152881801128387451e-02
-2.469888776540756226e-01
6.045853346586227417e-02
-1.759199984371662140e-02
1.466146111488342285e-01
2.657639384269714355e-01
-6.298272311687469482e-02
-2.597256898880004883e-01
3.386540710926055908e-01
2.867624759674072266e-01
-5.072003602981567383e-01
1.677769422531127930e-01
2.034660726785659790e-01
-6.641153693199157715e-01
-1.260124146938323975e-01
3.926883041858673096e-01
-1.614722795784473419e-02
3.999780118465423584e-01
9.630981087684631348e-02
-1.893178224563598633e-01
1.902305483818054199e-01
-3.019982762634754181e-02
-5.494002103805541992e-01
-2.312821894884109497e-01
1.770944148302078247e-01
1.135583221912384033e-01
3.844558894634246826e-01
-1.670417040586471558e-01
4.077687263488769531e-01
2.656041085720062256e-01
-6.108805537223815918e-01
3.262908756732940674e-01
3.652708232402801514e-01
1.104092807509005070e-03
3.416784107685089111e-01
-2.527602910995483398e-01
1.750588566064834595e-01
3.150997161865234375e-01
7.374422997236251831e-02
-5.982261523604393005e-02
1.520115137100219727e-01
2.960363626480102539e-01
-6.185799464583396912e-02
-2.908050119876861572e-01
-2.767976745963096619e-02
-2.986892461776733398e-01
9.009610861539840698e-02
