1.097309589385986328e-02 3.911836072802543640e-02 -3.459290787577629089e-02 4.008233547210693359e-02 2.465469576418399811e-02 -4.720647633075714111e-02 2.762759104371070862e-02 1.300128921866416931e-02 -9.693452739156782627e-04 3.262010589241981506e-02 -4.748824518173933029e-03 1.707487180829048157e-02 -1.621574163436889648e-03 -4.380984976887702942e-02 3.718373831361532211e-03 -1.666401326656341553e-02 3.828809782862663269e-02 -3.760690614581108093e-02 -1.749316602945327759e-02 -3.634351491928100586e-02 -2.226650714874267578e-03 3.268858417868614197e-02 1.507527753710746765e-02 -3.958567976951599121e-04 2.903249487280845642e-02 2.116207964718341827e-02 4.178333654999732971e-02 -4.749060422182083130e-02 -3.429104760289192200e-02 2.317105233669281006e-02 2.004161849617958069e-02 4.178144037723541260e-03 2.139451354742050171e-02 -2.537677250802516937e-02 1.082941889762878418e-04 7.080845534801483154e-02 -1.192502095364034176e-03 -1.120961643755435944e-02 3.501408500596880913e-03 -4.091971367597579956e-02 -1.555695943534374237e-02 2.728046290576457977e-02 1.661752117797732353e-03 4.808745160698890686e-02 -2.241903916001319885e-02 -4.518500342965126038e-02 1.662150584161281586e-02 1.501030754297971725e-02 -3.934282064437866211e-02 -9.761963970959186554e-03 -1.981470361351966858e-02 -4.203089699149131775e-02 -3.415917232632637024e-02 1.478529814630746841e-02 4.152845963835716248e-02 7.181174308061599731e-02 -3.993978351354598999e-02 -3.116259165108203888e-02 -2.568913623690605164e-03 -4.653266072273254395e-02 -7.161221001297235489e-03 -4.057646729052066803e-03 8.288868516683578491e-02 4.984418675303459167e-02 3.350098431110382080e-02 9.402203559875488281e-02 -1.083783060312271118e-02 -4.206490516662597656e-02 -3.515485674142837524e-02 1.693969033658504486e-02 1.007076352834701538e-02 4.315800964832305908e-02 -3.255700320005416870e-02 4.927874356508255005e-02 3.569944202899932861e-02 2.116240561008453369e-03 4.685895517468452454e-02 -7.908593863248825073e-03 1.186839863657951355e-02 3.623792156577110291e-02 1.158628799021244049e-02 -1.138806622475385666e-02 4.010388627648353577e-02 1.187380123883485794e-02 6.896760314702987671e-03 8.170731365680694580e-03 2.512363158166408539e-02 -4.654325917363166809e-02 -7.280616555362939835e-03 3.785807266831398010e-02 5.056576803326606750e-02 8.807065896689891815e-03 -2.313446439802646637e-02 4.247452598065137863e-03 1.546443626284599304e-02 2.490786463022232056e-02 -2.653959952294826508e-02 -1.349954120814800262e-02 -3.803372383117675781e-02 -2.784749306738376617e-02 -7.763430476188659668e-04 -9.659098461270332336e-03 -3.595753759145736694e-02 7.696032524108886719e-03 4.026566818356513977e-02 4.004815593361854553e-02 2.586174290627241135e-03 2.266813069581985474e-03 -4.785370081663131714e-03 3.907427191734313965e-02 -4.676899313926696777e-02 -1.638985425233840942e-02 1.293220743536949158e-02 1.551642455160617828e-02 3.945459797978401184e-02 3.324018418788909912e-02 1.494769100099802017e-02 4.144034907221794128e-02 -2.980135753750801086e-02 -1.438756659626960754e-02 -1.198083441704511642e-02 3.477874770760536194e-02 -5.327692255377769470e-02 1.746750995516777039e-02 -2.460116706788539886e-02 -3.330708667635917664e-02 -3.919987007975578308e-02 1.588113792240619659e-02 -3.390937345102429390e-03 2.259146794676780701e-02 -1.895421184599399567e-02 1.857935264706611633e-02 6.124025210738182068e-02 -5.763672292232513428e-03 2.813839912414550781e-02 2.175739221274852753e-02 1.476860418915748596e-02 -6.438266485929489136e-03 1.315257139503955841e-02 2.994022145867347717e-02 -1.147855073213577271e-02 -1.975339837372303009e-02 -1.417486742138862610e-02 -3.631412982940673828e-02 3.098329529166221619e-02 3.421672806143760681e-02 1.343703642487525940e-02 -4.746444523334503174e-03 2.000897424295544624e-03 6.677567958831787109e-03 3.863064944744110107e-02 2.734012529253959656e-02 -4.727682098746299744e-02 -1.486399024724960327e-02 -6.563222408294677734e-02 3.248530626296997070e-02 -2.799911191686987877e-03 8.577518165111541748e-03 -3.663337975740432739e-02 4.642616957426071167e-03 -4.049287363886833191e-02 -3.647031635046005249e-02 -1.052858773618936539e-02 4.459405317902565002e-02 1.529217697679996490e-02 3.642098978161811829e-02 -3.932623565196990967e-02 -3.328097611665725708e-02 7.109465450048446655e-02 3.407702222466468811e-02 -3.530517220497131348e-02 1.230049505829811096e-02 2.081678062677383423e-02 4.029929637908935547e-02 1.453964319080114365e-02 -3.294602781534194946e-02 4.040148109197616577e-02 -7.850666530430316925e-03 1.571483165025711060e-02 -5.066674202680587769e-03 -3.322008252143859863e-02 -4.152170941233634949e-02 1.098634861409664154e-02 -3.255440667271614075e-02 -1.014415081590414047e-02 -4.152810946106910706e-02 -2.957840636372566223e-02 -3.966992348432540894e-02 4.734629020094871521e-02 8.569329045712947845e-03 4.221046110615134239e-04 1.010420843958854675e-01 -5.759686231613159180e-03 2.789523918181657791e-03 -3.990390896797180176e-02 -3.052599728107452393e-03 2.857578173279762268e-02 9.221612475812435150e-03 9.626193903386592865e-03 2.706499584019184113e-02 -3.808068484067916870e-02 1.137660443782806396e-02 6.965272768866270781e-05 -1.254193857312202454e-02 -6.947500258684158325e-02 1.060427725315093994e-02 4.576703533530235291e-02 -4.626357555389404297e-02 1.408782228827476501e-02 2.558997645974159241e-02 1.580286771059036255e-04 3.270250931382179260e-02 8.121491223573684692e-02 3.377059102058410645e-02 6.050900369882583618e-02 9.366312995553016663e-03 4.149520024657249451e-02 -3.303146362304687500e-02 -4.393091425299644470e-02 3.209532424807548523e-02 -2.070918213576078415e-03 -2.851735986769199371e-02 -3.790100663900375366e-02 -7.926654070615768433e-03 7.252333220094442368e-03 1.780187711119651794e-02 4.995096847414970398e-02 2.831941097974777222e-02 3.316970169544219971e-02 1.011445373296737671e-01 6.796218454837799072e-02 -1.579955592751502991e-02 -1.875820755958557129e-02 -2.338978648185729980e-02 -1.866367459297180176e-02 -1.401374768465757370e-02 -2.833214402198791504e-02 4.606818780303001404e-02 -1.239697635173797607e-02 -1.327115576714277267e-02 -4.778736084699630737e-02 -6.576985120773315430e-03 3.467691689729690552e-02 -2.163990214467048645e-02 3.341972082853317261e-02 1.075157672166824341e-01 6.058375537395477295e-02 2.826809510588645935e-02 2.814091555774211884e-02 -6.173353642225265503e-03 5.324705690145492554e-02 -7.471330463886260986e-03 -3.392963483929634094e-02 1.326382253319025040e-02 -3.059136122465133667e-02 6.554754078388214111e-02 4.046556726098060608e-02 -2.997962199151515961e-02 7.075137458741664886e-03 4.658143594861030579e-02 -7.400847971439361572e-03 -3.793537616729736328e-02 1.435842737555503845e-02 3.911769762635231018e-02 -8.976899087429046631e-03 -1.228238549083471298e-02 -3.480058163404464722e-03 2.961328625679016113e-02 3.477539122104644775e-02 4.469004645943641663e-02 4.499012604355812073e-02 3.119725361466407776e-02 3.083251789212226868e-02 -4.226307943463325500e-02 2.371105924248695374e-02 -4.616445302963256836e-02 2.359790168702602386e-02 -4.188989847898483276e-02 -4.586280882358551025e-02 -9.232979267835617065e-03 3.067309502512216568e-03 -4.739509895443916321e-02 -2.581078559160232544e-03 1.019632816314697266e-02 -2.861877158284187317e-02 4.889193177223205566e-02 3.882489353418350220e-02 5.775738507509231567e-03 -2.299720980226993561e-02 -3.370048105716705322e-02 1.539079379290342331e-02 4.175819829106330872e-02 -5.108043923974037170e-02 2.131429873406887054e-02 -2.818944491446018219e-02 2.545987255871295929e-02 2.007666602730751038e-02 -7.969377329573035240e-04 1.382871530950069427e-02 -2.484117820858955383e-02 -2.884035184979438782e-02 3.654692322015762329e-02 2.893313765525817871e-02 2.736230148002505302e-03 -4.227968677878379822e-02 3.377661481499671936e-02 -3.614211827516555786e-02 4.713890329003334045e-02 4.705089330673217773e-02 3.207137435674667358e-02 -8.656687103211879730e-03 2.287102118134498596e-02 2.961188554763793945e-02 -2.666383981704711914e-02 4.327778145670890808e-02 -1.514754444360733032e-02 4.291593283414840698e-02 -1.849449425935745239e-02 -3.638982027769088745e-02 3.232424333691596985e-02 2.491327933967113495e-02 -1.341868191957473755e-03 -4.534560814499855042e-02 9.190605580806732178e-02 5.243625491857528687e-02 -2.097076550126075745e-02 1.686106622219085693e-02 2.324339374899864197e-02 9.347606450319290161e-03 -9.017355740070343018e-03 1.106718368828296661e-02 3.847873583436012268e-02 -2.553856372833251953e-02 3.594002127647399902e-02 3.763129189610481262e-02 -4.005889222025871277e-02 -1.350124739110469818e-02 -6.074764300137758255e-03 4.402760043740272522e-02 6.889529526233673096e-03 2.746774256229400635e-02 2.879563346505165100e-02 -1.081906259059906006e-03 3.934533894062042236e-02 3.364972025156021118e-02 -2.197893336415290833e-02 -3.780897706747055054e-02 1.909294538199901581e-02 6.834138184785842896e-03 -4.234094172716140747e-02 -3.939967602491378784e-02 -2.935785986483097076e-02 4.611238837242126465e-04 7.904553785920143127e-03 -2.875065198168158531e-03 4.878320172429084778e-02 1.042651012539863586e-02 1.678810641169548035e-02 3.837233409285545349e-02 1.476814225316047668e-02 1.130157615989446640e-02 1.514716073870658875e-02 -3.852676227688789368e-02 -3.355103731155395508e-02 2.512053027749061584e-02 3.638714179396629333e-02 4.630007222294807434e-02 5.014104396104812622e-02 2.425420284271240234e-02 4.119947180151939392e-02 3.564605489373207092e-02 1.158384699374437332e-02 9.287476539611816406e-03 2.497626468539237976e-02 1.190310716629028320e-02 3.162078186869621277e-02 1.251161377876996994e-02 1.189521327614784241e-02 -6.473530083894729614e-03 -5.436980165541172028e-03 2.936533465981483459e-02 4.077351465821266174e-02 3.284073248505592346e-02 1.783557608723640442e-02 -4.630441591143608093e-02 -1.291114836931228638e-02 -2.978663891553878784e-03 -4.661061242222785950e-02 1.301352865993976593e-02 3.499624505639076233e-02 4.261957481503486633e-02 -1.813433878123760223e-02 4.953097924590110779e-02 -5.029069259762763977e-03 1.814727298915386200e-02 -3.939758613705635071e-02 3.209358826279640198e-02 2.412640675902366638e-02 3.740703314542770386e-02 -5.561648402363061905e-03
1.194786280393600464e-02 -2.693259716033935547e-02 -4.243244975805282593e-02 -6.331805884838104248e-02 1.520655583590269089e-02 1.518150046467781067e-02 4.696026071906089783e-02 -4.640687257051467896e-02 -2.863398194313049316e-02 -4.920393228530883789e-02 -3.234326839447021484e-02 6.825767457485198975e-03 1.429704949259757996e-02 2.915176376700401306e-02 1.562597230076789856e-02 -2.154648303985595703e-03 2.373321726918220520e-02 -9.427826851606369019e-03 -1.328236609697341919e-02 3.331312909722328186e-02 -8.272171020507812500e-03 -1.843960955739021301e-02 -3.434397280216217041e-02 1.925718039274215698e-03 2.328423038125038147e-02 -3.089606575667858124e-02 -3.235138952732086182e-02 -8.772253990173339844e-03 -4.581440612673759460e-02 -6.691943109035491943e-02 -9.798824787139892578e-03 -9.101144969463348389e-03 -2.020199783146381378e-02 -1.471165753901004791e-02 4.914495721459388733e-02 -1.631801426410675049e-01 1.442636176943778992e-02 -1.470611616969108582e-02 5.741545557975769043e-02 -1.866567879915237427e-03 -3.049001097679138184e-02 3.505128249526023865e-02 2.619317546486854553e-02 3.002999350428581238e-02 -2.616832219064235687e-02 5.126243457198143005e-02 1.158858276903629303e-02 4.967767745256423950e-02 1.076943986117839813e-02 -4.682835564017295837e-02 2.268912270665168762e-02 -3.103854134678840637e-02 -4.787518456578254700e-02 -3.499276563525199890e-02 3.642655536532402039e-02 -1.122153699398040771e-01 -2.906376123428344727e-02 3.889575973153114319e-02 -2.992833964526653290e-02 1.282109692692756653e-02 4.294000938534736633e-02 -4.380936175584793091e-02 -9.279218316078186035e-02 2.563923224806785583e-02 -2.248592674732208252e-03 -1.155252531170845032e-01 4.570565745234489441e-02 3.227593004703521729e-02 -1.291476562619209290e-02 -4.399457201361656189e-02 4.070455953478813171e-02 -5.410592257976531982e-02 2.267107740044593811e-02 -4.116058349609375000e-03 1.014402229338884354e-02 3.970876708626747131e-02 -1.907957158982753754e-02 1.386392489075660706e-02 -6.751138716936111450e-03 1.342416927218437195e-02 3.782171383500099182e-02 1.750658266246318817e-02 4.602416977286338806e-02 -2.680353820323944092e-03 -5.210635438561439514e-02 2.097475901246070862e-02 3.866695612668991089e-02 2.677758410573005676e-02 3.796033561229705811e-04 -3.028746321797370911e-02 3.411572054028511047e-02 2.800805680453777313e-02 -1.102050021290779114e-02 -1.994850672781467438e-02 -1.008520647883415222e-02 -7.229982316493988037e-02 -4.750503972172737122e-02 -2.597696706652641296e-02 -4.489940032362937927e-02 -4.524702578783035278e-02 4.047176614403724670e-02 -3.000478819012641907e-02 4.076592624187469482e-02 -3.409071639180183411e-02 1.625991240143775940e-02 -4.478303343057632446e-02 4.192769154906272888e-02 -9.376764297485351562e-03 4.150062426924705505e-02 -2.780140377581119537e-02 -2.280672825872898102e-02 -4.109504073858261108e-02 1.985354349017143250e-02 8.977994322776794434e-03 -1.379530876874923706e-03 9.099401533603668213e-03 -1.121837645769119263e-03 4.495987668633460999e-02 2.384734526276588440e-02 -6.115324795246124268e-03 -4.071876406669616699e-02 -5.389638245105743408e-04 -4.224635288119316101e-02 -5.223376676440238953e-02 4.657082632184028625e-02 4.922997578978538513e-02 -1.531585305929183960e-02 1.714473031461238861e-02 -1.967301126569509506e-03 -9.504478424787521362e-03 1.551580335944890976e-02 2.971170470118522644e-02 -3.892379626631736755e-02 -5.757636949419975281e-02 3.187111392617225647e-02 -5.481642857193946838e-02 1.362601295113563538e-02 -2.267467416822910309e-02 2.254973724484443665e-02 2.150152996182441711e-02 4.325514659285545349e-02 1.502746157348155975e-02 -1.420567557215690613e-02 -3.195483237504959106e-02 7.439045235514640808e-03 -7.728477567434310913e-02 3.475888445973396301e-02 3.184166923165321350e-02 3.775430470705032349e-02 -4.242628440260887146e-02 -6.365291774272918701e-03 2.447639778256416321e-02 -4.980740696191787720e-02 4.574142768979072571e-02 2.056142315268516541e-02 -2.185748703777790070e-02 -2.504792436957359314e-02 2.530396357178688049e-02 -2.072680741548538208e-02 -1.303289458155632019e-02 2.927922829985618591e-02 3.268859162926673889e-02 -2.254125475883483887e-02 -2.353085391223430634e-02 -1.009123772382736206e-02 -3.275446593761444092e-02 -3.335355967283248901e-02 -3.037714026868343353e-02 -3.813821822404861450e-02 3.420082107186317444e-02 4.067627713084220886e-02 2.534966357052326202e-02 1.478177960962057114e-02 2.459724619984626770e-02 -2.804389037191867828e-02 -5.256902426481246948e-03 2.648006007075309753e-02 -4.182336479425430298e-02 5.585564672946929932e-02 9.438157081604003906e-03 -2.085725776851177216e-02 3.314541652798652649e-02 3.743481636047363281e-02 2.729305997490882874e-02 7.923889905214309692e-03 -4.071267694234848022e-02 -2.456641197204589844e-02 -4.408251494169235229e-03 -3.854063898324966431e-02 1.124756783246994019e-02 -2.628762647509574890e-02 -3.634346425533294678e-01 -1.188164204359054565e-02 -4.547809436917304993e-02 3.210089728236198425e-02 -8.127253502607345581e-03 -1.071255654096603394e-02 -9.007590822875499725e-03 -2.137549221515655518e-03 -1.346757858991622925e-01 -3.123171441256999969e-02 1.064581796526908875e-02 4.244723543524742126e-02 -2.783575095236301422e-02 2.748182229697704315e-02 -8.129353821277618408e-02 2.300403825938701630e-02 4.292780533432960510e-02 -3.051399625837802887e-02 -4.854053258895874023e-03 4.970728978514671326e-02 -3.220870345830917358e-02 -7.572926580905914307e-02 -9.096005558967590332e-02 -3.164231777191162109e-02 -2.244438603520393372e-02 -9.896636009216308594e-03 3.621128574013710022e-02 4.477537050843238831e-02 -5.795572698116302490e-02 7.709295023232698441e-03 7.684927433729171753e-03 2.410443499684333801e-02 -1.023835688829421997e-02 7.137929648160934448e-02 1.771743223071098328e-02 3.115773573517799377e-02 2.976236864924430847e-02 -4.006864503026008606e-02 -1.203055456280708313e-01 -3.627905622124671936e-02 -2.570979110896587372e-02 6.068356335163116455e-03 -2.407257072627544403e-02 1.459887251257896423e-02 -2.360777370631694794e-02 -4.415593668818473816e-02 -3.964224830269813538e-02 -8.052810281515121460e-02 -1.826285570859909058e-02 -4.992952942848205566e-02 3.599792718887329102e-03 3.463970497250556946e-02 -2.637927606701850891e-02 -3.371941298246383667e-02 -1.020483821630477905e-01 -2.902729623019695282e-02 -9.817671030759811401e-03 2.943499758839607239e-02 1.444292441010475159e-02 -6.468322873115539551e-02 4.104454442858695984e-02 -4.697121679782867432e-03 -2.428453601896762848e-02 2.597120776772499084e-02 -8.898908644914627075e-02 1.158365607261657715e-02 6.001096218824386597e-03 4.233666881918907166e-02 -3.802824020385742188e-02 1.066702604293823242e-02 -3.125458955764770508e-03 -7.722835987806320190e-03 2.167768403887748718e-02 -2.977691590785980225e-03 -1.847255229949951172e-02 1.742875203490257263e-02 -7.013458758592605591e-03 -6.444938480854034424e-03 -4.272400960326194763e-02 -1.959416829049587250e-02 -1.883950270712375641e-02 -1.787711307406425476e-02 -3.855309635400772095e-02 -1.500308513641357422e-02 2.248023636639118195e-02 2.413072809576988220e-02 3.489181771874427795e-02 3.392728790640830994e-02 -3.546670079231262207e-02 1.481758430600166321e-02 -1.545808464288711548e-02 3.188973292708396912e-02 3.268906846642494202e-02 -2.974874339997768402e-02 3.856698796153068542e-02 3.333330526947975159e-02 2.337602898478507996e-02 3.745174780488014221e-02 4.172548279166221619e-02 3.016288951039314270e-02 -5.155129358172416687e-02 3.497294336557388306e-02 9.890299290418624878e-03 -1.572708040475845337e-02 -3.001130558550357819e-02 2.607047185301780701e-02 1.387979462742805481e-02 3.798056393861770630e-03 4.787496104836463928e-02 -1.160506159067153931e-02 -2.371602207422256470e-01 -3.351960913278162479e-05 -9.233222901821136475e-02 -4.452154785394668579e-02 3.838915750384330750e-02 -4.327885806560516357e-03 4.857172444462776184e-02 4.721701517701148987e-02 -4.305005818605422974e-02 -1.541989669203758240e-02 9.330324828624725342e-04 -4.370198398828506470e-02 -1.501290872693061829e-02 2.945237234234809875e-02 -4.340549185872077942e-02 2.113177254796028137e-02 -3.991098329424858093e-02 2.522908523678779602e-02 4.816695675253868103e-02 1.402692869305610657e-02 -1.006570458412170410e-02 -2.864674292504787445e-02 -3.862428292632102966e-02 2.736562490463256836e-02 -4.060946404933929443e-03 -6.529069971293210983e-03 1.502971723675727844e-02 -2.833819389343261719e-02 -3.034706786274909973e-02 2.708710357546806335e-02 8.406054228544235229e-03 2.278418093919754028e-02 2.653051167726516724e-03 -4.785739257931709290e-02 1.359985861927270889e-02 -4.247020930051803589e-03 -6.388210505247116089e-02 2.463920041918754578e-02 -4.390337690711021423e-02 2.005535736680030823e-02 -4.327614232897758484e-02 -4.802304133772850037e-02 -7.273840904235839844e-02 -4.491188749670982361e-02 -1.360831782221794128e-02 3.751259669661521912e-02 -3.312762826681137085e-02 4.731928929686546326e-02 -2.298296056687831879e-02 3.621127828955650330e-02 -2.442367374897003174e-03 -4.532383009791374207e-02 -3.060510195791721344e-02 -2.327857946511358023e-04 4.586846753954887390e-02 -4.341544583439826965e-02 -2.351489663124084473e-02 -3.146698698401451111e-02 4.921596869826316833e-02 3.023372218012809753e-02 -3.132695704698562622e-02 2.038813754916191101e-02 4.469998553395271301e-02 -2.894425950944423676e-02 -3.462951257824897766e-02 3.240834921598434448e-03 4.981230944395065308e-03 -4.767919704318046570e-02 6.713978480547666550e-03 -1.842491328716278076e-04 -4.207789897918701172e-04 -4.528909921646118164e-03 4.752252623438835144e-02 1.771977916359901428e-02 -1.374530512839555740e-02 1.863753609359264374e-02 3.545600920915603638e-03 1.717608049511909485e-02 2.194622531533241272e-02 -4.137711971998214722e-02 3.556950017809867859e-02 -4.596818238496780396e-02 -2.647852338850498199e-02 -7.652562111616134644e-03 4.212862625718116760e-02 8.233368396759033203e-03 2.436223998665809631e-02 4.146569594740867615e-02 -1.885436102747917175e-02 -4.117563366889953613e-02 -1.916688121855258942e-02 2.219519391655921936e-02 1.337994588539004326e-03 -3.067283704876899719e-02 -9.892880916595458984e-03 -2.637922996655106544e-03 3.317498043179512024e-02 -1.506882160902023315e-02 3.522371500730514526e-02
3.773114457726478577e-02 3.131252899765968323e-02 -2.084769867360591888e-02 5.685919523239135742e-02 4.940123483538627625e-02 -2.431207103654742241e-03 2.833412960171699524e-02 4.096565023064613342e-02 1.757151633501052856e-02 2.344578877091407776e-02 4.703038185834884644e-02 -4.244221001863479614e-02 -1.739846915006637573e-02 -2.811986207962036133e-02 1.314118783921003342e-02 -3.707628697156906128e-02 -5.540646612644195557e-03 -1.723571494221687317e-02 2.145561203360557556e-02 -2.296798862516880035e-02 -4.848618432879447937e-02 4.649022594094276428e-02 1.113263890147209167e-02 -3.705935552716255188e-02 2.878988161683082581e-02 5.021563544869422913e-02 3.370813652873039246e-02 1.850572600960731506e-02 1.554286852478981018e-02 9.159206598997116089e-02 -1.509731262922286987e-02 -1.481144875288009644e-02 3.851025551557540894e-02 -2.119970694184303284e-02 -3.555614501237869263e-03 1.534639894962310791e-01 1.468452438712120056e-02 3.672547265887260437e-02 -3.008028306066989899e-02 2.496621385216712952e-02 1.489060465246438980e-02 -2.052016369998455048e-02 2.213161066174507141e-02 -3.047444298863410950e-02 4.834630340337753296e-02 1.392554957419633865e-03 -6.956239789724349976e-02 -6.535542011260986328e-02 -1.346655283123254776e-02 7.849828153848648071e-02 3.447261825203895569e-02 7.758460473269224167e-03 1.751401647925376892e-02 -3.183830529451370239e-03 -2.880783565342426300e-02 1.054982841014862061e-01 -1.846952177584171295e-02 6.997039914131164551e-02 6.310945842415094376e-03 2.171754464507102966e-02 -3.017397411167621613e-02 -3.963864594697952271e-02 7.009324431419372559e-02 -3.711216151714324951e-02 -1.914487779140472412e-02 3.726463392376899719e-02 -1.522239483892917633e-02 3.724142443388700485e-03 2.427601441740989685e-02 2.157927863299846649e-02 8.602887392044067383e-03 8.200252056121826172e-02 -3.354080021381378174e-03 -1.365278661251068115e-02 4.903050884604454041e-02 -3.932562470436096191e-02 2.692475728690624237e-02 -2.106478251516819000e-02 -3.200902789831161499e-02 -2.994164265692234039e-02 -1.352845579385757446e-01 -4.355356097221374512e-03 -5.665086209774017334e-03 4.861602559685707092e-02 -3.945006430149078369e-02 -3.358460217714309692e-02 -2.468554303050041199e-02 -4.711505398154258728e-02 2.864339016377925873e-02 2.371695823967456818e-02 3.443191945552825928e-02 -4.223694279789924622e-02 1.583707705140113831e-02 -4.782380163669586182e-02 -4.867159947752952576e-02 1.083575189113616943e-01 -2.753019332885742188e-03 3.683920577168464661e-02 1.270060706883668900e-02 9.597837924957275391e-03 -2.864608168601989746e-02 -3.348418697714805603e-02 4.005152732133865356e-02 4.910359159111976624e-02 -4.725905135273933411e-02 -1.089217513799667358e-02 -2.482946217060089111e-02 1.949607953429222107e-02 -7.687646895647048950e-03 1.926656439900398254e-02 3.325973823666572571e-02 -4.870049282908439636e-02 2.887841686606407166e-02 4.186981171369552612e-02 -4.248226806521415710e-02 -4.887263639830052853e-04 -3.849145770072937012e-02 -1.069274917244911194e-02 -2.631287090480327606e-02 3.772864118218421936e-02 -3.842270374298095703e-02 -3.660180419683456421e-02 3.836632147431373596e-02 7.193159312009811401e-02 -3.821957856416702271e-03 3.281556535512208939e-03 -1.810371875762939453e-03 -1.914992555975914001e-02 -1.854039430618286133e-01 4.903614893555641174e-02 -2.802975848317146301e-02 3.947456926107406616e-02 -2.303263917565345764e-02 6.979912519454956055e-02 -1.771700195968151093e-02 5.530927330255508423e-02 -6.725072860717773438e-03 -7.287733256816864014e-03 -1.184851303696632385e-02 1.225278526544570923e-02 2.230964228510856628e-02 4.850965365767478943e-02 4.472104460000991821e-02 -2.935301698744297028e-02 -3.667668625712394714e-02 4.343045130372047424e-02 3.057462349534034729e-02 2.704033628106117249e-02 9.126033633947372437e-02 -3.116128221154212952e-02 -3.387544304132461548e-03 6.084926426410675049e-03 2.970349416136741638e-02 -9.805787354707717896e-03 3.847412765026092529e-02 -4.091810807585716248e-02 1.076504867523908615e-02 2.624258026480674744e-02 -9.680626098997890949e-04 3.069522604346275330e-02 -4.394500330090522766e-02 2.578750438988208771e-02 2.672558883205056190e-03 1.660863682627677917e-02 4.830371960997581482e-02 1.590915024280548096e-03 4.651080071926116943e-02 1.291713397949934006e-02 9.279391914606094360e-02 -4.519853368401527405e-02 -9.528063237667083740e-03 2.118575945496559143e-02 3.713087365031242371e-02 3.620562329888343811e-02 1.144021097570657730e-02 -4.421846941113471985e-02 6.829004734754562378e-03 1.073551736772060394e-02 2.136738598346710205e-02 3.011946007609367371e-02 -1.936987042427062988e-02 5.062867328524589539e-02 1.495965383946895599e-02 3.210465982556343079e-02 -3.848688304424285889e-02 1.901265792548656464e-02 9.373777429573237896e-04 1.423418894410133362e-02 2.091910317540168762e-02 1.272360607981681824e-02 -1.399395056068897247e-02 1.774273067712783813e-01 6.980560719966888428e-03 -5.082894116640090942e-03 -1.029574126005172729e-02 3.672332689166069031e-02 3.153764083981513977e-02 -4.566868767142295837e-02 -2.245701104402542114e-02 5.291653424501419067e-02 -4.592546448111534119e-02 -3.713967651128768921e-02 -7.129545556381344795e-04 -2.380396798253059387e-02 -3.274463117122650146e-01 5.863004550337791443e-02 4.812246933579444885e-02 4.570192471146583557e-02 -4.904261231422424316e-02 -3.034252487123012543e-02 -1.209437102079391479e-02 3.015822544693946838e-02 8.879622071981430054e-02 8.641958236694335938e-02 -7.283179461956024170e-02 -4.644624888896942139e-02 1.852343603968620300e-02 3.487289324402809143e-02 3.000608459115028381e-02 8.164093829691410065e-03 -1.056537926197052002e-01 3.491467610001564026e-02 -2.863826788961887360e-02 7.735329214483499527e-03 2.183751016855239868e-02 -4.852119309362024069e-05 1.721068285405635834e-02 2.546355500817298889e-02 -4.663711041212081909e-02 6.491117924451828003e-02 8.946535736322402954e-02 -5.241803824901580811e-02 -4.231399297714233398e-02 1.362263038754463196e-02 3.586027398705482483e-02 -2.878204733133316040e-02 -4.881760571151971817e-03 3.918778896331787109e-02 6.929613649845123291e-02 3.325694054365158081e-02 1.550674065947532654e-02 4.231689497828483582e-02 1.113807689398527145e-02 1.977423951029777527e-02 1.190009154379367828e-02 1.180345043540000916e-01 1.133240610361099243e-01 -1.427667215466499329e-02 -1.002600230276584625e-02 -3.001462854444980621e-02 1.403593644499778748e-02 3.775119408965110779e-02 4.860461130738258362e-02 -3.545878455042839050e-02 5.818619579076766968e-02 9.349005669355392456e-02 -4.668279364705085754e-02 -2.345910109579563141e-02 4.919263720512390137e-02 2.032931149005889893e-02 -1.165408454835414886e-02 1.300252601504325867e-02 -4.390246421098709106e-02 -3.894612193107604980e-02 -2.991698682308197021e-03 3.502078726887702942e-02 -3.331226110458374023e-02 -5.235726479440927505e-03 2.700467407703399658e-02 -2.489172294735908508e-02 1.531842071563005447e-02 -2.480380237102508545e-03 -3.267828747630119324e-02 1.759990118443965912e-02 6.540231406688690186e-03 3.178745508193969727e-02 -1.486165332607924938e-03 9.991741739213466644e-03 -1.463922578841447830e-02 -3.427385166287422180e-02 3.079228661954402924e-02 2.573600038886070251e-02 4.944886639714241028e-02 -4.858133196830749512e-02 1.544535998255014420e-02 2.946450375020503998e-02 -1.907202601432800293e-02 3.288530185818672180e-02 4.204813018441200256e-02 4.446763172745704651e-02 -5.659884773194789886e-03 3.941646963357925415e-02 -2.754993923008441925e-02 4.167131707072257996e-02 -3.264275193214416504e-02 -7.931228028610348701e-04 -3.132193535566329956e-02 -1.922329887747764587e-02 4.619483649730682373e-02 -3.590314835309982300e-02 5.880106240510940552e-03 1.431156396865844727e-01 2.282512374222278595e-02 4.937417060136795044e-02 3.294364735484123230e-02 7.828116416931152344e-03 -3.675989061594009399e-02 2.767927572131156921e-02 1.984809525310993195e-02 1.027369033545255661e-02 3.024194575846195221e-02 -4.343706369400024414e-02 -1.513164862990379333e-02 -1.502997521311044693e-02 -2.900220453739166260e-03 -2.611925639212131500e-02 -1.946623064577579498e-02 -1.562760584056377411e-02 2.359629794955253601e-02 8.256168104708194733e-03 1.664116419851779938e-02 -3.900314122438430786e-02 -4.145251959562301636e-02 3.646622970700263977e-02 -4.232965409755706787e-02 -1.920507475733757019e-02 -2.202886529266834259e-02 2.436947077512741089e-03 -4.317455366253852844e-02 -2.008900046348571777e-02 -6.227277684956789017e-03 -2.963414229452610016e-02 3.662327677011489868e-02 -3.394665662199258804e-03 -3.005293570458889008e-02 -3.404800966382026672e-02 2.129536122083663940e-02 4.551425948739051819e-02 2.467359974980354309e-02 -2.943616546690464020e-02 -3.457986935973167419e-02 1.980057731270790100e-02 1.943277195096015930e-02 4.604857414960861206e-02 -2.734238840639591217e-02 -3.891902416944503784e-02 3.444490209221839905e-02 4.029037803411483765e-02 -4.101509600877761841e-02 -5.168149247765541077e-03 3.290709480643272400e-02 -3.859723219648003578e-03 -1.884828321635723114e-02 6.179447844624519348e-02 8.103329688310623169e-02 -8.917499333620071411e-03 3.435803577303886414e-02 -1.714526861906051636e-02 -2.031458914279937744e-02 3.058851137757301331e-02 -3.120717825368046761e-03 -2.510176971554756165e-02 6.707888096570968628e-03 4.299490526318550110e-02 3.861184045672416687e-02 -2.316594868898391724e-02 -1.988177932798862457e-02 4.313437268137931824e-02 1.552399713546037674e-02 5.651665851473808289e-02 -1.288294792175292969e-03 -2.483977004885673523e-02 2.814023569226264954e-02 -3.714278712868690491e-02 -3.098978474736213684e-02 4.883232340216636658e-02 4.298130050301551819e-02 -2.479725144803524017e-02 3.422850742936134338e-02 7.615517824888229370e-03 8.583355695009231567e-03 7.997382432222366333e-03 -2.593862824141979218e-02 -2.162798680365085602e-02 -4.507660493254661560e-02 4.225771501660346985e-02 1.139979809522628784e-02 4.946561530232429504e-02 3.355364874005317688e-02 -2.304132329300045967e-03 2.138239890336990356e-02 1.312290690839290619e-02 -3.068935871124267578e-02 2.240613289177417755e-02 -1.379517652094364166e-02 2.108612284064292908e-02 -4.365364462137222290e-02 1.140110567212104797e-02 6.316682696342468262e-02 5.144014954566955566e-02
4.868106916546821594e-02 -2.574243955314159393e-02 -1.146058589220046997e-01 -1.123350672423839569e-02 -6.604007631540298462e-02 -4.963441938161849976e-02 -2.494268119335174561e-04 -2.103328704833984375e-03 -4.339173063635826111e-02 -3.955127671360969543e-02 1.987172290682792664e-02 -3.478519245982170105e-02 2.019175514578819275e-02 -1.840381696820259094e-02 -9.049333631992340088e-03 3.690110892057418823e-02 2.413012459874153137e-02 1.035843417048454285e-02 -3.304293379187583923e-02 -7.391897030174732208e-03 -8.489381521940231323e-03 4.389271512627601624e-02 1.497794315218925476e-02 4.636337235569953918e-02 -3.154172375798225403e-02 -4.434894025325775146e-02 3.965250030159950256e-02 -1.584547758102416992e-02 -3.927505016326904297e-02 2.767034061253070831e-02 1.425274088978767395e-02 7.184081245213747025e-03 3.137094527482986450e-02 3.007833659648895264e-02 1.140891760587692261e-02 -3.365979194641113281e-01 -4.720741510391235352e-02 -2.594711072742938995e-02 -4.346295446157455444e-02 -9.589124470949172974e-03 -1.887411251664161682e-02 5.375318601727485657e-02 8.348743431270122528e-03 4.413510486483573914e-02 1.488883048295974731e-03 4.795656725764274597e-02 -1.451419573277235031e-02 2.284066751599311829e-02 1.307470351457595825e-02 -9.225392341613769531e-02 -2.211690880358219147e-02 2.680852264165878296e-02 -2.948809415102005005e-03 -9.318667463958263397e-03 4.456132650375366211e-02 -1.010057777166366577e-01 4.675900563597679138e-02 -3.624723851680755615e-02 -2.868551388382911682e-02 7.905267179012298584e-03 3.588457405567169189e-02 -3.243979066610336304e-02 -8.440465480089187622e-02 -3.211735934019088745e-02 -9.795812657102942467e-04 1.674898155033588409e-02 -4.721053317189216614e-02 2.444723434746265411e-02 6.458651274442672729e-03 -1.823566481471061707e-02 1.204897090792655945e-02 7.326681166887283325e-02 -1.693671196699142456e-02 -4.114657640457153320e-03 -1.107937097549438477e-02 2.640694379806518555e-03 -5.681030079722404480e-02 3.408024087548255920e-02 1.346101518720388412e-02 1.149747893214225769e-02 -1.521326228976249695e-02 -2.846590988337993622e-02 7.173143327236175537e-03 -8.683558553457260132e-03 -8.069978654384613037e-02 -2.441033720970153809e-04 -7.307992782443761826e-03 -5.764514207839965820e-03 2.176782116293907166e-02 4.066083952784538269e-02 -2.455108799040317535e-02 -9.001494385302066803e-03 -1.127571985125541687e-02 -1.282512582838535309e-02 -2.903714776039123535e-02 -1.472274661064147949e-01 1.102470606565475464e-02 -2.348018623888492584e-02 2.751837298274040222e-02 -1.695866137742996216e-02 1.845509931445121765e-02 -1.557818353176116943e-01 -6.480173021554946899e-02 -1.363007351756095886e-02 4.653732106089591980e-02 2.825364097952842712e-02 -2.870718203485012054e-02 -5.072243511676788330e-03 -4.518754780292510986e-03 -6.082599516957998276e-03 -2.616249024868011475e-03 -2.593963779509067535e-02 -3.159552812576293945e-03 -5.874129012227058411e-02 -2.892669476568698883e-02 -1.665908284485340118e-02 -2.355491556227207184e-02 -2.901699580252170563e-02 2.148065343499183655e-02 -2.081360854208469391e-02 3.652930632233619690e-02 1.664398424327373505e-02 -9.371844679117202759e-02 -6.591146439313888550e-02 -1.439016312360763550e-03 -2.790341377258300781e-01 1.410063728690147400e-02 -1.860950328409671783e-02 -3.403421118855476379e-02 -3.646536543965339661e-02 4.152589291334152222e-02 4.828953370451927185e-02 -7.777361199259757996e-03 -1.497247815132141113e-01 2.625258872285485268e-03 -4.480905458331108093e-02 3.008560463786125183e-02 -3.491682931780815125e-02 2.526342496275901794e-02 -1.517962664365768433e-02 4.374764859676361084e-03 2.695287391543388367e-02 -1.489754673093557358e-02 7.123779505491256714e-03 3.239667788147926331e-02 -4.680948331952095032e-02 -1.512979343533515930e-02 -4.359966516494750977e-02 2.392372861504554749e-02 4.343977198004722595e-02 2.888944873120635748e-04 3.994202241301536560e-02 -2.970801666378974915e-02 -4.374682530760765076e-02 -6.703238189220428467e-02 -4.679150506854057312e-02 -3.520850092172622681e-02 -3.451954200863838196e-02 -5.218007043004035950e-02 -5.613565444946289062e-04 -1.635521650314331055e-02 2.326707169413566589e-02 3.612208366394042969e-02 8.679557591676712036e-03 2.274347096681594849e-02 2.916872873902320862e-02 4.587417002767324448e-03 2.030776347965002060e-03 -2.861673245206475258e-03 -2.308434993028640747e-02 -2.602372877299785614e-02 -5.257816240191459656e-02 -9.837308898568153381e-03 1.375466381432488561e-04 -9.500281885266304016e-03 -4.415212199091911316e-02 4.335819929838180542e-02 -1.078957924619317055e-03 1.690818928182125092e-02 4.247778281569480896e-02 -3.907921165227890015e-02 -2.646198496222496033e-02 -8.257435262203216553e-02 -4.525892436504364014e-04 2.346869185566902161e-02 -4.527492076158523560e-02 1.329819019883871078e-02 -3.387401998043060303e-02 9.834628552198410034e-03 2.639035694301128387e-02 2.586478367447853088e-02 -3.187759816646575928e-01 -4.942201450467109680e-02 1.559549244120717049e-03 -4.223493486642837524e-02 -2.063988521695137024e-02 -2.413175068795681000e-02 1.254600286483764648e-02 -2.865586616098880768e-02 -1.528195887804031372e-01 2.437539026141166687e-02 1.907769031822681427e-02 -9.708020836114883423e-03 3.364783897995948792e-02 -2.284881845116615295e-02 -5.081005394458770752e-02 -3.272946551442146301e-02 3.923206403851509094e-02 -2.958584576845169067e-03 -2.967397682368755341e-02 3.467793390154838562e-02 -1.267014071345329285e-02 -7.601395994424819946e-02 6.237122789025306702e-02 -1.972937434911727905e-01 4.202090203762054443e-02 -8.414257317781448364e-03 -4.779881983995437622e-02 4.313628748059272766e-02 9.008863940834999084e-03 -1.194066032767295837e-01 -3.925682231783866882e-02 2.876918390393257141e-02 3.465797752141952515e-02 2.933026850223541260e-02 3.190010786056518555e-02 6.812079809606075287e-03 -4.860367625951766968e-02 -3.089500963687896729e-02 -4.802821204066276550e-02 -3.013707697391510010e-02 -1.995573751628398895e-02 -1.673088222742080688e-02 -2.649860456585884094e-02 -2.968573570251464844e-02 2.120422944426536560e-02 1.319884136319160461e-02 -1.088216435164213181e-03 -1.449726969003677368e-01 -2.665551844984292984e-03 -3.602297604084014893e-02 1.232259720563888550e-02 3.707093372941017151e-02 -3.133329004049301147e-02 -6.075626611709594727e-02 -7.208215445280075073e-02 5.025787651538848877e-02 3.777079656720161438e-02 1.092757284641265869e-02 1.898936554789543152e-02 -2.705529145896434784e-02 4.988998547196388245e-02 6.644878536462783813e-03 -6.028401199728250504e-03 -6.469605863094329834e-02 -4.911635816097259521e-02 2.131578139960765839e-02 4.596154019236564636e-02 2.922580577433109283e-02 -1.076822429895401001e-01 -3.960524871945381165e-02 -1.186046469956636429e-02 -1.449505612254142761e-02 6.192602217197418213e-03 3.793826326727867126e-02 3.282382339239120483e-02 4.457494989037513733e-02 -2.464444003999233246e-02 -4.798827320337295532e-02 3.330985829234123230e-02 4.795955494046211243e-02 -1.943439245223999023e-03 -4.184637963771820068e-02 2.344337478280067444e-02 9.019844233989715576e-03 -5.263121426105499268e-02 -1.441502124071121216e-01 -2.030040323734283447e-02 -5.436255410313606262e-02 2.742747589945793152e-02 3.343155235052108765e-02 -2.522978372871875763e-02 -3.454435989260673523e-02 -3.624109551310539246e-02 4.465947672724723816e-02 -1.059591025114059448e-02 -3.390856832265853882e-02 -1.340254023671150208e-02 -4.805499222129583359e-03 -4.286519438028335571e-02 -4.562553390860557556e-02 -5.645225942134857178e-02 -1.787841022014617920e-01 -5.432409816421568394e-04 1.089577749371528625e-02 -2.281719259917736053e-02 -4.959704354405403137e-02 -3.902621194720268250e-02 4.626564681529998779e-03 3.590285778045654297e-03 -4.431908950209617615e-02 -1.405790746212005615e-01 -7.415562868118286133e-03 -1.936369836330413818e-01 -8.757673203945159912e-03 1.586291566491127014e-02 -4.835900664329528809e-02 6.766088306903839111e-03 6.809198763221502304e-03 -4.004080966114997864e-02 -3.004667349159717560e-02 2.292611822485923767e-02 1.068554259836673737e-02 4.418123140931129456e-02 -2.565941214561462402e-02 5.716938525438308716e-03 -3.970872610807418823e-03 -8.142270892858505249e-02 2.199292182922363281e-03 1.565838232636451721e-02 -8.184834569692611694e-02 -2.479463815689086914e-03 -1.456907857209444046e-02 6.575888954102993011e-03 -3.539168462157249451e-02 9.964135475456714630e-03 -1.261742115020751953e-01 5.499374121427536011e-03 4.272797331213951111e-02 -2.947867475450038910e-02 -4.045725334435701370e-03 -2.237366512417793274e-02 3.783747926354408264e-02 -2.853227593004703522e-02 -3.745358437299728394e-02 -3.066029399633407593e-02 -3.786360472440719604e-02 -3.764109313488006592e-02 1.657784357666969299e-02 -1.482351869344711304e-02 -1.012759399600327015e-03 2.765892073512077332e-02 1.217807456851005554e-02 2.391471527516841888e-02 2.781385369598865509e-02 2.686649560928344727e-03 8.686404675245285034e-03 1.245867833495140076e-02 -1.955401338636875153e-02 1.707927323877811432e-02 -4.798400029540061951e-02 3.431848809123039246e-02 -2.507137693464756012e-02 -5.296663939952850342e-02 -1.622461527585983276e-01 -1.240412145853042603e-02 2.264976501464843750e-03 -3.189741447567939758e-02 -9.517472237348556519e-03 2.036092802882194519e-02 2.143845194950699806e-03 -2.346838079392910004e-02 2.409275993704795837e-02 4.876985773444175720e-02 -3.753377869725227356e-02 1.200183667242527008e-02 -3.472197800874710083e-03 -5.034790188074111938e-02 -4.983642324805259705e-02 -3.073116764426231384e-02 6.284750998020172119e-03 1.321453228592872620e-02 -1.674773544073104858e-02 -4.015951603651046753e-02 3.763347864151000977e-03 -2.038521692156791687e-02 -6.625851988792419434e-02 -2.946294285356998444e-02 -1.706532388925552368e-02 -4.645660147070884705e-02 1.538220420479774475e-02 -2.755652740597724915e-02 -3.664392977952957153e-02 4.685944691300392151e-02 2.034960314631462097e-02 6.259150803089141846e-03 -3.611078858375549316e-02 1.505307853221893311e-03 -2.412517182528972626e-02 1.205300353467464447e-02 4.818774759769439697e-02 -2.052906528115272522e-02 -2.262627519667148590e-02 -9.261200204491615295e-03 -4.662970453500747681e-02 -4.044022038578987122e-02 4.253878816962242126e-02 3.307496383786201477e-02 -5.112484563142061234e-03 -4.044776782393455505e-02
6.752151995897293091e-03 -3.718100488185882568e-02 1.093288976699113846e-02 -3.781150653958320618e-02 -4.271504655480384827e-02 -3.436272963881492615e-02 1.578283682465553284e-02 4.288661107420921326e-02 -3.456949815154075623e-02 3.981706872582435608e-02 -3.018409758806228638e-02 -4.832645133137702942e-02 2.402954176068305969e-02 3.939012065529823303e-02 9.479427710175514221e-03 3.716684505343437195e-02 4.591486230492591858e-02 4.535729810595512390e-02 2.340940758585929871e-02 -3.958569094538688660e-02 1.394419744610786438e-02 3.631104156374931335e-02 1.074715331196784973e-02 -7.263880223035812378e-03 1.011258363723754883e-02 -7.664079219102859497e-02 -7.696829736232757568e-03 2.214017137885093689e-02 7.120363414287567139e-03 4.147879080846905708e-04 4.213228449225425720e-02 1.773595111444592476e-03 9.464529342949390411e-03 2.846693620085716248e-02 -3.888787701725959778e-02 -1.533793210983276367e-01 1.411533262580633163e-02 -1.087832171469926834e-02 3.297610208392143250e-02 -2.464464306831359863e-02 -4.799397662281990051e-02 6.867867708206176758e-02 -2.230096608400344849e-02 7.464617490768432617e-03 -5.448380485177040100e-03 -2.768651116639375687e-03 9.101428091526031494e-02 -2.356799133121967316e-02 -2.856100723147392273e-02 -5.959512293338775635e-02 -2.047877013683319092e-02 4.115412011742591858e-02 -3.706622123718261719e-02 -1.815523579716682434e-02 2.341539412736892700e-02 -5.448440462350845337e-02 4.369682818651199341e-02 1.107805687934160233e-02 1.598479412496089935e-02 1.176495105028152466e-02 1.926586218178272247e-02 -3.176053985953330994e-02 -8.474656194448471069e-02 -1.909968443214893341e-02 -4.505290836095809937e-02 -9.644102305173873901e-02 -1.656209817156195641e-03 -2.831718139350414276e-02 1.538168638944625854e-03 -3.710798546671867371e-02 6.680138409137725830e-03 -1.216571331024169922e-01 4.615524783730506897e-02 2.384088747203350067e-02 -4.488547146320343018e-02 -3.090679645538330078e-02 -7.221374544315040112e-04 4.606660827994346619e-02 -3.177609667181968689e-02 1.515963301062583923e-02 -3.483888879418373108e-02 -1.233971770852804184e-02 -3.676835820078849792e-02 -3.233757242560386658e-02 -3.168052434921264648e-02 1.192677021026611328e-02 1.287959516048431396e-02 4.797273501753807068e-02 -4.472322389483451843e-02 3.033368289470672607e-02 3.894912824034690857e-02 3.120238427072763443e-03 -3.824026137590408325e-02 3.754545003175735474e-02 -3.989706560969352722e-02 -2.231175638735294342e-02 2.894033119082450867e-02 2.666461514309048653e-03 -2.579654334113001823e-03 2.848276868462562561e-02 -4.208488389849662781e-02 8.705062791705131531e-03 -1.176950056105852127e-03 -5.927491933107376099e-03 -1.758902217261493206e-03 1.354116573929786682e-02 -1.211175974458456039e-02 -1.880312524735927582e-02 6.031800061464309692e-03 1.655161846429109573e-03 3.757424652576446533e-03 -7.252365816384553909e-03 -2.096508815884590149e-02 -1.718907058238983154e-02 -4.393078759312629700e-02 -2.597302570939064026e-02 -1.146476622670888901e-02 9.503637440502643585e-03 -9.146399796009063721e-03 4.507128521800041199e-02 -2.639777772128582001e-02 3.845227137207984924e-02 -7.111027836799621582e-02 -9.982210583984851837e-03 -4.053692147135734558e-02 -2.396949380636215210e-02 -3.669694811105728149e-02 -2.662012167274951935e-02 3.377479314804077148e-02 -2.790257707238197327e-02 2.459249272942543030e-02 -2.287897653877735138e-02 -4.843837767839431763e-02 -2.865156531333923340e-02 -1.631783880293369293e-02 -7.090608775615692139e-02 -4.549447819590568542e-02 -1.663026958703994751e-02 -3.169700969010591507e-03 -2.378678880631923676e-02 -3.479400277137756348e-02 -9.617358446121215820e-03 6.104259751737117767e-03 1.818350329995155334e-02 2.508443593978881836e-02 -3.918560221791267395e-02 -3.847610205411911011e-03 6.858885288238525391e-03 -7.830113917589187622e-02 1.422591973096132278e-02 -6.990057881921529770e-03 -4.833321645855903625e-02 3.875332325696945190e-02 -3.951023146510124207e-02 2.640671096742153168e-02 4.869392886757850647e-02 1.082290150225162506e-02 -4.153887182474136353e-02 2.603255910798907280e-03 -1.886120997369289398e-02 2.839690074324607849e-02 -5.372734740376472473e-03 -1.604203507304191589e-02 1.151645928621292114e-02 4.624205827713012695e-02 -3.081517852842807770e-02 -1.228663139045238495e-02 -4.258173576090484858e-04 -6.765076518058776855e-02 1.868028007447719574e-02 4.878018423914909363e-02 -3.464848548173904419e-02 -2.198111265897750854e-02 1.530310045927762985e-02 -7.310132030397653580e-03 -5.454456899315118790e-03 -4.600391723215579987e-03 2.661388367414474487e-02 -5.285406857728958130e-02 -3.067864850163459778e-02 1.721182838082313538e-02 -2.343539614230394363e-03 -8.971905335783958435e-03 -3.671053051948547363e-02 -3.097764961421489716e-02 -1.112118922173976898e-02 8.856078609824180603e-03 -5.244869738817214966e-03 -1.628173515200614929e-02 2.280937478644773364e-04 4.138141870498657227e-02 -3.025111258029937744e-01 -5.444251000881195068e-03 1.309319958090782166e-02 -4.406258463859558105e-02 -3.800060600042343140e-02 1.833160594105720520e-02 1.283109840005636215e-02 -2.007081359624862671e-02 -1.207426190376281738e-01 -2.801815979182720184e-02 1.487500406801700592e-02 1.935437787324190140e-03 -1.752447336912155151e-03 7.371352612972259521e-02 -1.121252998709678650e-01 -1.251622661948204041e-02 -1.134591549634933472e-02 6.167538464069366455e-03 7.101815193891525269e-03 4.280509799718856812e-02 9.971290826797485352e-03 -5.975732952356338501e-02 -6.154455244541168213e-02 1.069261785596609116e-02 2.170841023325920105e-02 -1.318603754043579102e-03 7.919553667306900024e-03 -1.260615140199661255e-02 -2.543698251247406006e-02 -1.075428947806358337e-01 2.966698631644248962e-02 -4.875009879469871521e-02 -4.757966380566358566e-03 -4.273422062397003174e-02 3.286394849419593811e-02 2.689717803150415421e-03 -3.447727859020233154e-02 -4.668202716857194901e-03 -9.046232700347900391e-02 -6.744562834501266479e-02 -1.811855472624301910e-02 -9.562627412378787994e-03 1.962938532233238220e-02 3.756592050194740295e-02 2.268437109887599945e-02 -2.037059329450130463e-02 4.989752545952796936e-03 -3.533465089276432991e-03 -4.625794477760791779e-03 -1.926610246300697327e-02 -3.488764911890029907e-02 2.042925357818603516e-02 -3.123909235000610352e-03 1.585831493139266968e-02 -1.030301600694656372e-01 -8.813267946243286133e-02 3.706145286560058594e-02 2.900269813835620880e-02 1.142888516187667847e-02 -1.802156865596771240e-02 4.047611728310585022e-02 2.340579405426979065e-02 -3.087081422563642263e-04 -6.655730539932847023e-04 -5.920115858316421509e-02 1.778947375714778900e-02 2.420619502663612366e-02 -2.813830506056547165e-03 5.901587661355733871e-03 -2.839734964072704315e-02 1.460598502308130264e-02 -3.648884594440460205e-04 -4.876311495900154114e-02 -3.988169878721237183e-02 -4.862176999449729919e-02 2.804229781031608582e-02 4.352208226919174194e-02 4.591577127575874329e-02 -1.038711145520210266e-02 -4.593652114272117615e-02 3.405475243926048279e-02 2.305660024285316467e-02 -3.587535023689270020e-02 -4.722553491592407227e-02 4.250695556402206421e-02 -2.691444754600524902e-02 -3.313348069787025452e-02 -4.976017028093338013e-02 -1.607112213969230652e-02 -1.929948292672634125e-02 5.452556069940328598e-03 1.272209361195564270e-02 1.082566659897565842e-02 -5.850934423506259918e-03 -8.406618982553482056e-02 -3.050073608756065369e-02 4.455586150288581848e-02 3.218592703342437744e-02 -1.757559925317764282e-02 -1.203229464590549469e-02 -3.823539009317755699e-03 1.360951084643602371e-02 2.516631409525871277e-02 -1.601510122418403625e-02 -4.096266254782676697e-02 -3.125990275293588638e-03 3.373552579432725906e-03 -4.097763821482658386e-02 -1.221770048141479492e-02 2.054183557629585266e-02 -1.029903814196586609e-01 -3.682114183902740479e-02 -7.327530067414045334e-03 -2.526646293699741364e-02 -4.978435859084129333e-02 1.214601844549179077e-02 2.282335981726646423e-02 2.994127385318279266e-02 -1.228916831314563751e-02 3.757794853299856186e-03 4.000889882445335388e-02 1.029044203460216522e-02 2.832450903952121735e-02 4.975963011384010315e-02 1.895204558968544006e-02 1.875283569097518921e-02 -2.430718019604682922e-02 1.565269008278846741e-02 -1.738383062183856964e-02 -3.632837906479835510e-02 -2.379179000854492188e-02 -5.982280243188142776e-03 -7.097137160599231720e-03 -5.784730613231658936e-02 -2.344962023198604584e-02 -2.778020687401294708e-02 2.237514033913612366e-02 -4.611602053046226501e-02 -6.353545933961868286e-03 2.105974033474922180e-02 1.443019881844520569e-02 1.879393681883811951e-02 -1.756665110588073730e-02 -4.666525870561599731e-03 1.641518995165824890e-02 -5.730971693992614746e-03 9.175047278404235840e-03 -7.435895502567291260e-03 -2.313015423715114594e-02 3.706566244363784790e-02 -2.762212790548801422e-02 -5.572356283664703369e-03 -7.513473182916641235e-02 6.084996857680380344e-04 9.322714060544967651e-03 2.509051188826560974e-02 -2.645164914429187775e-02 2.918701246380805969e-02 1.451133750379085541e-02 -6.603411864489316940e-03 -1.522609218955039978e-02 4.577277973294258118e-02 -5.053336545825004578e-02 -1.763094514608383179e-01 3.575650230050086975e-02 1.560613885521888733e-02 -3.176999092102050781e-02 -9.956587105989456177e-03 1.328726485371589661e-02 -2.128552272915840149e-02 2.939138188958168030e-02 4.866388067603111267e-02 -4.407380148768424988e-02 2.649373188614845276e-02 3.799329698085784912e-02 -3.204342722892761230e-02 2.743711695075035095e-02 9.245116263628005981e-03 -4.038793966174125671e-02 3.483283147215843201e-02 3.929767291992902756e-03 6.206136196851730347e-03 4.103613644838333130e-02 2.406510338187217712e-02 1.510161813348531723e-02 -3.956807777285575867e-02 1.649414375424385071e-02 -2.484809793531894684e-02 -2.762855961918830872e-02 2.512856945395469666e-02 -1.174971461296081543e-02 -3.153606504201889038e-02 4.050758853554725647e-02 -4.917628318071365356e-02 -2.295803464949131012e-02 -3.715452551841735840e-02 -4.337301850318908691e-02 2.327881008386611938e-02 -2.771538496017456055e-02 4.552436992526054382e-02 2.192410826683044434e-02 -2.326299622654914856e-02 -2.015095669776201248e-03 -1.799973659217357635e-02 -4.572521522641181946e-02 -2.384888753294944763e-02 4.549406841397285461e-02 1.083040758967399597e-01 -4.484459385275840759e-02
-1.813524216413497925e-02 -2.062897197902202606e-02 6.508804857730865479e-02 -2.031356282532215118e-02 2.742611616849899292e-02 3.706131502985954285e-02 -3.292728215456008911e-03 3.309396281838417053e-02 -4.113353043794631958e-02 2.583168074488639832e-02 -3.033030964434146881e-02 -4.368788003921508789e-02 8.919101208448410034e-03 -2.962233498692512512e-02 -3.081046789884567261e-02 2.485252730548381805e-02 -3.684617206454277039e-02 1.002013683319091797e-03 2.956410311162471771e-02 -1.349874120205640793e-02 4.272302612662315369e-02 -3.587282821536064148e-02 -1.489435508847236633e-02 -2.698529325425624847e-02 -2.680248022079467773e-02 -1.125282328575849533e-02 4.873709008097648621e-02 8.112870156764984131e-03 1.911656931042671204e-02 2.483787015080451965e-02 2.175996080040931702e-02 -1.112733874469995499e-02 3.345555439591407776e-02 1.672122254967689514e-02 4.472836479544639587e-02 -2.769034542143344879e-02 -1.677185669541358948e-02 2.367134205996990204e-02 1.377403829246759415e-02 -1.446182653307914734e-02 -4.025698825716972351e-02 5.784080922603607178e-02 4.727846756577491760e-02 2.258606627583503723e-02 -3.006690740585327148e-02 5.113614350557327271e-02 -1.640894636511802673e-02 2.768526971340179443e-02 2.378625795245170593e-03 7.927286624908447266e-02 3.598483279347419739e-02 -2.665411122143268585e-02 -4.512829706072807312e-02 3.739676252007484436e-02 -4.373098164796829224e-02 5.979198589920997620e-02 -2.754185581579804420e-03 -1.709825545549392700e-02 -1.728389225900173187e-02 2.900666370987892151e-02 1.382800546707585454e-04 -4.722676426172256470e-02 -7.559817750006914139e-03 -1.049827411770820618e-02 -2.532705664634704590e-02 6.476023793220520020e-02 -4.823331255465745926e-03 -1.706754602491855621e-02 -2.344079129397869110e-02 -3.584525547921657562e-03 -9.175665676593780518e-03 1.767359673976898193e-02 1.322768256068229675e-02 -4.630380868911743164e-02 2.045311965048313141e-02 1.058732345700263977e-02 2.110700681805610657e-02 5.741715431213378906e-03 3.349487856030464172e-02 4.376742616295814514e-02 -6.828342564404010773e-03 5.521235242486000061e-02 -2.981578744947910309e-02 4.444092512130737305e-02 -3.133475780487060547e-02 1.899579539895057678e-02 5.546814203262329102e-02 4.764075949788093567e-02 -4.327750299125909805e-03 3.789162496104836464e-03 1.372104976326227188e-02 -2.612677216529846191e-02 -3.938447311520576477e-02 -2.884162031114101410e-02 1.406265422701835632e-02 1.425035484135150909e-02 -1.801302284002304077e-02 2.266629226505756378e-02 4.233821481466293335e-02 2.866037562489509583e-02 -1.360196992754936218e-02 -2.654156088829040527e-02 -1.215907395817339420e-03 1.386062428355216980e-02 -1.224549673497676849e-02 4.236981645226478577e-02 3.801817446947097778e-02 -4.632494598627090454e-02 -2.986389398574829102e-02 -2.393576875329017639e-02 -3.862671181559562683e-02 2.813636697828769684e-02 -3.167787939310073853e-02 -3.679912770166993141e-03 -4.906613752245903015e-02 4.757317248731851578e-03 9.111458435654640198e-03 2.721033804118633270e-02 -1.842008158564567566e-02 -9.095348417758941650e-03 -4.061142727732658386e-02 5.063922330737113953e-02 -5.344933643937110901e-02 2.074559452012181282e-03 -1.178842782974243164e-02 -3.379440680146217346e-02 -4.500320553779602051e-02 7.556758821010589600e-03 3.937464207410812378e-03 1.991306431591510773e-02 -3.992788493633270264e-02 9.014997631311416626e-03 2.918645925819873810e-02 -2.716437727212905884e-02 2.356752380728721619e-02 5.096406210213899612e-03 1.947936788201332092e-02 -3.166870772838592529e-02 8.514033630490303040e-03 2.925619110465049744e-02 2.659374848008155823e-02 -1.886055222712457180e-03 -3.237262368202209473e-02 1.072611659765243530e-02 1.612418703734874725e-02 -4.214249085634946823e-03 3.121215477585792542e-02 -2.636924944818019867e-02 -3.775643929839134216e-02 1.409934647381305695e-02 -3.309414908289909363e-02 2.080232277512550354e-02 -3.396210074424743652e-02 6.811399012804031372e-03 1.539553795009851456e-02 -6.052827462553977966e-03 5.856086686253547668e-02 -1.245320960879325867e-02 1.964411512017250061e-02 1.956276968121528625e-02 7.874101400375366211e-03 -1.262965239584445953e-02 3.011654876172542572e-02 -3.447197377681732178e-03 -3.636814653873443604e-02 1.204650849103927612e-03 3.352571278810501099e-02 1.410629018209874630e-03 7.323773950338363647e-02 2.446585334837436676e-02 -3.961090371012687683e-02 5.610913503915071487e-03 2.482373826205730438e-02 -1.242106035351753235e-02 -3.021114505827426910e-02 -3.213245049118995667e-02 -3.777582943439483643e-02 -1.791665703058242798e-02 9.741558693349361420e-03 -3.137044981122016907e-02 -3.555316850543022156e-02 6.145097315311431885e-03 1.467902120202779770e-02 3.240090236067771912e-02 -9.280940517783164978e-03 -3.890104964375495911e-02 -1.601919531822204590e-02 -4.065974801778793335e-02 -2.598775736987590790e-02 -3.171858936548233032e-02 -2.591365948319435120e-02 7.399278134107589722e-02 4.029502347111701965e-02 -4.658096656203269958e-02 4.310801997780799866e-02 -3.603128716349601746e-02 -1.071871444582939148e-02 -5.001840647310018539e-03 -1.623260788619518280e-02 5.098934844136238098e-02 2.440606430172920227e-02 -1.953613571822643280e-02 1.388617139309644699e-02 -4.050711542367935181e-02 -3.866571933031082153e-02 6.227121874690055847e-02 -1.549952430650591850e-03 9.137589484453201294e-03 -1.157426089048385620e-02 4.590528830885887146e-02 2.250229753553867340e-02 -1.650524139404296875e-02 2.535597421228885651e-02 1.058062314987182617e-01 1.085808686912059784e-02 3.827016800642013550e-02 3.749606385827064514e-02 -2.065110392868518829e-02 -3.880529850721359253e-02 3.180621191859245300e-02 8.948124945163726807e-02 -4.648361727595329285e-02 -2.279079519212245941e-02 -7.194048259407281876e-03 9.741319343447685242e-03 8.515440858900547028e-03 -2.212566323578357697e-02 2.531170286238193512e-02 5.026325955986976624e-02 3.780532628297805786e-02 2.021386101841926575e-02 -2.502181753516197205e-02 3.171565383672714233e-02 -1.412449032068252563e-02 7.208138704299926758e-03 -2.316003106534481049e-02 -4.623708128929138184e-02 4.826293792575597763e-03 4.952831938862800598e-02 -3.135129064321517944e-02 -7.377763395197689533e-04 3.042281791567802429e-02 -2.572519704699516296e-02 -2.435107901692390442e-02 5.613985657691955566e-02 2.748136408627033234e-02 6.414788216352462769e-02 -4.427955299615859985e-02 1.839809119701385498e-02 4.174527898430824280e-02 3.360682725906372070e-02 7.035739719867706299e-03 -3.826802223920822144e-02 -4.428759682923555374e-03 -3.149118646979331970e-02 2.715931460261344910e-02 2.017798647284507751e-02 4.425940290093421936e-02 -2.020891755819320679e-02 -7.624116726219654083e-03 -1.707286201417446136e-02 4.414747282862663269e-02 -2.060292474925518036e-02 4.858733341097831726e-02 -3.519545868039131165e-02 1.488087582401931286e-03 -2.179391682147979736e-03 -4.690116643905639648e-02 1.934293285012245178e-02 -4.507643729448318481e-02 -2.571834065020084381e-02 2.546853944659233093e-02 -3.172272443771362305e-02 3.064478002488613129e-02 2.284801378846168518e-02 1.206113118678331375e-02 1.608152687549591064e-02 -8.698218502104282379e-03 -3.236110508441925049e-02 3.546268865466117859e-02 -3.195134550333023071e-02 2.328544296324253082e-02 2.794433012604713440e-02 4.177151247859001160e-02 -1.683530211448669434e-02 -3.771927580237388611e-02 -1.453910209238529205e-02 -3.003897145390510559e-02 1.216864213347434998e-02 1.457067951560020447e-02 -2.636164799332618713e-02 2.213016152381896973e-02 4.012869298458099365e-02 1.100062578916549683e-02 -4.298422858119010925e-02 5.563456192612648010e-02 -1.087452657520771027e-02 4.843611270189285278e-02 3.909659862983971834e-04 -2.829368785023689270e-02 -3.715281561017036438e-02 8.904299885034561157e-02 2.475943416357040405e-03 -2.397013455629348755e-02 3.743789717555046082e-02 -7.099390029907226562e-03 -3.472130373120307922e-02 3.218699246644973755e-03 -1.711474917829036713e-02 -4.968246817588806152e-02 4.969979170709848404e-03 1.802240684628486633e-02 1.101791672408580780e-02 -2.693578600883483887e-02 1.705834642052650452e-02 -2.737336233258247375e-02 1.486505102366209030e-02 1.898183487355709076e-02 1.078216359019279480e-02 3.428344801068305969e-02 4.042792320251464844e-02 -2.501286379992961884e-02 2.090329863131046295e-02 3.081521019339561462e-02 5.009867995977401733e-02 -2.848260477185249329e-02 2.913461998105049133e-02 -4.507814720273017883e-02 4.575166478753089905e-02 -4.827617481350898743e-02 2.406191453337669373e-02 2.754383906722068787e-02 -2.929318696260452271e-02 9.637353941798210144e-03 -1.170830801129341125e-02 -3.412354364991188049e-02 -8.409460075199604034e-03 7.315557450056076050e-02 -2.923730015754699707e-02 1.522362604737281799e-02 1.368902344256639481e-02 4.546697065234184265e-02 1.523164287209510803e-02 4.830651730298995972e-02 3.659038245677947998e-02 -4.050887748599052429e-02 3.207826241850852966e-02 -2.001035027205944061e-02 -1.075362414121627808e-02 -8.752133580856025219e-04 2.047291770577430725e-02 -4.138717055320739746e-02 1.163996011018753052e-02 3.588430583477020264e-02 -5.749386921525001526e-02 -2.992590703070163727e-02 -4.380659013986587524e-02 -4.581927880644798279e-02 5.952238291501998901e-02 4.445170238614082336e-02 2.149903587996959686e-02 -4.386238753795623779e-03 4.012574627995491028e-02 3.588493540883064270e-02 1.306704059243202209e-02 -2.372654341161251068e-02 -4.339498281478881836e-02 -4.422697052359580994e-02 1.146955415606498718e-02 4.222168028354644775e-02 -3.014656901359558105e-02 -2.840948849916458130e-02 -3.632204979658126831e-02 -1.801755651831626892e-02 -3.116983734071254730e-02 6.770391017198562622e-02 3.501022607088088989e-02 -4.052532091736793518e-02 8.138120174407958984e-03 -2.747000195086002350e-02 3.430473431944847107e-02 -1.646467298269271851e-02 -1.762644760310649872e-02 -2.476888336241245270e-02 1.443817839026451111e-02 4.100221768021583557e-02 2.236961200833320618e-02 -1.332509517669677734e-02 -1.203952822834253311e-02 3.078264370560646057e-02 4.711590334773063660e-02 -4.015801101922988892e-02 2.089576050639152527e-02 4.928256571292877197e-02 3.410121425986289978e-02 6.881773937493562698e-03 -1.378834526985883713e-02 2.735466882586479187e-02 5.436769872903823853e-02 4.372969269752502441e-02
-8.799768984317779541e-03 3.520595282316207886e-02 1.358459237962961197e-02 -6.132295355200767517e-03 -1.019188016653060913e-02 -3.730451315641403198e-02 3.389527276158332825e-02 1.906177029013633728e-02 -1.113964244723320007e-02 8.128963410854339600e-03 3.094309195876121521e-02 1.125747710466384888e-02 -3.385991603136062622e-02 -4.409153014421463013e-03 -1.578449457883834839e-02 4.601624608039855957e-02 -4.976003244519233704e-02 4.291978105902671814e-02 -3.683381527662277222e-02 -7.875539362430572510e-03 -6.894819438457489014e-03 -3.328226506710052490e-02 2.347499504685401917e-02 2.291517332196235657e-02 -1.967806369066238403e-03 -3.739387169480323792e-02 -1.322336122393608093e-02 -3.187665343284606934e-02 1.536338403820991516e-02 2.050861157476902008e-02 3.660887107253074646e-02 1.105839665979146957e-02 3.339190036058425903e-02 -1.867564953863620758e-02 -3.949720412492752075e-02 4.599028732627630234e-03 4.337956663221120834e-03 2.180916629731655121e-02 -3.474529460072517395e-02 -8.075367659330368042e-03 -9.191970340907573700e-03 -3.846046328544616699e-02 1.064515672624111176e-02 -2.378352358937263489e-02 1.058185845613479614e-02 4.784645885229110718e-02 3.498285263776779175e-02 3.907011821866035461e-03 -4.920649528503417969e-02 2.920294180512428284e-02 4.635134339332580566e-02 3.183015435934066772e-02 2.029702439904212952e-02 -7.844788022339344025e-03 -4.710231721401214600e-02 4.540570080280303955e-02 -3.218243271112442017e-02 -5.201997235417366028e-03 -2.061926200985908508e-02 4.862042143940925598e-02 -3.410223498940467834e-02 -2.408709004521369934e-02 5.725888069719076157e-03 4.153692349791526794e-02 3.017909452319145203e-02 3.256398066878318787e-02 -8.339899941347539425e-04 -3.579973999876528978e-04 2.006036415696144104e-02 -1.133877201937139034e-03 2.378210052847862244e-02 3.636641055345535278e-02 -1.383034512400627136e-02 3.679605945944786072e-02 -2.101540099829435349e-03 1.244404911994934082e-02 2.663089707493782043e-02 7.193945348262786865e-03 -1.990289427340030670e-02 3.000492975115776062e-02 2.208296395838260651e-02 -1.269659399986267090e-02 3.713050112128257751e-02 -1.950914971530437469e-02 -1.893491856753826141e-02 -9.574782103300094604e-03 3.306748811155557632e-03 1.580182835459709167e-02 -4.317730665206909180e-02 -4.594414308667182922e-02 1.319514866918325424e-02 2.930107153952121735e-02 1.994982734322547913e-02 -2.316535450518131256e-02 4.256904125213623047e-03 -7.863111793994903564e-03 2.475700154900550842e-02 3.028435446321964264e-02 1.449460070580244064e-02 -2.200552821159362793e-02 2.607443556189537048e-02 -1.410899683833122253e-02 1.481088250875473022e-02 -3.300394117832183838e-02 -2.136538736522197723e-02 -3.942788392305374146e-02 -2.729223854839801788e-02 1.890138164162635803e-02 6.905417889356613159e-03 2.131311222910881042e-02 -4.535052925348281860e-02 -2.356640808284282684e-02 1.780212298035621643e-02 2.787585742771625519e-02 -3.101977705955505371e-02 -1.869430392980575562e-02 1.838249340653419495e-02 -4.994609951972961426e-02 3.300022333860397339e-03 3.856215253472328186e-02 -3.418985754251480103e-02 -6.245411466807126999e-03 -4.290774464607238770e-02 -3.450234606862068176e-02 -1.423086971044540405e-02 -3.276691958308219910e-02 5.303949117660522461e-03 4.513574764132499695e-03 -3.092942759394645691e-02 -1.874413341283798218e-02 -3.996334969997406006e-02 4.588441923260688782e-02 7.759561995044350624e-04 4.022117704153060913e-02 9.705714881420135498e-03 1.107644289731979370e-02 -3.261283785104751587e-02 -1.445526629686355591e-02 3.154638782143592834e-02 4.483472555875778198e-03 1.452467218041419983e-02 -3.069579601287841797e-02 3.688188269734382629e-02 -4.034184664487838745e-02 1.915717497467994690e-02 -3.698686882853507996e-02 -3.163695335388183594e-03 3.529700264334678650e-02 -1.995204202830791473e-02 3.955054283142089844e-02 -1.469736732542514801e-02 -4.014410451054573059e-02 -2.363369986414909363e-02 -2.388290129601955414e-02 1.093285437673330307e-02 4.129050672054290771e-02 -2.864958718419075012e-02 3.366952016949653625e-02 -4.129543155431747437e-02 6.655983626842498779e-03 1.810428872704505920e-02 -4.021547734737396240e-02 2.158168330788612366e-02 -1.172836497426033020e-02 1.766617409884929657e-02 -6.646167486906051636e-03 1.686082221567630768e-02 -1.510640978813171387e-02 -4.070826619863510132e-02 3.276703506708145142e-02 4.386759176850318909e-02 -2.131955698132514954e-02 -1.226823963224887848e-02 -3.291476517915725708e-02 4.704321175813674927e-02 -1.283391192555427551e-02 -3.832088783383369446e-02 -2.379545383155345917e-02 2.731464803218841553e-02 -4.310406371951103210e-02 -4.289139062166213989e-03 4.072703048586845398e-02 2.901145443320274353e-02 -2.439577132463455200e-03 4.666977375745773315e-02 3.330280259251594543e-02 3.791632130742073059e-02 1.777580752968788147e-02 1.892208680510520935e-02 1.069092843681573868e-02 4.688778147101402283e-02 4.148291423916816711e-02 -1.310657709836959839e-02 -1.542882341891527176e-02 -1.160565018653869629e-02 -2.978709340095520020e-02 9.958665817975997925e-03 -7.627855986356735229e-03 -9.508599760010838509e-04 -3.463800996541976929e-02 -4.153629019856452942e-02 1.883579604327678680e-02 -8.558258414268493652e-03 -3.379797190427780151e-02 -5.104072391986846924e-02 -1.726706326007843018e-02 3.687450289726257324e-02 -2.121163718402385712e-02 4.885697737336158752e-02 4.190060123801231384e-02 8.900900371372699738e-03 2.698792144656181335e-02 -3.920879960060119629e-02 -2.814716659486293793e-02 2.841637469828128815e-02 -2.629050612449645996e-02 3.759822621941566467e-02 2.372414618730545044e-02 2.222802117466926575e-02 -1.505896076560020447e-02 -1.379383169114589691e-02 -4.753125831484794617e-02 -3.063132241368293762e-02 1.598376221954822540e-02 2.053884230554103851e-02 -1.109276898205280304e-02 3.276225412264466286e-03 -1.746098860166966915e-03 -6.579861044883728027e-03 -3.542617708444595337e-02 4.759623855352401733e-02 3.337058797478675842e-02 -1.308198645710945129e-02 2.143591269850730896e-02 -1.433033868670463562e-02 1.714223995804786682e-02 1.365538872778415680e-02 2.931500971317291260e-02 -4.461725428700447083e-02 2.754162624478340149e-02 3.517612442374229431e-02 4.742809012532234192e-02 2.913392707705497742e-02 3.008757159113883972e-02 -4.737785086035728455e-02 2.132849954068660736e-02 -2.112831920385360718e-02 4.265215247869491577e-02 2.672996744513511658e-02 2.903935685753822327e-02 1.778982393443584442e-02 4.343964159488677979e-03 -2.385970205068588257e-02 -1.835255324840545654e-02 3.209138661623001099e-02 1.155105698853731155e-02 7.064374629408121109e-03 -1.044853404164314270e-02 -4.902764409780502319e-02 2.958318404853343964e-02 4.212035238742828369e-02 1.728859916329383850e-02 -1.682337373495101929e-02 -3.637646883726119995e-02 3.002345934510231018e-02 1.795239187777042389e-02 2.868468686938285828e-02 2.987690269947052002e-03 -3.137590829282999039e-04 -4.050905257463455200e-02 4.051429405808448792e-02 -1.836976408958435059e-02 -5.070999637246131897e-02 1.916748285293579102e-02 -1.607667654752731323e-03 3.055227734148502350e-02 -7.488588802516460419e-03 1.620024815201759338e-02 -2.687736041843891144e-02 4.984904453158378601e-02 -1.392869278788566589e-02 -4.554821550846099854e-02 -3.893324732780456543e-02 3.768071532249450684e-02 3.921568021178245544e-02 3.423350676894187927e-02 1.196178328245878220e-02 -3.781972452998161316e-02 7.018421776592731476e-03 2.235648408532142639e-02 -4.257854819297790527e-02 -1.459295675158500671e-02 -1.823076233267784119e-02 -4.616192728281021118e-02 2.807253226637840271e-02 3.229113295674324036e-02 -1.207803562283515930e-02 4.700693860650062561e-02 2.203575894236564636e-02 -8.570753037929534912e-03 -1.550383493304252625e-02 1.453942712396383286e-02 -9.689592756330966949e-03 4.157288372516632080e-02 8.010108023881912231e-03 -5.595028400421142578e-03 3.640855476260185242e-02 -2.049931325018405914e-02 4.350410029292106628e-02 4.625181481242179871e-02 -1.646361127495765686e-02 -3.110638819634914398e-02 -4.074613377451896667e-02 -2.493234723806381226e-02 4.893869534134864807e-02 2.162350341677665710e-02 -9.243678301572799683e-03 -3.959305584430694580e-02 2.654406055808067322e-02 7.785685360431671143e-03 3.983457107096910477e-03 2.732362225651741028e-02 -8.245375938713550568e-03 -7.917093113064765930e-03 -4.098807927221059799e-03 -4.088054224848747253e-02 2.567651309072971344e-02 -1.407972723245620728e-02 4.592056199908256531e-02 -3.436944633722305298e-02 4.707759246230125427e-02 1.902418211102485657e-02 -1.090169884264469147e-02 -1.245878729969263077e-02 -4.909249022603034973e-02 8.790891733951866627e-04 -2.676980197429656982e-02 -4.550003260374069214e-02 3.545163199305534363e-02 -3.517588973045349121e-02 -1.070696301758289337e-02 4.713307693600654602e-02 -1.708761975169181824e-02 -2.165116742253303528e-02 -3.010405693203210831e-03 -6.194729357957839966e-03 -9.661834686994552612e-03 4.835410416126251221e-02 -1.453135162591934204e-02 2.432315144687891006e-03 3.856167569756507874e-02 2.568059600889682770e-03 -1.217324659228324890e-02 -4.788779094815254211e-02 -4.234524443745613098e-02 -5.121774971485137939e-03 -4.851844906806945801e-02 4.553545266389846802e-03 4.308483097702264786e-03 2.597704902291297913e-02 -3.269445523619651794e-02 4.058125987648963928e-02 -1.010177284479141235e-02 -4.819380864500999451e-02 -4.645904526114463806e-02 4.521724209189414978e-02 -2.959077991545200348e-02 -2.961996197700500488e-02 3.109267726540565491e-02 -4.280367866158485413e-02 2.459189668297767639e-02 3.110879287123680115e-02 3.231668844819068909e-02 -4.313504323363304138e-02 4.928785189986228943e-02 -1.443577092140913010e-02 3.216828778386116028e-02 -1.433602184988558292e-03 -2.421483956277370453e-02 3.426076844334602356e-02 1.071546226739883423e-02 -3.966537117958068848e-02 -2.688152156770229340e-02 5.730133503675460815e-03 -5.730491131544113159e-03 -4.744460806250572205e-02 -4.618441686034202576e-02 1.702325418591499329e-02 -4.969839006662368774e-02 2.315868996083736420e-02 -2.246834710240364075e-02 -2.797477878630161285e-02 1.663991436362266541e-02 -9.117207489907741547e-03 -3.899307548999786377e-02 -2.650895714759826660e-02 -3.484402969479560852e-02 8.708365261554718018e-03 -2.941309241577982903e-03 1.501827221363782883e-02
-1.811895519495010376e-02 2.762629464268684387e-02 -7.708360999822616577e-02 -5.223704874515533447e-02 5.084734410047531128e-03 6.939791142940521240e-03 4.365133866667747498e-02 8.616816252470016479e-03 7.029562722891569138e-03 -3.453037887811660767e-02 -2.710730396211147308e-02 3.669953718781471252e-02 1.920552179217338562e-02 -1.219251751899719238e-02 -4.587185382843017578e-02 -3.162721544504165649e-02 2.847671881318092346e-02 1.779519394040107727e-02 -9.535420686006546021e-03 5.864937324076890945e-03 -1.121129468083381653e-02 2.671382203698158264e-02 2.827249467372894287e-03 -1.136072725057601929e-02 3.720175474882125854e-03 -3.846429288387298584e-03 -3.357209265232086182e-02 7.141895592212677002e-03 1.876285299658775330e-02 4.003810510039329529e-02 -2.128377556800842285e-02 1.946771517395973206e-02 -4.230262711644172668e-02 -8.061666041612625122e-03 -1.078730076551437378e-02 -1.411659419536590576e-01 3.937435522675514221e-02 -3.492200374603271484e-02 5.197793245315551758e-02 -1.728507131338119507e-02 -4.162656515836715698e-02 -1.257282868027687073e-02 2.545955404639244080e-02 4.775751009583473206e-02 -4.080910608172416687e-02 -1.573672145605087280e-02 2.276425622403621674e-02 -2.214899472892284393e-02 -3.571808338165283203e-02 -8.918610960245132446e-02 -7.512818556278944016e-03 -3.964465111494064331e-03 -4.621960595250129700e-02 3.363058343529701233e-02 2.276189625263214111e-04 -3.097001090645790100e-02 3.302991762757301331e-02 8.825149387121200562e-03 -3.419321775436401367e-02 -2.999247983098030090e-02 -4.759631305932998657e-02 4.646914079785346985e-02 2.890239004045724869e-03 2.050019428133964539e-02 5.590461194515228271e-03 -8.529517799615859985e-03 3.657203167676925659e-03 -1.940544880926609039e-02 3.894203528761863708e-02 2.002442255616188049e-02 -4.087907820940017700e-02 6.071689352393150330e-02 2.093222364783287048e-02 3.399103507399559021e-02 1.551946997642517090e-02 -1.667891070246696472e-02 -1.887075603008270264e-03 -4.454789683222770691e-02 -2.213760092854499817e-02 3.652785345911979675e-02 -1.821573823690414429e-02 -3.063168749213218689e-02 1.295831426978111267e-02 4.124582931399345398e-02 3.015988506376743317e-02 -4.559151455760002136e-02 3.568549081683158875e-02 6.779134273529052734e-04 -2.556617371737957001e-02 -1.421419903635978699e-02 2.007419988512992859e-02 1.343689486384391785e-02 3.572786226868629456e-02 1.964062824845314026e-02 2.601115033030509949e-02 -3.739622607827186584e-02 -1.697503402829170227e-02 4.026856645941734314e-02 8.620917797088623047e-04 3.693303838372230530e-02 -3.885775804519653320e-03 -1.198714524507522583e-01 6.763090938329696655e-02 -3.091715089976787567e-02 3.094733878970146179e-02 2.628861740231513977e-02 -3.031589463353157043e-02 -8.894167840480804443e-03 8.697051554918289185e-03 -3.137701004743576050e-02 3.113434836268424988e-02 1.594803109765052795e-02 2.894145622849464417e-02 2.441612444818019867e-02 4.960358142852783203e-03 -4.496574401855468750e-02 -2.551469579339027405e-02 4.006234183907508850e-02 2.417861297726631165e-02 4.763508215546607971e-02 -3.490846604108810425e-03 -3.103898279368877411e-02 -5.128616839647293091e-02 -2.217138372361660004e-02 3.879548236727714539e-02 -9.980108588933944702e-02 4.455607756972312927e-02 -1.732658967375755310e-02 5.655068671330809593e-04 3.803901746869087219e-02 2.739778533577919006e-02 2.795899286866188049e-02 3.907316830009222031e-03 -4.370257630944252014e-02 1.294327154755592346e-02 9.193599224090576172e-02 -3.253041207790374756e-02 -1.241249963641166687e-02 -7.123053073883056641e-04 3.691199794411659241e-02 -2.512828819453716278e-02 7.035721093416213989e-03 9.719282388687133789e-05 1.471808925271034241e-02 -3.521206974983215332e-02 -2.492091059684753418e-02 2.581124380230903625e-02 6.875813007354736328e-03 5.596826598048210144e-02 -1.504648849368095398e-02 -1.636178046464920044e-02 2.667974308133125305e-02 3.632405772805213928e-02 8.038889616727828979e-03 -8.932360261678695679e-02 2.071216329932212830e-02 2.370581030845642090e-02 -4.921514540910720825e-03 -1.984263956546783447e-02 -1.553956791758537292e-02 6.745457649230957031e-03 -5.996115505695343018e-04 -2.153240144252777100e-03 2.392232418060302734e-03 -4.674531519412994385e-03 5.704391747713088989e-03 -1.605344936251640320e-02 -4.786385968327522278e-02 -1.944525726139545441e-02 -8.806377649307250977e-03 -1.176884025335311890e-02 -1.757967472076416016e-02 -8.355142781510949135e-04 -4.979183152318000793e-02 -1.296215131878852844e-02 4.594747349619865417e-02 -4.782245680689811707e-02 -7.985025644302368164e-03 1.470879558473825455e-02 3.019863739609718323e-02 4.161345586180686951e-02 -3.592820838093757629e-02 2.233044011518359184e-03 -1.087167859077453613e-02 -4.011057317256927490e-03 -2.586777880787849426e-02 4.728833213448524475e-02 -4.325297474861145020e-02 5.728792399168014526e-03 -3.784067183732986450e-02 3.097805753350257874e-02 -2.991452515125274658e-01 -4.537696763873100281e-02 2.073797956109046936e-02 4.551378265023231506e-02 2.272899076342582703e-02 -1.517619565129280090e-02 2.419251576066017151e-02 -1.496862620115280151e-02 -1.358200460672378540e-01 -1.139800995588302612e-02 3.924321010708808899e-02 2.002779766917228699e-02 4.112316295504570007e-02 -1.767059415578842163e-02 -2.697510085999965668e-02 5.532403010874986649e-03 -1.014491915702819824e-02 -9.114719927310943604e-03 2.900833263993263245e-02 -6.412975490093231201e-04 -4.635412245988845825e-03 -2.252164483070373535e-02 -3.589054942131042480e-02 -1.884310394525527954e-01 1.028489321470260620e-03 2.504669129848480225e-03 -4.341476038098335266e-02 2.407393231987953186e-02 -3.141571581363677979e-02 -8.305244892835617065e-02 -2.000279538333415985e-02 4.600412026047706604e-02 2.771376445889472961e-02 4.813292995095252991e-03 -6.062497850507497787e-03 4.086359962821006775e-02 1.237364485859870911e-02 -4.684490710496902466e-02 -3.140194714069366455e-02 1.783645711839199066e-02 4.655167832970619202e-02 2.258145436644554138e-02 -2.068666927516460419e-02 4.268423095345497131e-02 3.344345465302467346e-02 4.477998241782188416e-02 -3.834188729524612427e-02 -1.372301578521728516e-01 -3.665400668978691101e-02 3.671271726489067078e-02 2.022163942456245422e-02 -4.970985651016235352e-02 7.706917822360992432e-03 -6.623862683773040771e-02 -8.804541826248168945e-02 1.466603111475706100e-02 4.094466567039489746e-04 -4.793399199843406677e-02 2.941569313406944275e-02 -2.688981592655181885e-02 -5.305781960487365723e-04 1.673644408583641052e-02 -2.691387012600898743e-02 3.846104256808757782e-03 -1.605656434549018741e-04 -2.307770214974880219e-02 -4.489916563034057617e-02 1.564897969365119934e-02 -6.186830624938011169e-02 1.178968697786331177e-02 -1.555184274911880493e-02 -1.927317492663860321e-02 2.581509575247764587e-02 -4.406729340553283691e-02 -1.628387719392776489e-02 1.658118143677711487e-02 -4.900342971086502075e-02 5.299735814332962036e-03 3.355092927813529968e-02 -1.013488322496414185e-02 -2.870988845825195312e-02 -3.582306578755378723e-02 8.410088717937469482e-03 -3.580772876739501953e-02 -3.455436602234840393e-02 -4.014231637120246887e-02 -4.405849054455757141e-02 -2.257889881730079651e-02 2.459145709872245789e-02 3.793887794017791748e-03 4.512126371264457703e-02 2.570806071162223816e-02 1.041859388351440430e-02 -4.402334615588188171e-02 5.200231447815895081e-02 3.260822221636772156e-02 -1.186210662126541138e-03 2.309939637780189514e-02 -7.247805595397949219e-03 1.368216797709465027e-02 -3.995089605450630188e-02 -1.771781295537948608e-01 -1.615784689784049988e-02 4.692002013325691223e-02 -4.303698614239692688e-02 4.500165954232215881e-02 5.841732025146484375e-03 -2.662531845271587372e-02 2.536212280392646790e-02 -4.395040869712829590e-02 -1.964536607265472412e-01 -2.392541244626045227e-02 -1.186920776963233948e-01 2.320398762822151184e-02 -1.637098193168640137e-02 2.512079849839210510e-02 -1.672344282269477844e-02 -2.472177147865295410e-02 4.517369344830513000e-02 -3.011100366711616516e-02 3.414422273635864258e-03 4.399979487061500549e-02 2.868006750941276550e-02 -4.341843724250793457e-02 4.699971154332160950e-02 -4.786998033523559570e-02 -5.305586848407983780e-03 -4.446930810809135437e-02 5.258988589048385620e-03 -5.040635820478200912e-03 4.348285868763923645e-02 2.871141210198402405e-02 5.934082902967929840e-03 -7.635159790515899658e-02 7.994696497917175293e-04 -6.689039617776870728e-02 3.786369785666465759e-02 2.452826127409934998e-02 -1.148733496665954590e-02 -4.915107041597366333e-03 1.608658209443092346e-02 1.613380387425422668e-02 3.723022714257240295e-02 3.529101237654685974e-02 -3.814823925495147705e-03 4.411175474524497986e-02 2.055756933987140656e-02 4.100904241204261780e-02 -2.478417754173278809e-02 -7.939022034406661987e-03 1.167238503694534302e-02 -1.269433647394180298e-02 3.415312245488166809e-02 3.477090224623680115e-02 2.199349924921989441e-02 -9.382896125316619873e-03 2.998530864715576172e-03 -5.135804414749145508e-03 4.767904058098793030e-02 -3.499924018979072571e-02 -3.756011277437210083e-02 -4.925853759050369263e-02 -1.458520814776420593e-02 -9.628345817327499390e-02 3.339726105332374573e-02 2.745598554611206055e-03 4.835596308112144470e-02 3.220787271857261658e-02 4.978965967893600464e-03 6.419140845537185669e-03 1.826733723282814026e-02 1.322718337178230286e-02 3.723433986306190491e-02 -1.303360983729362488e-02 -2.169373631477355957e-02 -4.587392136454582214e-02 2.592435106635093689e-02 2.433649078011512756e-02 -1.304578967392444611e-02 3.097182139754295349e-02 -1.434661820530891418e-02 -2.687109820544719696e-02 2.465813979506492615e-02 -1.937655173242092133e-02 -2.526794187724590302e-02 -5.397310853004455566e-02 -4.874342307448387146e-02 -8.661381900310516357e-03 -3.138246387243270874e-02 -8.326821029186248779e-03 2.018623054027557373e-04 4.164944216609001160e-02 -2.665407955646514893e-04 -2.091502025723457336e-02 1.744868978857994080e-02 -3.858404234051704407e-02 1.772794499993324280e-02 -4.836135543882846832e-03 4.662549495697021484e-02 -1.980843581259250641e-02 -8.650772273540496826e-03 -1.443097740411758423e-02 2.400333434343338013e-02 -3.131303936243057251e-02 1.603793725371360779e-02 3.963635489344596863e-02 2.021743729710578918e-02 8.014433085918426514e-02 -4.731482267379760742e-02
-1.642385125160217285e-02 -1.101258397102355957e-02 9.507864713668823242e-03 4.825040325522422791e-02 7.189262658357620239e-03 -1.608996838331222534e-02 -3.400363028049468994e-03 1.439512893557548523e-02 -3.832296282052993774e-02 -1.897456124424934387e-02 -8.767016232013702393e-03 3.669843450188636780e-02 4.072320088744163513e-02 -2.092017605900764465e-02 2.296845242381095886e-02 3.648494556546211243e-02 2.238390967249870300e-02 -4.796146973967552185e-02 2.502406015992164612e-02 2.674484625458717346e-02 5.906801670789718628e-03 2.407917752861976624e-02 4.818461462855339050e-02 -4.207919910550117493e-02 -3.311269730329513550e-02 -3.225694596767425537e-02 -4.104416444897651672e-02 -2.031453326344490051e-02 7.549054920673370361e-03 3.722924366593360901e-02 4.011487588286399841e-02 -2.745693922042846680e-02 2.380493655800819397e-02 -4.162974283099174500e-02 3.501871600747108459e-02 3.849835321307182312e-02 1.746653392910957336e-02 -1.985667459666728973e-02 2.389810979366302490e-03 2.644963562488555908e-03 2.361531183123588562e-02 -4.715318605303764343e-02 -2.722560800611972809e-02 -2.592470124363899231e-02 3.192053362727165222e-02 1.056888699531555176e-02 -3.144382312893867493e-02 -2.907225489616394043e-02 -3.880975767970085144e-02 2.396142110228538513e-02 4.780540987849235535e-02 -2.121544443070888519e-02 1.291507855057716370e-02 2.957874163985252380e-02 1.837344095110893250e-02 1.652644947171211243e-02 4.299275949597358704e-02 3.677383437752723694e-02 -3.520039841532707214e-02 -4.003581404685974121e-02 2.443324401974678040e-02 -2.369989827275276184e-02 -3.803111240267753601e-02 -4.577920585870742798e-02 -2.596511319279670715e-02 2.931318059563636780e-02 -2.630591392517089844e-02 -4.545832797884941101e-02 4.593707993626594543e-02 3.333530202507972717e-02 3.565979376435279846e-02 2.698282524943351746e-02 3.368607535958290100e-02 -3.929831087589263916e-03 6.054453551769256592e-04 4.421479627490043640e-02 4.970129206776618958e-02 2.960849553346633911e-03 4.257363453507423401e-02 3.048211708664894104e-02 3.264439478516578674e-02 -2.906098961830139160e-04 -4.402571544051170349e-02 7.501311600208282471e-03 1.804340630769729614e-03 4.477512463927268982e-02 -4.906100034713745117e-02 1.145888492465019226e-02 -3.690778464078903198e-02 3.242065384984016418e-02 3.266846761107444763e-02 1.325460895895957947e-02 3.852367401123046875e-03 -3.547839820384979248e-03 1.394361257553100586e-03 3.312891349196434021e-02 2.369183674454689026e-02 -2.096253074705600739e-02 -3.918647766113281250e-03 -1.992784254252910614e-02 4.611362144351005554e-02 3.087267652153968811e-02 -6.882645189762115479e-03 2.992481365799903870e-02 -2.377032116055488586e-02 -2.400219999253749847e-02 -1.134226843714714050e-02 -5.394242703914642334e-03 1.762357726693153381e-02 -4.346007108688354492e-02 1.372981444001197815e-02 1.606087759137153625e-02 -4.525110125541687012e-04 1.952436938881874084e-02 4.184098169207572937e-02 -7.520388811826705933e-03 -3.882589191198348999e-02 -6.931763142347335815e-03 4.448483511805534363e-02 -4.005973786115646362e-02 7.291078567504882812e-03 -4.497099667787551880e-02 -4.189883917570114136e-02 -3.829456120729446411e-02 -2.496343292295932770e-02 2.946102991700172424e-02 -1.292138546705245972e-02 -7.645208388566970825e-03 1.947108283638954163e-02 -4.754534363746643066e-02 -2.722966670989990234e-02 -1.070281118154525757e-02 -3.407858312129974365e-03 2.215184271335601807e-03 4.951607435941696167e-03 3.387291356921195984e-02 3.497772291302680969e-02 -2.135149203240871429e-02 -4.503571987152099609e-02 4.337351769208908081e-03 4.881142452359199524e-02 7.393926382064819336e-03 1.076797768473625183e-02 1.329356804490089417e-02 -1.448531821370124817e-02 3.989600762724876404e-02 3.933133557438850403e-02 -3.537258505821228027e-02 -4.316089302301406860e-02 2.319667115807533264e-02 -3.146632760763168335e-02 -3.042448312044143677e-03 -2.076208032667636871e-02 3.072956576943397522e-02 1.171080395579338074e-02 4.850732907652854919e-02 1.061842963099479675e-02 1.036163419485092163e-02 -3.356100991368293762e-02 4.668379947543144226e-02 -1.037395000457763672e-02 -5.861647427082061768e-03 -4.822048544883728027e-02 -4.815442115068435669e-02 2.186519280076026917e-02 3.154381737112998962e-02 3.244588151574134827e-02 3.421125188469886780e-02 -3.940406441688537598e-02 -2.129965461790561676e-02 3.078425303101539612e-02 -3.924831748008728027e-02 3.155846521258354187e-02 3.190422430634498596e-02 -2.403041720390319824e-02 -3.993727266788482666e-03 -2.348883263766765594e-02 2.272324636578559875e-02 -3.228320181369781494e-02 -1.708010956645011902e-02 2.406367287039756775e-02 1.594712957739830017e-02 1.707704737782478333e-02 -3.083207644522190094e-02 4.115106537938117981e-02 2.773738279938697815e-02 2.433964982628822327e-02 -2.847258560359477997e-02 8.911550045013427734e-03 -2.466126717627048492e-02 -2.696598134934902191e-02 3.679940477013587952e-02 -3.082976303994655609e-02 -3.346022963523864746e-02 4.561542347073554993e-02 -2.116442285478115082e-02 3.609672561287879944e-02 -1.533085107803344727e-02 -1.194135472178459167e-02 2.103841677308082581e-02 2.669737860560417175e-02 -1.286846399307250977e-02 -3.895389288663864136e-02 7.643651217222213745e-03 2.123964950442314148e-02 4.520046338438987732e-02 3.892026841640472412e-03 2.107336744666099548e-02 -3.699064254760742188e-02 2.321089431643486023e-02 -9.374778717756271362e-03 -9.206712245941162109e-03 9.053550660610198975e-03 -1.128951460123062134e-02 4.450051113963127136e-02 -3.014589659869670868e-02 3.805882111191749573e-02 -3.347453474998474121e-02 2.624474838376045227e-02 -1.225335523486137390e-02 -1.853734999895095825e-02 -4.333214089274406433e-02 2.152763679623603821e-02 -2.131506800651550293e-02 1.770894974470138550e-03 4.858868941664695740e-02 -3.455548360943794250e-02 -2.037104405462741852e-02 4.526339471340179443e-03 3.874770179390907288e-02 -5.054544657468795776e-03 -1.668782904744148254e-02 4.626653715968132019e-02 -2.666026912629604340e-02 1.146754622459411621e-02 -7.842946797609329224e-03 5.844313651323318481e-03 -4.043339937925338745e-02 3.446835651993751526e-02 -1.243019104003906250e-02 4.792101681232452393e-04 4.393431171774864197e-02 3.799143061041831970e-02 8.338563144207000732e-03 -3.555590659379959106e-02 -1.850914210081100464e-03 1.750573888421058655e-02 4.971383884549140930e-02 -2.809134125709533691e-02 -1.865394786000251770e-02 -2.748501859605312347e-02 -1.856286078691482544e-03 9.953875094652175903e-03 -3.792712092399597168e-02 3.407917916774749756e-03 -6.591819226741790771e-03 -2.570681087672710419e-02 1.181127503514289856e-02 -2.204279415309429169e-02 4.405776038765907288e-02 1.598172262310981750e-02 -4.338099434971809387e-02 1.600397750735282898e-02 1.543384417891502380e-02 4.423849284648895264e-03 3.053706511855125427e-02 -3.905662894248962402e-02 3.393620252609252930e-03 1.406244561076164246e-02 -4.796544462442398071e-02 -1.546409726142883301e-02 4.240686073899269104e-02 -4.488499090075492859e-02 -4.556325078010559082e-02 2.050222828984260559e-02 -5.465447902679443359e-04 3.733483329415321350e-02 -4.247877001762390137e-02 -4.853063821792602539e-02 2.755824849009513855e-02 -5.707968026399612427e-03 -4.809561371803283691e-02 -3.716782480478286743e-02 -1.990747451782226562e-02 -4.181844741106033325e-02 -7.507782429456710815e-03 2.304686233401298523e-02 -3.468600660562515259e-02 -4.647172987461090088e-03 6.303168833255767822e-03 1.473044976592063904e-02 2.629568800330162048e-02 -2.941969037055969238e-02 1.385376229882240295e-02 3.655933961272239685e-02 1.990842446684837341e-02 -4.238503053784370422e-02 2.543253079056739807e-02 1.183989644050598145e-02 -4.721520468592643738e-02 3.053555265069007874e-02 -1.909598708152770996e-02 3.377316519618034363e-02 4.025701060891151428e-02 1.602366939187049866e-02 -4.106177017092704773e-02 2.427065744996070862e-02 -2.851834893226623535e-02 -4.126312583684921265e-02 2.894294634461402893e-02 -2.615491114556789398e-02 4.381803795695304871e-02 8.267469704151153564e-03 -1.890880428254604340e-02 -1.396764069795608521e-03 2.264713868498802185e-02 -4.825435578823089600e-03 2.767402306199073792e-02 6.209183484315872192e-03 -1.177635788917541504e-02 -4.815465211868286133e-02 -4.181247204542160034e-02 3.299992531538009644e-03 -9.743057191371917725e-03 -4.316252470016479492e-02 7.332641631364822388e-03 1.332465186715126038e-02 -2.550393342971801758e-02 4.399880394339561462e-02 -1.211396604776382446e-02 -2.142712473869323730e-02 -5.161784589290618896e-03 4.093024507164955139e-02 -1.011490076780319214e-02 1.835115253925323486e-04 4.678462073206901550e-02 -3.248733282089233398e-02 -1.443959400057792664e-02 -8.228778839111328125e-03 -7.969517260789871216e-03 -5.665428936481475830e-03 2.850461751222610474e-03 3.231978788971900940e-02 -3.089751116931438446e-02 6.527174264192581177e-03 1.413315907120704651e-02 3.004312142729759216e-02 1.597339287400245667e-02 3.277511522173881531e-02 3.374600782990455627e-02 4.824737086892127991e-02 -1.013734936714172363e-02 9.068660438060760498e-04 -4.571955651044845581e-03 -4.324117302894592285e-02 1.387415453791618347e-02 -1.552979275584220886e-02 4.404718056321144104e-02 -4.076097160577774048e-02 3.895400837063789368e-02 -2.824658155441284180e-02 -2.594660595059394836e-02 1.268105581402778625e-02 -2.970255725085735321e-02 -9.481899440288543701e-03 1.979123428463935852e-02 -4.797033220529556274e-02 -2.742610685527324677e-02 -9.234853088855743408e-03 -4.389096051454544067e-03 4.584658890962600708e-03 2.915433421730995178e-02 3.345094248652458191e-02 -2.433072403073310852e-02 2.508938312530517578e-03 1.650658622384071350e-02 -2.922085486352443695e-02 1.526734605431556702e-02 -4.888627678155899048e-02 3.698533400893211365e-02 -4.983863234519958496e-02 1.114423200488090515e-02 1.550107821822166443e-02 -9.313441812992095947e-03 7.333289831876754761e-03 4.838548600673675537e-03 4.774023965001106262e-02 2.906161174178123474e-02 -2.870280854403972626e-02 -1.468931511044502258e-02 -3.975719213485717773e-02 -1.090623065829277039e-02 -1.932030916213989258e-02 4.492191597819328308e-02 -2.865083515644073486e-03 -2.854865789413452148e-02 -2.283543348312377930e-03 -4.014395549893379211e-02 -4.763192683458328247e-02 -2.563937939703464508e-02
