3.546634688973426819e-03 -6.596145778894424438e-02 6.905755400657653809e-02 3.382520377635955811e-02 4.305167123675346375e-02 2.438776008784770966e-02 -3.189156576991081238e-02 7.910504937171936035e-02 6.036646664142608643e-04 4.255857691168785095e-02 -4.579947888851165771e-02 -1.276002358645200729e-02 -3.417509794235229492e-02 -2.661887370049953461e-02 1.976947113871574402e-02 1.680232770740985870e-02 8.599582314491271973e-02 -2.919883728027343750e-01 4.883624240756034851e-02 -3.271847963333129883e-02 1.126766055822372437e-01 -2.977884933352470398e-02 -5.083352327346801758e-02 3.505276143550872803e-02 1.807007379829883575e-02 2.329940348863601685e-02 -1.735356450080871582e-02 3.604785725474357605e-02 3.941645845770835876e-03 -2.215886674821376801e-02 3.636249154806137085e-02 -2.323323860764503479e-02 -4.499098286032676697e-02 7.146486081182956696e-03 -8.754422515630722046e-02 4.850060120224952698e-02 -4.189834930002689362e-03 2.590126916766166687e-02 8.521299809217453003e-02 2.661032043397426605e-02 -3.209420293569564819e-02 -3.962586447596549988e-02 -6.503250915557146072e-03 -7.058511488139629364e-03 3.448835574090480804e-03 -2.785485424101352692e-02 -3.176376223564147949e-02 -2.060257270932197571e-02 3.181171417236328125e-02 1.330343447625637054e-02 2.846909686923027039e-02 -2.643939107656478882e-02 -4.247469827532768250e-03 1.055063586682081223e-02 -3.527870401740074158e-02 2.718256600201129913e-02 2.587422169744968414e-02 2.584988065063953400e-02 -3.104648739099502563e-02 1.740113273262977600e-02 -3.536271676421165466e-02 2.753624692559242249e-02 5.261211190372705460e-03 -7.430328428745269775e-02 -4.560804739594459534e-02 -6.130053102970123291e-02 4.822014644742012024e-02 4.938650876283645630e-02 -4.905043169856071472e-02 -2.318231854587793350e-03 3.847392741590738297e-03 -2.197016030550003052e-02 1.657860726118087769e-02 -1.196779683232307434e-02 9.441841393709182739e-03 -3.176784887909889221e-02 5.717480182647705078e-02 -2.422204613685607910e-02 -3.175849840044975281e-02 -6.775528937578201294e-02 1.005493197590112686e-02 -5.394852906465530396e-02 5.101956427097320557e-02 -4.166591539978981018e-02 8.729721605777740479e-02 -2.732350304722785950e-02 -8.479140698909759521e-02 -4.408600181341171265e-02 2.525611780583858490e-02 -3.569606691598892212e-02 1.446781679987907410e-02 -2.981620281934738159e-02 2.442526631057262421e-02 -5.191562697291374207e-03 -3.082319162786006927e-02 4.145107418298721313e-02 1.430678740143775940e-02 4.596013575792312622e-02 4.124232009053230286e-02 5.194770172238349915e-02 2.782542072236537933e-02 -8.313482627272605896e-03 1.083047688007354736e-02 6.304339040070772171e-03 -3.189909458160400391e-02 3.305675834417343140e-02 -3.090854268521070480e-03 1.728621311485767365e-02 1.972279045730829239e-03 -2.099710516631603241e-02 -4.421128332614898682e-02 -2.383921295404434204e-02 1.229565870016813278e-02 7.583411037921905518e-02 -6.738594174385070801e-02 7.822438329458236694e-02 3.022040054202079773e-02 2.215553820133209229e-02 -4.507220163941383362e-02 -1.283110864460468292e-02 -4.739550501108169556e-02 -4.102508723735809326e-02 5.312131717801094055e-03 -1.451678480952978134e-02 3.495839238166809082e-02 -4.381958022713661194e-02 3.013240173459053040e-03 -3.038091585040092468e-02 -5.142777413129806519e-02 2.942298911511898041e-02 -1.354197040200233459e-02 -5.409961566329002380e-02 -1.568606495857238770e-02 -2.642860449850559235e-02 -1.547029055655002594e-02 -8.400321938097476959e-03 6.993654533289372921e-04 -6.423739716410636902e-03 -3.236696496605873108e-02 2.477876655757427216e-02 3.540086373686790466e-02 7.529293652623891830e-03 -6.202033907175064087e-02 -1.530638779513537884e-03 5.969308689236640930e-02 4.836874827742576599e-02 -1.305952947586774826e-02 -2.177348174154758453e-02 1.128221303224563599e-01 7.617044448852539062e-02 4.216075316071510315e-02 8.826066739857196808e-03 1.600283756852149963e-02 -6.432441063225269318e-03 -5.010174587368965149e-02 -2.150593139231204987e-02 2.889072149991989136e-02 2.609743364155292511e-02 -2.956525981426239014e-02 1.658623479306697845e-02 7.527153939008712769e-02 -2.144636772572994232e-02 1.586401835083961487e-02 -4.375709965825080872e-02 -3.388297185301780701e-02 5.053898785263299942e-03 2.255404740571975708e-02 -8.035045117139816284e-03 2.983440086245536804e-02 5.983613803982734680e-02 -3.863449767231941223e-02 2.190648950636386871e-02 1.080731302499771118e-02 -1.711254753172397614e-02 7.883198559284210205e-03 -1.084641087800264359e-02 -3.704444691538810730e-02 1.560725569725036621e-01 3.506058454513549805e-02 -2.454507909715175629e-02 -1.172597892582416534e-02 -8.873809128999710083e-03 2.246050722897052765e-02 5.066233128309249878e-02 -3.890306502580642700e-02 1.982349716126918793e-02 1.804221048951148987e-02 2.575974166393280029e-02 4.587076604366302490e-03 -2.449238114058971405e-02 1.672440208494663239e-02 1.490519847720861435e-02 -5.255790799856185913e-02 -3.423302993178367615e-02 -4.291134327650070190e-02 -1.845627464354038239e-02 -4.775354266166687012e-02 1.186556415632367134e-03 4.574093595147132874e-02 3.960680216550827026e-02 2.744402922689914703e-02 4.502783343195915222e-02 1.748907007277011871e-02 -2.357942424714565277e-02 -3.032124415040016174e-02 4.316690936684608459e-02 2.002870850265026093e-02 8.323322050273418427e-03 1.265962272882461548e-01 -4.495893418788909912e-02 -1.188032911159098148e-03 5.588158499449491501e-03 -8.166489005088806152e-02 1.577269867993891239e-03 9.245396405458450317e-02 4.953541979193687439e-02 -2.961247228085994720e-02 -3.769036009907722473e-02 -4.455674439668655396e-02 2.101284824311733246e-02 -7.306319195777177811e-03 -2.254039049148559570e-02 -1.338808983564376831e-02 -4.678303841501474380e-03 -3.617360815405845642e-02 5.074951052665710449e-02 -4.315380007028579712e-02 -9.018559940159320831e-04 -4.115263465791940689e-03 1.042532920837402344e-01 4.929149523377418518e-02 -4.931662231683731079e-02 -3.137243911623954773e-02 1.507148984819650650e-02 3.903076285496354103e-03 -4.035072028636932373e-02 -1.867116093635559082e-01 1.285996735095977783e-01 -2.076001372188329697e-03 -8.962137997150421143e-02 7.218748331069946289e-02 -3.589374199509620667e-02 -3.051783330738544464e-02 -6.414972990751266479e-02 1.054090261459350586e-01 -5.140897817909717560e-03 2.047247253358364105e-02 -2.203014492988586426e-02 -3.837805241346359253e-03 6.036114692687988281e-02 1.038664951920509338e-01 3.617333481088280678e-03 3.611186146736145020e-02 6.580739468336105347e-02 1.138038188219070435e-02 -3.891596943140029907e-02 5.494158715009689331e-02 1.701592840254306793e-02 4.602125845849514008e-03 -3.731902223080396652e-03 -5.281484127044677734e-02 4.851113073527812958e-03 -5.221486091613769531e-02 -9.139310568571090698e-03 2.730288356542587280e-02 1.960798911750316620e-02 1.305319275707006454e-02 1.097966507077217102e-01 2.087809704244136810e-02 -1.900531165301799774e-02 5.323799699544906616e-02 -4.428695514798164368e-02 3.647509589791297913e-02 3.403172641992568970e-02 2.396716363728046417e-02 -1.887824386358261108e-02 5.081103742122650146e-02 1.578492298722267151e-02 -4.384499043226242065e-02 3.889565123245120049e-03 -4.130209982395172119e-02 2.429653331637382507e-02 -2.744982577860355377e-02 7.273476570844650269e-02 1.036690920591354370e-02 1.966412737965583801e-02 3.621802851557731628e-02 -1.044022440910339355e-01 -1.252811774611473083e-02 4.369496926665306091e-02 6.095245480537414551e-03 4.489857330918312073e-02 1.157044395804405212e-01 3.898084163665771484e-02 4.118646308779716492e-02 2.038088813424110413e-02 -7.154006045311689377e-03 -3.196662524715065956e-03 -2.260050363838672638e-02 -5.349947139620780945e-03 5.990080535411834717e-02 3.521065227687358856e-03 2.204086817800998688e-02 1.605119928717613220e-02 -1.657629571855068207e-02 -2.158495970070362091e-02 3.487455844879150391e-02 -2.274920977652072906e-02 7.516421377658843994e-02 -2.380405552685260773e-02 1.368079893290996552e-02 1.566120609641075134e-02 -2.669562352821230888e-03 -1.170081738382577896e-02 -5.459057632833719254e-03 6.089812517166137695e-02 -1.024021417833864689e-03 -3.197413682937622070e-02 -4.928797949105501175e-03 1.338394880294799805e-01 -2.753975428640842438e-02 -2.854430302977561951e-02 2.976075001060962677e-02 5.768618360161781311e-02 2.064727060496807098e-02 1.709789596498012543e-02 1.900878921151161194e-02 -1.200421029352582991e-04 2.386408299207687378e-02 -3.128908574581146240e-02 -3.045526519417762756e-02 9.379637776874005795e-05 -2.533271349966526031e-02 1.948760077357292175e-02 3.263301402330398560e-02 3.469647094607353210e-02 -2.202466875314712524e-02 -1.532992348074913025e-02 1.344502568244934082e-01 3.767387568950653076e-02 5.952763836830854416e-03 -1.831659860908985138e-02 -1.669898442924022675e-02 -3.579253703355789185e-02 2.599042467772960663e-02 8.909834921360015869e-02 7.044398039579391479e-02 -3.318043053150177002e-02 -3.010268136858940125e-02 -3.688379004597663879e-02 -3.029973246157169342e-02 -3.244356065988540649e-02 2.075380645692348480e-02 5.928089376538991928e-03 -4.624707996845245361e-02 -1.955598965287208557e-02 -1.690840534865856171e-02 -5.530706793069839478e-02 2.271202020347118378e-02 9.491616487503051758e-02 -2.763994969427585602e-02 -5.116485524922609329e-03 -3.510642796754837036e-02 -2.460219897329807281e-03 1.329548005014657974e-02 3.219372406601905823e-02 2.484347298741340637e-02 -8.761853724718093872e-02 3.580873087048530579e-02 2.883266285061836243e-02 -2.944193780422210693e-02 -5.549171194434165955e-02 -4.577704146504402161e-02 -2.609017863869667053e-02 -3.217425942420959473e-02 -7.266471534967422485e-02 -1.102456450462341309e-01 -2.662343531847000122e-02 -2.526859045028686523e-01 3.085464984178543091e-02 -1.838978938758373260e-02 -2.407039515674114227e-02 4.730078205466270447e-02 6.680926680564880371e-02 3.709080442786216736e-02 4.192150384187698364e-02 -4.996844381093978882e-02 4.707183688879013062e-03 4.648059606552124023e-02 2.817363291978836060e-02 -8.755435235798358917e-03 4.600975289940834045e-02 -1.344494894146919250e-02 2.436706610023975372e-02 -1.435880269855260849e-02 -2.661849558353424072e-02 3.307994082570075989e-02 -5.824813246726989746e-02 -4.673998430371284485e-02 -2.025522664189338684e-02
-2.376086078584194183e-02 8.470965176820755005e-02 -4.508108645677566528e-02 -7.133442442864179611e-03 -5.328657105565071106e-02 -1.244852319359779358e-02 -2.479377947747707367e-02 9.080746769905090332e-02 -2.309602499008178711e-02 1.497697923332452774e-02 -3.280914574861526489e-02 2.302569337189197540e-03 1.085978001356124878e-02 -1.903638616204261780e-02 3.712333738803863525e-02 5.473231431096792221e-03 -3.208578564226627350e-03 6.926058977842330933e-02 -5.430459044873714447e-03 -9.408171288669109344e-03 1.109812930226325989e-01 -3.759131953120231628e-02 5.101373791694641113e-02 2.948677912354469299e-02 -7.127843797206878662e-03 4.162428528070449829e-02 1.276675239205360413e-02 1.028785202652215958e-02 5.016383528709411621e-02 -7.113103289157152176e-03 7.796776946634054184e-03 5.174808204174041748e-03 -2.698351256549358368e-02 2.728511206805706024e-02 1.127234324812889099e-01 3.574795555323362350e-03 -1.399943046271800995e-02 3.321983292698860168e-02 1.671432405710220337e-01 -3.324602264910936356e-03 8.857054053805768490e-04 4.655258730053901672e-02 -5.749189108610153198e-02 7.035639882087707520e-02 3.279252722859382629e-02 -3.932010754942893982e-02 -1.842253096401691437e-02 -6.201082468032836914e-02 -3.000937774777412415e-02 -1.676263287663459778e-02 5.825614184141159058e-02 -6.775094568729400635e-02 -1.264543831348419189e-02 -3.324973583221435547e-02 1.881625205278396606e-01 -5.646596476435661316e-02 -4.814626649022102356e-03 1.083066500723361969e-02 2.080157399177551270e-02 -4.365987330675125122e-02 5.828962475061416626e-02 -8.336000144481658936e-03 3.596866875886917114e-02 -7.259292900562286377e-02 1.682253740727901459e-02 -8.433819562196731567e-02 2.783369272947311401e-02 -1.059893984347581863e-02 -2.332485094666481018e-02 -1.078239455819129944e-02 3.477717190980911255e-02 -4.465768113732337952e-02 7.943329215049743652e-02 -6.486743688583374023e-03 4.092946276068687439e-02 5.797661840915679932e-02 -3.794030635617673397e-04 -3.870282322168350220e-02 6.189622357487678528e-02 5.617901310324668884e-02 -2.669703448191285133e-03 -1.982033625245094299e-02 9.269859641790390015e-03 -3.622327232733368874e-03 -9.202770143747329712e-02 -2.447395212948322296e-02 9.389465302228927612e-02 5.750353448092937469e-03 2.837039902806282043e-02 1.742564328014850616e-02 2.520605921745300293e-04 2.116831392049789429e-02 4.204937815666198730e-02 -2.162080258131027222e-03 3.609624505043029785e-02 -2.919678762555122375e-02 2.377380616962909698e-02 1.064853146672248840e-01 -2.679339647293090820e-01 -3.517389670014381409e-02 1.397813297808170319e-02 -3.027457557618618011e-02 1.686882525682449341e-01 4.423986829351633787e-04 -2.496151067316532135e-02 4.420509561896324158e-02 6.470621377229690552e-02 -2.895244769752025604e-02 1.400229521095752716e-02 -3.281694278120994568e-02 -3.204786777496337891e-02 8.005237579345703125e-02 1.111832447350025177e-02 -1.065812930464744568e-01 1.465662661939859390e-02 -1.537309736013412476e-01 -1.424345094710588455e-02 -1.382623054087162018e-02 -1.685773138888180256e-03 -6.481362879276275635e-02 4.257569089531898499e-02 -3.074486367404460907e-02 -4.570379853248596191e-02 -5.272233113646507263e-02 -2.779314061626791954e-03 -5.148027092218399048e-02 5.162434186786413193e-03 9.073200076818466187e-02 2.282350324094295502e-02 -3.903957456350326538e-02 -3.677872940897941589e-02 3.822107985615730286e-02 1.342724636197090149e-02 3.351987153291702271e-02 -3.316661715507507324e-02 -2.043494954705238342e-02 1.011293567717075348e-02 -2.646267600357532501e-02 -2.637430466711521149e-02 3.571869060397148132e-02 -2.549238502979278564e-03 -4.015152528882026672e-02 2.105276659131050110e-02 3.938430175185203552e-02 8.467607200145721436e-03 1.717457547783851624e-02 5.997925251722335815e-02 -2.283536270260810852e-02 9.129197336733341217e-03 -1.397994998842477798e-02 1.661061495542526245e-02 -3.409702703356742859e-02 -3.038520179688930511e-02 -3.857411444187164307e-02 -5.042844265699386597e-02 2.862663567066192627e-02 -4.060083255171775818e-02 -1.198791526257991791e-02 -1.990537159144878387e-02 -5.466949939727783203e-02 -1.354336738586425781e-01 1.854763738811016083e-02 3.500580787658691406e-03 -8.676806464791297913e-03 -2.989606559276580811e-02 4.781439900398254395e-02 -4.586923494935035706e-02 2.449752390384674072e-02 -5.819518119096755981e-03 -4.098085314035415649e-02 -1.973195187747478485e-02 -1.418463606387376785e-02 4.768526926636695862e-02 -1.684892550110816956e-02 1.795114576816558838e-02 -5.412657279521226883e-03 -4.640537127852439880e-02 -6.944163143634796143e-02 2.707873936742544174e-03 1.069770678877830505e-01 5.100821144878864288e-03 8.052612096071243286e-02 -8.867500349879264832e-03 1.716022193431854248e-02 -2.252050116658210754e-02 -2.460399409756064415e-03 5.587353184819221497e-02 1.991385966539382935e-02 1.546571031212806702e-02 -6.699756486341357231e-04 -2.654287964105606079e-02 4.660196974873542786e-02 -2.341121621429920197e-02 -3.565666824579238892e-02 1.486227959394454956e-01 4.196872189640998840e-02 9.373202919960021973e-04 -4.257854074239730835e-02 1.864262968301773071e-01 -3.972282260656356812e-02 -8.352799341082572937e-03 1.278923265635967255e-02 9.348238259553909302e-02 1.381859183311462402e-04 4.371947795152664185e-02 1.067510247230529785e-02 -2.070960402488708496e-02 -8.785167708992958069e-03 1.145313680171966553e-01 1.359038241207599640e-02 -2.797540649771690369e-02 5.054599791765213013e-02 7.085902243852615356e-02 -1.074433093890547752e-03 8.825674653053283691e-03 -1.056191790848970413e-02 3.930706158280372620e-02 6.941149383783340454e-02 -7.785439491271972656e-03 -2.748728170990943909e-02 1.886223629117012024e-02 -3.523785993456840515e-02 -1.861148327589035034e-02 1.019123345613479614e-01 3.745580092072486877e-02 6.741222739219665527e-02 -4.548862576484680176e-02 2.274472452700138092e-02 2.104508131742477417e-02 -1.295217592269182205e-02 -1.140910387039184570e-02 4.532949253916740417e-02 -1.668327860534191132e-02 5.711334291845560074e-03 -3.973463922739028931e-02 -3.352347016334533691e-02 4.613720998167991638e-02 -8.395230770111083984e-02 -6.831458769738674164e-03 7.906754314899444580e-02 3.692900761961936951e-03 -3.417475149035453796e-02 -3.315290808677673340e-02 8.575271815061569214e-02 -8.099693059921264648e-02 3.409463167190551758e-02 8.922711759805679321e-02 2.373996563255786896e-02 2.171777561306953430e-02 -6.169546861201524734e-03 -3.704584017395973206e-02 5.730233713984489441e-02 4.000755026936531067e-02 -3.003382124006748199e-02 4.534732550382614136e-03 5.728119611740112305e-02 -4.968733340501785278e-02 -4.979581106454133987e-03 -1.857051067054271698e-02 8.267316967248916626e-02 7.190363830886781216e-04 -5.677455663681030273e-02 9.738049656152725220e-02 3.510851785540580750e-02 -7.750087231397628784e-02 -5.301659926772117615e-03 -5.363334901630878448e-03 -3.031518869102001190e-02 -2.754141751211136580e-04 1.842460595071315765e-02 -6.640230119228363037e-02 3.788857534527778625e-02 1.113197952508926392e-02 -1.108011901378631592e-01 -3.164442628622055054e-02 7.693438977003097534e-02 8.517559617757797241e-03 1.578811183571815491e-02 -1.145070232450962067e-02 -3.173347562551498413e-02 8.134799450635910034e-02 4.397748038172721863e-02 -1.138887926936149597e-02 1.370952278375625610e-01 -4.014054685831069946e-02 -5.496909841895103455e-02 6.240977440029382706e-03 -2.239688485860824585e-02 2.167440019547939301e-02 -6.419087201356887817e-02 -3.903966769576072693e-02 -4.842814803123474121e-02 -3.178497552871704102e-01 -1.478217262774705887e-02 -1.512101292610168457e-02 1.225591264665126801e-02 -2.324397116899490356e-02 1.075339317321777344e-02 -9.278533048927783966e-03 3.264292841777205467e-03 -9.430033713579177856e-02 3.812709823250770569e-02 2.887176349759101868e-02 -1.159600988030433655e-01 2.544651366770267487e-02 3.733894601464271545e-02 -3.981485590338706970e-02 7.121704518795013428e-03 -1.316185742616653442e-01 1.112322136759757996e-02 3.716322407126426697e-02 -4.693455994129180908e-02 7.946524769067764282e-02 -3.573870286345481873e-02 -6.390124559402465820e-02 -2.518112957477569580e-02 -2.523091621696949005e-02 7.358790189027786255e-02 3.254463896155357361e-02 -1.987599395215511322e-02 1.131886988878250122e-02 1.185993999242782593e-01 -2.385265752673149109e-02 -3.207432106137275696e-02 -6.177560426294803619e-03 3.901319950819015503e-02 -3.472520783543586731e-02 -4.959102254360914230e-03 -3.489899262785911560e-02 -3.173261880874633789e-02 -1.202579215168952942e-02 -4.131408035755157471e-02 -5.349185317754745483e-03 1.932660117745399475e-02 -9.265924990177154541e-02 4.429354891180992126e-02 1.199562288820743561e-02 -4.321753233671188354e-02 -4.971612244844436646e-02 8.699199184775352478e-03 -1.114386599510908127e-02 -5.951096117496490479e-02 -5.623691901564598083e-02 -3.165541961789131165e-02 -4.511405248194932938e-03 1.851331591606140137e-01 5.020150914788246155e-03 -6.843102723360061646e-02 6.021044100634753704e-04 2.968846634030342102e-02 1.407617703080177307e-02 -4.558564722537994385e-02 5.687979981303215027e-03 -6.676026433706283569e-02 -1.624744571745395660e-02 -5.338799674063920975e-03 1.429547276347875595e-02 -4.539022967219352722e-02 2.336412109434604645e-02 -1.291461288928985596e-01 -1.740644313395023346e-02 -1.076469011604785919e-02 -1.506196893751621246e-02 1.671542041003704071e-02 -3.881990164518356323e-02 1.502999383956193924e-02 3.360447660088539124e-02 -5.345895513892173767e-02 2.150750346481800079e-02 -4.028591513633728027e-02 -5.029276013374328613e-02 -5.213565193116664886e-03 -2.708569355309009552e-02 2.263806201517581940e-02 1.208229288458824158e-01 5.221709609031677246e-02 6.731141358613967896e-02 9.277968108654022217e-02 -1.662962883710861206e-01 -5.082643032073974609e-02 1.628800819162279367e-04 -6.238425523042678833e-02 3.439329192042350769e-02 5.337864905595779419e-02 -1.377810165286064148e-02 1.031028851866722107e-02 2.256266772747039795e-02 -5.752360448241233826e-02 1.574286259710788727e-02 3.205350041389465332e-02 -1.029516980051994324e-01 3.547260165214538574e-02 2.564978040754795074e-02 1.124980021268129349e-02 -3.011516109108924866e-02 -3.168531879782676697e-02 2.719718217849731445e-02 9.249644726514816284e-02 -5.141636356711387634e-03 5.534443631768226624e-02
-5.020296573638916016e-02 1.147258211858570576e-03 5.787083879113197327e-02 5.747624672949314117e-03 3.289716318249702454e-02 -3.628601506352424622e-02 -4.500255361199378967e-02 5.909791961312294006e-02 -3.139945864677429199e-02 -2.221677266061306000e-02 -1.612182334065437317e-02 3.728063078597187996e-03 -4.348415508866310120e-02 2.584698796272277832e-02 2.515561878681182861e-02 -4.249638691544532776e-02 1.653971225023269653e-01 -2.714083492755889893e-01 1.715835183858871460e-02 -7.603028416633605957e-02 1.043065115809440613e-01 -5.439196899533271790e-02 -4.572463035583496094e-02 1.056354343891143799e-01 9.651631116867065430e-03 3.201101720333099365e-02 2.069957554340362549e-04 9.616574272513389587e-03 -8.330882701557129622e-05 -9.175756573677062988e-02 4.126222059130668640e-02 -4.667228460311889648e-02 2.446651831269264221e-02 -5.335859954357147217e-02 -8.963079750537872314e-02 -9.575470350682735443e-03 -3.894459083676338196e-02 -5.299404263496398926e-02 1.445146352052688599e-01 -3.141562774544581771e-05 -1.563317328691482544e-02 -2.982096187770366669e-02 -2.832123637199401855e-02 3.302024304866790771e-02 -5.154693499207496643e-02 1.497433334589004517e-02 -6.195766851305961609e-03 1.926054619252681732e-02 -3.075264953076839447e-02 -3.924404829740524292e-02 1.746843196451663971e-02 3.130147978663444519e-02 5.574358627200126648e-03 -3.442709892988204956e-02 1.350184902548789978e-02 3.516092523932456970e-02 3.194616734981536865e-02 -3.298262879252433777e-02 -1.677932217717170715e-02 7.465709000825881958e-03 -8.424814790487289429e-02 1.803823933005332947e-02 3.408765420317649841e-02 1.925610413309186697e-04 -4.002689570188522339e-02 -5.761314556002616882e-02 3.987909480929374695e-02 2.411948516964912415e-02 -3.400747105479240417e-02 -8.749607019126415253e-03 2.161563374102115631e-03 -3.863096982240676880e-02 -5.271217599511146545e-02 3.993079811334609985e-02 -3.923489153385162354e-02 -5.317712575197219849e-02 7.335615158081054688e-02 3.960222005844116211e-03 1.896661520004272461e-02 -2.138363756239414215e-02 1.237228885293006897e-02 -3.332710266113281250e-02 -3.145115450024604797e-02 -3.748791292309761047e-02 1.896694898605346680e-01 1.524339523166418076e-02 -4.227954894304275513e-02 -2.235834486782550812e-02 -1.919500343501567841e-02 -3.621317446231842041e-02 -4.360937699675559998e-02 5.922824610024690628e-03 -6.135977338999509811e-03 -1.526919901371002197e-01 4.972347244620323181e-02 1.908213086426258087e-02 -2.787321619689464569e-02 -7.607172243297100067e-03 1.034353747963905334e-01 1.267455667257308960e-01 -1.085206679999828339e-02 -5.012885853648185730e-02 6.718603521585464478e-02 9.802350401878356934e-02 -2.165474556386470795e-02 3.065989166498184204e-02 -2.635961957275867462e-02 1.339067798107862473e-02 -3.680363669991493225e-02 -3.776692971587181091e-02 -4.967550933361053467e-02 -2.082174271345138550e-02 4.132059216499328613e-02 1.992253214120864868e-01 -9.491407312452793121e-03 7.071620970964431763e-02 -1.254661381244659424e-02 2.470459789037704468e-02 -1.463599652051925659e-01 -3.955458477139472961e-02 3.455994278192520142e-02 -6.601534038782119751e-02 -9.158220491372048855e-04 6.106191873550415039e-02 1.536113303154706955e-02 -3.105321340262889862e-02 -2.071734704077243805e-02 -9.509970247745513916e-02 1.247213687747716904e-02 7.547270972281694412e-03 1.363113801926374435e-02 -5.392266809940338135e-02 -4.085526987910270691e-02 2.109178528189659119e-02 -9.610888548195362091e-03 -5.591214448213577271e-02 4.422327876091003418e-02 -1.491833850741386414e-02 5.711545050144195557e-02 4.757312685251235962e-02 2.115109935402870178e-02 3.445780649781227112e-02 -3.138899430632591248e-02 3.978414088487625122e-02 3.940709307789802551e-02 6.582092493772506714e-03 -3.396104648709297180e-02 -3.078421950340270996e-02 1.723257303237915039e-01 1.774212419986724854e-01 -1.894223131239414215e-02 -3.999122977256774902e-02 -2.102318033576011658e-02 2.966335229575634003e-02 -2.947045862674713135e-02 -1.405327464453876019e-03 9.316750615835189819e-02 -2.677750773727893829e-02 -7.393695414066314697e-02 5.375203490257263184e-02 9.151669591665267944e-02 6.958067417144775391e-02 3.711238875985145569e-02 -4.725328460335731506e-02 9.476275183260440826e-03 -3.624847531318664551e-02 7.689732313156127930e-02 -5.360459536314010620e-02 -3.812239319086074829e-02 3.661740943789482117e-02 -2.755312994122505188e-02 -3.935872577130794525e-03 4.950788989663124084e-02 -2.164377458393573761e-02 4.102056846022605896e-02 -6.981928646564483643e-02 3.385916724801063538e-02 2.201590389013290405e-01 4.294189065694808960e-02 -7.931566238403320312e-02 -2.611300349235534668e-02 -2.275312319397926331e-02 2.515810541808605194e-02 -2.617560699582099915e-02 -5.460114777088165283e-02 2.061553113162517548e-02 -4.929614253342151642e-03 -1.106709334999322891e-02 6.398978829383850098e-02 3.218729421496391296e-02 3.975219558924436569e-03 -6.705076992511749268e-02 1.526802219450473785e-02 1.491458807140588760e-02 -4.175338894128799438e-02 1.303228054894134402e-04 -7.499832659959793091e-03 -3.717123344540596008e-02 -1.093850284814834595e-02 -1.444978546351194382e-02 9.185522049665451050e-02 3.686784952878952026e-02 8.325985819101333618e-02 8.619181811809539795e-03 -2.880303189158439636e-02 1.056874729692935944e-02 -2.145436033606529236e-02 -1.735783182084560394e-02 1.927831470966339111e-01 -9.036109596490859985e-02 8.930400758981704712e-02 -7.242441177368164062e-02 -3.334648162126541138e-02 3.626011312007904053e-02 1.536587178707122803e-01 1.008810847997665405e-01 -3.447175398468971252e-02 -2.436505397781729698e-03 4.187219217419624329e-02 -3.519258275628089905e-02 2.134152874350547791e-02 -3.444886207580566406e-02 -3.618487715721130371e-02 -2.061424404382705688e-02 -2.956069074571132660e-02 7.110606878995895386e-02 3.350540623068809509e-02 8.449817448854446411e-02 -7.255064696073532104e-02 1.445564627647399902e-01 4.236359894275665283e-02 -8.223535120487213135e-02 2.268131636083126068e-02 4.086307063698768616e-02 -2.756031462922692299e-03 -4.146748408675193787e-02 -2.688038349151611328e-01 2.256554812192916870e-01 -1.098249293863773346e-02 -5.437853932380676270e-02 2.687276713550090790e-02 -5.326405167579650879e-02 -1.314475852996110916e-02 -1.773473573848605156e-03 2.022355049848556519e-01 -3.742730244994163513e-02 1.077398881316184998e-01 -8.735196664929389954e-03 -2.993409149348735809e-02 2.232559956610202789e-02 1.840472817420959473e-01 1.014125440269708633e-02 1.122819841839373112e-03 1.313405930995941162e-01 2.515165135264396667e-02 -8.765615522861480713e-02 6.401228904724121094e-02 -4.279192537069320679e-02 -1.482319668866693974e-03 -1.245614513754844666e-02 -2.786299586296081543e-02 2.276677638292312622e-02 -2.458780072629451752e-02 -2.085953019559383392e-02 1.037773713469505310e-01 7.728127297013998032e-03 1.951909065246582031e-02 1.546693891286849976e-01 2.913037128746509552e-02 -2.748115174472332001e-02 4.180230945348739624e-02 -3.455113619565963745e-02 -8.552223443984985352e-03 8.309916406869888306e-02 4.550232365727424622e-02 -2.417827211320400238e-02 -1.862616837024688721e-02 -2.389752306044101715e-02 3.306137770414352417e-02 1.542251259088516235e-01 -6.940699368715286255e-02 -7.648325059562921524e-03 -8.504448458552360535e-03 4.915810376405715942e-02 1.418974623084068298e-02 1.786866597831249237e-02 -6.984757632017135620e-02 -1.207462847232818604e-01 9.576732292771339417e-03 9.416054934263229370e-02 -3.577971830964088440e-02 -3.755217790603637695e-02 1.419602483510971069e-01 -2.148546464741230011e-02 3.638537973165512085e-02 3.219919279217720032e-02 1.872430182993412018e-02 -4.255111515522003174e-02 4.684840794652700424e-03 -4.750746116042137146e-02 9.196512401103973389e-02 -8.854806423187255859e-02 -4.502921923995018005e-02 8.841773495078086853e-03 1.531163230538368225e-02 -8.474444970488548279e-03 2.098853001371026039e-03 3.339302912354469299e-02 1.562111377716064453e-01 -2.347631193697452545e-02 -1.967598125338554382e-02 -4.266022145748138428e-02 -1.220604218542575836e-02 -8.520506322383880615e-03 -6.423692218959331512e-03 1.006377413868904114e-01 3.830884397029876709e-02 2.194203203544020653e-03 -5.997093021869659424e-02 9.566636383533477783e-02 3.173384815454483032e-02 -7.481459528207778931e-02 -1.369282510131597519e-02 5.111937597393989563e-02 3.651573508977890015e-02 -5.659836903214454651e-02 2.854505553841590881e-02 3.835112601518630981e-02 -1.915490813553333282e-02 -4.374055564403533936e-02 1.078512705862522125e-02 -1.611631945706903934e-03 6.773158442229032516e-03 -1.895341277122497559e-02 6.698727607727050781e-02 1.308950828388333321e-03 1.387895643711090088e-02 -5.504808574914932251e-02 1.629633456468582153e-01 1.004024371504783630e-01 -5.427077040076255798e-02 -1.753021404147148132e-02 -5.119131505489349365e-02 3.054730966687202454e-02 1.796364039182662964e-02 9.591087698936462402e-02 1.283204555511474609e-01 -2.896255068480968475e-02 2.922596037387847900e-02 2.150355838239192963e-03 -3.961430862545967102e-02 -4.606015235185623169e-02 9.401901625096797943e-03 6.922839581966400146e-02 2.773489616811275482e-02 -7.680336385965347290e-02 2.892168471589684486e-03 1.681153848767280579e-02 -7.476646453142166138e-03 1.670500934123992920e-01 -6.684780237264931202e-04 2.254381030797958374e-02 -5.323586240410804749e-02 -4.315803945064544678e-02 -4.910033568739891052e-02 -2.124348469078540802e-02 -3.215279430150985718e-02 -1.390296220779418945e-01 2.307664975523948669e-02 -9.158595275948755443e-06 1.723911240696907043e-02 -3.501146286725997925e-02 3.496782854199409485e-02 -3.322982415556907654e-02 -3.236645832657814026e-02 -5.205695703625679016e-02 -1.947533935308456421e-01 -5.865371227264404297e-02 -2.884966731071472168e-01 -1.108727976679801941e-02 3.021473810076713562e-02 1.905346848070621490e-02 6.968279834836721420e-03 1.072681099176406860e-01 1.068401895463466644e-02 -2.524002268910408020e-02 -6.818965077400207520e-02 -4.565058276057243347e-02 5.584111437201499939e-02 7.606571912765502930e-02 -1.402432173490524292e-01 3.577704355120658875e-02 -3.124479204416275024e-02 4.396681487560272217e-02 -1.871585100889205933e-02 4.046258516609668732e-03 -3.971539437770843506e-02 -7.375895977020263672e-02 -4.259133245795965195e-03 -2.261295914649963379e-02
1.862556091509759426e-03 1.078442856669425964e-01 -3.160929679870605469e-02 1.236420273780822754e-01 -4.601559415459632874e-02 -7.062198966741561890e-02 1.356605999171733856e-02 8.059051632881164551e-02 -3.423097729682922363e-02 -1.508661638945341110e-02 -2.300777658820152283e-02 2.092801406979560852e-02 9.399579837918281555e-03 -3.665867447853088379e-02 2.363754250109195709e-02 -3.687143325805664062e-02 6.659123301506042480e-02 9.341774880886077881e-02 -6.812040694057941437e-03 5.428037792444229126e-02 1.280886232852935791e-01 -6.152562797069549561e-02 3.429644554853439331e-02 4.568277299404144287e-02 1.058690529316663742e-02 9.378921240568161011e-03 9.006273001432418823e-03 1.559233386069536209e-02 -2.834976837038993835e-02 3.458552062511444092e-02 -1.398748625069856644e-02 -4.182742163538932800e-02 2.167621627449989319e-02 4.504342377185821533e-02 1.345452517271041870e-01 -4.603813216090202332e-02 -7.088869810104370117e-02 -4.952513426542282104e-02 3.354675769805908203e-01 -7.452038675546646118e-02 -5.443110689520835876e-02 3.279961273074150085e-02 1.408702135086059570e-02 5.294091999530792236e-02 1.741462647914886475e-01 -1.862486265599727631e-02 1.812941208481788635e-02 -2.753204479813575745e-02 -9.980458766222000122e-02 9.045644663274288177e-03 -2.974458038806915283e-02 -7.088971883058547974e-02 4.567676782608032227e-02 -3.276560455560684204e-02 3.327533304691314697e-01 -6.048002466559410095e-02 -2.178043313324451447e-02 -1.460654847323894501e-02 -3.024002909660339355e-02 -6.434809416532516479e-03 1.140125021338462830e-01 -2.070520631968975067e-02 -2.009690180420875549e-02 -2.757175080478191376e-02 3.357493877410888672e-02 -7.453535497188568115e-02 -4.325094446539878845e-02 1.094080321490764618e-02 -1.074985042214393616e-02 2.959689358249306679e-03 -2.872887440025806427e-02 2.171655558049678802e-02 8.351840078830718994e-02 1.929964683949947357e-02 1.500418968498706818e-02 8.730055391788482666e-02 -1.053566709160804749e-01 -4.355061799287796021e-02 1.670669615268707275e-01 7.883805781602859497e-02 -2.659730985760688782e-02 -2.361675351858139038e-02 -1.399282086640596390e-02 4.205736797302961349e-03 -8.879928290843963623e-02 -1.615552580915391445e-03 1.054925546050071716e-01 -5.886751692742109299e-03 -7.316882163286209106e-02 4.357691109180450439e-02 -1.608873531222343445e-02 -3.108861483633518219e-02 3.142584487795829773e-02 1.024152245372533798e-02 -4.396415501832962036e-02 4.819351062178611755e-02 -7.167601585388183594e-02 5.606937408447265625e-02 -3.706609308719635010e-01 -1.237318664789199829e-01 4.372555296868085861e-03 1.367623731493949890e-02 2.172886431217193604e-01 4.690207168459892273e-02 -3.167556226253509521e-02 1.238129660487174988e-02 6.901791691780090332e-02 3.686355799436569214e-02 -6.086305528879165649e-02 -1.017574872821569443e-02 1.277576573193073273e-02 5.155646428465843201e-02 7.446191739290952682e-03 -7.082395255565643311e-02 1.355423480272293091e-01 -1.952134519815444946e-01 4.390922561287879944e-02 -4.639073833823204041e-02 1.716105826199054718e-02 -2.597875893115997314e-02 5.056263506412506104e-02 -1.153629273176193237e-02 -1.067026238888502121e-02 -1.978499069809913635e-02 -9.897553361952304840e-03 -5.687509849667549133e-02 4.393982887268066406e-02 1.708578020334243774e-01 -1.320121996104717255e-02 4.634121805429458618e-02 3.412245213985443115e-02 -4.596520215272903442e-02 -1.714624837040901184e-02 3.288111835718154907e-02 2.673740312457084656e-02 -1.132235676050186157e-02 -3.761850297451019287e-02 2.470082603394985199e-02 1.138776540756225586e-01 -2.223442122340202332e-02 -3.292176127433776855e-02 -4.104928672313690186e-02 -2.654550783336162567e-02 1.617784425616264343e-02 -2.546242997050285339e-02 -1.469025015830993652e-02 1.447540372610092163e-01 6.599575281143188477e-03 -8.125443011522293091e-02 -1.026941612362861633e-01 3.816455230116844177e-02 3.390681743621826172e-02 2.093527466058731079e-02 -4.356249794363975525e-02 -3.115985542535781860e-02 1.253962516784667969e-02 -5.054260790348052979e-02 6.059388630092144012e-03 -8.853165805339813232e-02 -1.459689531475305557e-02 -1.491173952817916870e-01 -2.204947546124458313e-02 -2.894167415797710419e-02 -1.780298352241516113e-02 9.728593751788139343e-03 1.329409629106521606e-01 -1.276320666074752808e-01 6.854445487260818481e-02 4.050559923052787781e-02 -7.493416219949722290e-02 1.148877572268247604e-02 -5.643184855580329895e-02 -2.176935784518718719e-02 1.921828836202621460e-02 4.245909675955772400e-02 5.223244801163673401e-02 2.694835886359214783e-02 -1.710026413202285767e-01 -1.162582635879516602e-01 1.174993589520454407e-01 -7.033874280750751495e-03 1.133578866720199585e-01 3.495791926980018616e-03 -4.515393450856208801e-02 -4.018593952059745789e-02 7.012007292360067368e-03 -3.082813229411840439e-03 2.031485177576541901e-02 -1.048321500420570374e-01 -2.026307955384254456e-02 9.645640850067138672e-03 1.625363826751708984e-01 -4.108499735593795776e-02 -2.775723300874233246e-02 1.899415701627731323e-01 8.801728487014770508e-03 -2.736276388168334961e-02 6.501390016637742519e-04 2.377973198890686035e-01 7.152867503464221954e-03 -5.946831405162811279e-02 -5.277919396758079529e-02 9.107249975204467773e-02 4.818557575345039368e-02 2.301292307674884796e-02 -8.523960597813129425e-03 -3.564278036355972290e-02 -2.011430263519287109e-02 1.436315774917602539e-01 7.072080671787261963e-02 -1.117985323071479797e-01 5.758434906601905823e-02 4.128723964095115662e-02 1.354438997805118561e-02 1.063888892531394958e-01 -3.161097690463066101e-02 2.111935243010520935e-02 8.779402077198028564e-02 -4.139918088912963867e-02 -1.472887210547924042e-02 -2.315918682143092155e-03 -3.489648178219795227e-02 3.658378496766090393e-02 1.449168324470520020e-01 1.125341579318046570e-01 7.051620632410049438e-02 4.475317150354385376e-02 -4.290483891963958740e-02 1.109939441084861755e-01 -2.198819965124130249e-01 9.510863572359085083e-03 -1.062857639044523239e-02 -4.955409560352563858e-03 4.189714044332504272e-02 -3.200544789433479309e-02 6.321698427200317383e-03 5.595766380429267883e-02 2.277880674228072166e-03 -6.748282164335250854e-02 1.564826220273971558e-01 2.640541270375251770e-02 -3.307380899786949158e-02 -6.546362768858671188e-03 1.048582941293716431e-01 -8.087977021932601929e-02 6.302774697542190552e-02 -1.845230720937252045e-02 -1.702087349258363247e-03 3.447309136390686035e-04 1.051825354807078838e-03 -1.084568053483963013e-01 1.657041013240814209e-01 -3.491526702418923378e-03 -7.172601670026779175e-02 -3.855880349874496460e-02 3.813542053103446960e-02 -1.077237874269485474e-01 7.011604309082031250e-02 -5.882575362920761108e-02 1.074004247784614563e-01 2.496016770601272583e-02 -5.704591795802116394e-02 1.497955322265625000e-01 -3.454397246241569519e-02 -2.411704510450363159e-02 1.236435840837657452e-03 -4.935312643647193909e-02 -9.376593679189682007e-02 -4.115958884358406067e-02 1.832611113786697388e-02 -1.299947947263717651e-01 -2.869370393455028534e-02 2.295586839318275452e-02 -1.359034627676010132e-01 5.750786978751420975e-03 1.116100549697875977e-01 -2.911516465246677399e-02 3.295220434665679932e-03 1.482267677783966064e-02 -9.422849398106336594e-04 6.769415736198425293e-02 -1.530588325113058090e-02 -2.205896377563476562e-02 1.407196372747421265e-01 -4.767164215445518494e-02 -3.990777954459190369e-02 5.926398560404777527e-02 -7.632447406649589539e-03 9.115944802761077881e-02 -8.039101213216781616e-02 -2.184344455599784851e-02 3.624821081757545471e-02 -3.625603020191192627e-01 -1.657204888761043549e-02 2.310933545231819153e-02 2.428115159273147583e-02 1.036473177373409271e-02 -1.724003627896308899e-02 -1.777661591768264771e-02 3.916370868682861328e-02 -1.696161553263664246e-02 1.509418487548828125e-01 3.620555251836776733e-02 1.841215044260025024e-02 -1.118641253560781479e-02 1.125809457153081894e-02 4.896759986877441406e-02 2.706063911318778992e-02 -1.357726007699966431e-01 7.689619064331054688e-02 -4.033516347408294678e-02 -4.522550478577613831e-02 1.908050626516342163e-01 2.197673916816711426e-02 -5.214927345514297485e-02 -1.426188945770263672e-01 -2.331902459263801575e-02 1.810432225465774536e-01 1.647353917360305786e-02 -6.583239883184432983e-02 4.250932484865188599e-02 1.195870116353034973e-01 2.383691072463989258e-02 -3.814188763499259949e-02 -8.718795329332351685e-02 5.905782058835029602e-02 2.412739768624305725e-02 2.982258051633834839e-02 2.952634915709495544e-02 1.789250993169844151e-03 -3.213027957826852798e-03 -7.050180342048406601e-03 2.791260182857513428e-02 -3.412179648876190186e-03 -7.843135297298431396e-02 4.282302409410476685e-02 2.345015760511159897e-03 -1.997941918671131134e-02 -9.245918691158294678e-02 -9.071101434528827667e-03 5.548271350562572479e-03 -1.482410915195941925e-02 -6.056090071797370911e-02 -4.128792881965637207e-02 -1.265783607959747314e-02 2.067483216524124146e-01 -1.187969744205474854e-01 -5.236623063683509827e-02 -4.210748896002769470e-02 -4.605301842093467712e-02 2.519445121288299561e-02 -2.242667786777019501e-02 2.313802391290664673e-02 -1.563527733087539673e-01 1.582818292081356049e-02 5.230732262134552002e-02 2.766332030296325684e-02 4.843692108988761902e-02 -2.725358307361602783e-02 -1.791234910488128662e-01 -5.274811293929815292e-03 7.262132130563259125e-03 -5.266100913286209106e-02 2.023154497146606445e-02 -4.889658465981483459e-02 -4.591928049921989441e-02 -3.642518073320388794e-03 1.730580627918243408e-02 -2.836960740387439728e-02 -3.853993490338325500e-02 -3.369199484586715698e-02 2.059624530375003815e-02 -2.113691763952374458e-03 -3.940187022089958191e-02 1.188019365072250366e-01 1.092704162001609802e-01 5.027276650071144104e-02 9.267905354499816895e-02 -1.118034943938255310e-01 -4.298933595418930054e-02 -7.964967750012874603e-03 -6.916814297437667847e-02 1.105137020349502563e-01 9.731218218803405762e-02 -2.856600657105445862e-02 5.668263137340545654e-02 9.892725199460983276e-02 -6.797434389591217041e-02 2.896583266556262970e-02 9.047192335128784180e-02 -1.107837855815887451e-01 -2.259735204279422760e-02 9.807210415601730347e-02 -5.161242559552192688e-02 -4.209417849779129028e-02 -7.128480821847915649e-03 2.801450155675411224e-02 1.199206262826919556e-01 -4.123726859688758850e-02 -4.613630846142768860e-02
2.314746379852294922e-02 -7.916686683893203735e-02 1.724078357219696045e-01 4.446926526725292206e-03 -8.442130871117115021e-03 -2.149442024528980255e-02 -2.627112902700901031e-02 -2.040185593068599701e-02 2.938098087906837463e-02 -4.564563557505607605e-02 -2.517013996839523315e-02 2.836690470576286316e-02 -1.130386665463447571e-01 -3.647947683930397034e-02 2.361252345144748688e-02 -2.873126231133937836e-02 1.918307840824127197e-01 -2.076720595359802246e-01 -1.103683095425367355e-02 -1.121903881430625916e-01 1.371620148420333862e-01 4.548396449536085129e-03 -5.310926958918571472e-02 4.862989857792854309e-02 3.162730485200881958e-02 3.770243003964424133e-02 -4.402506351470947266e-02 -2.502073720097541809e-02 1.623864471912384033e-02 -7.850274443626403809e-02 5.555048584938049316e-03 -1.032756567001342773e-01 -2.904534898698329926e-02 -1.094491556286811829e-01 -6.578847020864486694e-02 -3.016110137104988098e-02 -4.343680664896965027e-02 1.519553270190954208e-02 2.831240892410278320e-01 -3.080125711858272552e-02 1.994267851114273071e-02 4.482860490679740906e-02 -4.039316996932029724e-02 -1.390851754695177078e-02 -6.897358689457178116e-03 2.705933898687362671e-02 1.513529382646083832e-02 2.892873995006084442e-02 -1.501940842717885971e-02 4.201560840010643005e-02 5.546258762478828430e-03 -1.905052922666072845e-02 -6.349339336156845093e-02 -5.040113255381584167e-02 1.091934926807880402e-02 3.346280381083488464e-02 -5.638781003654003143e-03 -4.408025369048118591e-02 3.386937826871871948e-02 -1.735665649175643921e-02 -1.156050488352775574e-01 -1.340985298156738281e-02 -6.357584148645401001e-02 5.719730630517005920e-02 3.906472027301788330e-02 -9.609533846378326416e-02 2.203918620944023132e-02 -1.225145533680915833e-02 -4.619786143302917480e-02 7.880296558141708374e-02 -5.444591492414474487e-02 -4.794959723949432373e-02 -5.206088721752166748e-02 1.901641301810741425e-02 -1.579892076551914215e-02 -1.441824063658714294e-02 1.033889800310134888e-01 2.909109368920326233e-02 -2.746834792196750641e-02 -1.343280449509620667e-02 -7.190959900617599487e-02 -3.100676462054252625e-02 -1.114336121827363968e-02 -4.788181185722351074e-02 2.137474268674850464e-01 9.435105137526988983e-03 -3.154754266142845154e-02 -3.908870369195938110e-02 -4.215714521706104279e-03 -8.525566011667251587e-02 -4.430085420608520508e-02 -1.748476922512054443e-02 3.505637124180793762e-02 -1.858884245157241821e-01 -2.970052324235439301e-02 3.950436413288116455e-02 -2.527247928082942963e-02 -3.465304151177406311e-02 1.172530427575111389e-01 2.644588947296142578e-01 -4.265658184885978699e-02 2.528061531484127045e-02 1.760908812284469604e-01 1.402725428342819214e-01 1.100625656545162201e-02 -2.465294301509857178e-02 1.942393928766250610e-02 1.916478201746940613e-02 -5.663004517555236816e-02 2.742052078247070312e-02 -3.986573219299316406e-02 -9.711599349975585938e-02 3.728394955396652222e-02 1.758515238761901855e-01 2.398190088570117950e-02 6.926534324884414673e-02 -4.006421193480491638e-02 -1.745805703103542328e-02 -1.597220003604888916e-01 -5.631280690431594849e-02 7.563352584838867188e-03 -3.015963360667228699e-02 -4.244750738143920898e-02 5.396705120801925659e-02 -4.746630042791366577e-02 4.084320273250341415e-03 1.053080428391695023e-02 -7.505887746810913086e-02 1.011700835078954697e-02 -2.756738848984241486e-02 -3.825373947620391846e-02 -3.000406734645366669e-02 -1.865401864051818848e-04 2.721096202731132507e-02 -2.878744527697563171e-02 -5.561316013336181641e-02 2.176878228783607483e-02 2.120422944426536560e-02 1.762949675321578979e-01 1.409509591758251190e-02 6.824053823947906494e-03 1.240020152181386948e-02 9.706772863864898682e-03 1.505698729306459427e-02 3.329341532662510872e-03 -3.207527473568916321e-02 -1.112101599574089050e-01 -3.816033527255058289e-02 2.220053374767303467e-01 1.966862231492996216e-01 4.819878563284873962e-02 -1.464217901229858398e-02 -2.685021609067916870e-02 -3.337803483009338379e-02 -5.192655324935913086e-02 2.488697320222854614e-02 2.631309628486633301e-02 1.066673867171630263e-04 -8.990106731653213501e-02 6.679550558328628540e-02 1.253871023654937744e-01 9.086297452449798584e-02 3.227979317307472229e-02 1.606024987995624542e-02 -5.763576831668615341e-03 2.045513130724430084e-02 1.510522961616516113e-01 -3.667819127440452576e-02 -2.300512790679931641e-02 9.522103518247604370e-02 -2.927375026047229767e-03 8.346882648766040802e-03 4.657242074608802795e-02 -2.211115136742591858e-02 -5.210451036691665649e-02 -4.070731997489929199e-02 -2.851572632789611816e-02 2.431737631559371948e-01 7.717119902372360229e-02 -5.734099075198173523e-02 1.061344053596258163e-02 -1.279642134904861450e-01 -2.670445851981639862e-02 -2.965784817934036255e-02 -5.231861397624015808e-02 -2.964004315435886383e-02 -7.276219874620437622e-02 -5.880033597350120544e-03 1.099317371845245361e-01 -4.921581968665122986e-02 -3.700179234147071838e-02 -5.071058869361877441e-02 -1.115436432883143425e-03 1.700492948293685913e-02 -1.597892940044403076e-01 3.677442297339439392e-02 -4.847900941967964172e-02 5.560464691370725632e-03 -7.643063366413116455e-02 -7.939646951854228973e-03 6.861524283885955811e-02 -8.780463598668575287e-03 5.662870779633522034e-02 -2.129012905061244965e-02 2.908830530941486359e-02 2.212882414460182190e-02 -2.932651713490486145e-02 -3.881730511784553528e-02 2.698218524456024170e-01 -2.063535712659358978e-02 8.578780293464660645e-02 -6.348510831594467163e-02 2.438878640532493591e-02 -1.318013481795787811e-02 2.469192445278167725e-01 1.222483441233634949e-01 -1.495777908712625504e-02 -2.651677094399929047e-02 3.293607011437416077e-02 -5.792870745062828064e-02 -4.468697682023048401e-02 4.950461164116859436e-02 -5.608271807432174683e-03 -9.137446433305740356e-02 -7.331138849258422852e-02 5.670404434204101562e-02 1.920955069363117218e-02 9.838069230318069458e-02 -6.945551931858062744e-02 2.056418806314468384e-01 -3.318100050091743469e-02 -3.170530870556831360e-02 -3.566185943782329559e-03 -1.064919028431177139e-02 -5.453744158148765564e-02 -4.086386039853096008e-02 -2.875968813896179199e-01 2.622795701026916504e-01 -3.953150659799575806e-02 -6.334404647350311279e-02 1.018609032034873962e-01 3.203617641702294350e-03 -6.583194434642791748e-02 -5.708950385451316833e-02 2.562587261199951172e-01 -7.040895521640777588e-02 1.027222350239753723e-01 3.184965625405311584e-02 2.762684598565101624e-02 5.782021582126617432e-02 2.487755566835403442e-01 -1.049577221274375916e-01 1.977368816733360291e-02 1.824240684509277344e-01 -4.723668098449707031e-04 -1.173298209905624390e-01 1.152877435088157654e-01 -3.957349061965942383e-02 -4.240618646144866943e-02 -5.126288905739784241e-02 1.408809423446655273e-02 -9.728798642754554749e-03 -8.206117898225784302e-02 3.182138875126838684e-02 7.066052407026290894e-02 -2.990226261317729950e-02 4.483627900481224060e-02 2.257242500782012939e-01 -4.035865142941474915e-02 1.909494586288928986e-02 8.698783069849014282e-02 -1.859426498413085938e-03 -3.867287188768386841e-03 1.368293762207031250e-01 -1.885940507054328918e-02 -1.042076870799064636e-01 3.066714107990264893e-02 1.478762552142143250e-02 -1.087377965450286865e-02 2.183389812707901001e-01 -5.932661518454551697e-02 2.402422949671745300e-03 -4.033391550183296204e-02 8.885043859481811523e-02 -4.387199506163597107e-02 -3.532620146870613098e-02 -7.916728407144546509e-02 -2.222116291522979736e-01 -7.555827498435974121e-02 1.631706804037094116e-01 -3.857070952653884888e-02 -4.236095026135444641e-02 2.199102342128753662e-01 2.777936309576034546e-02 -1.892139576375484467e-02 -3.421220171730965376e-04 4.086261987686157227e-02 4.401069134473800659e-02 -5.185848474502563477e-02 -2.313055843114852905e-02 1.462838053703308105e-01 -2.363906987011432648e-02 1.578131318092346191e-02 5.409714207053184509e-02 -2.056269720196723938e-02 -1.654564170166850090e-03 3.782573714852333069e-02 2.327467128634452820e-02 2.212004065513610840e-01 -1.015464775264263153e-03 -2.439522370696067810e-02 -4.354579374194145203e-02 -5.651208013296127319e-02 2.692970680072903633e-03 -9.653815068304538727e-03 1.978728473186492920e-01 2.586586028337478638e-02 -1.999486982822418213e-02 -1.263506412506103516e-01 8.442115038633346558e-02 2.862502634525299072e-02 -8.239453285932540894e-02 -2.565072849392890930e-02 1.193436756730079651e-01 -1.671707257628440857e-02 -9.033757448196411133e-02 -3.528072685003280640e-02 2.378214616328477859e-03 -5.066101625561714172e-02 -1.773208007216453552e-02 -7.634015753865242004e-03 -5.454638600349426270e-02 5.158660933375358582e-02 3.985872492194175720e-02 1.761210709810256958e-01 -2.657430432736873627e-02 -3.395597636699676514e-02 2.838426735252141953e-03 2.770496904850006104e-01 8.577307313680648804e-02 -2.637393306940793991e-03 8.016220293939113617e-03 -1.452083047479391098e-02 -1.222712919116020203e-02 4.970980063080787659e-02 9.691881388425827026e-02 1.457485705614089966e-01 -6.969115231186151505e-03 2.915330417454242706e-02 -3.417949005961418152e-02 -1.125844474881887436e-02 -8.816403336822986603e-03 4.054764658212661743e-02 9.357904642820358276e-02 4.120087251067161560e-02 -9.617923945188522339e-02 -4.053748399019241333e-02 -4.108586162328720093e-02 -5.154759436845779419e-02 2.206979990005493164e-01 2.868240326642990112e-02 5.744953826069831848e-02 -4.341881349682807922e-02 2.050204761326313019e-02 -4.202027246356010437e-02 -1.032953849062323570e-03 -9.835630655288696289e-03 -2.401079833507537842e-01 1.162262726575136185e-02 1.825681515038013458e-02 -2.193434536457061768e-02 -3.737801313400268555e-02 -4.966794047504663467e-03 -2.017918601632118225e-02 -5.361145734786987305e-02 -1.283404529094696045e-01 -2.777633070945739746e-01 -1.930720731616020203e-02 -2.245287895202636719e-01 -5.943363159894943237e-02 -4.355168342590332031e-02 -1.970475073903799057e-03 -2.471997588872909546e-02 7.363919168710708618e-02 -5.058835446834564209e-02 2.262949757277965546e-02 -5.435256659984588623e-02 -5.234579741954803467e-02 3.588769957423210144e-02 6.922297179698944092e-02 -1.582521498203277588e-01 -1.277316175401210785e-02 -3.744419291615486145e-02 -5.125602707266807556e-02 -2.185156568884849548e-02 1.376696769148111343e-02 -4.833839833736419678e-02 -1.041962429881095886e-01 2.016826905310153961e-02 -5.029918998479843140e-02
-6.418949365615844727e-02 1.123143509030342102e-01 -1.433493793010711670e-01 1.834789961576461792e-01 -5.635932460427284241e-02 -6.787434220314025879e-02 -4.113064333796501160e-02 1.848116964101791382e-01 -1.598476618528366089e-02 3.187189623713493347e-02 -4.259891435503959656e-02 6.187937688082456589e-03 8.509471267461776733e-02 1.612852886319160461e-02 -5.461306311190128326e-03 3.311612829566001892e-02 1.276266723871231079e-01 9.538178145885467529e-02 -1.750524528324604034e-02 2.526354789733886719e-02 1.411885172128677368e-01 7.853196002542972565e-03 -3.171315416693687439e-03 2.026789933443069458e-01 -2.119196578860282898e-02 -3.756868839263916016e-02 1.519719138741493225e-02 -4.193797335028648376e-02 -3.925560042262077332e-02 1.111174523830413818e-01 1.494465675204992294e-02 6.258635222911834717e-02 9.976901113986968994e-03 5.554373562335968018e-02 1.375011950731277466e-01 -4.409575834870338440e-02 -3.100627474486827850e-02 -6.289411336183547974e-02 2.495178282260894775e-01 -7.902135699987411499e-02 -1.808677613735198975e-02 1.767325773835182190e-02 -2.633154764771461487e-02 2.212207950651645660e-02 2.238204479217529297e-01 5.840987432748079300e-03 -2.085340768098831177e-02 -1.417313143610954285e-02 -1.096680834889411926e-01 1.099927723407745361e-02 -1.600402034819126129e-02 -5.044983699917793274e-02 5.455038696527481079e-02 -7.503075990825891495e-03 4.262093305587768555e-01 -8.666528761386871338e-02 -2.856335230171680450e-02 -2.623807638883590698e-02 -7.569846510887145996e-02 -4.190851002931594849e-02 1.952870488166809082e-01 4.313636943697929382e-02 -6.475820392370223999e-02 -9.826117753982543945e-02 -4.383400827646255493e-02 -2.901788614690303802e-02 2.200997248291969299e-02 -4.655639454722404480e-02 6.304754875600337982e-03 -6.837728619575500488e-02 -1.824193634092807770e-02 -2.781917527318000793e-02 4.138536751270294189e-02 -1.434792205691337585e-02 -2.594169974327087402e-02 5.549323931336402893e-02 -1.369732767343521118e-01 4.398313537240028381e-02 2.044594287872314453e-01 7.507652789354324341e-02 -4.672554880380630493e-02 -4.517414048314094543e-02 -1.773695647716522217e-02 -6.736925244331359863e-02 3.833457082509994507e-02 3.148664906620979309e-02 1.768264323472976685e-01 -3.713914752006530762e-02 -4.102398827672004700e-02 1.156541779637336731e-01 -3.208925202488899231e-02 -2.083324082195758820e-02 1.290697157382965088e-01 7.185386121273040771e-02 -7.198678329586982727e-03 4.593977704644203186e-02 -6.390076875686645508e-02 9.608244895935058594e-02 -3.468992114067077637e-01 -2.182994484901428223e-01 2.530833892524242401e-02 3.726765513420104980e-02 2.428434640169143677e-01 1.586860120296478271e-01 1.204335410147905350e-02 3.909816965460777283e-02 -9.726628661155700684e-03 -3.871589154005050659e-02 -3.412748500704765320e-02 -4.500631242990493774e-02 -8.576310425996780396e-02 9.956379234790802002e-02 1.148662716150283813e-02 -1.258985698223114014e-01 2.276610434055328369e-01 -1.450098603963851929e-01 4.508920758962631226e-02 3.175096958875656128e-02 9.865571744740009308e-03 -8.271823823451995850e-02 -4.369801376014947891e-03 7.833010517060756683e-03 4.799645766615867615e-02 -8.320673555135726929e-02 4.406826104968786240e-03 -4.963190853595733643e-02 -4.330350831151008606e-02 1.455851048231124878e-01 -6.331498175859451294e-02 4.680728912353515625e-02 -4.065874591469764709e-02 -7.687802612781524658e-02 -5.748979747295379639e-03 1.728362031280994415e-02 -3.947603330016136169e-02 -3.784350305795669556e-02 -4.672637209296226501e-02 -3.639512881636619568e-02 1.355620622634887695e-01 3.423285856842994690e-02 -9.875506162643432617e-03 -5.451484024524688721e-02 -3.480818495154380798e-02 4.789724946022033691e-02 -4.913971759378910065e-03 1.823591068387031555e-02 1.947645992040634155e-01 4.261026903986930847e-02 -1.476955860853195190e-01 -1.101976186037063599e-01 4.282490536570549011e-02 -1.139492262154817581e-02 2.555874735116958618e-02 -5.397207569330930710e-03 4.598179459571838379e-02 -1.895450241863727570e-02 -1.075666546821594238e-01 -2.595184929668903351e-02 -2.198752202093601227e-02 -1.068187206983566284e-01 -1.784337908029556274e-01 -5.669343844056129456e-02 3.114323690533638000e-02 4.072313010692596436e-02 3.819885849952697754e-02 1.874102056026458740e-01 -1.815022975206375122e-01 8.565446734428405762e-02 4.590119794011116028e-02 -1.581093221902847290e-01 -7.506237830966711044e-03 -9.102848358452320099e-03 -1.019161194562911987e-02 -2.959014661610126495e-02 -3.493075817823410034e-02 1.930832117795944214e-02 2.143646404147148132e-02 -1.920531392097473145e-01 -1.025319844484329224e-01 1.528457552194595337e-01 -5.500678718090057373e-02 1.381867825984954834e-01 -8.438513427972793579e-02 -1.916589587926864624e-02 -8.220866322517395020e-03 4.112928733229637146e-02 1.930424571037292480e-02 5.195193807594478130e-05 -1.723900586366653442e-01 -6.641886383295059204e-02 2.174511179327964783e-02 1.775473654270172119e-01 -5.730516463518142700e-02 -9.901171550154685974e-03 1.568042337894439697e-01 -4.136748984456062317e-02 9.017933160066604614e-03 -2.681472338736057281e-02 3.382272422313690186e-01 -4.507141932845115662e-02 -1.103734821081161499e-01 -4.602915048599243164e-02 5.036900285631418228e-03 1.930681243538856506e-02 2.231303369626402855e-03 -9.670313447713851929e-03 4.540931805968284607e-02 -1.451063901185989380e-02 2.361619025468826294e-01 1.227486953139305115e-01 -9.430047869682312012e-02 1.001355126500129700e-01 -6.452199816703796387e-02 -4.382898285984992981e-02 1.737353503704071045e-01 -8.879511803388595581e-02 4.412562027573585510e-02 2.121505588293075562e-01 2.616486325860023499e-02 -7.307460159063339233e-02 5.636741872876882553e-03 -1.173973083496093750e-02 -2.926352061331272125e-02 9.235543012619018555e-02 1.177869588136672974e-01 7.141844928264617920e-02 -3.307577595114707947e-02 -1.311676204204559326e-01 1.063821241259574890e-01 -3.971880376338958740e-01 -5.026758648455142975e-03 1.291194930672645569e-03 -3.370296210050582886e-02 -3.098233044147491455e-02 -6.054542213678359985e-02 -1.983824931085109711e-02 4.821924120187759399e-02 3.963690996170043945e-02 8.935498073697090149e-03 1.813505142927169800e-01 -8.127553015947341919e-02 -6.344346702098846436e-02 -5.789852887392044067e-02 1.901151090860366821e-01 -1.944714691489934921e-03 8.529214560985565186e-02 -7.096239924430847168e-02 -4.071106761693954468e-02 2.140701189637184143e-02 8.847931027412414551e-02 -1.150128990411758423e-01 2.031186372041702271e-01 6.199261918663978577e-02 -7.538153976202011108e-02 -3.880658000707626343e-02 1.751361340284347534e-01 -1.706855148077011108e-01 1.456433534622192383e-01 -2.133365347981452942e-02 1.701762378215789795e-01 -6.777942180633544922e-02 -1.058921292424201965e-01 1.767174005508422852e-01 -6.486695259809494019e-02 -1.238285098224878311e-02 -2.380758896470069885e-02 -1.218978222459554672e-02 -1.193265169858932495e-01 -5.705850943922996521e-02 -4.318970814347267151e-02 -1.244824081659317017e-01 -2.591649256646633148e-02 3.527801856398582458e-02 -1.595589369535446167e-01 4.060966521501541138e-02 1.907045394182205200e-01 -2.201412804424762726e-02 2.782523632049560547e-03 -3.416368365287780762e-02 6.397639960050582886e-02 7.016962766647338867e-02 4.346675798296928406e-02 -7.928977161645889282e-02 3.424962237477302551e-02 5.347542464733123779e-04 -8.365502953529357910e-02 6.458143889904022217e-02 3.825233504176139832e-02 1.180322766304016113e-01 -8.394414186477661133e-02 -3.693482652306556702e-02 1.012244075536727905e-02 -3.881304264068603516e-01 -1.171074621379375458e-02 1.198535319417715073e-02 3.416890278458595276e-02 1.847744919359683990e-02 -3.361903131008148193e-02 -6.451391428709030151e-02 -3.388938307762145996e-02 3.988317772746086121e-02 1.159131973981857300e-01 -4.221447557210922241e-02 1.175716891884803772e-01 -1.440830621868371964e-02 1.991925202310085297e-02 -3.620639815926551819e-02 -1.122804358601570129e-02 -1.596593260765075684e-01 -1.872207620181143284e-03 -3.875037655234336853e-02 -6.368264555931091309e-02 2.069973796606063843e-01 -2.604979462921619415e-02 -3.819157183170318604e-02 -1.295690983533859253e-01 -7.772441953420639038e-02 1.547995358705520630e-01 7.188607007265090942e-02 -2.159337885677814484e-02 3.556110337376594543e-02 1.483245790004730225e-01 1.602732692845165730e-03 -5.566688999533653259e-02 -3.586472570896148682e-02 1.448792666196823120e-01 1.404594257473945618e-02 1.846624072641134262e-03 -4.556528478860855103e-02 -1.265685353428125381e-02 3.692031279206275940e-02 -6.137189641594886780e-02 7.767971605062484741e-03 -1.300295069813728333e-02 -1.364073157310485840e-01 4.532124102115631104e-02 -3.519751504063606262e-02 -8.944866061210632324e-02 -1.965672243386507034e-03 -3.360182419419288635e-02 -5.722593516111373901e-02 -1.440973859280347824e-02 -2.291853539645671844e-02 -7.403828203678131104e-03 -4.583515226840972900e-02 1.297096461057662964e-01 -1.958176493644714355e-01 4.450381966307759285e-04 3.235819935798645020e-02 -6.019114330410957336e-02 -2.031160332262516022e-02 -2.102805115282535553e-02 2.056023664772510529e-02 -1.738113909959793091e-01 -3.942426294088363647e-02 1.376969665288925171e-01 -3.347243741154670715e-02 -3.378713130950927734e-02 5.211667716503143311e-02 -1.176752746105194092e-01 -2.406222000718116760e-02 -7.328984886407852173e-02 -8.329269289970397949e-02 3.981063514947891235e-02 -2.366600930690765381e-02 -7.996220141649246216e-02 3.156073763966560364e-02 1.040788367390632629e-02 -8.728975802659988403e-02 4.880079627037048340e-02 -5.987358093261718750e-02 1.084102466702461243e-01 3.298444673418998718e-02 -5.671909824013710022e-02 1.333732157945632935e-01 2.640359103679656982e-01 1.700484156608581543e-01 1.362697333097457886e-01 -2.614148519933223724e-02 5.701559130102396011e-03 -3.663140907883644104e-02 -6.347230821847915649e-02 1.359632164239883423e-01 9.732295572757720947e-02 -2.193941548466682434e-02 1.212624311447143555e-01 6.676331907510757446e-02 -6.753447651863098145e-02 1.332880090922117233e-02 2.117087095975875854e-01 8.819234557449817657e-03 2.986842766404151917e-02 7.565857470035552979e-02 7.655798457562923431e-03 -1.183176133781671524e-02 -4.110251739621162415e-02 3.841912746429443359e-02 1.381668746471405029e-01 -4.464894533157348633e-02 4.596884362399578094e-03
-1.284349896013736725e-02 -6.408537179231643677e-02 1.951835900545120239e-01 1.196066290140151978e-02 -7.522965967655181885e-02 -2.782161161303520203e-02 5.034027248620986938e-02 -7.157597690820693970e-02 -3.397800028324127197e-02 2.561159431934356689e-02 -6.358186155557632446e-02 -5.161395296454429626e-03 -5.384396389126777649e-02 -2.668683417141437531e-02 1.898858137428760529e-02 1.519286166876554489e-02 3.090593218803405762e-01 -8.692541718482971191e-02 -2.348202839493751526e-02 -8.794598281383514404e-02 1.255031228065490723e-01 -6.700249016284942627e-02 -5.075485631823539734e-02 8.322209864854812622e-02 -7.444371469318866730e-03 -4.544750321656465530e-03 -1.611522585153579712e-02 -9.970184415578842163e-03 4.560895636677742004e-02 -9.703052043914794922e-02 3.895885078236460686e-03 -1.357820183038711548e-01 -4.198431968688964844e-02 -8.530052006244659424e-02 -1.043403446674346924e-01 5.485124420374631882e-03 1.800503581762313843e-02 -2.453113906085491180e-02 3.034864962100982666e-01 1.965163461863994598e-02 -9.088595397770404816e-03 1.605132594704627991e-02 -3.406080603599548340e-02 -4.523546248674392700e-02 8.479836396872997284e-03 9.753968566656112671e-02 -3.705219924449920654e-02 -5.253071710467338562e-02 1.234348118305206299e-02 -6.680473685264587402e-03 2.013532072305679321e-02 -6.715739518404006958e-02 -6.673821061849594116e-02 -9.951412677764892578e-03 -6.037029996514320374e-02 6.115644425153732300e-02 1.065263524651527405e-02 -6.507384590804576874e-03 -3.894904255867004395e-02 -3.803937509655952454e-02 -1.498401463031768799e-01 -1.566389203071594238e-02 -6.797786336392164230e-03 6.499452888965606689e-02 -1.672480284469202161e-04 -1.135383173823356628e-01 -4.332414362579584122e-03 -9.025216102600097656e-03 2.391804940998554230e-02 7.052125781774520874e-02 -1.345958746969699860e-02 -3.679467737674713135e-02 -8.464758843183517456e-02 -2.478652261197566986e-02 -3.824190469458699226e-03 -8.916138112545013428e-02 1.468117237091064453e-01 4.760179296135902405e-02 -5.086652562022209167e-02 -1.152812540531158447e-01 -2.640821598470211029e-02 2.083797194063663483e-02 -4.991788789629936218e-02 -7.544207037426531315e-04 3.338146209716796875e-01 -4.365744441747665405e-02 -5.956832692027091980e-02 4.648870602250099182e-02 -5.950224399566650391e-02 -1.078611984848976135e-01 -3.242306411266326904e-04 -1.253249356523156166e-03 -3.975252620875835419e-03 -1.876116991043090820e-01 -4.725763574242591858e-02 3.405921533703804016e-02 -1.885901205241680145e-02 -9.886166453361511230e-02 1.647966057062149048e-01 3.400065004825592041e-01 2.035884419456124306e-03 3.028670884668827057e-02 3.114466369152069092e-01 2.642529904842376709e-01 -7.386448979377746582e-02 3.015878051519393921e-02 -1.966873183846473694e-02 3.558553010225296021e-02 -2.233520895242691040e-02 -5.525181069970130920e-02 -2.937041781842708588e-02 -9.774450212717056274e-02 -3.700380027294158936e-02 2.848074436187744141e-01 -3.241666778922080994e-02 1.036924123764038086e-01 1.341154216788709164e-03 4.104334861040115356e-02 -1.517375260591506958e-01 -6.519593298435211182e-03 8.899608999490737915e-02 -2.221395261585712433e-02 2.275950089097023010e-02 6.372230499982833862e-02 -3.155029937624931335e-02 -3.550752252340316772e-02 3.781602904200553894e-02 -1.012641862034797668e-01 1.287963707000017166e-02 2.004280313849449158e-02 -4.319370165467262268e-02 4.240786191076040268e-03 3.670510277152061462e-02 2.086479030549526215e-02 -3.044094191864132881e-03 1.379638630896806717e-02 -6.405930221080780029e-02 3.396042063832283020e-02 2.965297102928161621e-01 -2.914835512638092041e-02 6.675124168395996094e-03 2.746847271919250488e-02 -2.188536897301673889e-02 1.626113057136535645e-02 -5.956734716892242432e-02 1.446243748068809509e-02 -1.010839715600013733e-01 3.798435255885124207e-02 2.381320744752883911e-01 2.890459895133972168e-01 3.506809705868363380e-03 -9.026166051626205444e-03 -3.309251368045806885e-02 -4.453615099191665649e-02 3.409335762262344360e-02 -4.194098711013793945e-02 1.109970957040786743e-01 2.924077771604061127e-02 -9.610224515199661255e-02 1.457669734954833984e-01 2.059739828109741211e-01 7.322076708078384399e-02 3.025159612298011780e-02 2.563737099990248680e-03 3.032937878742814064e-03 2.828887477517127991e-02 2.099363356828689575e-01 -8.715222775936126709e-02 -1.088376715779304504e-02 4.870663955807685852e-02 -7.703571114689111710e-03 9.803240187466144562e-03 -6.266213953495025635e-03 -9.619631804525852203e-03 2.003997378051280975e-02 -7.673769444227218628e-02 -1.565669104456901550e-02 2.957162261009216309e-01 1.061327084898948669e-01 -6.324912607669830322e-02 -3.278992697596549988e-02 -1.201351433992385864e-01 -2.005493454635143280e-02 -2.335198968648910522e-02 -5.156794562935829163e-02 -4.328107461333274841e-02 -1.042718589305877686e-01 4.879572987556457520e-02 9.390578418970108032e-02 1.574957743287086487e-02 4.228276200592517853e-03 -3.363600373268127441e-02 -4.056332260370254517e-02 -1.002759765833616257e-02 -1.657244265079498291e-01 1.353759551420807838e-03 -1.955162920057773590e-02 4.466835409402847290e-02 -1.375642120838165283e-01 -3.168929740786552429e-02 1.166612729430198669e-01 -6.197801232337951660e-02 6.225280463695526123e-02 -1.159999519586563110e-02 -2.759515307843685150e-02 -2.096022106707096100e-02 -1.852917484939098358e-02 -2.799599431455135345e-02 3.103679716587066650e-01 -1.021475866436958313e-01 1.118035465478897095e-01 -5.452133715152740479e-02 -1.370124612003564835e-02 -4.016137868165969849e-02 2.676436305046081543e-01 1.218547970056533813e-01 4.500601813197135925e-02 -8.137738704681396484e-02 4.260664060711860657e-02 -1.508707832545042038e-02 1.661904715001583099e-02 -4.709453508257865906e-02 -3.496786206960678101e-02 -1.040769964456558228e-01 -9.529453516006469727e-02 1.221963837742805481e-01 -1.687733083963394165e-02 1.225053444504737854e-01 -1.153443828225135803e-01 1.918812245130538940e-01 2.143741119652986526e-03 -8.171788603067398071e-02 2.030408754944801331e-02 -5.574301257729530334e-02 -5.325163155794143677e-02 1.880121976137161255e-02 -3.917182087898254395e-01 2.607324719429016113e-01 -4.794684797525405884e-02 -1.278732120990753174e-01 1.568400263786315918e-01 -6.981717050075531006e-02 -2.087457478046417236e-02 -4.225214943289756775e-02 2.885290980339050293e-01 -1.406443715095520020e-01 4.588650539517402649e-02 3.999840095639228821e-02 -3.497976064682006836e-02 3.925319761037826538e-02 2.858071625232696533e-01 -9.074854105710983276e-02 -3.554181009531021118e-02 2.695899903774261475e-01 1.870525255799293518e-02 -7.454013824462890625e-02 6.261403858661651611e-02 -9.707830846309661865e-02 -1.481069438159465790e-02 -1.023996695876121521e-01 -2.750203944742679596e-02 -1.289473846554756165e-03 -7.150785624980926514e-02 -1.461222954094409943e-02 1.694586127996444702e-02 -5.516239628195762634e-02 4.385131970047950745e-02 2.873947024345397949e-01 -2.338994294404983521e-02 3.872919082641601562e-02 1.315504461526870728e-01 1.331924553960561752e-02 -1.929860562086105347e-03 2.206278592348098755e-01 -5.338402930647134781e-03 -1.043965071439743042e-01 -1.242788229137659073e-02 -9.479187428951263428e-03 4.509454965591430664e-02 2.713303565979003906e-01 -8.863542228937149048e-02 -1.224778406322002411e-02 -6.725011765956878662e-02 7.555910199880599976e-02 -2.502260170876979828e-02 -1.562099624425172806e-02 -1.052163690328598022e-01 -2.374929785728454590e-01 -1.055659353733062744e-01 1.950618028640747070e-01 -6.938775628805160522e-02 -3.168725967407226562e-02 2.816378772258758545e-01 3.663067892193794250e-02 4.621930420398712158e-02 -8.889568038284778595e-03 3.689145296812057495e-02 -8.316369727253913879e-03 -4.051819816231727600e-02 6.428020074963569641e-03 1.248815730214118958e-01 -9.820475429296493530e-02 3.612549975514411926e-02 9.381686896085739136e-02 -4.397620633244514465e-02 1.895635947585105896e-02 8.764221332967281342e-03 -2.046936191618442535e-02 2.426617741584777832e-01 2.704534307122230530e-02 -3.796164691448211670e-02 -4.474335163831710815e-02 -7.447738200426101685e-02 -4.779471829533576965e-02 -2.160526812076568604e-02 2.591502666473388672e-01 1.105589419603347778e-01 -7.775288075208663940e-02 -1.367180347442626953e-01 1.193981245160102844e-01 4.555705189704895020e-02 -1.266711652278900146e-01 -5.832074675709009171e-03 9.223321080207824707e-02 -6.295236945152282715e-02 -6.369664520025253296e-02 -1.974960602819919586e-02 -3.256477182731032372e-03 3.121221438050270081e-02 7.856512638682033867e-06 4.201080277562141418e-02 -5.197158083319664001e-03 -2.692829631268978119e-02 -9.117055684328079224e-03 2.504932582378387451e-01 -4.431458190083503723e-02 -5.443137139081954956e-02 -5.604586377739906311e-02 2.624495625495910645e-01 1.215672343969345093e-01 -5.990373715758323669e-02 -1.968850195407867432e-02 -2.723474055528640747e-02 4.854651167988777161e-02 -2.762883156538009644e-02 1.146178394556045532e-01 2.221873551607131958e-01 1.086220890283584595e-02 4.325535148382186890e-02 -3.300181776285171509e-02 -2.694270573556423187e-02 7.714188657701015472e-03 -1.190096512436866760e-02 5.591016635298728943e-02 -3.868151456117630005e-02 -5.952020734548568726e-02 9.043836034834384918e-04 -1.753473305143415928e-03 -3.700722754001617432e-02 2.414838373661041260e-01 3.271830268204212189e-03 5.335000902414321899e-02 -8.766056969761848450e-03 -2.773792855441570282e-02 -2.601603604853153229e-02 -8.371354779228568077e-04 6.650339812040328979e-03 -2.927537560462951660e-01 -6.431397795677185059e-02 -3.322949260473251343e-02 -7.243431359529495239e-02 -8.382479846477508545e-02 -1.916168606840074062e-03 -3.073633648455142975e-02 -9.680707007646560669e-02 -8.643484860658645630e-02 -3.571159839630126953e-01 -1.216674223542213440e-01 -2.446978837251663208e-01 -7.151186466217041016e-02 3.766700252890586853e-02 -2.737843617796897888e-02 5.050719156861305237e-02 1.052729487419128418e-01 3.884271904826164246e-02 4.413506388664245605e-02 -9.695831686258316040e-02 -3.550803661346435547e-02 -4.042053595185279846e-03 -1.155705656856298447e-02 -1.729424595832824707e-01 9.044341742992401123e-03 -3.739127144217491150e-02 -4.704341664910316467e-02 -4.795371741056442261e-02 1.065227203071117401e-02 -1.301882322877645493e-03 -1.620937287807464600e-01 -2.415287122130393982e-02 -2.469568140804767609e-02
-7.275558263063430786e-02 1.364791691303253174e-01 -1.529777944087982178e-01 2.362608611583709717e-01 1.166276168078184128e-02 -1.073680352419614792e-03 3.737814025953412056e-03 1.930621713399887085e-01 1.774597540497779846e-02 7.549400441348552704e-03 -7.007542252540588379e-02 3.159266896545886993e-03 1.118924170732498169e-01 -4.359853640198707581e-02 1.083747204393148422e-02 -2.013175515457987785e-03 1.889244914054870605e-01 7.345781475305557251e-02 1.010931748896837234e-02 1.015491560101509094e-01 1.252376884222030640e-01 -7.434233278036117554e-02 -7.860513031482696533e-02 2.763915956020355225e-01 4.135796916671097279e-04 3.074772469699382782e-02 3.000186756253242493e-02 1.757418178021907806e-02 -7.656289730221033096e-03 7.657986879348754883e-02 2.693582698702812195e-02 6.994929164648056030e-02 1.746077090501785278e-03 9.153839945793151855e-02 1.021957099437713623e-01 -1.001884788274765015e-01 -8.898588269948959351e-02 -2.305899932980537415e-02 5.329509451985359192e-02 -4.165341705083847046e-02 -8.841437101364135742e-02 -9.412281215190887451e-04 -7.398661226034164429e-02 -5.029560253024101257e-02 3.388485610485076904e-01 -8.958355337381362915e-02 -2.837695181369781494e-02 -2.022089995443820953e-02 -2.075724676251411438e-02 4.810312762856483459e-02 1.898269169032573700e-03 -9.610123932361602783e-02 3.972742706537246704e-02 -8.444195613265037537e-03 5.313367843627929688e-01 -1.567101627588272095e-01 -2.249057590961456299e-02 -3.438393026590347290e-02 -8.614337444305419922e-02 2.762765064835548401e-02 2.202561199665069580e-01 1.355024054646492004e-02 -4.193427041172981262e-02 -1.101246103644371033e-01 -2.093389257788658142e-02 8.239927142858505249e-02 -1.196040492504835129e-02 -8.740237914025783539e-03 -2.986974269151687622e-02 -1.200745329260826111e-01 -9.805158525705337524e-02 -5.037304013967514038e-02 1.472409814596176147e-01 -1.733391359448432922e-02 -3.484283760190010071e-02 3.606984391808509827e-02 -1.522874832153320312e-01 -3.889884427189826965e-02 2.544035017490386963e-01 8.037098497152328491e-02 -2.610971964895725250e-02 -7.333049923181533813e-02 -7.902075350284576416e-02 -4.378108307719230652e-02 1.280723363161087036e-01 2.788244187831878662e-02 1.712281107902526855e-01 9.194483049213886261e-03 -6.715694069862365723e-02 9.405767172574996948e-02 -4.215849190950393677e-02 3.097004443407058716e-02 2.306449562311172485e-01 1.821957826614379883e-01 -2.030648104846477509e-02 1.709503587335348129e-03 -7.903451472520828247e-02 1.424182355403900146e-01 -3.452824354171752930e-01 -1.720862090587615967e-01 2.841497957706451416e-02 1.591349951922893524e-02 4.726127535104751587e-02 1.828590035438537598e-01 -5.537693575024604797e-02 3.351495787501335144e-02 2.206380665302276611e-02 4.542478173971176147e-02 -7.943035662174224854e-02 -8.683314174413681030e-02 -8.988582342863082886e-02 7.146939635276794434e-02 4.041213169693946838e-02 -1.531577110290527344e-01 2.661521136760711670e-01 -1.938580870628356934e-01 3.201179206371307373e-03 -5.742836277931928635e-03 1.031646281480789185e-01 -2.072748914361000061e-02 -6.984645873308181763e-02 -7.296866178512573242e-02 2.498495206236839294e-02 -1.238938719034194946e-01 3.736839396879076958e-03 -7.309289276599884033e-02 7.508771028369665146e-03 2.046930640935897827e-01 -1.882041245698928833e-02 2.034338936209678650e-02 8.982523577287793159e-04 -8.967040479183197021e-02 3.715739026665687561e-02 1.186726149171590805e-02 7.139232009649276733e-03 -7.474043220281600952e-02 -8.284174650907516479e-02 -1.569954305887222290e-02 2.250015139579772949e-01 -5.030427500605583191e-02 -8.840225636959075928e-03 -9.953367523849010468e-03 -4.297908768057823181e-02 -2.013917453587055206e-02 5.886514484882354736e-02 3.452745452523231506e-02 2.560454308986663818e-01 -4.155833274126052856e-03 -1.102433577179908752e-01 -9.248103946447372437e-02 -6.094708107411861420e-03 -6.751259206794202328e-04 2.017812989652156830e-02 -4.021873697638511658e-02 9.657318703830242157e-03 2.003289572894573212e-02 -1.705214977264404297e-01 2.138889208436012268e-02 -1.161574386060237885e-02 -1.825969666242599487e-01 -1.732568591833114624e-01 -1.085570082068443298e-01 2.355913445353507996e-02 -1.951237209141254425e-02 2.143058553338050842e-02 2.478692531585693359e-01 -1.457407325506210327e-01 9.352340549230575562e-02 -9.066779166460037231e-03 -1.755280047655105591e-01 8.414344862103462219e-03 -6.613618880510330200e-02 -1.376718282699584961e-02 -4.531271755695343018e-02 -3.303270414471626282e-02 3.036641050130128860e-03 -3.264324367046356201e-02 -5.012731254100799561e-02 -1.791460961103439331e-01 1.981146186590194702e-01 -1.481147599406540394e-03 1.947589963674545288e-01 -8.852519094944000244e-02 3.650111705064773560e-02 -8.747398853302001953e-02 2.011186443269252777e-02 7.831364870071411133e-02 -2.010495774447917938e-02 -1.652748286724090576e-01 -5.079805105924606323e-02 -3.820205479860305786e-02 2.512970566749572754e-01 -9.295216947793960571e-02 2.587617747485637665e-02 2.304163873195648193e-01 1.043371204286813736e-02 1.380613818764686584e-02 -1.710083894431591034e-02 2.578025758266448975e-01 -3.262670710682868958e-02 -1.747132390737533569e-01 -1.538356579840183258e-02 -5.136556923389434814e-02 2.610049024224281311e-02 8.078237995505332947e-03 -7.852680981159210205e-02 -5.367198213934898376e-02 -2.932692132890224457e-02 1.852933317422866821e-01 1.451652050018310547e-01 -1.094642579555511475e-01 2.311747223138809204e-01 -7.908213883638381958e-02 -8.569650235585868359e-04 2.517147958278656006e-01 -1.101987659931182861e-01 -3.533831983804702759e-02 2.249845862388610840e-01 2.600838616490364075e-02 -7.215462625026702881e-02 8.719232864677906036e-03 -8.615106344223022461e-05 5.231834948062896729e-03 1.479765176773071289e-01 3.935832902789115906e-02 -3.769101575016975403e-03 2.323104999959468842e-02 -1.002671271562576294e-01 1.635543256998062134e-01 -5.678431987762451172e-01 5.110901221632957458e-02 3.464166447520256042e-02 -2.643017098307609558e-02 -8.748106658458709717e-03 -4.357999935746192932e-02 1.957904733717441559e-02 1.381329149007797241e-01 1.452294886112213135e-01 -2.404327876865863800e-02 2.204253971576690674e-01 -6.471398472785949707e-02 -3.327003493905067444e-02 -2.177185006439685822e-02 2.933315336704254150e-01 9.658399224281311035e-02 2.644294500350952148e-02 -1.120833903551101685e-01 3.770057111978530884e-02 1.033661887049674988e-02 1.323809027671813965e-01 -1.920722126960754395e-01 2.649635672569274902e-01 -2.261802926659584045e-02 -1.587189435958862305e-01 1.027182489633560181e-02 1.723743081092834473e-01 -1.884814351797103882e-01 2.002945840358734131e-01 -7.858227193355560303e-02 1.269017606973648071e-01 -2.916203066706657410e-02 -1.298739165067672729e-01 2.126099765300750732e-01 -7.654067128896713257e-02 9.055557847023010254e-02 -7.685135304927825928e-02 2.552503347396850586e-02 -1.274473220109939575e-01 -3.125024260953068733e-03 -3.658255736809223890e-04 -2.050213068723678589e-01 1.273931097239255905e-02 2.000726759433746338e-03 -1.414779871702194214e-01 1.434402773156762123e-03 2.405345141887664795e-01 4.001670703291893005e-02 2.952057868242263794e-03 -2.701670862734317780e-02 2.139089256525039673e-01 7.466001063585281372e-02 3.064972348511219025e-02 -3.097322024405002594e-02 -6.313776224851608276e-02 4.818731173872947693e-02 -4.715646430850028992e-02 6.291163712739944458e-02 1.462629884481430054e-01 1.398070752620697021e-01 -1.629436761140823364e-01 -1.201623957604169846e-02 3.788473084568977356e-02 -2.979738116264343262e-01 -2.291307039558887482e-02 1.615180820226669312e-02 2.458277344703674316e-02 2.965370379388332367e-02 1.715883798897266388e-02 -2.027161233127117157e-02 3.741846606135368347e-02 1.822746247053146362e-01 1.695390045642852783e-01 -1.765901781618595123e-02 1.673018932342529297e-01 4.454635456204414368e-02 1.749148778617382050e-02 -2.736238576471805573e-02 1.474510505795478821e-02 -2.524259984493255615e-01 -1.849054545164108276e-02 -5.758367106318473816e-02 -4.202575609087944031e-02 2.723051309585571289e-01 3.166750073432922363e-02 -8.244190365076065063e-02 -1.684518903493881226e-01 -1.418800055980682373e-01 2.376625686883926392e-01 1.096040681004524231e-01 9.832626581192016602e-02 -2.774851862341165543e-03 1.443335711956024170e-01 -2.276529185473918915e-02 -1.466085016727447510e-01 -6.919713318347930908e-02 1.361105591058731079e-01 -2.142108045518398285e-02 4.220520332455635071e-02 4.081128165125846863e-03 -7.270775735378265381e-02 2.266154624521732330e-02 -5.158206820487976074e-02 -5.138501524925231934e-02 2.902597561478614807e-02 -1.870178431272506714e-01 4.210459813475608826e-02 -9.151627123355865479e-02 -5.038683488965034485e-02 1.714080423116683960e-01 -1.741609424352645874e-01 -7.039815932512283325e-02 -8.175088465213775635e-02 -8.202845603227615356e-02 3.850804641842842102e-02 2.995158918201923370e-02 2.615431509912014008e-02 -1.432228237390518188e-01 -5.434840545058250427e-02 3.500949963927268982e-02 -4.287743940949440002e-02 -3.838136419653892517e-02 -7.087367027997970581e-02 2.677249349653720856e-02 -1.459844708442687988e-01 -4.429630935192108154e-02 1.107153072953224182e-01 -1.274025999009609222e-02 1.887856982648372650e-02 -4.509124904870986938e-02 -1.407331526279449463e-01 1.261710096150636673e-02 -4.215648397803306580e-02 1.884791709017008543e-04 3.672043606638908386e-02 -7.512129843235015869e-02 -3.419744595885276794e-02 -4.969102889299392700e-02 1.689617484807968140e-01 -3.504429385066032410e-02 7.559174671769142151e-03 -3.734615817666053772e-02 1.251251399517059326e-01 2.999741584062576294e-02 -8.731363713741302490e-02 7.057157158851623535e-02 2.416732460260391235e-01 2.796240150928497314e-01 1.623159795999526978e-01 7.111016660928726196e-02 -7.453097403049468994e-02 -1.400406472384929657e-02 -5.806332081556320190e-02 2.224891334772109985e-01 -2.034267410635948181e-02 -9.066958725452423096e-02 2.154304683208465576e-01 1.241868361830711365e-01 -5.982100591063499451e-02 -1.530188694596290588e-02 2.786414921283721924e-01 1.210749670863151550e-01 -7.895005866885185242e-03 1.587692797183990479e-01 -2.954545989632606506e-02 -5.465663969516754150e-02 -4.554962739348411560e-02 -3.837468847632408142e-02 1.204432323575019836e-01 -2.226819843053817749e-02 -2.464314922690391541e-02
-5.238683894276618958e-03 -1.359724402427673340e-01 1.658523231744766235e-01 -1.721491664648056030e-02 -9.850289672613143921e-02 -2.968912199139595032e-02 -1.081456523388624191e-02 -1.288736760616302490e-01 8.351154625415802002e-03 3.990015387535095215e-02 -2.464039996266365051e-02 3.960759495384991169e-04 -6.092164665460586548e-02 -7.029019761830568314e-03 8.129362948238849640e-03 7.034793496131896973e-03 3.006348311901092529e-01 -3.012144938111305237e-02 -1.527922973036766052e-02 -1.251381486654281616e-01 2.221941649913787842e-01 -4.507667571306228638e-02 9.267815621569752693e-04 -1.821523765102028847e-03 -3.409715369343757629e-03 2.437546104192733765e-02 -6.128184497356414795e-03 -5.277567729353904724e-02 3.843930736184120178e-02 -1.396367251873016357e-01 4.424198716878890991e-02 -1.409446001052856445e-01 4.296201840043067932e-02 -9.353550523519515991e-02 -1.166975125670433044e-01 9.759656339883804321e-02 -3.167510777711868286e-02 -2.612370438873767853e-02 2.898394763469696045e-01 -5.262750387191772461e-02 -4.533480107784271240e-02 -1.346847414970397949e-02 -1.623016595840454102e-02 -4.798148572444915771e-02 -5.789983272552490234e-02 8.591927587985992432e-02 -1.861550030298531055e-03 -3.281472250819206238e-02 -4.080070182681083679e-02 8.978858590126037598e-03 -7.658672332763671875e-02 -2.531376108527183533e-02 -1.444143354892730713e-01 1.139983441680669785e-02 -1.014359891414642334e-01 1.166507527232170105e-01 -3.272561356425285339e-02 2.055647969245910645e-02 -5.009438470005989075e-02 9.061396121978759766e-03 -1.817893534898757935e-01 -8.056979626417160034e-03 -7.368207443505525589e-03 1.087422594428062439e-01 -3.729084506630897522e-02 -8.405488729476928711e-02 -3.874209895730018616e-02 -4.936427995562553406e-02 -5.684410221874713898e-03 7.780932635068893433e-02 -8.766366168856620789e-03 -3.696497529745101929e-02 -1.133035272359848022e-01 -2.145941555500030518e-02 2.238159067928791046e-02 -1.387852579355239868e-01 9.280554950237274170e-02 -3.135380148887634277e-02 2.694902569055557251e-02 -1.545803844928741455e-01 1.480635814368724823e-02 -4.347965493798255920e-02 -5.713325366377830505e-02 -7.164742797613143921e-02 3.234858810901641846e-01 1.242447644472122192e-02 -1.316036283969879150e-01 1.931004598736763000e-02 -2.932006493210792542e-02 -1.509588360786437988e-01 1.240213960409164429e-02 -1.943758397828787565e-04 4.277082532644271851e-02 -2.111981809139251709e-01 3.996137529611587524e-02 2.740152366459369659e-02 -6.697695702314376831e-02 -1.261446326971054077e-01 1.892560273408889771e-01 3.533900082111358643e-01 2.779540419578552246e-02 -3.295559808611869812e-02 3.706840872764587402e-01 3.607737421989440918e-01 2.277757413685321808e-02 -2.805945987347513437e-04 1.197094097733497620e-02 3.121894598007202148e-02 -2.115099132061004639e-02 -8.967637084424495697e-03 1.921894587576389313e-02 -1.223329231142997742e-01 3.518435405567288399e-03 3.599646687507629395e-01 -5.177028477191925049e-02 1.646670401096343994e-01 3.185979276895523071e-02 1.308025140315294266e-02 -1.321303099393844604e-01 -4.217010363936424255e-02 1.114934533834457397e-01 1.759630627930164337e-02 3.985337913036346436e-02 7.595936954021453857e-02 2.994542755186557770e-02 -2.249513193964958191e-02 -5.179888382554054260e-02 -9.077423065900802612e-02 -6.122389808297157288e-02 -3.987878561019897461e-02 2.422635629773139954e-02 -5.810095742344856262e-02 1.381911709904670715e-02 4.695958271622657776e-02 -5.144411697983741760e-02 -4.838683083653450012e-02 -5.784802511334419250e-02 -4.253370687365531921e-02 3.550456464290618896e-01 -2.712786942720413208e-02 -1.283212751150131226e-02 3.555620834231376648e-02 -4.256472736597061157e-02 -4.449565336108207703e-02 -2.875215560197830200e-02 -5.059462040662765503e-03 -1.035607829689979553e-01 -3.135871142148971558e-02 3.262314200401306152e-01 3.337512016296386719e-01 -2.059587463736534119e-02 8.306939154863357544e-03 1.241354644298553467e-02 1.789035461843013763e-02 3.393198177218437195e-02 -9.425031952559947968e-03 7.757187634706497192e-02 -1.837258599698543549e-02 -7.010278105735778809e-02 1.771254837512969971e-01 2.522848844528198242e-01 9.879592806100845337e-02 -8.465699851512908936e-03 3.233525902032852173e-02 2.892453782260417938e-02 2.829270437359809875e-02 2.520314157009124756e-01 -1.374344676733016968e-01 -3.373143076896667480e-02 1.257514506578445435e-01 2.781345322728157043e-02 -4.726342111825942993e-02 -4.302639514207839966e-03 -5.248628556728363037e-02 3.161267936229705811e-02 -1.498827040195465088e-01 2.883131429553031921e-02 3.459216356277465820e-01 9.899125248193740845e-02 -1.848102807998657227e-01 -5.197503045201301575e-02 -1.017915159463882446e-01 -6.529831141233444214e-02 1.336214132606983185e-03 3.128032386302947998e-02 1.778831891715526581e-02 -1.437536329030990601e-01 2.513554319739341736e-02 1.680914312601089478e-01 -4.405386745929718018e-02 -5.157892033457756042e-02 -8.218514919281005859e-02 -2.574655413627624512e-02 1.840706169605255127e-02 -2.631813585758209229e-01 3.863933309912681580e-02 2.806875482201576233e-02 2.344110794365406036e-02 -1.867478787899017334e-01 -2.718363702297210693e-02 2.288235127925872803e-01 -3.525110334157943726e-02 1.012220382690429688e-01 -3.161129355430603027e-02 3.227757290005683899e-02 -7.341330498456954956e-02 -2.817440405488014221e-02 4.852712526917457581e-02 2.882272601127624512e-01 -8.560134470462799072e-02 1.177164614200592041e-01 -1.270928233861923218e-01 7.813760079443454742e-03 -5.037682503461837769e-02 3.160417377948760986e-01 1.368137300014495850e-01 -7.281696423888206482e-03 -7.868283241987228394e-02 4.496530070900917053e-02 2.184203267097473145e-02 7.111045531928539276e-03 3.514662384986877441e-04 -2.761555276811122894e-02 -8.587975800037384033e-02 -9.705456346273422241e-02 1.301710903644561768e-01 3.889074176549911499e-02 1.231059357523918152e-01 -1.389121115207672119e-01 1.919257193803787231e-01 -2.694745920598506927e-02 -3.619007766246795654e-02 3.473795950412750244e-02 -4.994345456361770630e-02 -3.741998970508575439e-02 5.361082963645458221e-03 -4.120887219905853271e-01 3.577262759208679199e-01 1.565242186188697815e-03 -9.359421581029891968e-02 1.415120214223861694e-01 -2.324871346354484558e-02 -6.295536458492279053e-02 -4.579085484147071838e-02 2.983938157558441162e-01 -1.309777498245239258e-01 4.965595901012420654e-02 -1.368185412138700485e-02 -6.492812186479568481e-03 -5.636072903871536255e-02 3.122504949569702148e-01 -1.212969422340393066e-01 2.779204957187175751e-02 2.924728095531463623e-01 -2.597336843609809875e-02 -6.692583113908767700e-02 1.577095091342926025e-01 -9.764893352985382080e-02 9.725823067128658295e-03 -1.231075301766395569e-01 2.234516292810440063e-02 3.234994411468505859e-02 -1.156339570879936218e-01 -5.306706950068473816e-02 -3.374769538640975952e-02 -6.240210309624671936e-02 -1.347935409285128117e-03 3.046917021274566650e-01 -7.145179808139801025e-02 -4.246649891138076782e-02 1.440206468105316162e-01 3.449964150786399841e-02 -3.800492733716964722e-03 2.285118699073791504e-01 5.007773172110319138e-03 -9.627373516559600830e-02 -3.536662459373474121e-02 -2.199258282780647278e-02 -3.363778442144393921e-02 3.863813281059265137e-01 -7.409351319074630737e-02 -1.666326634585857391e-02 -5.069242045283317566e-02 -1.036720536649227142e-02 -1.828496903181076050e-02 2.524434961378574371e-02 -1.356737613677978516e-01 -2.921680212020874023e-01 -1.364990621805191040e-01 2.293618172407150269e-01 -1.616200245916843414e-02 4.105259105563163757e-02 2.532638013362884521e-01 3.016305714845657349e-02 1.714145019650459290e-02 4.314733296632766724e-02 -4.134178161621093750e-02 3.902653604745864868e-02 -3.322338312864303589e-02 3.644619137048721313e-02 1.320029795169830322e-01 -7.654789835214614868e-02 -3.547529876232147217e-02 5.951290577650070190e-02 2.305705286562442780e-02 1.328498590737581253e-03 1.813378930091857910e-02 -1.879008486866950989e-02 3.203070759773254395e-01 5.574627220630645752e-02 -3.046970069408416748e-02 -1.867625676095485687e-02 -8.132878690958023071e-02 1.546190027147531509e-02 -6.787154078483581543e-02 2.914098799228668213e-01 1.311784684658050537e-01 -1.439857184886932373e-01 -8.760976791381835938e-02 9.484898298978805542e-02 -4.679281264543533325e-02 -1.137391403317451477e-01 3.240627422928810120e-02 1.746038496494293213e-01 -2.901574037969112396e-02 -9.624930471181869507e-02 3.212450817227363586e-02 4.440344125032424927e-02 -5.455684289336204529e-02 -5.697628483176231384e-02 -6.114213261753320694e-03 -4.037140309810638428e-02 5.456967651844024658e-02 2.484721317887306213e-02 3.100592195987701416e-01 2.625773847103118896e-02 -3.048360720276832581e-02 -7.436633110046386719e-02 3.619802296161651611e-01 1.848433017730712891e-01 -5.236223340034484863e-02 -5.602708831429481506e-02 -1.780751347541809082e-02 4.537359997630119324e-02 -3.445162670686841011e-03 8.133771270513534546e-02 2.490361928939819336e-01 -6.553500145673751831e-02 2.646435983479022980e-02 4.257902503013610840e-02 -8.497874252498149872e-03 -6.567370146512985229e-02 -3.451614826917648315e-02 1.464890986680984497e-01 -2.110247686505317688e-02 -1.234847381711006165e-01 -2.582026645541191101e-02 4.000473394989967346e-02 2.812406420707702637e-02 2.952409982681274414e-01 -1.105441944673657417e-03 1.172598078846931458e-01 -6.083870679140090942e-02 3.245566412806510925e-02 -1.477208640426397324e-02 -1.176951546221971512e-02 1.507248356938362122e-02 -2.852618992328643799e-01 -3.907481580972671509e-02 2.771792002022266388e-02 -4.242649301886558533e-02 -1.575139015913009644e-01 -4.222282022237777710e-02 -7.021450996398925781e-02 -1.128915399312973022e-01 -1.009913310408592224e-01 -4.038384258747100830e-01 -8.891552686691284180e-02 -1.200030595064163208e-01 -7.645098865032196045e-02 2.703446708619594574e-02 2.177755162119865417e-02 3.852804377675056458e-02 1.441581696271896362e-01 -5.658791959285736084e-02 -6.609444972127676010e-03 -1.458872854709625244e-01 -4.649083688855171204e-02 -3.910003975033760071e-02 1.648410223424434662e-02 -1.926471590995788574e-01 -1.878336304798722267e-03 -1.280373185873031616e-01 -4.430799558758735657e-02 -5.745173431932926178e-03 -4.324614256620407104e-02 -3.206621110439300537e-02 -1.795497983694076538e-01 -4.582273215055465698e-02 -1.443277578800916672e-02
