6.706462800502777100e-02
3.469039918854832649e-03
-1.057882327586412430e-02
-6.408070679754018784e-03
5.102973058819770813e-02
2.609683200716972351e-03
-1.270957477390766144e-02
4.804240912199020386e-02
1.082887500524520874e-02
3.630400821566581726e-02
7.606966048479080200e-02
-5.912826955318450928e-02
4.259983450174331665e-02
2.440159581601619720e-02
-8.383507840335369110e-03
3.916664794087409973e-02
1.446870993822813034e-02
1.489944476634263992e-02
-1.646220189286395907e-04
1.214628759771585464e-02
3.212286904454231262e-02
4.278725385665893555e-02
1.768168620765209198e-02
2.366679161787033081e-02
-6.479314714670181274e-02
-1.224588602781295776e-03
-3.030635416507720947e-03
-2.766318805515766144e-02
-1.519842911511659622e-02
6.291762460023164749e-03
4.824473056942224503e-03
-2.482576481997966766e-02
-1.202643662691116333e-02
-8.780204690992832184e-03
-3.249849379062652588e-02
-1.297620777040719986e-02
8.094558864831924438e-02
5.632303655147552490e-02
6.917228549718856812e-02
5.741491541266441345e-02
3.945886716246604919e-02
-3.872456401586532593e-02
3.142650797963142395e-02
-1.885674521327018738e-02
-2.738501317799091339e-02
2.059116587042808533e-02
-1.591891981661319733e-02
4.202220216393470764e-02
6.988159846514463425e-03
-2.225434035062789917e-02
1.874852739274501801e-02
6.627666950225830078e-02
-1.564124971628189087e-02
4.839684814214706421e-03
-7.330390065908432007e-02
-2.833502367138862610e-02
6.576246023178100586e-02
1.686379313468933105e-02
5.628879740834236145e-02
1.193274185061454773e-02
3.309060633182525635e-02
-2.458870410919189453e-03
5.158872902393341064e-02
1.981954276561737061e-02
4.157129675149917603e-02
-5.265286564826965332e-02
1.182368118315935135e-02
-4.925923794507980347e-02
-5.246077477931976318e-02
-1.889064349234104156e-02
7.316155731678009033e-02
2.504533343017101288e-02
-4.397497512400150299e-03
-5.101794376969337463e-02
-2.370314672589302063e-02
4.188844561576843262e-02
-2.619393914937973022e-02
-1.777215674519538879e-02
4.877427220344543457e-02
2.694407664239406586e-02
-7.445700000971555710e-03
2.026821486651897430e-02
3.985091671347618103e-02
2.685777097940444946e-02
7.632260024547576904e-02
-1.372039970010519028e-02
2.389118634164333344e-02
-2.764468267560005188e-02
3.517321869730949402e-02
3.890382125973701477e-02
-3.266574814915657043e-02
-1.783967454684898257e-04
3.872269392013549805e-02
-7.498861290514469147e-03
-1.549581903964281082e-02
-9.961146861314773560e-03
7.899832725524902344e-02
-7.150039542466402054e-03
-6.645238958299160004e-03
-4.588298965245485306e-03
-1.673804223537445068e-02
-5.624660104513168335e-02
1.855732873082160950e-02
4.183838516473770142e-02
3.410848602652549744e-02
-4.231005907058715820e-02
1.144643500447273254e-02
-2.551947953179478645e-03
9.431675821542739868e-02
8.586146682500839233e-02
5.956907570362091064e-02
-5.155374109745025635e-02
-1.642631739377975464e-02
1.364555489271879196e-02
2.027237229049205780e-02
4.501737281680107117e-02
1.857047551311552525e-03
-4.183955490589141846e-02
1.474762894213199615e-02
6.782072037458419800e-02
-3.870787844061851501e-02
3.639236092567443848e-02
1.355273276567459106e-02
3.398327529430389404e-02
-1.194350421428680420e-03
8.324652910232543945e-02
6.670608371496200562e-02
-3.532210132107138634e-03
6.992218643426895142e-02
1.379333698423579335e-04
-5.075708031654357910e-03
2.084411121904850006e-02
-6.962068378925323486e-03
-3.431738540530204773e-02
4.627431184053421021e-02
3.116442076861858368e-02
1.091741099953651428e-01
-1.420341618359088898e-02
3.711836040019989014e-02
-7.991156540811061859e-03
-3.404358029365539551e-02
-9.402962401509284973e-03
2.834736369550228119e-03
-3.327850485220551491e-03
-3.224736452102661133e-02
-1.800757646560668945e-02
5.221960321068763733e-02
2.802899852395057678e-02
5.421767011284828186e-02
4.849934577941894531e-02
-8.057247847318649292e-03
-4.670933261513710022e-02
-4.967054352164268494e-02
8.695432916283607483e-03
-4.224101454019546509e-02
-4.509228840470314026e-02
1.463212189264595509e-03
2.713155373930931091e-02
3.537870198488235474e-02
5.018381029367446899e-02
3.011191263794898987e-02
-1.028197444975376129e-02
3.533787652850151062e-02
-6.072295084595680237e-02
-5.050438921898603439e-03
4.588920623064041138e-02
9.459877386689186096e-03
6.681974511593580246e-03
1.678355038166046143e-03
1.569583080708980560e-02
-4.273760318756103516e-02
2.391889458522200584e-03
-1.625763252377510071e-02
3.094734996557235718e-02
-6.745669525116682053e-03
9.553291834890842438e-03
-4.084017127752304077e-02
6.761082261800765991e-02
4.422570765018463135e-02
-1.337791234254837036e-02
4.481297358870506287e-02
6.746284663677215576e-03
5.203554034233093262e-02
-2.689176425337791443e-02
4.128792509436607361e-02
4.862255882471799850e-03
4.940243810415267944e-02
-2.129783108830451965e-02
2.168734930455684662e-02
2.879626862704753876e-02
-2.046011202037334442e-02
5.278602987527847290e-02
6.034849584102630615e-02
-5.002483725547790527e-02
-2.685209177434444427e-02
1.853732392191886902e-02
-6.303966045379638672e-03
-1.963179791346192360e-03
-6.132105365395545959e-02
-4.319586977362632751e-02
-4.194468259811401367e-03
9.239292144775390625e-02
-1.329965471086325124e-06
-3.987249732017517090e-02
-2.021048963069915771e-02
8.670954965054988861e-03
4.047655314207077026e-02
2.566008456051349640e-02
5.848304927349090576e-02
5.801505409181118011e-03
-1.057360228151082993e-02
3.292946517467498779e-02
-2.214945154264569283e-03
-2.938329475000500679e-03
8.361143618822097778e-02
-4.085311666131019592e-02
-3.543630475178360939e-03
4.469129070639610291e-02
-4.002318531274795532e-02
8.116924017667770386e-02
4.471700172871351242e-03
-2.890875935554504395e-02
2.599385753273963928e-02
-9.263521060347557068e-03
3.903936967253684998e-02
-6.353618204593658447e-02
-1.676679588854312897e-02
-3.754157200455665588e-02
3.678196668624877930e-02
-4.015171900391578674e-03
-4.219871759414672852e-02
-1.202740054577589035e-02
-2.571332501247525215e-03
9.134111553430557251e-02
5.990457907319068909e-02
-3.031174652278423309e-02
5.928214266896247864e-02
2.741869352757930756e-02
1.234195940196514130e-02
-1.023171097040176392e-02
-3.219593688845634460e-02
9.440581500530242920e-02
3.655040264129638672e-02
9.911502711474895477e-03
4.666955396533012390e-02
3.329851105809211731e-02
-3.004897758364677429e-02
-4.297551140189170837e-02
1.592964306473731995e-02
4.722364991903305054e-02
1.829071901738643646e-02
4.872871935367584229e-02
5.246629193425178528e-02
-4.308070521801710129e-03
-4.687479883432388306e-02
-1.455987989902496338e-02
5.026733502745628357e-02
-1.764653017744421959e-03
7.676784694194793701e-02
3.269541310146450996e-03
-1.686715893447399139e-02
4.529174789786338806e-02
7.465058937668800354e-03
9.469251334667205811e-02
1.877422630786895752e-02
2.519054710865020752e-02
1.841983757913112640e-02
1.265113800764083862e-02
6.571083515882492065e-02
-6.909100338816642761e-03
6.125599890947341919e-02
3.530514612793922424e-02
-7.550299167633056641e-03
6.701383739709854126e-03
1.270614936947822571e-02
-1.516478788107633591e-02
-3.776340931653976440e-02
-7.554061710834503174e-03
-1.287828199565410614e-02
2.580643631517887115e-02
-4.453269764780998230e-02
4.368139896541833878e-03
7.607658207416534424e-02
1.565365865826606750e-02
3.227132931351661682e-02
6.320013850927352905e-02
1.343736704438924789e-02
-9.542648680508136749e-03
-6.304057314991950989e-03
-2.263593487441539764e-03
8.212003856897354126e-02
2.777567878365516663e-02
4.148049652576446533e-02
2.126751467585563660e-02
-7.568628061562776566e-03
-2.079657977446913719e-03
-4.273143783211708069e-02
1.535932766273617744e-03
7.784973829984664917e-02
3.206539899110794067e-02
5.175717547535896301e-02
-1.651118695735931396e-02
3.088824916630983353e-03
5.757526308298110962e-02
-4.710139334201812744e-02
-3.811984509229660034e-02
4.459554329514503479e-02
-2.944715134799480438e-02
4.484555125236511230e-02
4.118225350975990295e-02
1.836268045008182526e-02
4.214874282479286194e-02
-1.491507608443498611e-02
1.176646444946527481e-02
9.833800047636032104e-02
-2.311700955033302307e-02
1.482586469501256943e-02
2.656695432960987091e-02
3.309207782149314880e-02
3.904113173484802246e-02
2.945870719850063324e-02
-2.368740737438201904e-03
-4.082931578159332275e-02
-1.650271192193031311e-02
9.344878047704696655e-02
2.836435660719871521e-02
-4.722888395190238953e-02
-4.115051776170730591e-02
8.740443736314773560e-02
-3.562147030606865883e-03
-3.747856989502906799e-02
3.494823724031448364e-02
-2.053850702941417694e-02
-1.130727678537368774e-02
4.014601930975914001e-02
1.372203044593334198e-02
4.983782395720481873e-02
2.462596073746681213e-02
1.619105413556098938e-02
-1.766903512179851532e-02
9.358476847410202026e-02
7.192926853895187378e-02
4.035606607794761658e-02
3.175653889775276184e-02
-3.233965858817100525e-02
-1.313228625804185867e-02
-1.464613247662782669e-02
1.242138165980577469e-02
2.955518476665019989e-02
5.143074318766593933e-02
5.335942283272743225e-02
7.482146471738815308e-02
-4.156836867332458496e-02
-3.217726573348045349e-02
-4.173401370644569397e-02
-8.113346062600612640e-03
-1.621322892606258392e-02
2.354057691991329193e-02
2.339566126465797424e-02
-5.566494166851043701e-02
-3.652301803231239319e-02
2.003999240696430206e-02
5.393869429826736450e-02
-4.915422573685646057e-02
4.457403346896171570e-02
8.185819536447525024e-02
-3.485781699419021606e-02
1.046922989189624786e-02
6.091650575399398804e-02
1.622367091476917267e-02
7.549704611301422119e-02
-1.193471532315015793e-02
-4.070315510034561157e-02
5.884266644716262817e-02
2.984012663364410400e-02
-7.172890752553939819e-02
-2.672357670962810516e-02
2.137479744851589203e-02
-2.244530804455280304e-02
1.343522407114505768e-02
2.273076279379893094e-05
4.071330651640892029e-02
1.298725791275501251e-02
-7.505530118942260742e-02
1.186971738934516907e-02
7.709657400846481323e-02
-4.671841114759445190e-02
1.325474400073289871e-02
1.514081750065088272e-02
-2.027215436100959778e-02
2.254039049148559570e-02
-7.094724103808403015e-03
4.320676997303962708e-02
5.417228210717439651e-03
7.968592643737792969e-02
-4.300644621253013611e-02
1.238220371305942535e-02
-2.388281747698783875e-02
-8.823877433314919472e-04
2.814145572483539581e-02
